{"learner":{"attributes":{"scikit_learn":"{\"_estimator_type\": \"regressor\"}"},"feature_names":["temperature_2m_mean","precipitation_sum","wind_speed_10m_max","wind_direction_10m_dominant"],"feature_types":["float","float","float","float"],"gradient_booster":{"model":{"gbtree_model_param":{"num_parallel_tree":"1","num_trees":"100"},"iteration_indptr":[0,1,2,3,4,5,6,7,8,9,10,11,12,13,14,15,16,17,18,19,20,21,22,23,24,25,26,27,28,29,30,31,32,33,34,35,36,37,38,39,40,41,42,43,44,45,46,47,48,49,50,51,52,53,54,55,56,57,58,59,60,61,62,63,64,65,66,67,68,69,70,71,72,73,74,75,76,77,78,79,80,81,82,83,84,85,86,87,88,89,90,91,92,93,94,95,96,97,98,99,100],"tree_info":[0,0,0,0,0,0,0,0,0,0,0,0,0,0,0,0,0,0,0,0,0,0,0,0,0,0,0,0,0,0,0,0,0,0,0,0,0,0,0,0,0,0,0,0,0,0,0,0,0,0,0,0,0,0,0,0,0,0,0,0,0,0,0,0,0,0,0,0,0,0,0,0,0,0,0,0,0,0,0,0,0,0,0,0,0,0,0,0,0,0,0,0,0,0,0,0,0,0,0,0],"trees":[{"base_weights":[-3.9303924E-7,3.9412067E0,-3.6425009E0,-3.3003275E0,5.51986E0,4.963511E0,-5.035469E0,-1.4035804E0,-8.593675E0,6.425517E0,1.3571144E0,8.921137E0,1.0590343E0,-3.567695E0,-6.9557586E0,2.2516196E0,-3.4752667E0,-5.255411E0,-1.0388855E1,5.8719196E0,1.2204142E1,8.1209916E-1,3.4672527E1,1.4995912E1,6.257108E0,5.858904E0,-2.8889012E0,-2.2005653E0,-5.193511E0,-5.1805406E0,-9.431574E0,1.1365403E1,-3.0683783E-1,-4.34658E0,2.865403E0,-6.421576E0,4.2845054E0,-1.0826929E1,-6.088542E0,7.556193E0,3.2449207E0,9.748049E0,3.0966698E1,4.686503E0,-1.8554306E0,1.4634506E1,4.1126738E0,1.5992164E1,-5.8732647E-1,1.0154918E1,2.6349645E0,3.8467581E0,1.8384506E1,-4.5209255E0,1.2911458E1,1.8454256E0,-3.4354677E0,-2.9621058E0,-5.7270985E0,1.0492836E0,-5.8564754E0,-9.565831E0,4.2845054E0,4.8908424E0,2.463702E0,1.123273E0,-5.8139414E-1,1.6352082E0,-1.4128516E0,-4.7362694E-1,2.5853841E0,-8.9507383E-1,-2.5070457E0,-2.322257E0,-3.5912802E0,-2.309158E0,5.345052E-1,2.9827693E0,1.0325465E0,1.2034824E0,1.5396631E-1,2.2557518E0,4.044979E0,6.5721097E0,1.8234507E1,4.4431467E0,5.531478E-1,-4.627893E-2,-1.1997437E0,6.8835654E0,3.9558315E0,1.2084472E0,3.9879746E0,-1.2164353E0,1.2222852E0,3.018184E0,-6.9017716E-2,7.799262E-1,-1.797699E0,1.4126736E0,4.5752087E0,1.273878E0,-4.782607E-1,-1.0922573E0,2.9408422E0,-5.0631744E-1,-1.7755318E0,-1.8243308E0,-3.5375008E-1,7.275252E-1,-1.427116E0,-1.4967055E0,-2.5972874E0,-3.0037377E0,-1.4297979E0],"categories":[],"categories_nodes":[],"categories_segments":[],"categories_sizes":[],"default_left":[0,0,0,0,0,0,0,0,0,0,0,0,0,0,0,0,0,0,0,0,0,0,0,0,0,0,0,0,0,0,0,0,0,0,0,0,0,0,0,0,0,0,0,0,0,0,0,0,0,0,0,0,0,0,0,0,0,0,0,0,0,0,0,0,0,0,0,0,0,0,0,0,0,0,0,0,0,0,0,0,0,0,0,0,0,0,0,0,0,0,0,0,0,0,0,0,0,0,0,0,0,0,0,0,0,0,0,0,0,0,0,0,0,0,0],"id":0,"left_children":[1,3,5,7,9,11,13,15,17,19,21,23,25,27,29,31,33,35,37,39,41,43,45,47,49,51,53,55,57,59,61,63,65,67,69,71,-1,73,75,77,79,81,83,85,87,-1,-1,89,-1,91,93,95,-1,97,99,101,103,105,107,109,111,113,-1,-1,-1,-1,-1,-1,-1,-1,-1,-1,-1,-1,-1,-1,-1,-1,-1,-1,-1,-1,-1,-1,-1,-1,-1,-1,-1,-1,-1,-1,-1,-1,-1,-1,-1,-1,-1,-1,-1,-1,-1,-1,-1,-1,-1,-1,-1,-1,-1,-1,-1,-1,-1],"loss_changes":[5.066179E4,1.9395238E4,2.2010803E4,3.0401406E3,5.2391523E3,3.9463813E3,4.425676E3,1.7116211E3,4.248252E2,3.584832E3,4.5111943E3,1.961458E3,2.4803706E3,1.982335E3,2.953E3,1.9154996E3,8.080128E2,7.752151E2,3.015625E1,4.599172E3,4.2603096E3,2.561462E3,5.143721E2,6.731328E2,1.2439004E3,6.343869E3,1.9150049E3,2.4495813E3,4.7001172E2,1.6905264E3,1.0407871E3,1.4633911E2,4.3676913E2,4.7724097E2,4.737796E2,1.6801416E2,0E0,6.620654E1,1.023371E2,6.210293E3,8.566279E2,6.3957227E2,1.639706E3,2.8793933E3,5.3546545E2,0E0,0E0,3.9982617E2,0E0,7.7324756E2,4.7869724E2,1.4716138E3,0E0,7.070869E2,6.2499634E1,9.5643665E2,1.0553174E3,2.951784E2,5.225137E2,3.3107065E2,8.3399316E2,5.58959E2,0E0,0E0,0E0,0E0,0E0,0E0,0E0,0E0,0E0,0E0,0E0,0E0,0E0,0E0,0E0,0E0,0E0,0E0,0E0,0E0,0E0,0E0,0E0,0E0,0E0,0E0,0E0,0E0,0E0,0E0,0E0,0E0,0E0,0E0,0E0,0E0,0E0,0E0,0E0,0E0,0E0,0E0,0E0,0E0,0E0,0E0,0E0,0E0,0E0,0E0,0E0,0E0,0E0],"parents":[2147483647,0,0,1,1,2,2,3,3,4,4,5,5,6,6,7,7,8,8,9,9,10,10,11,11,12,12,13,13,14,14,15,15,16,16,17,17,18,18,19,19,20,20,21,21,22,22,23,23,24,24,25,25,26,26,27,27,28,28,29,29,30,30,31,31,32,32,33,33,34,34,35,35,37,37,38,38,39,39,40,40,41,41,42,42,43,43,44,44,47,47,49,49,50,50,51,51,53,53,54,54,55,55,56,56,57,57,58,58,59,59,60,60,61,61],"right_children":[2,4,6,8,10,12,14,16,18,20,22,24,26,28,30,32,34,36,38,40,42,44,46,48,50,52,54,56,58,60,62,64,66,68,70,72,-1,74,76,78,80,82,84,86,88,-1,-1,90,-1,92,94,96,-1,98,100,102,104,106,108,110,112,114,-1,-1,-1,-1,-1,-1,-1,-1,-1,-1,-1,-1,-1,-1,-1,-1,-1,-1,-1,-1,-1,-1,-1,-1,-1,-1,-1,-1,-1,-1,-1,-1,-1,-1,-1,-1,-1,-1,-1,-1,-1,-1,-1,-1,-1,-1,-1,-1,-1,-1,-1,-1,-1],"split_conditions":[2.1597514E2,5.098817E1,1.3089354E1,1.9483284E1,2.0072733E2,5.3248343E0,2.760494E2,1.8102499E0,3.7275013E-1,1.9291498E1,2.1389418E1,1.0636766E1,2.559535E2,8.954E0,5.7394166E0,1.1177405E1,1.7708166E1,1.7900002E-1,1.4922749E1,1.1310249E1,4.4999995E0,7.5748343E0,2.2722754E1,4.0331664E0,2.806491E2,2.5546873E2,1.9531084E1,1.6344357E1,2.277856E2,1.3905509E1,2.0681086E1,-2.4918334E0,-4.4876666E0,8.14587E0,4.1089245E1,2.1288757E1,4.2845054E0,2.167786E1,4.433002E1,1.7E0,1.8368056E2,2.1989418E1,1.9297676E2,1.4529915E1,1.803237E1,1.4634506E1,4.1126738E0,2.3662662E2,-5.8732647E-1,1.1592895E1,2.938274E2,1.0883676E1,1.8384506E1,9.585739E0,2E-1,1E-1,8.839417E0,2.7E0,1.8743586E1,3.4005957E2,8E-1,1.7201918E1,4.2845054E0,4.8908424E0,2.463702E0,1.123273E0,-5.8139414E-1,1.6352082E0,-1.4128516E0,-4.7362694E-1,2.5853841E0,-8.9507383E-1,-2.5070457E0,-2.322257E0,-3.5912802E0,-2.309158E0,5.345052E-1,2.9827693E0,1.0325465E0,1.2034824E0,1.5396631E-1,2.2557518E0,4.044979E0,6.5721097E0,1.8234507E1,4.4431467E0,5.531478E-1,-4.627893E-2,-1.1997437E0,6.8835654E0,3.9558315E0,1.2084472E0,3.9879746E0,-1.2164353E0,1.2222852E0,3.018184E0,-6.9017716E-2,7.799262E-1,-1.797699E0,1.4126736E0,4.5752087E0,1.273878E0,-4.782607E-1,-1.0922573E0,2.9408422E0,-5.0631744E-1,-1.7755318E0,-1.8243308E0,-3.5375008E-1,7.275252E-1,-1.427116E0,-1.4967055E0,-2.5972874E0,-3.0037377E0,-1.4297979E0],"split_indices":[3,3,2,2,3,0,3,0,0,0,0,2,3,0,0,2,0,0,0,0,1,0,0,0,3,3,0,2,3,2,0,0,0,2,3,2,0,2,3,1,3,0,3,2,2,0,0,3,0,2,3,2,0,2,1,1,0,1,0,3,1,0,0,0,0,0,0,0,0,0,0,0,0,0,0,0,0,0,0,0,0,0,0,0,0,0,0,0,0,0,0,0,0,0,0,0,0,0,0,0,0,0,0,0,0,0,0,0,0,0,0,0,0,0,0],"split_type":[0,0,0,0,0,0,0,0,0,0,0,0,0,0,0,0,0,0,0,0,0,0,0,0,0,0,0,0,0,0,0,0,0,0,0,0,0,0,0,0,0,0,0,0,0,0,0,0,0,0,0,0,0,0,0,0,0,0,0,0,0,0,0,0,0,0,0,0,0,0,0,0,0,0,0,0,0,0,0,0,0,0,0,0,0,0,0,0,0,0,0,0,0,0,0,0,0,0,0,0,0,0,0,0,0,0,0,0,0,0,0,0,0,0,0],"sum_hessian":[3.527E3,1.694E3,1.833E3,3.03E2,1.391E3,2.55E2,1.578E3,2.24E2,7.9E1,1.142E3,2.49E2,1.26E2,1.29E2,8.96E2,6.82E2,8.1E1,1.43E2,2.9E1,5E1,1.044E3,9.8E1,2.46E2,3E0,3.7E1,8.9E1,5.8E1,7.1E1,4.88E2,4.08E2,3.99E2,2.83E2,1.7E1,6.4E1,1.26E2,1.7E1,2.8E1,1E0,4.4E1,6E0,6.35E2,4.09E2,8.8E1,1E1,1E2,1.46E2,1E0,2E0,3.5E1,2E0,4.2E1,4.7E1,5.7E1,1E0,6.5E1,6E0,1.14E2,3.74E2,8E1,3.28E2,3.9E1,3.6E2,2.82E2,1E0,5E0,1.2E1,1.8E1,4.6E1,4E0,1.22E2,1E1,7E0,1.1E1,1.7E1,1.4E1,3E1,5E0,1E0,4.01E2,2.34E2,3.19E2,9E1,5.7E1,3.1E1,9E0,1E0,2.1E1,7.9E1,8.2E1,6.4E1,8E0,2.7E1,1.5E1,2.7E1,8E0,3.9E1,2.2E1,3.5E1,1.1E1,5.4E1,2E0,4E0,6.7E1,4.7E1,3.69E2,5E0,5.7E1,2.3E1,3.04E2,2.4E1,3.2E1,7E0,2.77E2,8.3E1,2.57E2,2.5E1],"tree_param":{"num_deleted":"0","num_feature":"4","num_nodes":"115","size_leaf_vector":"1"}},{"base_weights":[2.7607936E-2,2.3497434E0,-3.1501515E0,-1.9767002E0,3.2320335E0,4.268352E0,-4.0022826E0,-5.6872666E-1,-6.2267513E0,4.65474E0,3.8090006E-1,6.8406315E0,8.2612884E-1,-2.2043834E0,-4.823344E0,4.8823557E0,-1.4345242E0,-3.6493752E0,-7.4740243E0,4.2164483E0,9.078362E0,3.7310157E0,-1.4792765E0,4.7702894E0,1.28348255E1,4.643344E0,-6.2065206E0,3.7603545E-1,-3.423728E0,-3.7423158E0,-5.991884E0,1.0999072E1,1.7510377E0,5.942332E0,-2.024867E0,-4.612418E0,3.6418295E0,-7.5424867E0,-5.460171E-1,5.889106E0,2.4177675E0,7.0450535E0,2.3571653E1,7.6351748E0,-1.7144549E-1,2.336167E0,-2.1514382E0,7.242028E0,-2.3606668E0,4.1450567E0,2.2848042E1,8.776845E0,1.4441181E0,-7.801772E0,-1.2047068E-1,7.3291655E0,-8.8596255E-1,-4.24797E0,2.238008E0,-3.0770807E0,-5.7289333E0,-4.542003E0,-7.9034705E0,4.2003894E0,1.1987091E0,2.149418E-1,3.9870899E0,5.750361E-1,3.9009101E0,-9.189883E-1,3.8179392E-1,4.1994512E-1,-1.607993E0,-1.7639672E0,-2.4349327E0,5.2417505E-1,2.2702398E0,2.5576072E0,6.2307966E-1,1.5906936E0,2.9683707E0,4.7976403E0,1.2293851E1,4.4890094E0,1.792186E0,-3.029267E-1,6.1858773E0,3.6670175E-1,3.3686118E0,-7.074031E-1,1.5057765E0,5.062435E-1,3.691321E0,-1.0086261E0,1.1301388E0,3.322813E0,-4.713947E-1,1.38534155E1,1.8757808E0,3.8286765E0,1.4154482E0,-6.7282027E-1,2.0026588E0,-1.8248378E-1,-2.4502854E0,-5.22659E-1,1.198224E0,1.011764E0,4.9975863E0,6.328627E-1,-7.117069E-1,-1.3583379E0,8.76168E-1,2.336822E-1,3.4260757E0,-1.2296393E0,6.9935274E-1,-2.0081034E0,-6.062006E-1,-1.5528117E0,-2.839426E-1,-2.5410323E0,-1.8510455E0],"categories":[],"categories_nodes":[],"categories_segments":[],"categories_sizes":[],"default_left":[0,0,0,0,0,0,0,0,0,0,0,0,0,0,0,0,0,0,0,0,0,0,0,0,0,0,0,0,0,0,0,0,0,0,0,0,0,0,0,0,0,0,0,0,0,0,0,0,0,0,0,0,0,0,0,0,0,0,0,0,0,0,0,0,0,0,0,0,0,0,0,0,0,0,0,0,0,0,0,0,0,0,0,0,0,0,0,0,0,0,0,0,0,0,0,0,0,0,0,0,0,0,0,0,0,0,0,0,0,0,0,0,0,0,0,0,0,0,0,0,0,0,0],"id":1,"left_children":[1,3,5,7,9,11,13,15,17,19,21,23,25,27,29,31,33,35,37,39,41,43,45,47,49,51,53,55,57,59,61,63,65,67,69,71,-1,73,-1,75,77,79,81,83,85,87,89,91,93,95,97,99,101,103,105,107,109,111,113,115,117,119,121,-1,-1,-1,-1,-1,-1,-1,-1,-1,-1,-1,-1,-1,-1,-1,-1,-1,-1,-1,-1,-1,-1,-1,-1,-1,-1,-1,-1,-1,-1,-1,-1,-1,-1,-1,-1,-1,-1,-1,-1,-1,-1,-1,-1,-1,-1,-1,-1,-1,-1,-1,-1,-1,-1,-1,-1,-1,-1,-1,-1],"loss_changes":[2.6041174E4,7.789615E3,9.436175E3,2.066909E3,6.8696445E3,1.3579202E3,1.9630273E3,1.2388022E3,2.491875E2,2.1526094E3,3.52649E3,1.0308569E3,1.8274429E3,1.3259303E3,1.1359551E3,6.7026196E2,9.9623425E2,5.12151E2,8.336182E0,3.0845957E3,2.8103398E3,3.0789463E3,9.385387E2,1.1980286E3,1.8195696E3,5.691814E2,2.3207086E2,1.1998711E3,1.344166E3,6.1540234E2,1.1808223E3,1.9636377E2,2.889308E2,4.582697E2,7.229862E2,1.3784338E2,0E0,5.7148438E0,0E0,3.6919414E3,1.0189712E3,3.9447314E2,9.279673E2,1.1401582E3,1.7986132E3,5.310364E2,4.7102795E2,1.385197E3,1.23122375E2,5.324653E2,3.582984E3,2.471206E2,5.164448E2,4.503418E1,4.699451E1,7.189929E2,5.214945E2,5.147036E2,4.8681226E2,2.0043347E3,4.122002E2,5.695835E2,1.3238574E2,0E0,0E0,0E0,0E0,0E0,0E0,0E0,0E0,0E0,0E0,0E0,0E0,0E0,0E0,0E0,0E0,0E0,0E0,0E0,0E0,0E0,0E0,0E0,0E0,0E0,0E0,0E0,0E0,0E0,0E0,0E0,0E0,0E0,0E0,0E0,0E0,0E0,0E0,0E0,0E0,0E0,0E0,0E0,0E0,0E0,0E0,0E0,0E0,0E0,0E0,0E0,0E0,0E0,0E0,0E0,0E0,0E0,0E0,0E0,0E0],"parents":[2147483647,0,0,1,1,2,2,3,3,4,4,5,5,6,6,7,7,8,8,9,9,10,10,11,11,12,12,13,13,14,14,15,15,16,16,17,17,18,18,19,19,20,20,21,21,22,22,23,23,24,24,25,25,26,26,27,27,28,28,29,29,30,30,31,31,32,32,33,33,34,34,35,35,37,37,39,39,40,40,41,41,42,42,43,43,44,44,45,45,46,46,47,47,48,48,49,49,50,50,51,51,52,52,53,53,54,54,55,55,56,56,57,57,58,58,59,59,60,60,61,61,62,62],"right_children":[2,4,6,8,10,12,14,16,18,20,22,24,26,28,30,32,34,36,38,40,42,44,46,48,50,52,54,56,58,60,62,64,66,68,70,72,-1,74,-1,76,78,80,82,84,86,88,90,92,94,96,98,100,102,104,106,108,110,112,114,116,118,120,122,-1,-1,-1,-1,-1,-1,-1,-1,-1,-1,-1,-1,-1,-1,-1,-1,-1,-1,-1,-1,-1,-1,-1,-1,-1,-1,-1,-1,-1,-1,-1,-1,-1,-1,-1,-1,-1,-1,-1,-1,-1,-1,-1,-1,-1,-1,-1,-1,-1,-1,-1,-1,-1,-1,-1,-1,-1,-1,-1,-1],"split_conditions":[2.3734642E2,5.6864456E1,1.243434E1,1.9483284E1,2.0278473E2,2.9603937E2,1.6299694E1,-2.4918334E0,3.7275013E-1,1.9291498E1,1E-1,2E-1,8.733168E0,1.0290002E0,2.7959967E2,1.2682018E1,9E0,1.7900002E-1,5.4582912E1,8.839417E0,4.4999995E0,7.841501E0,1.4241629E1,1.00060835E1,1.3381082E1,1.0495713E1,1.6106081E1,2.589063E2,1.7960249E1,1.1E0,5.5248337E0,3.8179108E1,5.4582912E1,5E-1,1.4664414E1,-6.660582E0,3.6418295E0,2.1791153E1,-5.460171E-1,1.0640259E2,6.627162E1,2.1989418E1,1.9297676E2,1.1928989E1,2.1989418E1,1.3864674E1,2.3662662E2,1.9167463E-3,1.9056087E1,1.1090103E1,6E-1,-1.5397501E0,1.1753877E1,2.9770987E2,1.8743586E1,2.5315948E2,1.3779114E1,1.6199999E1,2.1389418E1,5E-1,5.6000004E0,4.1352496E0,3.3545114E2,4.2003894E0,1.1987091E0,2.149418E-1,3.9870899E0,5.750361E-1,3.9009101E0,-9.189883E-1,3.8179392E-1,4.1994512E-1,-1.607993E0,-1.7639672E0,-2.4349327E0,5.2417505E-1,2.2702398E0,2.5576072E0,6.2307966E-1,1.5906936E0,2.9683707E0,4.7976403E0,1.2293851E1,4.4890094E0,1.792186E0,-3.029267E-1,6.1858773E0,3.6670175E-1,3.3686118E0,-7.074031E-1,1.5057765E0,5.062435E-1,3.691321E0,-1.0086261E0,1.1301388E0,3.322813E0,-4.713947E-1,1.38534155E1,1.8757808E0,3.8286765E0,1.4154482E0,-6.7282027E-1,2.0026588E0,-1.8248378E-1,-2.4502854E0,-5.22659E-1,1.198224E0,1.011764E0,4.9975863E0,6.328627E-1,-7.117069E-1,-1.3583379E0,8.76168E-1,2.336822E-1,3.4260757E0,-1.2296393E0,6.9935274E-1,-2.0081034E0,-6.062006E-1,-1.5528117E0,-2.839426E-1,-2.5410323E0,-1.8510455E0],"split_indices":[3,3,2,2,3,3,2,0,0,0,1,1,0,0,3,2,2,0,3,0,1,0,2,0,0,2,0,3,0,1,0,3,3,1,0,0,0,2,0,3,3,0,3,2,0,2,3,0,0,2,1,0,2,3,0,3,2,2,0,1,1,0,3,0,0,0,0,0,0,0,0,0,0,0,0,0,0,0,0,0,0,0,0,0,0,0,0,0,0,0,0,0,0,0,0,0,0,0,0,0,0,0,0,0,0,0,0,0,0,0,0,0,0,0,0,0,0,0,0,0,0,0,0],"split_type":[0,0,0,0,0,0,0,0,0,0,0,0,0,0,0,0,0,0,0,0,0,0,0,0,0,0,0,0,0,0,0,0,0,0,0,0,0,0,0,0,0,0,0,0,0,0,0,0,0,0,0,0,0,0,0,0,0,0,0,0,0,0,0,0,0,0,0,0,0,0,0,0,0,0,0,0,0,0,0,0,0,0,0,0,0,0,0,0,0,0,0,0,0,0,0,0,0,0,0,0,0,0,0,0,0,0,0,0,0,0,0,0,0,0,0,0,0,0,0,0,0,0,0],"sum_hessian":[3.527E3,2.038E3,1.489E3,3.45E2,1.693E3,1.53E2,1.336E3,2.6E2,8.5E1,1.129E3,5.64E2,8.7E1,6.6E1,4.2E2,9.16E2,3.5E1,2.25E2,2.9E1,5.6E1,1.029E3,1E2,2.01E2,3.63E2,6.6E1,2.1E1,4.3E1,2.3E1,1.35E2,2.85E2,4.78E2,4.38E2,1.1E1,2.4E1,1.6E1,2.09E2,2.8E1,1E0,5.5E1,1E0,5.32E2,4.97E2,8.9E1,1.1E1,1E2,1.01E2,5.4E1,3.09E2,4.9E1,1.7E1,1.2E1,9E0,1.8E1,2.5E1,1.8E1,5E0,2E1,1.15E2,2.49E2,3.6E1,3.6E2,1.18E2,2.51E2,1.87E2,7E0,4E0,2.3E1,1E0,1.1E1,5E0,1.59E2,5E1,3E0,2.5E1,1.7E1,3.8E1,1.54E2,3.78E2,2.5E1,4.72E2,5.7E1,3.2E1,9E0,2E0,1.7E1,8.3E1,9.8E1,3E0,4.9E1,5E0,3.01E2,8E0,2.4E1,2.5E1,1.5E1,2E0,5E0,7E0,3E0,6E0,8E0,1E1,1.5E1,1E1,1E0,1.7E1,4E0,1E0,1.5E1,5E0,3.8E1,7.7E1,2.4E2,9E0,3.2E1,4E0,3.03E2,5.7E1,9.3E1,2.5E1,2.13E2,3.8E1,1.38E2,4.9E1],"tree_param":{"num_deleted":"0","num_feature":"4","num_nodes":"123","size_leaf_vector":"1"}},{"base_weights":[4.280177E-2,1.6720752E0,-2.1868167E0,-1.9943787E0,2.2137778E0,2.3753278E0,-2.912363E0,4.9255155E-2,-4.3208666E0,3.1297953E0,-3.08501E-2,4.785997E0,7.9421186E-1,-1.7292465E0,-3.3865623E0,6.4926167E0,-1.1324383E0,-6.2379236E0,-2.5707123E0,5.003911E0,1.6179994E0,-5.1994724E0,5.970755E-1,1.1616789E1,3.5466323E0,3.6962678E0,-1.393361E0,5.2277014E-2,-2.8263953E0,-2.6261861E0,-4.208507E0,7.63718E0,-3.3020115E0,-1.8179005E0,6.5894375E0,-3.624288E0,-2.2870157E0,-5.774464E0,-2.0466706E-1,9.008856E0,4.0768456E0,1.281083E0,1.1479363E1,-4.319675E0,-1.0740958E1,3.8662257E0,-1.0876906E0,5.830512E0,4.134334E0,1.8967135E0,7.8755345E0,2.2666483E0,2.724425E1,9.476473E-1,-3.7606926E0,1.052346E1,-4.0669656E-1,-2.9915018E0,7.2087183E0,-2.197178E0,-4.2100263E0,-3.0582929E0,-5.4946313E0,4.9967653E-1,2.4624474E0,-1.20186426E-1,-1.3657188E0,4.367905E-2,-1.1041832E0,-8.5152113E-1,2.7903597E0,-2.316041E0,-5.8965033E-1,-2.6215475E0,8.1837445E-1,2.2480357E0,-3.8956523E-1,2.3290699E0,6.0188274E0,1.5032611E0,-1.0313902E-1,1.5954368E-1,1.6668915E0,3.6651275E-1,6.76754E0,-2.5281994E0,-1.0009841E0,-9.6156293E-1,-3.4388146E0,1.4225634E0,-1.8594207E0,6.011616E-1,-6.0513264E-1,2.403845E0,-4.34806E-1,-1.2292292E0,8.302899E-1,3.6509202E0,-3.673445E-1,1.3501916E0,-9.1233593E-1,1.0273018E0,1.1232611E1,-1.3463873E0,7.0966613E-1,-1.2852602E0,2.1843128E0,5.3075886E-1,4.337488E0,-1.9499875E0,2.175504E-2,-9.7625375E-1,2.7613124E-1,7.9820865E-1,3.1279182E0,-8.6196095E-1,1.607497E-1,-1.5309093E0,-4.3133485E-1,-1.0636224E0,1.8746339E0,2.0432931E-1,-1.6954936E0],"categories":[],"categories_nodes":[],"categories_segments":[],"categories_sizes":[],"default_left":[0,0,0,0,0,0,0,0,0,0,0,0,0,0,0,0,0,0,0,0,0,0,0,0,0,0,0,0,0,0,0,0,0,0,0,0,0,0,0,0,0,0,0,0,0,0,0,0,0,0,0,0,0,0,0,0,0,0,0,0,0,0,0,0,0,0,0,0,0,0,0,0,0,0,0,0,0,0,0,0,0,0,0,0,0,0,0,0,0,0,0,0,0,0,0,0,0,0,0,0,0,0,0,0,0,0,0,0,0,0,0,0,0,0,0,0,0,0,0,0,0,0,0],"id":2,"left_children":[1,3,5,7,9,11,13,15,17,19,21,23,25,27,29,31,33,35,37,39,41,43,45,47,49,51,53,55,57,59,61,63,65,67,69,71,-1,73,75,77,79,81,83,85,87,89,91,93,-1,95,97,99,101,103,105,107,109,111,113,115,117,119,121,-1,-1,-1,-1,-1,-1,-1,-1,-1,-1,-1,-1,-1,-1,-1,-1,-1,-1,-1,-1,-1,-1,-1,-1,-1,-1,-1,-1,-1,-1,-1,-1,-1,-1,-1,-1,-1,-1,-1,-1,-1,-1,-1,-1,-1,-1,-1,-1,-1,-1,-1,-1,-1,-1,-1,-1,-1,-1,-1,-1],"loss_changes":[1.2819674E4,4.0541284E3,4.938889E3,1.2506433E3,3.6538193E3,7.7756604E2,7.156328E2,1.0809375E3,3.9664722E2,3.567504E3,1.6777877E3,6.445325E2,7.987076E2,7.233484E2,5.6206055E2,2.7185065E2,6.4714557E2,1.823938E2,4.9911282E2,2.0536055E3,2.3110132E3,2.2662415E2,2.5432795E3,6.992969E1,4.85026E2,1.7561381E3,4.0258368E2,6.867314E2,4.0098633E2,3.1622095E2,6.326162E2,5.4521362E1,9.0597725E0,4.0651016E2,2.8206107E2,1.3429715E2,0E0,7.294736E2,3.3814362E2,1.2895996E3,1.8969277E3,2.168881E3,2.5862888E3,1.737851E2,1.3324585E0,1.4130037E3,8.8041516E2,9.104785E1,0E0,2.8280182E2,7.573699E2,6.302771E2,6.0051685E2,2.957821E2,2.3928918E2,1.8109985E2,4.0050757E2,2.3522766E2,3.0794785E1,7.017737E2,2.4270105E2,1.0830195E3,2.0360205E2,0E0,0E0,0E0,0E0,0E0,0E0,0E0,0E0,0E0,0E0,0E0,0E0,0E0,0E0,0E0,0E0,0E0,0E0,0E0,0E0,0E0,0E0,0E0,0E0,0E0,0E0,0E0,0E0,0E0,0E0,0E0,0E0,0E0,0E0,0E0,0E0,0E0,0E0,0E0,0E0,0E0,0E0,0E0,0E0,0E0,0E0,0E0,0E0,0E0,0E0,0E0,0E0,0E0,0E0,0E0,0E0,0E0,0E0,0E0,0E0],"parents":[2147483647,0,0,1,1,2,2,3,3,4,4,5,5,6,6,7,7,8,8,9,9,10,10,11,11,12,12,13,13,14,14,15,15,16,16,17,17,18,18,19,19,20,20,21,21,22,22,23,23,24,24,25,25,26,26,27,27,28,28,29,29,30,30,31,31,32,32,33,33,34,34,35,35,37,37,38,38,39,39,40,40,41,41,42,42,43,43,44,44,45,45,46,46,47,47,49,49,50,50,51,51,52,52,53,53,54,54,55,55,56,56,57,57,58,58,59,59,60,60,61,61,62,62],"right_children":[2,4,6,8,10,12,14,16,18,20,22,24,26,28,30,32,34,36,38,40,42,44,46,48,50,52,54,56,58,60,62,64,66,68,70,72,-1,74,76,78,80,82,84,86,88,90,92,94,-1,96,98,100,102,104,106,108,110,112,114,116,118,120,122,-1,-1,-1,-1,-1,-1,-1,-1,-1,-1,-1,-1,-1,-1,-1,-1,-1,-1,-1,-1,-1,-1,-1,-1,-1,-1,-1,-1,-1,-1,-1,-1,-1,-1,-1,-1,-1,-1,-1,-1,-1,-1,-1,-1,-1,-1,-1,-1,-1,-1,-1,-1,-1,-1,-1,-1,-1,-1,-1,-1],"split_conditions":[2.3734642E2,4.433002E1,1.3202726E1,5.09775E0,1.961587E1,1.1177405E1,1.6299694E1,1.1177405E1,1.1812333E1,8.839417E0,8.6161125E1,-5.671E0,2.806491E2,2.6935835E0,2.7959967E2,9.000001E-1,4.0331664E0,7.2852497E0,1E-1,1.1525623E1,1.07E1,1.22E1,1.8484518E2,2.8769757E2,2E-1,2.752384E2,2.8560832E0,2.4593152E2,2.1389418E1,1.4E0,4.943584E0,1.1725103E1,1.2081667E0,1.7163355E1,1.0012365E1,5.620667E0,-2.2870157E0,3.6029755E1,1.2822749E1,1.1177405E1,2.8E0,1.9531084E1,1.6406082E1,2.0674158E1,5.098817E1,1.22E1,2E-1,2.752384E2,4.134334E0,2.5156496E2,3.2761935E2,6E-1,-6.660582E0,2.9488446E2,1.8670666E1,1.3905509E1,2.5315948E2,1.6171976E1,1E-1,5E-1,5.6000004E0,4.5623336E0,1.656E1,4.9967653E-1,2.4624474E0,-1.20186426E-1,-1.3657188E0,4.367905E-2,-1.1041832E0,-8.5152113E-1,2.7903597E0,-2.316041E0,-5.8965033E-1,-2.6215475E0,8.1837445E-1,2.2480357E0,-3.8956523E-1,2.3290699E0,6.0188274E0,1.5032611E0,-1.0313902E-1,1.5954368E-1,1.6668915E0,3.6651275E-1,6.76754E0,-2.5281994E0,-1.0009841E0,-9.6156293E-1,-3.4388146E0,1.4225634E0,-1.8594207E0,6.011616E-1,-6.0513264E-1,2.403845E0,-4.34806E-1,-1.2292292E0,8.302899E-1,3.6509202E0,-3.673445E-1,1.3501916E0,-9.1233593E-1,1.0273018E0,1.1232611E1,-1.3463873E0,7.0966613E-1,-1.2852602E0,2.1843128E0,5.3075886E-1,4.337488E0,-1.9499875E0,2.175504E-2,-9.7625375E-1,2.7613124E-1,7.9820865E-1,3.1279182E0,-8.6196095E-1,1.607497E-1,-1.5309093E0,-4.3133485E-1,-1.0636224E0,1.8746339E0,2.0432931E-1,-1.6954936E0],"split_indices":[3,3,2,0,2,2,2,2,0,0,3,0,3,0,3,1,0,0,1,2,1,1,3,3,1,3,0,3,0,1,0,3,0,2,3,0,0,3,0,2,1,0,0,2,3,1,1,3,0,3,3,1,0,3,0,2,3,2,1,1,1,0,2,0,0,0,0,0,0,0,0,0,0,0,0,0,0,0,0,0,0,0,0,0,0,0,0,0,0,0,0,0,0,0,0,0,0,0,0,0,0,0,0,0,0,0,0,0,0,0,0,0,0,0,0,0,0,0,0,0,0,0,0],"split_type":[0,0,0,0,0,0,0,0,0,0,0,0,0,0,0,0,0,0,0,0,0,0,0,0,0,0,0,0,0,0,0,0,0,0,0,0,0,0,0,0,0,0,0,0,0,0,0,0,0,0,0,0,0,0,0,0,0,0,0,0,0,0,0,0,0,0,0,0,0,0,0,0,0,0,0,0,0,0,0,0,0,0,0,0,0,0,0,0,0,0,0,0,0,0,0,0,0,0,0,0,0,0,0,0,0,0,0,0,0,0,0,0,0,0,0,0,0,0,0,0,0,0,0],"sum_hessian":[3.527E3,2.038E3,1.489E3,2.62E2,1.776E3,2.04E2,1.285E3,1.4E2,1.22E2,1.261E3,5.15E2,8E1,1.24E2,3.69E2,9.16E2,2.1E1,1.19E2,5.7E1,6.5E1,5.62E2,6.99E2,5.5E1,4.6E2,1.1E1,6.9E1,5.3E1,7.1E1,1.41E2,2.28E2,4.78E2,4.38E2,1.9E1,2E0,1.1E2,9E0,2.1E1,3.6E1,2.7E1,3.8E1,1.04E2,4.58E2,6.77E2,2.2E1,4.9E1,6E0,1.56E2,3.04E2,4E0,7E0,5.1E1,1.8E1,5.1E1,2E0,3.6E1,3.5E1,5E0,1.36E2,2.25E2,3E0,3.78E2,1E2,2.33E2,2.05E2,2E0,1.7E1,1E0,1E0,5.4E1,5.6E1,2E0,7E0,5E0,1.6E1,2E1,7E0,4E0,3.4E1,9.5E1,9E0,3.78E2,8E1,5.77E2,1E2,1.2E1,1E1,8E0,4.1E1,1E0,5E0,1.44E2,1.2E1,7E1,2.34E2,3E0,1E0,6E0,4.5E1,1.2E1,6E0,3.6E1,1.5E1,1E0,1E0,7E0,2.9E1,3.4E1,1E0,2E0,3E0,9E0,1.27E2,2.11E2,1.4E1,2E0,1E0,3.03E2,7.5E1,7.5E1,2.5E1,2.22E2,1.1E1,5E0,2E2],"tree_param":{"num_deleted":"0","num_feature":"4","num_nodes":"123","size_leaf_vector":"1"}},{"base_weights":[3.912383E-2,1.5150626E0,-1.324974E0,-3.5693717E-1,2.486608E0,1.9187917E0,-1.8500398E0,8.516819E-1,-3.4541507E0,3.5426526E0,1.1689812E0,3.7998397E0,9.4892144E-2,-1.3690159E0,-2.9651585E0,2.234175E-1,6.325536E0,-1.8243586E0,-4.7887607E0,3.762498E0,-5.560617E0,2.2193618E0,-6.669509E-1,3.375738E0,2.0062769E1,-2.352594E0,3.2159107E0,-8.0377793E-1,-2.9040613E0,-4.342925E0,-1.7594659E0,3.5940766E-2,1.4127004E1,4.453066E0,1.2745391E1,-4.3368E0,1.1709119E0,-4.191661E0,-2.889172E0,4.9213905E0,2.1084366E0,-2.7114415E0,-3.9380584E0,5.023852E0,5.5361587E-1,-2.216577E0,4.889637E0,9.14067E0,2.179206E0,-5.194737E-1,9.54772E0,5.274796E0,-3.4898446E0,1.3346288E1,1.7113608E0,7.089493E-1,-1.5133834E0,-2.0490649E0,-4.9779587E0,-4.6337075E0,-2.257962E0,-2.2625775E0,1.4056929E1,5.3003937E-1,-4.5317736E-1,7.439121E-1,6.3195896E0,-1.3454509E0,1.7346307E0,-2.7423736E-1,-2.5978303E0,-1.7854281E-1,1.9016924E0,-1.3830917E0,9.2814004E-1,1.2810347E0,3.7124543E0,4.2400315E-1,3.3082528E0,1.6800041E-1,-1.3193647E0,1.0861604E0,5.1354322E0,3.388078E0,-3.4755168E-3,-7.5532603E-1,1.9798311E0,8.170566E-1,1.3405218E1,3.3824084E0,-2.2265131E0,4.3694064E-1,2.8938808E0,3.7105114E0,-1.2877359E0,-6.7625815E-1,-1.7407552E0,-6.967854E-2,1.7806339E0,1.12281814E-1,2.1039813E0,-4.8096022E-1,4.6282935E0,4.2475592E-2,-9.601707E-1,-1.6600841E0,-6.0485344E-2,-1.1417348E0,-1.6144128E0,1.3067929E0,-1.0471294E0,-7.9765344E-1,1.2210083E0,1.852914E1,-4.7452146E-1],"categories":[],"categories_nodes":[],"categories_segments":[],"categories_sizes":[],"default_left":[0,0,0,0,0,0,0,0,0,0,0,0,0,0,0,0,0,0,0,0,0,0,0,0,0,0,0,0,0,0,0,0,0,0,0,0,0,0,0,0,0,0,0,0,0,0,0,0,0,0,0,0,0,0,0,0,0,0,0,0,0,0,0,0,0,0,0,0,0,0,0,0,0,0,0,0,0,0,0,0,0,0,0,0,0,0,0,0,0,0,0,0,0,0,0,0,0,0,0,0,0,0,0,0,0,0,0,0,0,0,0,0,0,0,0],"id":3,"left_children":[1,3,5,7,9,11,13,15,17,19,21,23,25,27,29,31,33,35,37,39,41,43,45,47,49,51,53,55,57,59,61,63,65,67,-1,69,71,73,-1,75,77,-1,79,81,83,85,87,89,91,-1,-1,93,95,-1,97,99,101,103,105,107,109,111,113,-1,-1,-1,-1,-1,-1,-1,-1,-1,-1,-1,-1,-1,-1,-1,-1,-1,-1,-1,-1,-1,-1,-1,-1,-1,-1,-1,-1,-1,-1,-1,-1,-1,-1,-1,-1,-1,-1,-1,-1,-1,-1,-1,-1,-1,-1,-1,-1,-1,-1,-1,-1],"loss_changes":[7.1050166E3,3.08364E3,3.1272012E3,2.1740857E3,1.5487417E3,8.779351E2,8.4291455E2,1.4361001E3,3.4581104E2,1.2597329E3,9.6183704E2,8.013126E2,1.00822876E3,9.5643677E2,7.8141113E2,9.795735E2,2.7222065E3,5.694862E2,2.1693506E2,1.149335E3,4.9044525E1,1.4781057E3,1.5779738E3,8.3542334E2,8.2420703E2,6.603031E2,3.525396E3,8.694855E2,5.1643286E2,1.2352344E2,2.0609448E3,9.98448E2,3.518261E2,5.248412E2,0E0,5.9867816E2,3.2322043E2,2.6131494E2,0E0,1.670417E3,1.54051E3,0E0,2.7282578E1,1.9407283E3,1.2141798E3,3.963056E2,3.326274E3,8.259126E2,5.4720984E2,0E0,0E0,7.317506E2,1.726676E2,0E0,4.6935022E2,5.438416E2,8.631338E2,5.3523206E2,2.2712817E2,9.898877E1,2.51597E2,6.3315356E2,6.0662686E3,0E0,0E0,0E0,0E0,0E0,0E0,0E0,0E0,0E0,0E0,0E0,0E0,0E0,0E0,0E0,0E0,0E0,0E0,0E0,0E0,0E0,0E0,0E0,0E0,0E0,0E0,0E0,0E0,0E0,0E0,0E0,0E0,0E0,0E0,0E0,0E0,0E0,0E0,0E0,0E0,0E0,0E0,0E0,0E0,0E0,0E0,0E0,0E0,0E0,0E0,0E0,0E0],"parents":[2147483647,0,0,1,1,2,2,3,3,4,4,5,5,6,6,7,7,8,8,9,9,10,10,11,11,12,12,13,13,14,14,15,15,16,16,17,17,18,18,19,19,20,20,21,21,22,22,23,23,24,24,25,25,26,26,27,27,28,28,29,29,30,30,31,31,32,32,33,33,35,35,36,36,37,37,39,39,40,40,42,42,43,43,44,44,45,45,46,46,47,47,48,48,51,51,52,52,54,54,55,55,56,56,57,57,58,58,59,59,60,60,61,61,62,62],"right_children":[2,4,6,8,10,12,14,16,18,20,22,24,26,28,30,32,34,36,38,40,42,44,46,48,50,52,54,56,58,60,62,64,66,68,-1,70,72,74,-1,76,78,-1,80,82,84,86,88,90,92,-1,-1,94,96,-1,98,100,102,104,106,108,110,112,114,-1,-1,-1,-1,-1,-1,-1,-1,-1,-1,-1,-1,-1,-1,-1,-1,-1,-1,-1,-1,-1,-1,-1,-1,-1,-1,-1,-1,-1,-1,-1,-1,-1,-1,-1,-1,-1,-1,-1,-1,-1,-1,-1,-1,-1,-1,-1,-1,-1,-1,-1,-1],"split_conditions":[2.1597514E2,9.472895E1,1.3089354E1,1.8782204E1,1.8236713E2,5.09775E0,1.1812333E1,1.7526915E1,2.1629978E1,1.4600002E1,1.4014416E1,4.943584E0,1.5456084E1,1E0,1.5514415E1,1.8581022E1,1.4000001E0,2.0008356E1,8.094425E1,1.2410249E1,3.487333E0,3E-1,1.9531084E1,2.3662662E2,1.1090103E1,9.178235E0,1.5912335E1,2.6010718E2,3.0652124E2,5.6000004E0,2.8019936E1,4.8331676E0,5.7066673E-1,3.2178623E1,1.2745391E1,4.2855545E1,8.37753E1,7.959716E1,-2.889172E0,1.0964416E1,7.5999994E0,-2.7114415E0,3.8665E0,1.3043583E1,1.1298495E1,1.3399999E1,5.2999997E0,4.408167E0,1.1E0,-5.194737E-1,9.54772E0,8.733168E0,3E-1,1.3346288E1,1.243434E1,9.0000004E-1,1.1660249E1,1.8782204E1,1.0400001E1,2.617272E2,6.6E0,3.4005957E2,1.5662332E1,5.3003937E-1,-4.5317736E-1,7.439121E-1,6.3195896E0,-1.3454509E0,1.7346307E0,-2.7423736E-1,-2.5978303E0,-1.7854281E-1,1.9016924E0,-1.3830917E0,9.2814004E-1,1.2810347E0,3.7124543E0,4.2400315E-1,3.3082528E0,1.6800041E-1,-1.3193647E0,1.0861604E0,5.1354322E0,3.388078E0,-3.4755168E-3,-7.5532603E-1,1.9798311E0,8.170566E-1,1.3405218E1,3.3824084E0,-2.2265131E0,4.3694064E-1,2.8938808E0,3.7105114E0,-1.2877359E0,-6.7625815E-1,-1.7407552E0,-6.967854E-2,1.7806339E0,1.12281814E-1,2.1039813E0,-4.8096022E-1,4.6282935E0,4.2475592E-2,-9.601707E-1,-1.6600841E0,-6.0485344E-2,-1.1417348E0,-1.6144128E0,1.3067929E0,-1.0471294E0,-7.9765344E-1,1.2210083E0,1.852914E1,-4.7452146E-1],"split_indices":[3,3,2,2,3,0,0,0,2,1,0,0,0,1,0,2,1,2,3,0,0,1,0,3,2,2,0,3,3,1,2,0,0,3,0,3,3,3,0,0,1,0,0,0,2,1,1,0,1,0,0,0,1,0,2,1,0,2,1,3,1,3,0,0,0,0,0,0,0,0,0,0,0,0,0,0,0,0,0,0,0,0,0,0,0,0,0,0,0,0,0,0,0,0,0,0,0,0,0,0,0,0,0,0,0,0,0,0,0,0,0,0,0,0,0],"split_type":[0,0,0,0,0,0,0,0,0,0,0,0,0,0,0,0,0,0,0,0,0,0,0,0,0,0,0,0,0,0,0,0,0,0,0,0,0,0,0,0,0,0,0,0,0,0,0,0,0,0,0,0,0,0,0,0,0,0,0,0,0,0,0,0,0,0,0,0,0,0,0,0,0,0,0,0,0,0,0,0,0,0,0,0,0,0,0,0,0,0,0,0,0,0,0,0,0,0,0,0,0,0,0,0,0,0,0,0,0,0,0,0,0,0,0],"sum_hessian":[3.527E3,1.694E3,1.833E3,5.79E2,1.115E3,2.55E2,1.578E3,4.17E2,1.62E2,6.18E2,4.97E2,1.25E2,1.3E2,1.104E3,4.74E2,3.75E2,4.2E1,7.4E1,8.8E1,6.04E2,1.4E1,3.16E2,1.81E2,1.23E2,2E0,7.3E1,5.7E1,8.08E2,2.96E2,2.2E2,2.54E2,3.71E2,4E0,4.1E1,1E0,4E1,3.4E1,8E1,8E0,3.54E2,2.5E2,3E0,1.1E1,1.17E2,1.99E2,1.42E2,3.9E1,2E1,1.03E2,1E0,1E0,9E0,6.4E1,1E0,5.6E1,2.58E2,5.5E2,2.11E2,8.5E1,1.92E2,2.8E1,2.47E2,7E0,1.75E2,1.96E2,2E0,2E0,5E0,3.6E1,2.3E1,1.7E1,2.6E1,8E0,7.6E1,4E0,3.27E2,2.7E1,2.33E2,1.7E1,1E0,1E1,1.06E2,1.1E1,9E0,1.9E2,1.38E2,4E0,3.8E1,1E0,1.8E1,2E0,9.5E1,8E0,5E0,4E0,4.3E1,2.1E1,3.9E1,1.7E1,2.46E2,1.2E1,5.48E2,2E0,7.3E1,1.38E2,7.6E1,9E0,9.4E1,9.8E1,4E0,2.4E1,2.33E2,1.4E1,1E0,6E0],"tree_param":{"num_deleted":"0","num_feature":"4","num_nodes":"115","size_leaf_vector":"1"}},{"base_weights":[5.40257E-2,1.0875039E0,-9.0115404E-1,-8.173179E-1,1.5999653E0,3.3699799E0,-1.1312433E0,2.383021E0,-1.2820743E0,1.1438302E1,1.5171435E0,5.5444274E0,1.3455772E0,-2.3731121E-1,-1.6143895E0,1.6752312E0,3.5908802E0,-2.0245185E0,1.3454018E0,1.4530326E1,-1.6505369E0,1.3683552E0,6.966214E0,8.223028E0,3.9310262E0,4.2933923E-1,3.5324943E0,5.9108394E-1,-1.1531392E0,-1.4970647E0,-4.4099536E0,5.5756006E0,2.061504E-1,-8.367926E-1,-4.0383725E0,-1.6113536E0,4.9069037E0,1.681299E1,-5.5964845E-1,2.8426954E-1,-1.0270112E0,1.5106953E0,-3.5005016E0,4.987014E0,1.1138855E1,4.5863323E0,4.5919485E0,-1.8683522E0,5.777287E0,2.1577048E0,-3.0542254E0,1.444219E0,-1.0893011E0,-1.4089276E0,6.1754084E0,-5.174196E0,-1.4090935E0,-4.8713008E-1,-5.3771276E0,2.5176923E0,-6.467666E-1,-7.715838E-1,6.4215314E-1,-2.9741412E-1,3.468646E0,1.0294925E0,-1.3263798E0,-1.168583E0,2.2594121E-1,2.331786E0,-3.8118327E-1,8.16948E-1,5.53104E0,4.0049073E-1,1.5970939E0,-1.6752709E0,3.9178953E-1,2.3101335E0,6.4418185E-1,1.6964161E0,-1.0748906E0,1.9468096E0,-1.7207457E0,2.605573E-1,2.5012176E0,1.1949486E-1,4.312154E0,-4.874288E-1,-1.5497612E0,-2.5312898E-1,6.6650593E-1,5.2801126E-1,-6.28796E-1,-2.96977E-1,-1.0958586E0,4.9542087E-1,3.1107404E0,-1.9940282E0,-5.4533213E-1,4.021664E-1,-4.520637E-1,-1.2526729E0,8.00329E-1,-2.3993864E0,-1.1712139E0],"categories":[],"categories_nodes":[],"categories_segments":[],"categories_sizes":[],"default_left":[0,0,0,0,0,0,0,0,0,0,0,0,0,0,0,0,0,0,0,0,0,0,0,0,0,0,0,0,0,0,0,0,0,0,0,0,0,0,0,0,0,0,0,0,0,0,0,0,0,0,0,0,0,0,0,0,0,0,0,0,0,0,0,0,0,0,0,0,0,0,0,0,0,0,0,0,0,0,0,0,0,0,0,0,0,0,0,0,0,0,0,0,0,0,0,0,0,0,0,0,0,0,0,0,0],"id":4,"left_children":[1,3,5,7,9,11,13,15,17,19,21,23,25,27,29,31,-1,33,35,37,39,41,43,45,47,49,-1,51,53,55,57,59,61,63,65,67,69,71,-1,-1,-1,73,75,77,-1,79,-1,81,83,85,87,89,91,93,95,97,99,101,103,-1,-1,-1,-1,-1,-1,-1,-1,-1,-1,-1,-1,-1,-1,-1,-1,-1,-1,-1,-1,-1,-1,-1,-1,-1,-1,-1,-1,-1,-1,-1,-1,-1,-1,-1,-1,-1,-1,-1,-1,-1,-1,-1,-1,-1,-1],"loss_changes":[3.4836714E3,1.655878E3,1.8061611E3,5.385113E2,1.0712568E3,4.063236E2,7.515547E2,2.9207123E2,6.1721136E2,4.6916382E2,1.0655337E3,1.6214966E2,4.7273538E2,4.649861E2,3.6402563E2,2.5096875E2,0E0,5.850298E2,7.450411E2,3.682002E2,1.706187E1,9.0068823E2,1.9043073E3,3.4196594E2,3.3200897E2,2.8957117E2,0E0,4.631909E2,5.54197E2,3.4400952E2,1.6811316E2,2.7942093E2,1.8284195E2,3.1047156E2,2.754519E2,2.1354602E2,5.76372E2,1.328274E2,0E0,0E0,0E0,8.3445825E2,3.778627E2,2.4545007E2,0E0,1.24996506E2,0E0,2.9580737E2,2.8179865E2,6.820487E2,3.990297E1,3.825446E2,3.1634326E2,2.615254E2,1.7260074E2,1.11481445E2,2.8756616E2,1.2750598E2,1.077605E2,0E0,0E0,0E0,0E0,0E0,0E0,0E0,0E0,0E0,0E0,0E0,0E0,0E0,0E0,0E0,0E0,0E0,0E0,0E0,0E0,0E0,0E0,0E0,0E0,0E0,0E0,0E0,0E0,0E0,0E0,0E0,0E0,0E0,0E0,0E0,0E0,0E0,0E0,0E0,0E0,0E0,0E0,0E0,0E0,0E0,0E0],"parents":[2147483647,0,0,1,1,2,2,3,3,4,4,5,5,6,6,7,7,8,8,9,9,10,10,11,11,12,12,13,13,14,14,15,15,17,17,18,18,19,19,20,20,21,21,22,22,23,23,24,24,25,25,27,27,28,28,29,29,30,30,31,31,32,32,33,33,34,34,35,35,36,36,37,37,41,41,42,42,43,43,45,45,47,47,48,48,49,49,50,50,51,51,52,52,53,53,54,54,55,55,56,56,57,57,58,58],"right_children":[2,4,6,8,10,12,14,16,18,20,22,24,26,28,30,32,-1,34,36,38,40,42,44,46,48,50,-1,52,54,56,58,60,62,64,66,68,70,72,-1,-1,-1,74,76,78,-1,80,-1,82,84,86,88,90,92,94,96,98,100,102,104,-1,-1,-1,-1,-1,-1,-1,-1,-1,-1,-1,-1,-1,-1,-1,-1,-1,-1,-1,-1,-1,-1,-1,-1,-1,-1,-1,-1,-1,-1,-1,-1,-1,-1,-1,-1,-1,-1,-1,-1,-1,-1,-1,-1,-1,-1],"split_conditions":[2.1597514E2,6.049757E1,1.097262E1,-2.4918334E0,7.6367526E0,4.0331664E0,1.6299694E1,5.4582912E1,1.4841498E1,1.6104431E2,2.1989418E1,8.669949E0,1.0900001E1,6.8977504E0,3.1434101E1,1.3009903E1,3.5908802E0,7.2852497E0,4.1089245E1,2.8000002E0,1.3748335E0,1.3E1,2.0873624E2,-1.8105832E0,9.585739E0,3E-1,3.5324943E0,3.0891876E2,2.1389418E1,-5.671E0,1E-1,3.8179108E1,3E-1,1.86E1,7.6367526E0,1E-1,1.749615E1,-1.8105832E0,-5.5964845E-1,2.8426954E-1,-1.0270112E0,8.8E0,1.4841498E1,1.5682614E2,1.1138855E1,-1.9314164E0,4.5919485E0,-5.671E0,2.5462364E2,2E-1,9.9571085E0,-1.8105832E0,-4.8751664E0,3.2302173E2,1E-1,3.05177E2,-3.1689165E0,2.52216E2,3.2977502E0,2.5176923E0,-6.467666E-1,-7.715838E-1,6.4215314E-1,-2.9741412E-1,3.468646E0,1.0294925E0,-1.3263798E0,-1.168583E0,2.2594121E-1,2.331786E0,-3.8118327E-1,8.16948E-1,5.53104E0,4.0049073E-1,1.5970939E0,-1.6752709E0,3.9178953E-1,2.3101335E0,6.4418185E-1,1.6964161E0,-1.0748906E0,1.9468096E0,-1.7207457E0,2.605573E-1,2.5012176E0,1.1949486E-1,4.312154E0,-4.874288E-1,-1.5497612E0,-2.5312898E-1,6.6650593E-1,5.2801126E-1,-6.28796E-1,-2.96977E-1,-1.0958586E0,4.9542087E-1,3.1107404E0,-1.9940282E0,-5.4533213E-1,4.021664E-1,-4.520637E-1,-1.2526729E0,8.00329E-1,-2.3993864E0,-1.1712139E0],"split_indices":[3,3,2,0,2,0,2,3,0,3,0,2,1,0,2,2,0,0,3,1,0,1,3,0,2,1,0,3,0,0,1,3,1,1,2,1,2,0,0,0,0,1,0,3,0,0,0,0,3,1,2,0,0,3,1,3,0,3,0,0,0,0,0,0,0,0,0,0,0,0,0,0,0,0,0,0,0,0,0,0,0,0,0,0,0,0,0,0,0,0,0,0,0,0,0,0,0,0,0,0,0,0,0,0,0],"split_type":[0,0,0,0,0,0,0,0,0,0,0,0,0,0,0,0,0,0,0,0,0,0,0,0,0,0,0,0,0,0,0,0,0,0,0,0,0,0,0,0,0,0,0,0,0,0,0,0,0,0,0,0,0,0,0,0,0,0,0,0,0,0,0,0,0,0,0,0,0,0,0,0,0,0,0,0,0,0,0,0,0,0,0,0,0,0,0,0,0,0,0,0,0,0,0,0,0,0,0,0,0,0,0,0,0],"sum_hessian":[3.527E3,1.694E3,1.833E3,3.59E2,1.335E3,9.3E1,1.74E3,4.5E1,3.14E2,1E1,1.325E3,4.4E1,4.9E1,6.11E2,1.129E3,4.3E1,2E0,2.45E2,6.9E1,8E0,2E0,1.291E3,3.4E1,1.5E1,2.9E1,4.6E1,3E0,3.21E2,2.9E2,1.085E3,4.4E1,1.1E1,3.2E1,1.55E2,9E1,3.8E1,3.1E1,7E0,1E0,1E0,1E0,1.255E3,3.6E1,3.3E1,1E0,1.1E1,4E0,7E0,2.2E1,3.1E1,1.5E1,2.13E2,1.08E2,2.81E2,9E0,2.4E1,1.061E3,9E0,3.5E1,8E0,3E0,1.3E1,1.9E1,1.54E2,1E0,4E0,8.6E1,1.9E1,1.9E1,2.1E1,1E1,1E0,6E0,1.201E3,5.4E1,2.5E1,1.1E1,1.6E1,1.7E1,1E1,1E0,2E0,5E0,8E0,1.4E1,2.8E1,3E0,1E1,5E0,5.4E1,1.59E2,2.8E1,8E1,2.38E2,4.3E1,5E0,4E0,1.6E1,8E0,3.6E1,1.025E3,4E0,5E0,1.1E1,2.4E1],"tree_param":{"num_deleted":"0","num_feature":"4","num_nodes":"105","size_leaf_vector":"1"}},{"base_weights":[4.890387E-2,9.3277997E-1,-5.8584106E-1,1.1569714E-2,2.0215898E0,1.6088121E0,-7.936527E-1,9.231573E-1,-1.8638397E0,3.5926073E0,6.890638E-1,9.3162835E-1,6.627203E0,-8.4215677E-1,1.0643377E1,6.588305E-1,1.0788351E1,-3.676107E0,-1.0614069E0,5.8095007E0,-1.6503777E-1,-4.6165835E-2,3.6007996E0,6.3331823E0,4.0367398E-1,1.6251358E1,-5.454581E-1,-4.5730293E-1,-1.6888429E0,8.282761E0,3.8656935E-1,4.6669844E-1,8.849598E0,1.8326664E0,2.654205E1,-1.5892589E0,-8.203602E0,6.340338E0,-1.9575868E0,7.6609864E0,3.1646364E0,-3.9406161E0,5.3754896E-1,-1.0598093E0,1.8722594E0,3.6831143E-1,9.214083E0,3.7226233E0,1.0287663E1,3.8086455E0,-1.7159063E-1,8.792034E0,1.1388891E1,3.5495713E0,-2.5628967E0,-7.2775334E-2,-1.9686154E0,-2.269403E0,-3.1902304E-1,-1.5332056E0,4.412868E0,1.30476E0,-2.2284692E-2,-1.3081659E0,4.799923E0,6.0728397E0,-7.386311E-1,9.314215E0,1.2781094E0,-7.868065E-1,2.8428774E0,-5.0608456E-1,-2.9245255E0,-1.8717095E-1,5.8089175E0,-4.3476537E-1,-1.970827E0,7.933307E-1,2.9279895E0,-5.6248613E-2,1.9564024E0,3.7881694E0,-4.555315E-2,-9.5413357E-1,1.12581514E-1,1.5523683E0,-3.8353348E-1,4.6958423E0,-1.9095309E-1,6.2079988E0,1.2485038E0,2.0711596E0,1.3534546E-1,8.26676E-1,3.4445362E0,-1.9593302E0,1.3956563E0,1.6354126E-1,-5.6729245E-1,3.9542272E0,-8.748265E-1,-1.1675043E0,2.27211E-2,3.8537538E-1,-1.4582764E-1,-6.3566446E-1,3.4981704E0,-7.499957E-1,5.1572955E-1,-2.76565E-1,9.5138615E-1,1.9656405E0,-3.0073988E-1],"categories":[],"categories_nodes":[],"categories_segments":[],"categories_sizes":[],"default_left":[0,0,0,0,0,0,0,0,0,0,0,0,0,0,0,0,0,0,0,0,0,0,0,0,0,0,0,0,0,0,0,0,0,0,0,0,0,0,0,0,0,0,0,0,0,0,0,0,0,0,0,0,0,0,0,0,0,0,0,0,0,0,0,0,0,0,0,0,0,0,0,0,0,0,0,0,0,0,0,0,0,0,0,0,0,0,0,0,0,0,0,0,0,0,0,0,0,0,0,0,0,0,0,0,0,0,0,0,0,0,0,0,0],"id":5,"left_children":[1,3,5,7,9,11,13,15,17,19,21,23,25,27,29,31,33,35,37,39,41,43,45,47,49,51,53,55,57,-1,59,61,63,65,67,69,71,73,75,77,79,-1,81,83,85,87,89,91,93,95,97,99,-1,-1,101,103,105,107,109,-1,111,-1,-1,-1,-1,-1,-1,-1,-1,-1,-1,-1,-1,-1,-1,-1,-1,-1,-1,-1,-1,-1,-1,-1,-1,-1,-1,-1,-1,-1,-1,-1,-1,-1,-1,-1,-1,-1,-1,-1,-1,-1,-1,-1,-1,-1,-1,-1,-1,-1,-1,-1,-1],"loss_changes":[1.9798811E3,1.4794353E3,9.380538E2,1.3694006E3,1.4126772E3,5.987362E2,1.0502148E3,1.3984073E3,3.7710443E2,2.583351E3,7.858378E2,4.4802368E2,1.4585115E3,6.085679E2,1.3814489E3,8.236411E2,1.9265492E3,7.428179E2,1.2263047E3,9.306572E2,1.0641451E3,5.736965E2,1.3393269E3,1.0623059E2,2.8467368E2,1.1238135E3,3.5494135E2,7.4778564E2,4.6370947E2,0E0,1.5535431E2,1.0820078E3,1.2032214E3,8.4051263E2,3.6965894E2,6.652373E2,2.3523071E2,1.825948E3,3.7497986E2,1.1745684E3,9.238962E2,0E0,9.2705115E2,5.8854736E2,1.067882E3,7.471564E2,1.479821E3,1.00958725E2,1.3332092E1,2.1354614E2,1.550722E2,4.4950592E2,0E0,0E0,4.2368835E1,5.767915E2,5.5923663E2,3.8136646E2,3.7115314E2,0E0,5.290767E1,0E0,0E0,0E0,0E0,0E0,0E0,0E0,0E0,0E0,0E0,0E0,0E0,0E0,0E0,0E0,0E0,0E0,0E0,0E0,0E0,0E0,0E0,0E0,0E0,0E0,0E0,0E0,0E0,0E0,0E0,0E0,0E0,0E0,0E0,0E0,0E0,0E0,0E0,0E0,0E0,0E0,0E0,0E0,0E0,0E0,0E0,0E0,0E0,0E0,0E0,0E0,0E0],"parents":[2147483647,0,0,1,1,2,2,3,3,4,4,5,5,6,6,7,7,8,8,9,9,10,10,11,11,12,12,13,13,14,14,15,15,16,16,17,17,18,18,19,19,20,20,21,21,22,22,23,23,24,24,25,25,26,26,27,27,28,28,30,30,31,31,32,32,33,33,34,34,35,35,36,36,37,37,38,38,39,39,40,40,42,42,43,43,44,44,45,45,46,46,47,47,48,48,49,49,50,50,51,51,54,54,55,55,56,56,57,57,58,58,60,60],"right_children":[2,4,6,8,10,12,14,16,18,20,22,24,26,28,30,32,34,36,38,40,42,44,46,48,50,52,54,56,58,-1,60,62,64,66,68,70,72,74,76,78,80,-1,82,84,86,88,90,92,94,96,98,100,-1,-1,102,104,106,108,110,-1,112,-1,-1,-1,-1,-1,-1,-1,-1,-1,-1,-1,-1,-1,-1,-1,-1,-1,-1,-1,-1,-1,-1,-1,-1,-1,-1,-1,-1,-1,-1,-1,-1,-1,-1,-1,-1,-1,-1,-1,-1,-1,-1,-1,-1,-1,-1,-1,-1,-1,-1,-1,-1],"split_conditions":[2.0278473E2,1.3487674E2,1.2031756E1,1.7654688E1,9.676916E0,1.1753877E1,2.1989418E1,9.299999E0,2E-1,2.5E0,1.9291498E1,-5.671E0,2.559535E2,1.1812333E1,2.1998477E2,1.7447933E1,1.4537334E1,6.840926E1,5E-1,1.8010251E2,-5.855834E-1,1.7673029E1,2E-1,-8.495997E0,8.669949E0,2.4704979E2,-5.671E0,2.4315327E1,1.7362333E1,8.282761E0,2.3377034E2,-1.1980833E0,1.5352502E0,9.4E0,1.7708166E1,6.406369E1,1.7935081E1,1.0624833E1,2.8277763E1,1.5125282E2,1.9175606E2,-3.9406161E0,1.1298495E1,1.4449833E1,1.4014416E1,1.4217165E2,1.9654001E1,-9.981416E0,8.669949E0,2.0873624E2,1.1177405E1,9.8665E0,1.1388891E1,3.5495713E0,3.4194104E2,2.3734642E2,1.1660249E1,2.8019936E1,2.8E0,-1.5332056E0,1.4471821E1,1.30476E0,-2.2284692E-2,-1.3081659E0,4.799923E0,6.0728397E0,-7.386311E-1,9.314215E0,1.2781094E0,-7.868065E-1,2.8428774E0,-5.0608456E-1,-2.9245255E0,-1.8717095E-1,5.8089175E0,-4.3476537E-1,-1.970827E0,7.933307E-1,2.9279895E0,-5.6248613E-2,1.9564024E0,3.7881694E0,-4.555315E-2,-9.5413357E-1,1.12581514E-1,1.5523683E0,-3.8353348E-1,4.6958423E0,-1.9095309E-1,6.2079988E0,1.2485038E0,2.0711596E0,1.3534546E-1,8.26676E-1,3.4445362E0,-1.9593302E0,1.3956563E0,1.6354126E-1,-5.6729245E-1,3.9542272E0,-8.748265E-1,-1.1675043E0,2.27211E-2,3.8537538E-1,-1.4582764E-1,-6.3566446E-1,3.4981704E0,-7.499957E-1,5.1572955E-1,-2.76565E-1,9.5138615E-1,1.9656405E0,-3.0073988E-1],"split_indices":[3,3,2,2,0,2,0,1,1,1,0,0,3,0,3,2,0,3,1,3,0,2,1,0,2,3,0,2,0,0,3,0,0,1,0,3,2,0,2,3,3,0,2,0,0,3,0,0,2,3,2,0,0,0,3,3,0,2,1,0,2,0,0,0,0,0,0,0,0,0,0,0,0,0,0,0,0,0,0,0,0,0,0,0,0,0,0,0,0,0,0,0,0,0,0,0,0,0,0,0,0,0,0,0,0,0,0,0,0,0,0,0,0],"split_type":[0,0,0,0,0,0,0,0,0,0,0,0,0,0,0,0,0,0,0,0,0,0,0,0,0,0,0,0,0,0,0,0,0,0,0,0,0,0,0,0,0,0,0,0,0,0,0,0,0,0,0,0,0,0,0,0,0,0,0,0,0,0,0,0,0,0,0,0,0,0,0,0,0,0,0,0,0,0,0,0,0,0,0,0,0,0,0,0,0,0,0,0,0,0,0,0,0,0,0,0,0,0,0,0,0,0,0,0,0,0,0,0,0],"sum_hessian":[3.527E3,1.474E3,2.053E3,7.99E2,6.75E2,1.77E2,1.876E3,5.38E2,2.61E2,3.09E2,3.66E2,1.57E2,2E1,1.869E3,7E0,5.25E2,1.3E1,7.9E1,1.82E2,1.94E2,1.15E2,2.93E2,7.3E1,1.3E1,1.44E2,8E0,1.2E1,1.286E3,5.83E2,2E0,5E0,5.14E2,1.1E1,9E0,4E0,5.5E1,2.4E1,1.9E1,1.63E2,1.13E2,8.1E1,5E0,1.1E2,1.92E2,1.01E2,4.7E1,2.6E1,9E0,4E0,2E1,1.24E2,7E0,1E0,1E0,1.1E1,1.026E3,2.6E2,4.09E2,1.74E2,2E0,3E0,6.2E1,4.52E2,4E0,7E0,1E0,8E0,3E0,1E0,5.1E1,4E0,5E0,1.9E1,1.3E1,6E0,1.48E2,1.5E1,3.4E1,7.9E1,4.1E1,4E1,5E0,1.05E2,7.7E1,1.15E2,4.9E1,5.2E1,2E0,4.5E1,7E0,1.9E1,4E0,5E0,1E0,3E0,1E0,1.9E1,8.8E1,3.6E1,5E0,2E0,7E0,4E0,2.39E2,7.87E2,2.58E2,2E0,3.87E2,2.2E1,1.49E2,2.5E1,2E0,1E0],"tree_param":{"num_deleted":"0","num_feature":"4","num_nodes":"113","size_leaf_vector":"1"}},{"base_weights":[5.537654E-2,4.0847686E-1,-7.4857646E-1,1.1941015E0,-1.0390904E-1,6.480038E-1,-1.1160817E0,-1.5990613E0,1.461324E0,-2.8627095E-1,3.1452951E0,1.6039898E0,-1.6303511E0,-1.1567698E0,1.804793E0,1.2474697E0,-3.3412585E0,2.6134121E0,8.345631E-1,-4.553447E-1,3.5170236E0,7.4002814E0,-1.8846967E0,-1.480425E0,2.1365042E0,-2.210666E0,2.418682E0,-3.9454525E0,-1.0812773E0,6.292505E0,3.346198E-1,-2.1198063E0,-1.5751995E0,3.289725E0,-1.1607544E0,-8.117632E-3,1.9190013E0,3.7548912E0,-5.442404E-1,2.0478373E0,1.4348315E1,4.570954E0,2.798898E1,7.522904E0,-2.6372142E0,9.095E-1,-4.91727E0,1.1800941E1,1.5996768E0,-2.767979E0,7.262043E-1,-1.3930728E0,-6.371189E0,3.9352548E0,-1.1288425E0,2.961794E-1,2.850073E0,-9.59495E-1,4.812342E-1,5.366905E-1,-1.0173938E0,4.1328093E-1,1.3122499E0,-9.8142904E-1,1.4320446E0,1.8302172E-1,-1.362391E0,3.7331727E0,3.4483773E-1,-6.7019194E-1,2.9709973E0,-1.19921E-1,-9.027558E-1,-1.7709541E0,8.405947E-1,1.0403162E1,1.5541902E0,8.437676E0,5.480405E-1,1.1666756E-1,1.3877823E1,-1.0136199E0,4.3989267E0,-1.4049621E0,3.5564438E-1,-1.3796635E0,8.0095035E-1,-9.195166E-1,-2.0787985E0,1.4511763E0,8.03746E0,6.8657434E-1,-2.635581E-1,1.8715382E-1,-9.614862E-1,-2.2849293E-1,2.3407016E0,-7.1002394E-1,6.95059E-1,-2.0888486E0,-6.821938E-2,-4.7726014E-1,1.8127321E0,-1.4236497E0,-3.0978435E-1],"categories":[],"categories_nodes":[],"categories_segments":[],"categories_sizes":[],"default_left":[0,0,0,0,0,0,0,0,0,0,0,0,0,0,0,0,0,0,0,0,0,0,0,0,0,0,0,0,0,0,0,0,0,0,0,0,0,0,0,0,0,0,0,0,0,0,0,0,0,0,0,0,0,0,0,0,0,0,0,0,0,0,0,0,0,0,0,0,0,0,0,0,0,0,0,0,0,0,0,0,0,0,0,0,0,0,0,0,0,0,0,0,0,0,0,0,0,0,0,0,0,0,0,0,0],"id":6,"left_children":[1,3,5,7,9,11,13,15,17,19,21,23,25,27,-1,29,31,33,35,37,39,41,43,45,47,49,-1,51,53,55,57,59,-1,61,63,65,67,69,71,73,75,77,79,81,83,85,87,89,91,93,95,97,99,101,103,-1,-1,-1,-1,-1,-1,-1,-1,-1,-1,-1,-1,-1,-1,-1,-1,-1,-1,-1,-1,-1,-1,-1,-1,-1,-1,-1,-1,-1,-1,-1,-1,-1,-1,-1,-1,-1,-1,-1,-1,-1,-1,-1,-1,-1,-1,-1,-1,-1,-1],"loss_changes":[1.00182043E3,9.871594E2,5.5349414E2,7.2484827E2,8.808091E2,4.9268207E2,2.5449109E2,4.2570172E2,6.36141E2,9.0635486E2,1.7047485E3,2.6431973E2,3.946828E2,1.7446924E2,0E0,1.4987128E2,1.1247876E2,7.9765137E2,5.24557E2,5.0656223E2,9.2540826E2,2.376907E3,2.8177664E2,2.0160352E2,6.867086E2,1.0676251E2,0E0,1.27335236E2,2.0201312E2,7.570987E1,1.3519667E2,1.7504799E2,0E0,5.4140015E2,6.1682794E2,9.107384E2,2.0186359E3,1.0531433E3,4.6932928E2,3.4033643E2,1.1249316E3,2.469483E3,2.5033372E3,2.8306177E2,2.7929407E2,1.5772704E2,1.6028885E1,6.0113104E2,2.2395245E2,8.2035065E1,1.2175288E2,4.8830627E1,3.8400665E1,1.0276921E2,2.8082703E2,0E0,0E0,0E0,0E0,0E0,0E0,0E0,0E0,0E0,0E0,0E0,0E0,0E0,0E0,0E0,0E0,0E0,0E0,0E0,0E0,0E0,0E0,0E0,0E0,0E0,0E0,0E0,0E0,0E0,0E0,0E0,0E0,0E0,0E0,0E0,0E0,0E0,0E0,0E0,0E0,0E0,0E0,0E0,0E0,0E0,0E0,0E0,0E0,0E0,0E0],"parents":[2147483647,0,0,1,1,2,2,3,3,4,4,5,5,6,6,7,7,8,8,9,9,10,10,11,11,12,12,13,13,15,15,16,16,17,17,18,18,19,19,20,20,21,21,22,22,23,23,24,24,25,25,27,27,28,28,29,29,30,30,31,31,33,33,34,34,35,35,36,36,37,37,38,38,39,39,40,40,41,41,42,42,43,43,44,44,45,45,46,46,47,47,48,48,49,49,50,50,51,51,52,52,53,53,54,54],"right_children":[2,4,6,8,10,12,14,16,18,20,22,24,26,28,-1,30,32,34,36,38,40,42,44,46,48,50,-1,52,54,56,58,60,-1,62,64,66,68,70,72,74,76,78,80,82,84,86,88,90,92,94,96,98,100,102,104,-1,-1,-1,-1,-1,-1,-1,-1,-1,-1,-1,-1,-1,-1,-1,-1,-1,-1,-1,-1,-1,-1,-1,-1,-1,-1,-1,-1,-1,-1,-1,-1,-1,-1,-1,-1,-1,-1,-1,-1,-1,-1,-1,-1,-1,-1,-1,-1,-1,-1],"split_conditions":[2.5961115E2,1E-1,1.3905509E1,3.6029755E1,2.5156496E2,1.1181084E1,2.0681086E1,1.3202726E1,6.3998337E0,1.9531084E1,1.2E0,2.739748E2,1.0200002E1,1.4154915E1,1.804793E0,-7.110584E0,8.454E0,2.1897945E1,1.5725037E1,8.669949E0,5.9E0,2.8019936E1,2.52216E2,4.1352496E0,2.760494E2,1.7960249E1,2.418682E0,1.4021525E1,-9.981416E0,-7.87725E0,-5.855834E-1,1.584409E1,-1.5751995E0,1.4895886E2,5.039417E0,1.5124284E1,1.6055355E1,6E-1,2.4489728E2,1.0883676E1,6.3E0,1.2031756E1,4E-1,4.758167E0,1.5091499E1,-6.023084E0,2.7013837E2,2.752384E2,3.4005957E2,2.6397125E2,1.2959999E1,5.3248343E0,1.5993581E1,2.7102734E2,-6.660582E0,2.961794E-1,2.850073E0,-9.59495E-1,4.812342E-1,5.366905E-1,-1.0173938E0,4.1328093E-1,1.3122499E0,-9.8142904E-1,1.4320446E0,1.8302172E-1,-1.362391E0,3.7331727E0,3.4483773E-1,-6.7019194E-1,2.9709973E0,-1.19921E-1,-9.027558E-1,-1.7709541E0,8.405947E-1,1.0403162E1,1.5541902E0,8.437676E0,5.480405E-1,1.1666756E-1,1.3877823E1,-1.0136199E0,4.3989267E0,-1.4049621E0,3.5564438E-1,-1.3796635E0,8.0095035E-1,-9.195166E-1,-2.0787985E0,1.4511763E0,8.03746E0,6.8657434E-1,-2.635581E-1,1.8715382E-1,-9.614862E-1,-2.2849293E-1,2.3407016E0,-7.1002394E-1,6.95059E-1,-2.0888486E0,-6.821938E-2,-4.7726014E-1,1.8127321E0,-1.4236497E0,-3.0978435E-1],"split_indices":[3,1,2,3,3,0,0,2,0,0,1,3,1,2,0,0,0,2,2,2,1,2,3,0,3,0,0,2,0,0,0,2,0,3,0,2,2,1,3,2,1,2,1,0,0,0,3,3,3,3,2,0,0,3,0,0,0,0,0,0,0,0,0,0,0,0,0,0,0,0,0,0,0,0,0,0,0,0,0,0,0,0,0,0,0,0,0,0,0,0,0,0,0,0,0,0,0,0,0,0,0,0,0,0,0],"split_type":[0,0,0,0,0,0,0,0,0,0,0,0,0,0,0,0,0,0,0,0,0,0,0,0,0,0,0,0,0,0,0,0,0,0,0,0,0,0,0,0,0,0,0,0,0,0,0,0,0,0,0,0,0,0,0,0,0,0,0,0,0,0,0,0,0,0,0,0,0,0,0,0,0,0,0,0,0,0,0,0,0,0,0,0,0,0,0,0,0,0,0,0,0,0,0,0,0,0,0,0,0,0,0,0,0],"sum_hessian":[3.527E3,2.451E3,1.076E3,9.67E2,1.484E3,2.24E2,8.52E2,8.4E1,8.83E2,1.406E3,7.8E1,1.58E2,6.6E1,8.48E2,4E0,3.2E1,5.2E1,3.1E2,5.73E2,1.347E3,5.9E1,4.2E1,3.6E1,2.3E1,1.35E2,6.3E1,3E0,2.1E1,8.27E2,4E0,2.8E1,3.3E1,1.9E1,2.63E2,4.7E1,3.23E2,2.5E2,2.7E1,1.32E3,5.3E1,6E0,3.8E1,4E0,2E0,3.4E1,1.4E1,9E0,6E0,1.29E2,5.3E1,1E1,1.1E1,1E1,7E0,8.2E2,2E0,2E0,7E0,2.1E1,8E0,2.5E1,9.6E1,1.67E2,3.5E1,1.2E1,2.85E2,3.8E1,1.6E1,2.34E2,1.4E1,1.3E1,1.248E3,7.2E1,4E0,4.9E1,1E0,5E0,3E0,3.5E1,2E0,2E0,1E0,1E0,2.2E1,1.2E1,3E0,1.1E1,6E0,3E0,5E0,1E0,1.01E2,2.8E1,6E0,4.7E1,9E0,1E0,9E0,2E0,9E0,1E0,2E0,5E0,2E1,8E2],"tree_param":{"num_deleted":"0","num_feature":"4","num_nodes":"105","size_leaf_vector":"1"}},{"base_weights":[5.3682435E-2,6.200784E-1,-3.3953035E-1,8.083198E-2,1.4984127E0,-3.7717256E-1,6.785183E0,-1.548077E-1,2.824398E0,5.176874E0,8.4283435E-1,3.0628388E0,-4.4636256E-1,1.749275E1,-1.8323915E0,6.6252835E-2,-3.1422262E0,1.197579E0,8.818017E0,1.0140809E1,1.863409E0,-3.9709333E-1,2.1723015E0,6.270742E0,2.0942862E0,-2.0218868E0,-2.978079E-1,8.173887E0,2.4728384E0,-4.0780144E0,1.746202E0,2.8774297E-1,-2.5164642E0,-6.776426E-1,-5.8555546E0,3.9887074E-1,6.8456564E0,4.5129213E0,2.9965296E0,2.188937E1,5.5056944E0,1.5077777E-1,1.260698E1,-2.7314529E-2,-5.641623E0,5.1408186E0,-7.376655E-1,3.2651553E0,-5.886847E-1,-3.0575564E0,-3.068143E-1,2.208469E0,-3.9419836E-1,-5.7637653E0,-4.710083E-1,4.3066368E-2,2.602427E0,-1.322165E0,1.746237E-1,8.2049054E-1,-3.4228712E-1,-3.0473506E0,-1.1525595E0,1.8170136E0,-1.9166787E-1,-5.16037E-2,2.413181E0,-2.078005E-1,2.3343582E0,3.021586E0,1.0242947E1,5.852816E-1,4.931179E0,-1.1110696E0,1.1995696E0,5.7926083E0,-8.2946E-1,-1.980227E-1,1.009724E0,-5.608996E-1,-2.7539618E0,2.0102963E0,3.6084256E-1,-2.9679375E0,-4.2879798E-2,2.6385088E0,5.0418496E-1,-1.6226493E0,4.194727E-1,5.0992996E-1,-1.035361E0,1.9409933E0,-2.8730527E-1,1.5466328E0,-3.4879106E-1,-1.0149177E-1,-7.665923E-1,-3.4439108E-1,-2.0759122E0,3.1439412E-1,-5.263479E-1],"categories":[],"categories_nodes":[],"categories_segments":[],"categories_sizes":[],"default_left":[0,0,0,0,0,0,0,0,0,0,0,0,0,0,0,0,0,0,0,0,0,0,0,0,0,0,0,0,0,0,0,0,0,0,0,0,0,0,0,0,0,0,0,0,0,0,0,0,0,0,0,0,0,0,0,0,0,0,0,0,0,0,0,0,0,0,0,0,0,0,0,0,0,0,0,0,0,0,0,0,0,0,0,0,0,0,0,0,0,0,0,0,0,0,0,0,0,0,0,0,0],"id":7,"left_children":[1,3,5,7,9,11,13,15,17,19,21,23,25,27,29,31,33,35,37,39,41,43,45,-1,47,49,51,-1,-1,53,-1,55,57,59,61,63,65,-1,67,69,71,73,75,77,79,81,83,85,87,89,91,93,95,97,99,-1,-1,-1,-1,-1,-1,-1,-1,-1,-1,-1,-1,-1,-1,-1,-1,-1,-1,-1,-1,-1,-1,-1,-1,-1,-1,-1,-1,-1,-1,-1,-1,-1,-1,-1,-1,-1,-1,-1,-1,-1,-1,-1,-1,-1,-1],"loss_changes":[7.859459E2,6.847604E2,5.61199E2,5.8034143E2,1.3219728E3,4.94771E2,1.0470596E3,5.463593E2,6.817276E2,1.346273E3,7.723341E2,6.646478E2,4.7522452E2,2.2651343E2,1.4403807E2,4.417719E2,3.7720386E2,2.5440591E2,4.9850903E2,1.6765295E3,9.3648773E2,4.7109967E2,1.956045E3,0E0,1.27578445E2,3.099054E2,4.499699E2,0E0,0E0,3.3768288E1,0E0,8.5857434E2,3.5993857E2,5.213494E1,1.9488837E2,3.033162E2,6.024759E1,0E0,1.6425394E2,9.5938477E2,9.394086E2,6.821901E2,7.7451E2,4.9173697E2,1.9637473E2,6.800635E2,6.2476697E2,2.3056339E2,1.3206746E2,2.0999115E2,3.0172046E2,6.914784E2,2.1546988E2,1.3398743E1,7.6874685E0,0E0,0E0,0E0,0E0,0E0,0E0,0E0,0E0,0E0,0E0,0E0,0E0,0E0,0E0,0E0,0E0,0E0,0E0,0E0,0E0,0E0,0E0,0E0,0E0,0E0,0E0,0E0,0E0,0E0,0E0,0E0,0E0,0E0,0E0,0E0,0E0,0E0,0E0,0E0,0E0,0E0,0E0,0E0,0E0,0E0,0E0],"parents":[2147483647,0,0,1,1,2,2,3,3,4,4,5,5,6,6,7,7,8,8,9,9,10,10,11,11,12,12,13,13,14,14,15,15,16,16,17,17,18,18,19,19,20,20,21,21,22,22,24,24,25,25,26,26,29,29,31,31,32,32,33,33,34,34,35,35,36,36,38,38,39,39,40,40,41,41,42,42,43,43,44,44,45,45,46,46,47,47,48,48,49,49,50,50,51,51,52,52,53,53,54,54],"right_children":[2,4,6,8,10,12,14,16,18,20,22,24,26,28,30,32,34,36,38,40,42,44,46,-1,48,50,52,-1,-1,54,-1,56,58,60,62,64,66,-1,68,70,72,74,76,78,80,82,84,86,88,90,92,94,96,98,100,-1,-1,-1,-1,-1,-1,-1,-1,-1,-1,-1,-1,-1,-1,-1,-1,-1,-1,-1,-1,-1,-1,-1,-1,-1,-1,-1,-1,-1,-1,-1,-1,-1,-1,-1,-1,-1,-1,-1,-1,-1,-1,-1,-1,-1,-1],"split_conditions":[2.0072733E2,1.4895886E2,2.1989418E1,1.8454E1,1.5890395E2,9.178235E0,2.1998477E2,2.378453E1,1.2748699E2,6.514416E0,1.7283749E1,2.0174783E2,2.1207323E2,2.2722754E1,4E-1,1.3927107E2,5.4582912E1,2.374775E1,1.9531084E1,1.2096214E1,2.0008356E1,1.6808569E1,1.6000001E0,6.270742E0,1E-1,1.1E0,2.1597514E2,8.173887E0,2.4728384E0,2.3377034E2,1.746202E0,1.3682405E2,1.7313717E1,-1.2772498E0,2.440046E1,1.0799999E1,1.3504799E1,4.5129213E0,2.1018583E1,1.1442394E1,5.5248337E0,1.4664414E1,1.0900001E1,1.9631625E2,8.000001E-1,1.4278999E1,1.9167463E-3,2.538354E2,3E-1,1.1177405E1,1.3000001E0,1.0454001E1,3.1434101E1,2.2877826E2,1.243434E1,4.3066368E-2,2.602427E0,-1.322165E0,1.746237E-1,8.2049054E-1,-3.4228712E-1,-3.0473506E0,-1.1525595E0,1.8170136E0,-1.9166787E-1,-5.16037E-2,2.413181E0,-2.078005E-1,2.3343582E0,3.021586E0,1.0242947E1,5.852816E-1,4.931179E0,-1.1110696E0,1.1995696E0,5.7926083E0,-8.2946E-1,-1.980227E-1,1.009724E0,-5.608996E-1,-2.7539618E0,2.0102963E0,3.6084256E-1,-2.9679375E0,-4.2879798E-2,2.6385088E0,5.0418496E-1,-1.6226493E0,4.194727E-1,5.0992996E-1,-1.035361E0,1.9409933E0,-2.8730527E-1,1.5466328E0,-3.4879106E-1,-1.0149177E-1,-7.665923E-1,-3.4439108E-1,-2.0759122E0,3.1439412E-1,-5.263479E-1],"split_indices":[3,3,0,0,3,2,3,2,3,0,2,3,3,0,1,3,3,0,0,2,2,2,1,0,1,1,3,0,0,3,0,3,2,0,2,2,2,0,0,2,0,0,1,3,1,0,0,3,1,2,1,0,2,3,2,0,0,0,0,0,0,0,0,0,0,0,0,0,0,0,0,0,0,0,0,0,0,0,0,0,0,0,0,0,0,0,0,0,0,0,0,0,0,0,0,0,0,0,0,0,0],"split_type":[0,0,0,0,0,0,0,0,0,0,0,0,0,0,0,0,0,0,0,0,0,0,0,0,0,0,0,0,0,0,0,0,0,0,0,0,0,0,0,0,0,0,0,0,0,0,0,0,0,0,0,0,0,0,0,0,0,0,0,0,0,0,0,0,0,0,0,0,0,0,0,0,0,0,0,0,0,0,0,0,0,0,0,0,0,0,0,0,0,0,0,0,0,0,0,0,0,0,0,0,0],"sum_hessian":[3.527E3,1.445E3,2.082E3,8.96E2,5.49E2,2.072E3,1E1,8.26E2,7E1,8.2E1,4.67E2,4E1,2.032E3,4E0,6E0,7.7E2,5.6E1,5.6E1,1.4E1,3.2E1,5E1,2.42E2,2.25E2,1E0,3.9E1,1.74E2,1.858E3,1E0,3E0,5E0,1E0,7.1E2,6E1,3E1,2.6E1,5E1,6E0,6E0,8E0,8E0,2.4E1,4.4E1,6E0,2.27E2,1.5E1,1.11E2,1.14E2,2.7E1,1.2E1,1.08E2,6.6E1,6.8E1,1.79E3,3E0,2E0,6.99E2,1.1E1,3.7E1,2.3E1,3E0,2.7E1,7E0,1.9E1,7E0,4.3E1,1E0,5E0,5E0,3E0,5E0,3E0,1.9E1,5E0,2.2E1,2.2E1,4E0,2E0,1.92E2,3.5E1,8E0,7E0,7.9E1,3.2E1,6E0,1.08E2,5E0,2.2E1,3E0,9E0,8E0,1E2,5E0,6.1E1,3.6E1,3.2E1,1.746E3,4.4E1,1E0,2E0,1E0,1E0],"tree_param":{"num_deleted":"0","num_feature":"4","num_nodes":"101","size_leaf_vector":"1"}},{"base_weights":[5.1331013E-2,3.162571E-1,-5.0969297E-1,2.6585966E-1,4.2837524E0,-3.040153E0,-1.9539018E-1,2.530736E0,1.96783E-1,6.489833E0,-7.773919E-1,-4.053995E0,-2.0739838E-1,2.821575E-1,-1.1642395E0,3.9153554E0,-1.1265805E0,-3.1066277E0,2.3299773E-1,-9.864536E-1,7.692159E0,-4.3343987E0,4.6853504E0,-5.383771E0,-2.1906927E0,7.219596E0,-2.400308E0,6.069732E-3,3.1165574E0,-4.439613E0,-7.272775E-1,3.0766187E0,1.3001358E1,-5.1302657E0,2.6155496E0,-1.2181859E0,-4.0927396E0,5.849772E-1,-1.0882219E-1,1.3537722E1,3.1541045E0,-2.2358913E0,-2.3786676E0,-7.289545E0,-2.7772293E0,4.9264946E0,-3.0890002E0,9.656114E0,-1.4754041E0,-2.7146647E0,8.659456E-1,1.0494199E0,-5.625712E-1,9.841623E-1,1.5090778E1,-6.320612E0,-2.6988132E0,-4.3502942E-1,-3.2943013E0,7.6750994E-1,4.1151724E0,5.126695E0,1.107728E-1,7.8166753E-1,-1.8837925E0,-8.250445E-1,1.4914365E0,3.4794127E-4,-9.1424835E-1,-1.4277434E0,-2.711212E-1,2.7488092E-1,-1.2543646E-1,-7.946804E-2,7.940509E-1,4.4527693E0,6.605736E-1,-1.4966884E0,1.3043776E0,7.097733E-2,-1.319778E0,-7.631833E-1,-2.7606704E0,1.3166181E0,-1.3289571E0,-1.431295E0,3.2791325E-1,4.625922E0,4.4353727E-1,-1.6468934E0,-6.7640436E-1,7.3137283E-1,-1.6606435E-1,-2.1462148E-1,1.0223559E0,9.84508E-1,-1.0613804E0,1.367377E1,1.6746956E0,-2.0988529E0,7.74596E-1,6.213489E-1,-1.0682929E0,2.3599772E-1,-3.7863588E-1,-1.3575695E0,4.1899347E-1],"categories":[],"categories_nodes":[],"categories_segments":[],"categories_sizes":[],"default_left":[0,0,0,0,0,0,0,0,0,0,0,0,0,0,0,0,0,0,0,0,0,0,0,0,0,0,0,0,0,0,0,0,0,0,0,0,0,0,0,0,0,0,0,0,0,0,0,0,0,0,0,0,0,0,0,0,0,0,0,0,0,0,0,0,0,0,0,0,0,0,0,0,0,0,0,0,0,0,0,0,0,0,0,0,0,0,0,0,0,0,0,0,0,0,0,0,0,0,0,0,0,0,0,0,0,0,0],"id":8,"left_children":[1,3,5,7,9,11,13,15,17,19,21,23,25,27,29,31,33,35,37,-1,39,41,-1,43,45,47,49,51,53,55,57,59,61,63,65,67,69,71,73,75,77,-1,79,81,83,-1,85,87,-1,89,-1,91,93,95,97,99,101,103,105,-1,-1,-1,-1,-1,-1,-1,-1,-1,-1,-1,-1,-1,-1,-1,-1,-1,-1,-1,-1,-1,-1,-1,-1,-1,-1,-1,-1,-1,-1,-1,-1,-1,-1,-1,-1,-1,-1,-1,-1,-1,-1,-1,-1,-1,-1,-1,-1],"loss_changes":[5.245274E2,4.7814496E2,8.9972034E2,3.6997574E2,3.4000397E2,3.5815503E2,4.6670166E2,3.5889038E2,2.75758E2,2.7217676E2,6.508732E2,2.1616101E2,5.7107794E2,5.289802E2,4.7336536E2,3.486588E2,3.130647E2,4.1569656E1,2.737771E2,0E0,4.6132275E2,3.716365E1,0E0,2.4303174E2,7.195106E2,2.8407687E2,5.2708206E1,3.6665128E2,1.5171746E3,1.1064508E2,2.1987822E2,2.2960367E2,2.0023145E2,1.0524902E2,1.5272406E2,2.2309126E1,2.970169E1,3.729128E2,4.9744257E2,8.5649536E1,1.3834796E2,0E0,3.803142E1,2.4889575E2,3.0366522E2,0E0,2.795459E2,3.071333E2,0E0,2.0810165E1,0E0,4.8655292E2,2.4516374E2,5.5187256E2,2.3546465E3,1.26320984E2,9.785025E1,2.6977164E2,1.7954697E2,0E0,0E0,0E0,0E0,0E0,0E0,0E0,0E0,0E0,0E0,0E0,0E0,0E0,0E0,0E0,0E0,0E0,0E0,0E0,0E0,0E0,0E0,0E0,0E0,0E0,0E0,0E0,0E0,0E0,0E0,0E0,0E0,0E0,0E0,0E0,0E0,0E0,0E0,0E0,0E0,0E0,0E0,0E0,0E0,0E0,0E0,0E0,0E0],"parents":[2147483647,0,0,1,1,2,2,3,3,4,4,5,5,6,6,7,7,8,8,9,9,10,10,11,11,12,12,13,13,14,14,15,15,16,16,17,17,18,18,20,20,21,21,23,23,24,24,25,25,26,26,27,27,28,28,29,29,30,30,31,31,32,32,33,33,34,34,35,35,36,36,37,37,38,38,39,39,40,40,42,42,43,43,44,44,46,46,47,47,49,49,51,51,52,52,53,53,54,54,55,55,56,56,57,57,58,58],"right_children":[2,4,6,8,10,12,14,16,18,20,22,24,26,28,30,32,34,36,38,-1,40,42,-1,44,46,48,50,52,54,56,58,60,62,64,66,68,70,72,74,76,78,-1,80,82,84,-1,86,88,-1,90,-1,92,94,96,98,100,102,104,106,-1,-1,-1,-1,-1,-1,-1,-1,-1,-1,-1,-1,-1,-1,-1,-1,-1,-1,-1,-1,-1,-1,-1,-1,-1,-1,-1,-1,-1,-1,-1,-1,-1,-1,-1,-1,-1,-1,-1,-1,-1,-1,-1,-1,-1,-1,-1,-1],"split_conditions":[1.961587E1,1.9523155E1,2.0291357E1,8.669949E0,1.112275E1,2.648513E2,2.6092667E2,8.3185835E0,7.7806416E0,3.2178623E1,2.5462364E2,1.3000001E0,2.760494E2,2.538354E2,2.0929594E1,1.2E0,1.3149834E1,1.3089354E1,1E-1,-9.864536E-1,2.051186E2,1.2928316E2,4.6853504E0,6.8977504E0,1.4E0,1E-1,6.7000003E0,2.2668568E1,2.8019936E1,2.8769757E2,1.4104E1,8.164416E0,3.4999998E0,5.33915E0,1.15555695E2,5.33915E0,7.693584E0,1.5456084E1,1.9531084E1,7.3956676E0,2.4321715E2,-2.2358913E0,2.4321715E2,-1.10583365E-1,1.01165E1,4.9264946E0,2.1123183E2,1.9813087E1,-1.4754041E0,-5.671E0,8.659456E-1,1.6000001E0,1.858525E1,7E-1,2.8277763E1,9.000001E-1,2.9180145E2,2.378453E1,3.300406E2,7.6750994E-1,4.1151724E0,5.126695E0,1.107728E-1,7.8166753E-1,-1.8837925E0,-8.250445E-1,1.4914365E0,3.4794127E-4,-9.1424835E-1,-1.4277434E0,-2.711212E-1,2.7488092E-1,-1.2543646E-1,-7.946804E-2,7.940509E-1,4.4527693E0,6.605736E-1,-1.4966884E0,1.3043776E0,7.097733E-2,-1.319778E0,-7.631833E-1,-2.7606704E0,1.3166181E0,-1.3289571E0,-1.431295E0,3.2791325E-1,4.625922E0,4.4353727E-1,-1.6468934E0,-6.7640436E-1,7.3137283E-1,-1.6606435E-1,-2.1462148E-1,1.0223559E0,9.84508E-1,-1.0613804E0,1.367377E1,1.6746956E0,-2.0988529E0,7.74596E-1,6.213489E-1,-1.0682929E0,2.3599772E-1,-3.7863588E-1,-1.3575695E0,4.1899347E-1],"split_indices":[2,2,2,2,0,3,3,0,3,3,3,1,3,3,2,1,0,2,1,0,3,3,0,0,1,1,1,2,2,3,0,0,1,3,3,3,0,0,0,0,3,0,3,0,0,0,3,2,0,0,0,1,0,1,2,1,3,2,3,0,0,0,0,0,0,0,0,0,0,0,0,0,0,0,0,0,0,0,0,0,0,0,0,0,0,0,0,0,0,0,0,0,0,0,0,0,0,0,0,0,0,0,0,0,0,0,0],"split_type":[0,0,0,0,0,0,0,0,0,0,0,0,0,0,0,0,0,0,0,0,0,0,0,0,0,0,0,0,0,0,0,0,0,0,0,0,0,0,0,0,0,0,0,0,0,0,0,0,0,0,0,0,0,0,0,0,0,0,0,0,0,0,0,0,0,0,0,0,0,0,0,0,0,0,0,0,0,0,0,0,0,0,0,0,0,0,0,0,0,0,0,0,0,0,0,0,0,0,0,0,0,0,0,0,0,0,0],"sum_hessian":[3.527E3,2.396E3,1.131E3,2.367E3,2.9E1,1.24E2,1.007E3,6.9E1,2.298E3,2E1,9E0,9.1E1,3.3E1,6.75E2,3.32E2,5E1,1.9E1,2.4E1,2.274E3,2E0,1.8E1,8E0,1E0,5.2E1,3.9E1,7E0,2.6E1,6.16E2,5.9E1,3.8E1,2.94E2,4.7E1,3E0,9E0,1E1,9E0,1.5E1,1.12E3,1.154E3,7E0,1.1E1,2E0,6E0,2.9E1,2.3E1,1E0,3.8E1,6E0,1E0,2.5E1,1E0,2.17E2,3.99E2,5.1E1,8E0,1.7E1,2.1E1,2.65E2,2.9E1,4.6E1,1E0,2E0,1E0,1E0,8E0,3E0,7E0,6E0,3E0,1.2E1,3E0,8.42E2,2.78E2,1.093E3,6.1E1,6E0,1E0,1E0,1E1,3E0,3E0,9E0,2E1,4E0,1.9E1,2.7E1,1.1E1,3E0,3E0,2E0,2.3E1,1.16E2,1.01E2,3.85E2,1.4E1,3.4E1,1.7E1,1E0,7E0,1.6E1,1E0,3E0,1.8E1,1.07E2,1.58E2,2.3E1,6E0],"tree_param":{"num_deleted":"0","num_feature":"4","num_nodes":"107","size_leaf_vector":"1"}},{"base_weights":[4.423273E-2,4.571704E-1,-2.2926448E-1,-2.126773E-1,9.264019E-1,-2.6839882E-1,3.2045426E0,-4.7741276E-1,2.1331632E0,1.4178947E0,-4.792329E-1,-1.8552776E-1,-1.9239649E0,5.28628E0,-3.9217162E0,-1.2618801E-1,-3.1797402E0,1.1101334E0,9.220334E0,-4.9892964E0,1.5650327E0,-7.7784324E-1,6.4420524E0,-2.4311051E-1,3.2558658E0,-1.2102906E0,-3.4734242E0,-8.0776495E-1,5.8791347E0,1.1347733E-1,-1.4572089E0,1.04107656E-1,-4.3430176E0,-6.929062E-1,-5.8141866E0,2.34947E0,-3.3606062E0,4.7404714E0,-2.8065755E0,1.8081855E0,-2.6675663E0,-2.5284737E-1,-5.415766E0,-2.8793004E0,9.516624E0,-5.50349E0,-2.0533524E-1,1.5717533E0,8.572121E0,-2.4832225E0,-2.4935773E-1,-4.623886E0,-1.2665356E0,4.463037E0,2.9159153E0,-4.671085E-3,2.6290221E0,5.787339E-3,-2.850068E0,1.769421E0,-3.9867207E-1,-1.895918E0,1.2511386E0,-1.0958476E0,1.1127715E0,-1.626554E0,1.5952429E0,-1.8607504E0,2.7080522E0,4.7775036E-1,2.3869534E0,-1.0647018E0,2.198949E0,-1.1062872E0,1.5213653E-1,-2.231063E0,7.6174897E-1,-1.506581E0,2.1089573E-1,3.7501032E0,4.1146585E-1,-2.2075417E0,1.1252804E0,-7.042806E-2,1.2631857E0,-1.365387E0,1.040477E0,-1.411382E0,-3.4119004E-1,1.0869496E0,-2.6635548E-1,-1.5583216E0,-3.129626E-1,2.277488E0,-8.2859135E-1,-1.0508107E0,1.7873923E0],"categories":[],"categories_nodes":[],"categories_segments":[],"categories_sizes":[],"default_left":[0,0,0,0,0,0,0,0,0,0,0,0,0,0,0,0,0,0,0,0,0,0,0,0,0,0,0,0,0,0,0,0,0,0,0,0,0,0,0,0,0,0,0,0,0,0,0,0,0,0,0,0,0,0,0,0,0,0,0,0,0,0,0,0,0,0,0,0,0,0,0,0,0,0,0,0,0,0,0,0,0,0,0,0,0,0,0,0,0,0,0,0,0,0,0,0,0],"id":9,"left_children":[1,3,5,7,9,11,13,15,17,19,21,23,25,27,29,31,33,35,-1,37,39,41,43,45,47,49,51,-1,53,-1,-1,55,57,59,61,63,65,67,-1,69,71,73,75,77,79,81,83,85,-1,87,89,91,93,95,-1,-1,-1,-1,-1,-1,-1,-1,-1,-1,-1,-1,-1,-1,-1,-1,-1,-1,-1,-1,-1,-1,-1,-1,-1,-1,-1,-1,-1,-1,-1,-1,-1,-1,-1,-1,-1,-1,-1,-1,-1,-1,-1],"loss_changes":[3.985476E2,4.421221E2,2.8614838E2,3.6121414E2,5.7202014E2,2.8775995E2,3.7677124E2,4.9504163E2,1.6922185E3,5.8570886E2,4.4936584E2,3.9731958E2,1.06377045E2,1.0570526E2,2.5976875E1,4.5007956E2,3.890573E2,3.292592E2,0E0,6.3906445E2,6.22324E2,5.026529E2,2.8533374E2,3.9013437E2,1.362148E3,8.500492E1,7.285089E1,0E0,5.4516052E1,0E0,0E0,4.561204E2,5.401194E2,1.4197766E2,1.7273761E2,3.8898877E2,2.6136945E2,2.9051703E2,0E0,7.405525E2,3.1681293E2,4.9000067E2,3.5651703E2,2.6556952E1,1.5297333E2,2.6793622E2,2.5514948E2,3.8738095E2,0E0,8.4343765E1,1.04592705E2,3.543805E1,1.7992953E2,1.994932E2,0E0,0E0,0E0,0E0,0E0,0E0,0E0,0E0,0E0,0E0,0E0,0E0,0E0,0E0,0E0,0E0,0E0,0E0,0E0,0E0,0E0,0E0,0E0,0E0,0E0,0E0,0E0,0E0,0E0,0E0,0E0,0E0,0E0,0E0,0E0,0E0,0E0,0E0,0E0,0E0,0E0,0E0,0E0],"parents":[2147483647,0,0,1,1,2,2,3,3,4,4,5,5,6,6,7,7,8,8,9,9,10,10,11,11,12,12,13,13,14,14,15,15,16,16,17,17,19,19,20,20,21,21,22,22,23,23,24,24,25,25,26,26,28,28,31,31,32,32,33,33,34,34,35,35,36,36,37,37,39,39,40,40,41,41,42,42,43,43,44,44,45,45,46,46,47,47,49,49,50,50,51,51,52,52,53,53],"right_children":[2,4,6,8,10,12,14,16,18,20,22,24,26,28,30,32,34,36,-1,38,40,42,44,46,48,50,52,-1,54,-1,-1,56,58,60,62,64,66,68,-1,70,72,74,76,78,80,82,84,86,-1,88,90,92,94,96,-1,-1,-1,-1,-1,-1,-1,-1,-1,-1,-1,-1,-1,-1,-1,-1,-1,-1,-1,-1,-1,-1,-1,-1,-1,-1,-1,-1,-1,-1,-1,-1,-1,-1,-1,-1,-1,-1,-1,-1,-1,-1,-1],"split_conditions":[1.9866467E2,9.472895E1,1.3399999E1,1.7043585E1,1.5574832E1,6.899999E0,3.28834E2,6.5E0,3.4999998E0,-2.750167E0,1.9631625E2,5.6000004E0,2.3219301E1,2.1269166E0,-4.181417E0,1.6312332E1,5.250305E1,1.70763E1,9.220334E0,1.3779114E1,1.0200002E1,1.9074881E2,1.5778518E1,1.992404E2,1.858525E1,1.6676977E1,2.856334E1,-8.0776495E-1,3.0652124E2,1.1347733E-1,-1.4572089E0,1.5912335E1,6.049757E1,5.33915E0,1.5912335E1,3.2178623E1,8.094425E1,1.1592895E1,-2.8065755E0,8.8E0,1.4922749E1,1.6489416E1,1.8888851E1,2.0274832E1,3E-1,2.0799152E1,2.1989418E1,2.13416E2,8.572121E0,8.099999E0,2.5623336E0,3.0652124E2,2.051186E2,1.4600002E1,2.9159153E0,-4.671085E-3,2.6290221E0,5.787339E-3,-2.850068E0,1.769421E0,-3.9867207E-1,-1.895918E0,1.2511386E0,-1.0958476E0,1.1127715E0,-1.626554E0,1.5952429E0,-1.8607504E0,2.7080522E0,4.7775036E-1,2.3869534E0,-1.0647018E0,2.198949E0,-1.1062872E0,1.5213653E-1,-2.231063E0,7.6174897E-1,-1.506581E0,2.1089573E-1,3.7501032E0,4.1146585E-1,-2.2075417E0,1.1252804E0,-7.042806E-2,1.2631857E0,-1.365387E0,1.040477E0,-1.411382E0,-3.4119004E-1,1.0869496E0,-2.6635548E-1,-1.5583216E0,-3.129626E-1,2.277488E0,-8.2859135E-1,-1.0508107E0,1.7873923E0],"split_indices":[3,3,1,0,0,1,3,1,1,0,3,1,2,0,0,0,3,2,0,2,1,3,2,3,0,2,2,0,3,0,0,0,3,3,0,3,3,2,0,1,0,0,2,0,1,2,0,3,0,1,0,3,3,1,0,0,0,0,0,0,0,0,0,0,0,0,0,0,0,0,0,0,0,0,0,0,0,0,0,0,0,0,0,0,0,0,0,0,0,0,0,0,0,0,0,0,0],"split_type":[0,0,0,0,0,0,0,0,0,0,0,0,0,0,0,0,0,0,0,0,0,0,0,0,0,0,0,0,0,0,0,0,0,0,0,0,0,0,0,0,0,0,0,0,0,0,0,0,0,0,0,0,0,0,0,0,0,0,0,0,0,0,0,0,0,0,0,0,0,0,0,0,0,0,0,0,0,0,0,0,0,0,0,0,0,0,0,0,0,0,0,0,0,0,0,0,0],"sum_hessian":[3.527E3,1.405E3,2.122E3,5.79E2,8.26E2,2.099E3,2.3E1,5.21E2,5.8E1,6.12E2,2.14E2,2E3,9.9E1,1.8E1,5E0,4.62E2,5.9E1,5.7E1,1E0,1.3E1,5.99E2,2.06E2,8E0,1.968E3,3.2E1,6.9E1,3E1,1E0,1.7E1,1E0,4E0,4.39E2,2.3E1,3.1E1,2.8E1,4.5E1,1.2E1,4E0,9E0,5.67E2,3.2E1,1.86E2,2E1,2E0,6E0,1.3E1,1.955E3,3.1E1,1E0,2.9E1,4E1,1.9E1,1.1E1,1.4E1,3E0,4.34E2,5E0,1.3E1,1E1,2E0,2.9E1,2.7E1,1E0,8E0,3.7E1,1E1,2E0,1E0,3E0,5.49E2,1.8E1,3E1,2E0,3.3E1,1.53E2,1.6E1,4E0,1E0,1E0,4E0,2E0,1.1E1,2E0,1.943E3,1.2E1,7E0,2.4E1,1E1,1.9E1,5E0,3.5E1,1.6E1,3E0,1E0,1E1,2E0,1.2E1],"tree_param":{"num_deleted":"0","num_feature":"4","num_nodes":"97","size_leaf_vector":"1"}},{"base_weights":[3.6830034E-2,1.2626255E-1,-7.1770585E-1,3.4364676E0,1.0192135E-1,4.1397026E-1,-1.4944118E0,-1.8891157E0,5.020747E0,-2.953215E-1,2.3171371E-1,4.665928E-2,3.1662104E0,-1.9943112E0,1.2334592E0,1.3260733E0,-4.0350366E0,8.736218E0,1.1747478E0,1.1412134E0,-9.4945735E-1,2.440163E0,1.1760076E-1,1.6662759E0,-8.846911E-1,-4.6872106E-1,8.945206E0,-2.169307E0,1.0187405E0,8.069916E0,-1.7494732E-1,-6.090618E0,6.2809354E-1,1.0802552E1,3.4526634E0,-1.5597454E0,2.4606423E0,1.5589068E0,-6.336531E0,-1.0270522E0,2.8591297E0,1.1405577E1,1.3923044E0,-1.411053E0,2.0984136E-1,7.0803523E-1,8.575367E0,-2.9851096E0,1.039868E-2,1.6386099E0,-2.8491538E0,1.2544675E1,-3.5643894E-2,-3.0747867E0,-1.4644909E0,6.041728E0,-2.714642E0,2.8641447E-1,3.5670187E0,-1.830846E0,2.1312928E0,2.4345075E-1,-2.598548E0,7.1235985E-1,3.6039753E0,1.4503033E0,-1.03856854E-1,1.0363497E0,-8.2353145E-1,3.6582658E-1,2.927897E0,-2.3688283E0,4.4821244E-1,-3.5210347E-1,8.26779E-1,1.0853987E0,7.8228726E0,-8.855186E-1,9.030861E-1,3.8008133E-1,-1.3693242E0,-1.0761582E-1,1.5874079E-1,-6.762528E-2,2.0439146E0,4.454943E0,5.1770806E-1,-1.370913E0,-1.2265884E-1,5.2475774E-1,-3.8819566E-1,-3.07563E-1,8.7275404E-1,-9.4146955E-1,-2.1056457E-1,1.5616769E0,4.710661E0,-1.6568942E-1,1.4964968E-1,1.7009273E-1,-1.0695368E0,-1.8064182E-1,-1.0843424E0,4.8028606E-1,2.540578E0,-2.7979758E-1,-1.4339201E0,-4.4724513E-2,1.7361103E-1,-7.3891526E-1,6.453587E-1,1.4260218E0,-2.3858729E-1],"categories":[],"categories_nodes":[],"categories_segments":[],"categories_sizes":[],"default_left":[0,0,0,0,0,0,0,0,0,0,0,0,0,0,0,0,0,0,0,0,0,0,0,0,0,0,0,0,0,0,0,0,0,0,0,0,0,0,0,0,0,0,0,0,0,0,0,0,0,0,0,0,0,0,0,0,0,0,0,0,0,0,0,0,0,0,0,0,0,0,0,0,0,0,0,0,0,0,0,0,0,0,0,0,0,0,0,0,0,0,0,0,0,0,0,0,0,0,0,0,0,0,0,0,0,0,0,0,0,0,0,0,0],"id":10,"left_children":[1,3,5,7,9,11,13,15,17,19,21,23,25,27,29,-1,31,33,35,37,39,41,43,45,47,49,51,53,55,57,59,61,-1,63,65,-1,67,69,71,73,-1,75,77,79,81,83,85,87,89,91,93,95,97,99,101,103,105,107,-1,109,111,-1,-1,-1,-1,-1,-1,-1,-1,-1,-1,-1,-1,-1,-1,-1,-1,-1,-1,-1,-1,-1,-1,-1,-1,-1,-1,-1,-1,-1,-1,-1,-1,-1,-1,-1,-1,-1,-1,-1,-1,-1,-1,-1,-1,-1,-1,-1,-1,-1,-1,-1,-1],"loss_changes":[2.3816022E2,2.5386186E2,3.2935703E2,2.0354065E2,1.6160304E2,1.5452426E2,3.0519266E2,9.9072174E1,2.4695181E2,7.2652344E2,5.949669E2,2.0662068E2,3.8230542E2,1.01336975E2,3.3840964E2,0E0,7.5741615E1,6.0960693E1,9.475487E1,7.657417E2,4.415899E2,1.0738801E3,3.1713196E2,3.249569E2,1.6359653E2,6.486497E1,2.2673114E2,1.0909595E2,2.226812E2,1.749992E2,1.1846907E2,7.8016235E1,0E0,3.269684E1,2.26688E1,0E0,5.6046844E1,6.28426E2,1.7055664E2,2.9610724E2,0E0,1.2766442E3,7.4688525E2,1.0867008E3,3.850511E2,2.5797916E2,2.3224109E2,1.0427196E2,1.4288284E2,2.667451E1,1.5217056E0,3.4127563E1,1.103922E0,1.3951923E2,1.8693587E2,4.0327988E1,2.130185E1,4.6814626E-1,0E0,5.0612892E1,1.03540184E2,0E0,0E0,0E0,0E0,0E0,0E0,0E0,0E0,0E0,0E0,0E0,0E0,0E0,0E0,0E0,0E0,0E0,0E0,0E0,0E0,0E0,0E0,0E0,0E0,0E0,0E0,0E0,0E0,0E0,0E0,0E0,0E0,0E0,0E0,0E0,0E0,0E0,0E0,0E0,0E0,0E0,0E0,0E0,0E0,0E0,0E0,0E0,0E0,0E0,0E0,0E0,0E0],"parents":[2147483647,0,0,1,1,2,2,3,3,4,4,5,5,6,6,7,7,8,8,9,9,10,10,11,11,12,12,13,13,14,14,16,16,17,17,18,18,19,19,20,20,21,21,22,22,23,23,24,24,25,25,26,26,27,27,28,28,29,29,30,30,31,31,33,33,34,34,36,36,37,37,38,38,39,39,41,41,42,42,43,43,44,44,45,45,46,46,47,47,48,48,49,49,50,50,51,51,52,52,53,53,54,54,55,55,56,56,57,57,59,59,60,60],"right_children":[2,4,6,8,10,12,14,16,18,20,22,24,26,28,30,-1,32,34,36,38,40,42,44,46,48,50,52,54,56,58,60,62,-1,64,66,-1,68,70,72,74,-1,76,78,80,82,84,86,88,90,92,94,96,98,100,102,104,106,108,-1,110,112,-1,-1,-1,-1,-1,-1,-1,-1,-1,-1,-1,-1,-1,-1,-1,-1,-1,-1,-1,-1,-1,-1,-1,-1,-1,-1,-1,-1,-1,-1,-1,-1,-1,-1,-1,-1,-1,-1,-1,-1,-1,-1,-1,-1,-1,-1,-1,-1,-1,-1,-1,-1],"split_conditions":[3.1624417E2,7.6367526E0,1.3206667E0,-1.8105832E0,2.2373335E0,5.29E-1,1.5574832E1,-9.981416E0,7.693584E0,1.4336861E1,2.8560832E0,-3.7543333E0,1.9483284E1,9.299999E0,1.5993581E1,1.3260733E0,1E-1,1.6104431E2,1.1812333E1,1.9102501E0,3.497192E1,1.2783802E1,3.6415002E0,-4.181417E0,-2.054333E0,1.0290002E0,4E-1,3.343424E2,3.28834E2,1.5662332E1,3.4194104E2,1.0640259E2,6.2809354E-1,4.433002E1,9.6233344E-1,-1.5597454E0,2.8000002E0,1.73525E0,1.3830749E1,3.0978772E2,2.8591297E0,1.243434E1,1.7283749E1,9.000001E-1,1.5273505E1,3.480978E2,1.243434E1,3.381165E2,3.3217596E2,6.3733345E-1,1.8000002E0,3.300406E2,7.727501E-1,2.320667E0,5E-1,1.0200002E1,1.4600002E1,1E-1,3.5670187E0,1.5000001E0,3.5034937E2,2.4345075E-1,-2.598548E0,7.1235985E-1,3.6039753E0,1.4503033E0,-1.03856854E-1,1.0363497E0,-8.2353145E-1,3.6582658E-1,2.927897E0,-2.3688283E0,4.4821244E-1,-3.5210347E-1,8.26779E-1,1.0853987E0,7.8228726E0,-8.855186E-1,9.030861E-1,3.8008133E-1,-1.3693242E0,-1.0761582E-1,1.5874079E-1,-6.762528E-2,2.0439146E0,4.454943E0,5.1770806E-1,-1.370913E0,-1.2265884E-1,5.2475774E-1,-3.8819566E-1,-3.07563E-1,8.7275404E-1,-9.4146955E-1,-2.1056457E-1,1.5616769E0,4.710661E0,-1.6568942E-1,1.4964968E-1,1.7009273E-1,-1.0695368E0,-1.8064182E-1,-1.0843424E0,4.8028606E-1,2.540578E0,-2.7979758E-1,-1.4339201E0,-4.4724513E-2,1.7361103E-1,-7.3891526E-1,6.453587E-1,1.4260218E0,-2.3858729E-1],"split_indices":[3,2,0,0,0,0,0,0,0,2,0,0,2,1,0,0,1,3,0,0,2,2,0,0,0,0,1,3,3,0,3,3,0,3,0,0,1,0,2,3,0,2,2,1,2,3,2,3,3,0,1,3,0,0,1,1,1,1,0,1,3,0,0,0,0,0,0,0,0,0,0,0,0,0,0,0,0,0,0,0,0,0,0,0,0,0,0,0,0,0,0,0,0,0,0,0,0,0,0,0,0,0,0,0,0,0,0,0,0,0,0,0,0],"split_type":[0,0,0,0,0,0,0,0,0,0,0,0,0,0,0,0,0,0,0,0,0,0,0,0,0,0,0,0,0,0,0,0,0,0,0,0,0,0,0,0,0,0,0,0,0,0,0,0,0,0,0,0,0,0,0,0,0,0,0,0,0,0,0,0,0,0,0,0,0,0,0,0,0,0,0,0,0,0,0,0,0,0,0,0,0,0,0,0,0,0,0,0,0,0,0,0,0,0,0,0,0,0,0,0,0,0,0,0,0,0,0,0,0],"sum_hessian":[3.527E3,3.154E3,3.73E2,2.2E1,3.132E3,1.52E2,2.21E2,5E0,1.7E1,7.71E2,2.361E3,1.35E2,1.7E1,1.87E2,3.4E1,1E0,4E0,8E0,9E0,2.41E2,5.3E2,1.15E2,2.246E3,4.9E1,8.6E1,1.1E1,6E0,1.77E2,1E1,5E0,2.9E1,3E0,1E0,5E0,3E0,1E0,8E0,2.29E2,1.2E1,5.27E2,3E0,1.1E1,1.04E2,1.27E2,2.119E3,4.4E1,5E0,2.5E1,6.1E1,6E0,5E0,4E0,2E0,7.6E1,1.01E2,4E0,6E0,2E0,3E0,1.7E1,1.2E1,1E0,2E0,1E0,4E0,2E0,1E0,7E0,1E0,2.21E2,8E0,1E1,2E0,5.08E2,1.9E1,8E0,3E0,2.8E1,7.6E1,6.9E1,5.8E1,7.62E2,1.357E3,3.9E1,5E0,2E0,3E0,1.5E1,1E1,2.6E1,3.5E1,2E0,4E0,4E0,1E0,2E0,2E0,1E0,1E0,9E0,6.7E1,7.3E1,2.8E1,2E0,2E0,4E0,2E0,1E0,1E0,1.5E1,2E0,6E0,6E0],"tree_param":{"num_deleted":"0","num_feature":"4","num_nodes":"113","size_leaf_vector":"1"}},{"base_weights":[3.479577E-2,2.0558906E-1,-3.2688823E-1,1.4711674E-1,2.6034508E0,-2.5847204E0,-1.4577787E-1,2.0451818E-1,-2.9997993E0,5.485614E0,-1.0439595E0,-3.7760758E0,3.779216E-1,1.1830332E-1,-8.7860125E-1,1.6050407E-1,7.3799295E0,-6.11909E0,-1.221615E0,1.0930276E1,1.1850408E0,-4.860129E0,3.813249E0,-4.5791116E0,1.2832485E0,6.6015635E0,-1.9348898E0,-1.4572116E0,2.7995634E-1,-4.4198585E0,-6.740654E-1,1.16298266E-1,2.1771634E0,1.3143074E1,-5.622345E0,-6.84454E0,6.0558105E-1,4.606207E0,-2.4041948E0,-6.2777007E-1,1.327513E1,1.8902487E-1,2.8669994E0,-5.9046164E0,-1.5349038E-1,5.331147E0,-5.5533385E-1,-2.6758752E0,-6.1148896E0,3.5960646E0,-1.5530657E0,-2.308606E0,1.0627353E1,-2.950381E0,-1.697917E-1,-1.2878396E-2,-3.3670433E0,1.0297496E0,-1.4577454E-1,-1.8375894E0,-2.602311E0,3.8953516E-1,-1.1141016E0,5.563469E-2,-5.9025633E-1,2.6957337E-2,2.2167027E0,-7.383835E-2,5.674939E0,-1.9600694E0,-2.9661986E-1,-1.3174281E0,-3.5638397E0,-9.9669236E-1,4.088755E-1,1.9294502E0,4.7679024E0,1.745687E0,-3.9746755E-1,-2.3401122E0,-1.1945072E0,4.216605E-1,2.457159E0,3.4627062E-1,-4.5298064E-1,-1.2275697E0,8.884668E-2,-2.2008986E0,-1.2406751E-1,-1.6744579E0,1.161233E0,2.2846785E-1,-1.2673405E0,4.652399E0,6.6127765E-1,-8.561955E-2,-1.0364513E0,-3.7487337E-1,1.1083069E0,-1.951288E-1,1.4505253E0,-2.1731257E0,-5.803541E-1,5.8329195E-1,-3.062338E-1,-5.538994E-1,1.2594846E-1,1.5635835E0,-1.2691759E0,-1.6447973E-1,1.6779388E0,-6.90715E-2,-6.7292106E-1],"categories":[],"categories_nodes":[],"categories_segments":[],"categories_sizes":[],"default_left":[0,0,0,0,0,0,0,0,0,0,0,0,0,0,0,0,0,0,0,0,0,0,0,0,0,0,0,0,0,0,0,0,0,0,0,0,0,0,0,0,0,0,0,0,0,0,0,0,0,0,0,0,0,0,0,0,0,0,0,0,0,0,0,0,0,0,0,0,0,0,0,0,0,0,0,0,0,0,0,0,0,0,0,0,0,0,0,0,0,0,0,0,0,0,0,0,0,0,0,0,0,0,0,0,0,0,0,0,0,0,0,0,0],"id":11,"left_children":[1,3,5,7,9,11,13,15,17,19,21,23,25,27,29,31,33,35,37,39,41,43,45,47,49,51,53,55,57,59,61,63,65,67,69,71,-1,-1,73,-1,75,77,-1,79,-1,81,83,85,87,-1,89,91,93,95,97,99,101,103,105,-1,107,109,111,-1,-1,-1,-1,-1,-1,-1,-1,-1,-1,-1,-1,-1,-1,-1,-1,-1,-1,-1,-1,-1,-1,-1,-1,-1,-1,-1,-1,-1,-1,-1,-1,-1,-1,-1,-1,-1,-1,-1,-1,-1,-1,-1,-1,-1,-1,-1,-1,-1,-1],"loss_changes":[2.1800305E2,3.356969E2,4.6251706E2,4.2348608E2,6.049353E2,2.979101E2,2.0311151E2,7.252E2,2.2548514E2,7.3633246E2,5.004671E2,2.4964508E2,3.7262604E2,1.9702614E2,1.9838005E2,2.0362842E2,1.1229707E3,1.0236871E2,5.857705E2,4.5529248E2,1.566207E2,6.5108215E1,8.2533356E1,1.3563074E2,2.918462E2,2.7562766E2,3.3555435E1,1.9856384E2,2.2391643E2,3.0555817E1,1.23992E2,3.229993E2,5.3239307E2,7.776669E2,1.4651245E1,1.2074963E2,0E0,0E0,9.791118E1,0E0,1.1277344E2,1.6112794E2,0E0,1.2686127E1,0E0,8.951137E1,8.270651E0,1.0642349E2,1.9195312E2,0E0,1.9640271E2,2.0863228E1,1.71367E2,1.5146416E1,3.7996014E1,1.3295944E2,1.5814539E2,4.7831732E2,4.3167923E2,0E0,1.3656339E2,3.8370145E2,1.860822E2,0E0,0E0,0E0,0E0,0E0,0E0,0E0,0E0,0E0,0E0,0E0,0E0,0E0,0E0,0E0,0E0,0E0,0E0,0E0,0E0,0E0,0E0,0E0,0E0,0E0,0E0,0E0,0E0,0E0,0E0,0E0,0E0,0E0,0E0,0E0,0E0,0E0,0E0,0E0,0E0,0E0,0E0,0E0,0E0,0E0,0E0,0E0,0E0,0E0,0E0],"parents":[2147483647,0,0,1,1,2,2,3,3,4,4,5,5,6,6,7,7,8,8,9,9,10,10,11,11,12,12,13,13,14,14,15,15,16,16,17,17,18,18,19,19,20,20,21,21,22,22,23,23,24,24,25,25,26,26,27,27,28,28,29,29,30,30,31,31,32,32,33,33,34,34,35,35,38,38,40,40,41,41,43,43,45,45,46,46,47,47,48,48,50,50,51,51,52,52,53,53,54,54,55,55,56,56,57,57,58,58,60,60,61,61,62,62],"right_children":[2,4,6,8,10,12,14,16,18,20,22,24,26,28,30,32,34,36,38,40,42,44,46,48,50,52,54,56,58,60,62,64,66,68,70,72,-1,-1,74,-1,76,78,-1,80,-1,82,84,86,88,-1,90,92,94,96,98,100,102,104,106,-1,108,110,112,-1,-1,-1,-1,-1,-1,-1,-1,-1,-1,-1,-1,-1,-1,-1,-1,-1,-1,-1,-1,-1,-1,-1,-1,-1,-1,-1,-1,-1,-1,-1,-1,-1,-1,-1,-1,-1,-1,-1,-1,-1,-1,-1,-1,-1,-1,-1,-1,-1,-1],"split_conditions":[1.961587E1,1.9386593E1,2.0008356E1,1.9201874E1,7.3956676E0,2.6321112E2,2.7013837E2,1.9164717E1,2.127038E2,2.0624757E2,2.4006854E2,5.3999996E0,2.760494E2,1.1441669E-1,2.733051E2,1.07E1,2.2117912E2,1.227275E1,2.1820456E2,3.2178623E1,3.5034937E2,1.6212332E1,3E-1,4E-1,5.5000005E0,1.967195E1,1.98E1,1.15555695E2,2.2668568E1,2.2805367E1,1.3206667E0,6.899999E0,1.6489416E1,1.2465299E2,5.1873336E0,1.7803435E2,6.0558105E-1,4.606207E0,2.938274E2,-6.2777007E-1,3E-1,-1.1980833E0,2.8669994E0,1.2928316E2,-1.5349038E-1,2.5462364E2,7.693584E0,6.8977504E0,1.743733E1,3.5960646E0,8.7E0,3.931083E0,8.954E0,2.8829956E2,2.9488446E2,9.472895E1,1.6689471E2,2.5999994E0,2.3871555E1,-1.8375894E0,2.3084955E1,5.29E-1,2.3871555E1,5.563469E-2,-5.9025633E-1,2.6957337E-2,2.2167027E0,-7.383835E-2,5.674939E0,-1.9600694E0,-2.9661986E-1,-1.3174281E0,-3.5638397E0,-9.9669236E-1,4.088755E-1,1.9294502E0,4.7679024E0,1.745687E0,-3.9746755E-1,-2.3401122E0,-1.1945072E0,4.216605E-1,2.457159E0,3.4627062E-1,-4.5298064E-1,-1.2275697E0,8.884668E-2,-2.2008986E0,-1.2406751E-1,-1.6744579E0,1.161233E0,2.2846785E-1,-1.2673405E0,4.652399E0,6.6127765E-1,-8.561955E-2,-1.0364513E0,-3.7487337E-1,1.1083069E0,-1.951288E-1,1.4505253E0,-2.1731257E0,-5.803541E-1,5.8329195E-1,-3.062338E-1,-5.538994E-1,1.2594846E-1,1.5635835E0,-1.2691759E0,-1.6447973E-1,1.6779388E0,-6.90715E-2,-6.7292106E-1],"split_indices":[2,2,2,2,0,3,3,2,3,3,3,1,3,0,3,1,3,0,3,3,3,0,1,1,1,2,2,3,2,2,0,1,0,3,0,3,0,0,3,0,1,0,0,3,0,3,0,0,0,0,1,0,0,3,3,3,3,1,2,0,2,0,2,0,0,0,0,0,0,0,0,0,0,0,0,0,0,0,0,0,0,0,0,0,0,0,0,0,0,0,0,0,0,0,0,0,0,0,0,0,0,0,0,0,0,0,0,0,0,0,0,0,0],"split_type":[0,0,0,0,0,0,0,0,0,0,0,0,0,0,0,0,0,0,0,0,0,0,0,0,0,0,0,0,0,0,0,0,0,0,0,0,0,0,0,0,0,0,0,0,0,0,0,0,0,0,0,0,0,0,0,0,0,0,0,0,0,0,0,0,0,0,0,0,0,0,0,0,0,0,0,0,0,0,0,0,0,0,0,0,0,0,0,0,0,0,0,0,0,0,0,0,0,0,0,0,0,0,0,0,0,0,0,0,0,0,0,0,0],"sum_hessian":[3.527E3,2.396E3,1.131E3,2.34E3,5.6E1,8.3E1,1.048E3,2.299E3,4.1E1,3.1E1,2.5E1,5.9E1,2.4E1,7.71E2,2.77E2,2.286E3,1.3E1,1.4E1,2.7E1,1.3E1,1.8E1,1.4E1,1.1E1,5.1E1,8E0,6E0,1.8E1,7.1E1,7E2,1.4E1,2.63E2,2.238E3,4.8E1,9E0,4E0,1.3E1,1E0,1E0,2.6E1,2E0,1.1E1,1.7E1,1E0,1.1E1,3E0,8E0,3E0,2.4E1,2.7E1,1E0,7E0,2E0,4E0,1.1E1,7E0,4.1E1,3E1,2.53E2,4.47E2,6E0,8E0,7.7E1,1.86E2,2.167E3,7.1E1,3.5E1,1.3E1,3E0,6E0,3E0,1E0,1E1,3E0,2.1E1,5E0,4E0,7E0,3E0,1.4E1,4E0,7E0,4E0,4E0,1E0,2E0,1.6E1,8E0,2.2E1,5E0,4E0,3E0,1E0,1E0,2E0,2E0,2E0,9E0,6E0,1E0,3.7E1,4E0,7E0,2.3E1,1.75E2,7.8E1,1.11E2,3.36E2,1E0,7E0,6.6E1,1.1E1,1.05E2,8.1E1],"tree_param":{"num_deleted":"0","num_feature":"4","num_nodes":"113","size_leaf_vector":"1"}},{"base_weights":[2.8679268E-2,3.5974705E-1,-1.3891573E-1,-2.177594E-2,1.6118271E0,-1.5610927E0,-5.0570842E-2,1.486699E0,-2.3968153E-1,3.3266623E0,4.623749E-1,-7.516337E0,-8.221517E-1,2.1869047E0,-1.4013036E-1,4.2203884E0,-6.81068E-1,-1.5733771E0,1.2230881E-1,7.017874E0,6.0645294E-1,-5.2897363E0,1.1495458E0,-9.010443E0,2.0101726E0,4.2797092E-1,-2.9985414E0,9.157661E0,4.1419204E-2,2.1976715E-1,-3.6544126E-1,6.9941074E-1,1.0636658E1,1.0115148E0,-4.035276E0,-1.727636E-1,-3.7239807E0,4.5301204E0,-7.95826E-3,3.22313E0,1.3524885E1,1.2052201E1,-3.4166503E-1,-1.0769122E0,-8.552304E0,-2.4615757E0,2.2699876E0,-2.0669887E0,-1.0716205E1,-1.9991E-1,4.9202776E0,-5.0578527E0,1.0500765E0,-4.8070464E0,1.4133034E1,-4.0511365E0,3.782001E0,2.6942506E0,4.134261E-2,-2.108332E0,-1.2199928E-1,9.649636E-1,-2.4593352E-1,5.4360527E-1,4.4693933E0,-2.424161E0,5.621619E-1,-1.5553017E0,2.7252126E-1,-1.5439035E0,7.176292E-2,-2.5660586E0,-3.0151373E-1,4.9680892E-1,2.642992E0,1.1669932E-1,-4.6537787E-1,2.6424627E0,-9.964501E-1,5.245567E-1,5.104164E0,1.564732E0,4.4613686E0,-1.6700861E0,3.1548265E-1,-1.5530486E0,9.71516E-1,-3.5384321E0,-8.8526446E-1,8.1024337E-1,-1.2847205E0,5.236088E0,5.1223415E-1,1.1013451E-1,-9.0021855E-1,-3.3570588E0,-8.964441E-1,-1.9705565E0,1.0007525E-1,-5.786961E-1,-1.8920816E0,5.859558E0,-4.4524997E-1,-2.294239E0,1.4092555E0,7.2248144E0,2.024977E0,-3.1538913E0,-8.2576627E-1,3.6128178E0,-1.1993409E-3,-2.163239E-1,1.5514659E0,-8.1512874E-1,7.3985316E-2,-9.738896E-1,5.567131E-2,-4.8403073E-2,6.7449856E0],"categories":[],"categories_nodes":[],"categories_segments":[],"categories_sizes":[],"default_left":[0,0,0,0,0,0,0,0,0,0,0,0,0,0,0,0,0,0,0,0,0,0,0,0,0,0,0,0,0,0,0,0,0,0,0,0,0,0,0,0,0,0,0,0,0,0,0,0,0,0,0,0,0,0,0,0,0,0,0,0,0,0,0,0,0,0,0,0,0,0,0,0,0,0,0,0,0,0,0,0,0,0,0,0,0,0,0,0,0,0,0,0,0,0,0,0,0,0,0,0,0,0,0,0,0,0,0,0,0,0,0,0,0,0,0,0,0,0,0],"id":12,"left_children":[1,3,5,7,9,11,13,15,17,19,21,23,25,27,29,31,33,35,37,39,41,43,45,47,-1,49,51,53,55,57,59,61,63,65,67,69,71,73,75,77,79,81,83,85,87,89,91,93,95,97,-1,99,101,103,105,107,109,111,113,115,117,-1,-1,-1,-1,-1,-1,-1,-1,-1,-1,-1,-1,-1,-1,-1,-1,-1,-1,-1,-1,-1,-1,-1,-1,-1,-1,-1,-1,-1,-1,-1,-1,-1,-1,-1,-1,-1,-1,-1,-1,-1,-1,-1,-1,-1,-1,-1,-1,-1,-1,-1,-1,-1,-1,-1,-1,-1,-1],"loss_changes":[1.9580214E2,5.6658417E2,2.943004E2,2.9947797E2,5.444624E2,5.966992E2,4.425611E2,6.843646E2,3.8448926E2,1.1102804E3,6.661789E2,3.7899878E2,3.3593604E2,1.2708516E3,1.722319E2,1.1447291E3,3.731046E2,5.1142465E2,3.600549E2,1.1169521E3,7.0949255E2,2.3819318E2,6.124955E2,1.4366394E2,0E0,7.955786E2,3.8049255E2,1.4575309E3,1.0256849E3,3.610426E2,5.538691E2,1.3265297E2,6.498876E2,3.6012848E2,1.2968262E2,2.1432524E2,8.7119556E2,2.0682272E2,3.7430325E2,1.162377E3,6.687412E2,1.8795471E1,4.4995E2,1.7599585E2,1.468194E2,3.4995898E2,9.524612E2,1.0192886E1,6.8554688E0,2.6380765E2,0E0,1.0508069E2,7.783858E2,1.9790562E2,9.3933716E2,2.395816E2,1.0946763E3,4.6907343E2,4.3327643E2,4.182641E2,1.0237568E3,0E0,0E0,0E0,0E0,0E0,0E0,0E0,0E0,0E0,0E0,0E0,0E0,0E0,0E0,0E0,0E0,0E0,0E0,0E0,0E0,0E0,0E0,0E0,0E0,0E0,0E0,0E0,0E0,0E0,0E0,0E0,0E0,0E0,0E0,0E0,0E0,0E0,0E0,0E0,0E0,0E0,0E0,0E0,0E0,0E0,0E0,0E0,0E0,0E0,0E0,0E0,0E0,0E0,0E0,0E0,0E0,0E0,0E0],"parents":[2147483647,0,0,1,1,2,2,3,3,4,4,5,5,6,6,7,7,8,8,9,9,10,10,11,11,12,12,13,13,14,14,15,15,16,16,17,17,18,18,19,19,20,20,21,21,22,22,23,23,25,25,26,26,27,27,28,28,29,29,30,30,31,31,32,32,33,33,34,34,35,35,36,36,37,37,38,38,39,39,40,40,41,41,42,42,43,43,44,44,45,45,46,46,47,47,48,48,49,49,51,51,52,52,53,53,54,54,55,55,56,56,57,57,58,58,59,59,60,60],"right_children":[2,4,6,8,10,12,14,16,18,20,22,24,26,28,30,32,34,36,38,40,42,44,46,48,-1,50,52,54,56,58,60,62,64,66,68,70,72,74,76,78,80,82,84,86,88,90,92,94,96,98,-1,100,102,104,106,108,110,112,114,116,118,-1,-1,-1,-1,-1,-1,-1,-1,-1,-1,-1,-1,-1,-1,-1,-1,-1,-1,-1,-1,-1,-1,-1,-1,-1,-1,-1,-1,-1,-1,-1,-1,-1,-1,-1,-1,-1,-1,-1,-1,-1,-1,-1,-1,-1,-1,-1,-1,-1,-1,-1,-1,-1,-1,-1,-1,-1,-1],"split_conditions":[1.8144345E2,1.5125282E2,1.9175606E2,-1.1980833E0,7.3956676E0,1.2665001E0,1.9866467E2,1.5349684E1,2.6290004E0,9E-1,9.179E0,3.0599998E1,1.3779E1,2.8560832E0,1.6299694E1,7.018371E1,6.840926E1,8.49468E1,2.9394162E0,1.7026896E1,1.1298495E1,1.6247073E2,1.2599999E1,-2.750167E0,2.0101726E0,1.3641499E1,1.8891493E2,-4.4391656E-1,1.658346E1,2.078363E2,1.7313717E1,1.1177405E1,1.1753877E1,1.5807239E1,-2.054333E0,-1.1480833E0,1.0295759E2,2.82275E0,1.9201874E1,1.243434E1,1.2081667E0,1.01376915E1,1.5725037E1,8.006085E0,1.8947083E1,1.0883676E1,9.556084E0,1.3779114E1,4.1E0,1.1177405E1,4.9202776E0,1.4471821E1,1.2287555E1,1.98E1,1E-1,8.164416E0,1.9130875E1,1.3504799E1,2.1478157E2,2.85033E2,2.1989418E1,9.649636E-1,-2.4593352E-1,5.4360527E-1,4.4693933E0,-2.424161E0,5.621619E-1,-1.5553017E0,2.7252126E-1,-1.5439035E0,7.176292E-2,-2.5660586E0,-3.0151373E-1,4.9680892E-1,2.642992E0,1.1669932E-1,-4.6537787E-1,2.6424627E0,-9.964501E-1,5.245567E-1,5.104164E0,1.564732E0,4.4613686E0,-1.6700861E0,3.1548265E-1,-1.5530486E0,9.71516E-1,-3.5384321E0,-8.8526446E-1,8.1024337E-1,-1.2847205E0,5.236088E0,5.1223415E-1,1.1013451E-1,-9.0021855E-1,-3.3570588E0,-8.964441E-1,-1.9705565E0,1.0007525E-1,-5.786961E-1,-1.8920816E0,5.859558E0,-4.4524997E-1,-2.294239E0,1.4092555E0,7.2248144E0,2.024977E0,-3.1538913E0,-8.2576627E-1,3.6128178E0,-1.1993409E-3,-2.163239E-1,1.5514659E0,-8.1512874E-1,7.3985316E-2,-9.738896E-1,5.567131E-2,-4.8403073E-2,6.7449856E0],"split_indices":[3,3,3,0,0,0,3,2,0,1,0,2,0,0,2,3,3,3,0,2,2,3,2,0,0,0,3,0,2,3,2,2,2,2,0,0,3,0,2,2,0,2,2,0,2,2,0,2,1,2,0,2,2,2,1,0,2,2,3,3,0,0,0,0,0,0,0,0,0,0,0,0,0,0,0,0,0,0,0,0,0,0,0,0,0,0,0,0,0,0,0,0,0,0,0,0,0,0,0,0,0,0,0,0,0,0,0,0,0,0,0,0,0,0,0,0,0,0,0],"split_type":[0,0,0,0,0,0,0,0,0,0,0,0,0,0,0,0,0,0,0,0,0,0,0,0,0,0,0,0,0,0,0,0,0,0,0,0,0,0,0,0,0,0,0,0,0,0,0,0,0,0,0,0,0,0,0,0,0,0,0,0,0,0,0,0,0,0,0,0,0,0,0,0,0,0,0,0,0,0,0,0,0,0,0,0,0,0,0,0,0,0,0,0,0,0,0,0,0,0,0,0,0,0,0,0,0,0,0,0,0,0,0,0,0,0,0,0,0,0,0],"sum_hessian":[3.527E3,1.185E3,2.342E3,9.09E2,2.76E2,1.36E2,2.206E3,1.14E2,7.95E2,1.1E2,1.66E2,1.4E1,1.22E2,8.4E1,2.122E3,5E1,6.4E1,1.69E2,6.26E2,4.6E1,6.4E1,1.7E1,1.49E2,1.3E1,1E0,7.8E1,4.4E1,1.9E1,6.5E1,8.17E2,1.305E3,3.3E1,1.7E1,4.3E1,2.1E1,1.03E2,6.6E1,1.7E1,6.09E2,3E1,1.6E1,4E0,6E1,8E0,9E0,3.5E1,1.14E2,3E0,1E1,7.6E1,2E0,2.9E1,1.5E1,5E0,1.4E1,3.1E1,3.4E1,5.4E1,7.63E2,1.59E2,1.146E3,1.2E1,2.1E1,6E0,1.1E1,3E0,4E1,1.7E1,4E0,7E0,9.6E1,2.3E1,4.3E1,1.1E1,6E0,4.85E2,1.24E2,1.6E1,1.4E1,4E0,1.2E1,2E0,2E0,1.2E1,4.8E1,4E0,4E0,5E0,4E0,9E0,2.6E1,3E0,1.11E2,1E0,2E0,9E0,1E0,5E0,7.1E1,9E0,2E1,1E0,1.4E1,4E0,1E0,5E0,9E0,4E0,2.7E1,1E1,2.4E1,2.3E1,3.1E1,5.2E1,7.11E2,1.06E2,5.3E1,1.145E3,1E0],"tree_param":{"num_deleted":"0","num_feature":"4","num_nodes":"119","size_leaf_vector":"1"}},{"base_weights":[2.8743858E-2,3.0141459E0,1.5992071E-2,-1.9284846E0,3.9228954E0,9.739815E-2,-4.2288977E-1,-1.3516337E0,4.8381558E-1,5.995164E0,1.2902132E0,6.1316736E-2,2.5478299E0,9.314744E-2,-1.0202392E0,1.1704732E-1,6.8643055E0,1.2549683E0,-1.9253545E0,2.2622521E-1,-1.9569404E-1,5.139453E0,7.0790246E-2,-3.795819E0,2.7083555E-1,1.2603843E0,-1.3184626E0,5.8639646E-1,7.4553046E0,-1.1306105E0,5.4070306E-1,1.3548274E-1,7.156216E0,1.1899561E0,-5.161667E-1,-1.4911673E0,7.8911123E0,-2.416482E0,1.8423568E0,-6.219361E0,-1.5036856E0,6.56967E-1,-1.0402377E0,-1.787331E0,5.9809012E0,-5.0563574E0,-1.0477698E0,6.39592E-1,2.4759433E0,-1.907431E-1,1.1066482E-1,-1.344703E0,3.7584698E0,1.13128126E-1,3.190569E0,-1.2221537E0,-1.0419504E-1,7.047495E-1,-7.568251E-1,3.2643738E0,1.1743772E0,1.3162938E-1,-2.042713E0,-6.099508E-1,2.204576E0,-4.2403308E-1,-2.0693567E0,1.2459275E0,-1.2244381E0,5.333138E-2,8.6291057E-1,7.1382606E-1,-6.34117E-1,7.854061E-1,-8.330882E-1,6.978088E0,6.8864274E-1,-2.163738E0,-1.8603808E-1,-4.4646367E-1,1.46424E-1],"categories":[],"categories_nodes":[],"categories_segments":[],"categories_sizes":[],"default_left":[0,0,0,0,0,0,0,0,0,0,0,0,0,0,0,0,0,0,0,0,0,0,0,0,0,0,0,0,0,0,0,0,0,0,0,0,0,0,0,0,0,0,0,0,0,0,0,0,0,0,0,0,0,0,0,0,0,0,0,0,0,0,0,0,0,0,0,0,0,0,0,0,0,0,0,0,0,0,0,0,0],"id":13,"left_children":[1,3,5,7,9,11,13,-1,-1,15,17,19,21,23,25,-1,27,-1,29,31,33,35,37,39,41,43,45,-1,47,-1,-1,49,51,53,55,57,59,61,63,65,67,69,71,73,75,77,79,-1,-1,-1,-1,-1,-1,-1,-1,-1,-1,-1,-1,-1,-1,-1,-1,-1,-1,-1,-1,-1,-1,-1,-1,-1,-1,-1,-1,-1,-1,-1,-1,-1,-1],"loss_changes":[1.3425995E2,7.493945E1,1.2558815E2,3.4642643E1,6.318808E1,2.6199435E2,1.6963509E2,0E0,0E0,3.1422623E1,7.317298E1,1.2393053E2,2.7567697E2,2.0557088E2,1.7509619E2,0E0,2.8370667E0,0E0,3.427826E1,1.1190027E3,5.081781E2,3.9491632E2,1.05798485E2,6.286409E1,1.4445744E2,4.4229364E2,2.2337372E2,0E0,3.6403198E0,0E0,0E0,3.1688934E2,1.494174E3,1.6466963E3,5.56648E2,3.3657703E1,1.3575928E2,1.28406E2,3.136944E2,9.815018E0,1.3360583E2,2.3346478E2,2.4364142E2,9.010379E1,7.1078955E2,1.3900189E2,1.4413452E2,0E0,0E0,0E0,0E0,0E0,0E0,0E0,0E0,0E0,0E0,0E0,0E0,0E0,0E0,0E0,0E0,0E0,0E0,0E0,0E0,0E0,0E0,0E0,0E0,0E0,0E0,0E0,0E0,0E0,0E0,0E0,0E0,0E0,0E0],"parents":[2147483647,0,0,1,1,2,2,3,3,4,4,5,5,6,6,9,9,10,10,11,11,12,12,13,13,14,14,16,16,18,18,19,19,20,20,21,21,22,22,23,23,24,24,25,25,26,26,28,28,31,31,32,32,33,33,34,34,35,35,36,36,37,37,38,38,39,39,40,40,41,41,42,42,43,43,44,44,45,45,46,46],"right_children":[2,4,6,8,10,12,14,-1,-1,16,18,20,22,24,26,-1,28,-1,30,32,34,36,38,40,42,44,46,-1,48,-1,-1,50,52,54,56,58,60,62,64,66,68,70,72,74,76,78,80,-1,-1,-1,-1,-1,-1,-1,-1,-1,-1,-1,-1,-1,-1,-1,-1,-1,-1,-1,-1,-1,-1,-1,-1,-1,-1,-1,-1,-1,-1,-1,-1,-1,-1],"split_conditions":[7.072878E0,7.7806416E0,2.9770987E2,1.1812333E1,2.3492967E2,2.938274E2,4.5623336E0,-1.3516337E0,4.8381558E-1,-1.8105832E0,-1.9314164E0,1.144775E1,1.6199999E1,3.000356E2,3.0254428E2,1.1704732E-1,4.433002E1,1.2549683E0,7.3956676E0,1.1181084E1,1.0640259E2,-2.298083E0,4.324833E0,-2.4918334E0,8E-1,3E-1,5.2831674E0,5.8639646E-1,1.7900002E-1,-1.1306105E0,5.4070306E-1,1.0640259E2,1.5192682E1,9.740363E1,1.2239716E2,-9.981416E0,1.4773164E1,2.9603937E2,2.0799152E1,-7.87725E0,1.5629971E1,2.2725668E1,1.5273505E1,1.243434E1,4.943584E0,3E-1,3.4604227E2,6.39592E-1,2.4759433E0,-1.907431E-1,1.1066482E-1,-1.344703E0,3.7584698E0,1.13128126E-1,3.190569E0,-1.2221537E0,-1.0419504E-1,7.047495E-1,-7.568251E-1,3.2643738E0,1.1743772E0,1.3162938E-1,-2.042713E0,-6.099508E-1,2.204576E0,-4.2403308E-1,-2.0693567E0,1.2459275E0,-1.2244381E0,5.333138E-2,8.6291057E-1,7.1382606E-1,-6.34117E-1,7.854061E-1,-8.330882E-1,6.978088E0,6.8864274E-1,-2.163738E0,-1.8603808E-1,-4.4646367E-1,1.46424E-1],"split_indices":[2,3,3,0,3,3,0,0,0,0,0,0,2,3,3,0,3,0,0,0,3,0,0,0,1,1,0,0,0,0,0,3,2,3,3,0,2,3,2,0,2,2,2,2,0,1,3,0,0,0,0,0,0,0,0,0,0,0,0,0,0,0,0,0,0,0,0,0,0,0,0,0,0,0,0,0,0,0,0,0,0],"split_type":[0,0,0,0,0,0,0,0,0,0,0,0,0,0,0,0,0,0,0,0,0,0,0,0,0,0,0,0,0,0,0,0,0,0,0,0,0,0,0,0,0,0,0,0,0,0,0,0,0,0,0,0,0,0,0,0,0,0,0,0,0,0,0,0,0,0,0,0,0,0,0,0,0,0,0,0,0,0,0,0,0],"sum_hessian":[3.527E3,1.4E1,3.513E3,2E0,1.2E1,2.964E3,5.49E2,1E0,1E0,6E0,6E0,2.922E3,4.2E1,2.95E2,2.54E2,1E0,5E0,3E0,3E0,1.78E3,1.142E3,2E1,2.2E1,1.2E1,2.83E2,2.9E1,2.25E2,1E0,4E0,2E0,1E0,1.758E3,2.2E1,2.14E2,9.28E2,6E0,1.4E1,9E0,1.3E1,5E0,7E0,2.19E2,6.4E1,1.8E1,1.1E1,1.4E1,2.11E2,1E0,3E0,4.08E2,1.35E3,7E0,1.5E1,1.98E2,1.6E1,4.1E1,8.87E2,1E0,5E0,7E0,7E0,6E0,3E0,8E0,5E0,1E0,4E0,2E0,5E0,1.81E2,3.8E1,1.5E1,4.9E1,3E0,1.5E1,1E0,1E1,9E0,5E0,1.64E2,4.7E1],"tree_param":{"num_deleted":"0","num_feature":"4","num_nodes":"81","size_leaf_vector":"1"}},{"base_weights":[2.4511501E-2,2.787127E-1,-1.04172714E-1,1.815221E-1,4.150022E0,9.397708E-2,-4.4223416E-1,2.9311422E-1,-1.0560191E0,-7.944757E-1,7.68699E0,-1.02009095E-1,1.2844481E0,-4.7225056E0,-3.3546355E-1,1.6313256E-1,2.3890579E0,-6.490636E-2,-4.1989026E0,4.182516E0,-9.594166E0,1.7433277E1,7.859905E-1,-2.3126328E0,5.6879385E-3,5.1222615E0,6.3767684E-1,-6.7758054E-1,-5.112625E0,2.4544983E0,-4.3043727E-1,2.7206594E-1,-3.7806494E0,1.8008608E-1,7.7787623E0,-1.2175825E0,7.4339786E0,-7.42553E0,-6.223664E-1,4.185259E0,1.2176149E0,-5.456117E-1,-3.3250067E0,8.141624E0,6.7099833E0,-2.4672582E0,1.028374E1,-5.3335924E0,2.2914138E-1,5.5070434E0,-1.00645564E-1,1.3327325E1,1.5328145E0,-2.7221699E0,1.4387519E0,5.9113455E-1,-8.960458E-1,-1.796875E0,-5.3970146E0,3.9638956E0,1.1187308E0,-2.0310185E0,-2.0500034E-1,2.6277673E-1,-7.972221E-2,-1.3102909E0,1.7221504E0,1.2356771E0,-3.6461657E-1,5.2191005E0,4.5596793E-1,-1.332077E-1,-1.379137E0,-7.769911E-1,3.0791137E0,-2.8726723E0,-1.1038672E0,7.2616625E-1,-2.194004E0,5.557034E-1,-4.838239E-1,4.0223994E0,-1.1486247E0,2.3226783E-1,-2.7624907E0,9.300179E-1,3.6976652E0,-2.130728E0,1.160929E0,3.5400054E0,-2.6940376E-1,5.1022987E0,4.1026717E-1,7.252015E-1,-5.3038508E-2,4.6597257E0,-6.470138E-1,-9.1052645E-1,1.478603E0,-1.2673721E0,4.3688887E-1,8.84382E-1,-2.705631E-1,-1.4986191E0,6.9002527E-1,-2.1727E0,-1.1196251E0,6.291057E-1,-7.475201E-1,-4.3700668E-1,-1.4349587E0,-9.292034E-2,9.381737E-1],"categories":[],"categories_nodes":[],"categories_segments":[],"categories_sizes":[],"default_left":[0,0,0,0,0,0,0,0,0,0,0,0,0,0,0,0,0,0,0,0,0,0,0,0,0,0,0,0,0,0,0,0,0,0,0,0,0,0,0,0,0,0,0,0,0,0,0,0,0,0,0,0,0,0,0,0,0,0,0,0,0,0,0,0,0,0,0,0,0,0,0,0,0,0,0,0,0,0,0,0,0,0,0,0,0,0,0,0,0,0,0,0,0,0,0,0,0,0,0,0,0,0,0,0,0,0,0,0,0,0,0,0,0],"id":14,"left_children":[1,3,5,7,9,11,13,15,17,19,21,23,25,27,29,31,33,35,37,39,41,43,45,47,49,51,53,55,57,59,61,63,65,67,69,71,73,75,77,-1,79,-1,-1,81,-1,83,85,87,89,91,93,95,97,99,101,-1,-1,103,105,-1,107,109,111,-1,-1,-1,-1,-1,-1,-1,-1,-1,-1,-1,-1,-1,-1,-1,-1,-1,-1,-1,-1,-1,-1,-1,-1,-1,-1,-1,-1,-1,-1,-1,-1,-1,-1,-1,-1,-1,-1,-1,-1,-1,-1,-1,-1,-1,-1,-1,-1,-1,-1],"loss_changes":[1.15435844E2,4.4548486E2,1.5699164E2,1.6022914E2,5.1327454E2,3.4497186E2,3.94184E2,2.892079E2,2.9876282E2,6.094755E2,1.1297026E3,3.0237173E2,5.1551086E2,2.9673859E1,2.252237E2,4.314973E2,7.367528E2,6.486916E2,2.6080206E2,2.4367285E2,3.773828E1,1.3877124E2,3.652566E2,4.5425937E2,7.095481E2,8.6312085E2,4.8838464E2,2.4230167E1,8.218597E0,3.8760168E2,2.951035E2,3.171966E2,1.7596973E2,2.5235074E2,1.0571458E3,1.6788611E2,3.1023376E2,6.1414185E1,2.620238E2,0E0,1.7359474E1,0E0,0E0,3.0349768E2,0E0,2.037882E2,5.793213E0,4.6702338E2,4.4098773E2,1.0716941E3,2.2860167E2,3.4079285E2,3.5622223E2,2.2587317E2,5.1839624E2,0E0,0E0,5.0802467E1,2.5200562E1,0E0,9.7059166E1,1.5267877E2,2.5189952E2,0E0,0E0,0E0,0E0,0E0,0E0,0E0,0E0,0E0,0E0,0E0,0E0,0E0,0E0,0E0,0E0,0E0,0E0,0E0,0E0,0E0,0E0,0E0,0E0,0E0,0E0,0E0,0E0,0E0,0E0,0E0,0E0,0E0,0E0,0E0,0E0,0E0,0E0,0E0,0E0,0E0,0E0,0E0,0E0,0E0,0E0,0E0,0E0,0E0,0E0],"parents":[2147483647,0,0,1,1,2,2,3,3,4,4,5,5,6,6,7,7,8,8,9,9,10,10,11,11,12,12,13,13,14,14,15,15,16,16,17,17,18,18,19,19,20,20,21,21,22,22,23,23,24,24,25,25,26,26,27,27,28,28,29,29,30,30,31,31,32,32,33,33,34,34,35,35,36,36,37,37,38,38,40,40,43,43,45,45,46,46,47,47,48,48,49,49,50,50,51,51,52,52,53,53,54,54,57,57,58,58,60,60,61,61,62,62],"right_children":[2,4,6,8,10,12,14,16,18,20,22,24,26,28,30,32,34,36,38,40,42,44,46,48,50,52,54,56,58,60,62,64,66,68,70,72,74,76,78,-1,80,-1,-1,82,-1,84,86,88,90,92,94,96,98,100,102,-1,-1,104,106,-1,108,110,112,-1,-1,-1,-1,-1,-1,-1,-1,-1,-1,-1,-1,-1,-1,-1,-1,-1,-1,-1,-1,-1,-1,-1,-1,-1,-1,-1,-1,-1,-1,-1,-1,-1,-1,-1,-1,-1,-1,-1,-1,-1,-1,-1,-1,-1,-1,-1,-1,-1,-1],"split_conditions":[1.8144345E2,1.7803435E2,1.0778999E1,2.3587555E1,1.0778999E1,8.006085E0,1.112275E1,8.7E0,1.5890395E2,1.8010251E2,1.5222747E1,1.9175606E2,2.051186E2,1.8484518E2,1.144775E1,7.1999993E0,1.4537334E1,1.4408847E2,2.7047956E1,4.6441674E-1,1.5352502E0,1.26727495E1,2.0681086E1,1.8837322E1,1.9631625E2,8.954E0,2.2877826E2,1.0964416E1,1.097262E1,1.9297676E2,1.27664995E1,7.1665E0,1.7593582E1,1.5299999E1,1.1799999E1,1.15555695E2,2.6649997E-1,1.6942032E2,3.0599998E1,4.185259E0,1.985556E1,-5.456117E-1,-3.3250067E0,1.2410249E1,6.7099833E0,1.7960249E1,2.2722754E1,4.3999996E0,1.9201874E1,1E-1,9.693296E0,8.000001E-1,1.9512282E2,1.00060835E1,2.8215475E2,5.9113455E-1,-8.960458E-1,1E-1,1.0964416E1,3.9638956E0,3.0652124E2,1.2514419E1,2.8019936E1,2.6277673E-1,-7.972221E-2,-1.3102909E0,1.7221504E0,1.2356771E0,-3.6461657E-1,5.2191005E0,4.5596793E-1,-1.332077E-1,-1.379137E0,-7.769911E-1,3.0791137E0,-2.8726723E0,-1.1038672E0,7.2616625E-1,-2.194004E0,5.557034E-1,-4.838239E-1,4.0223994E0,-1.1486247E0,2.3226783E-1,-2.7624907E0,9.300179E-1,3.6976652E0,-2.130728E0,1.160929E0,3.5400054E0,-2.6940376E-1,5.1022987E0,4.1026717E-1,7.252015E-1,-5.3038508E-2,4.6597257E0,-6.470138E-1,-9.1052645E-1,1.478603E0,-1.2673721E0,4.3688887E-1,8.84382E-1,-2.705631E-1,-1.4986191E0,6.9002527E-1,-2.1727E0,-1.1196251E0,6.291057E-1,-7.475201E-1,-4.3700668E-1,-1.4349587E0,-9.292034E-2,9.381737E-1],"split_indices":[3,3,0,2,0,0,0,1,3,3,0,3,3,3,0,1,0,3,2,0,0,0,0,2,3,0,3,0,2,3,0,0,0,2,1,3,0,3,2,0,2,0,0,0,0,0,0,1,2,1,2,1,3,0,3,0,0,1,0,0,3,0,2,0,0,0,0,0,0,0,0,0,0,0,0,0,0,0,0,0,0,0,0,0,0,0,0,0,0,0,0,0,0,0,0,0,0,0,0,0,0,0,0,0,0,0,0,0,0,0,0,0,0],"split_type":[0,0,0,0,0,0,0,0,0,0,0,0,0,0,0,0,0,0,0,0,0,0,0,0,0,0,0,0,0,0,0,0,0,0,0,0,0,0,0,0,0,0,0,0,0,0,0,0,0,0,0,0,0,0,0,0,0,0,0,0,0,0,0,0,0,0,0,0,0,0,0,0,0,0,0,0,0,0,0,0,0,0,0,0,0,0,0,0,0,0,0,0,0,0,0,0,0,0,0,0,0,0,0,0,0,0,0,0,0,0,0,0,0],"sum_hessian":[3.527E3,1.185E3,2.342E3,1.157E3,2.8E1,1.477E3,8.65E2,1.062E3,9.5E1,1.2E1,1.6E1,1.269E3,2.08E2,2E1,8.45E2,1.001E3,6.1E1,7.3E1,2.2E1,8E0,4E0,6E0,1E1,5.8E1,1.211E3,2.9E1,1.79E2,2E0,1.8E1,2.7E1,8.18E2,9.75E2,2.6E1,4.4E1,1.7E1,6.4E1,9E0,1.1E1,1.1E1,1E0,7E0,1E0,3E0,3E0,3E0,8E0,2E0,2.6E1,3.2E1,2.2E1,1.189E3,8E0,2.1E1,3.4E1,1.45E2,1E0,1E0,2E0,1.6E1,2E0,2.5E1,1E2,7.18E2,4.59E2,5.16E2,2.5E1,1E0,1.1E1,3.3E1,6E0,1.1E1,5.3E1,1.1E1,2E0,7E0,6E0,5E0,8E0,3E0,6E0,1E0,2E0,1E0,6E0,2E0,1E0,1E0,2.2E1,4E0,2E0,3E1,5E0,1.7E1,3.4E1,1.155E3,7E0,1E0,9E0,1.2E1,2.5E1,9E0,8.8E1,5.7E1,1E0,1E0,6E0,1E1,2E1,5E0,8.4E1,1.6E1,6.97E2,2.1E1],"tree_param":{"num_deleted":"0","num_feature":"4","num_nodes":"113","size_leaf_vector":"1"}},{"base_weights":[2.447547E-2,-3.5385363E-2,5.0900745E-1,3.126472E-2,-8.0961543E-1,1.7316857E-2,3.4856555E0,1.0787747E-2,3.9593937E0,1.5238888E0,-1.1731781E0,-1.5068473E0,3.0371183E-1,1.3506219E1,2.434901E0,-1.4961412E0,3.362425E-2,7.847864E0,4.9509504E-1,-4.7137696E-1,9.287253E0,2.2477467E0,-1.5924994E0,2.1167E0,-2.9928975E0,3.149542E0,-1.6598745E-1,-2.4910127E-1,1.7297943E1,5.175926E0,-8.644157E-1,-2.0080037E0,3.000312E0,4.461084E0,1.0087048E-2,8.943182E0,1.0219141E0,-3.384006E0,2.8143897E0,3.3503237E0,-2.1675735E0,1.4407459E1,-7.0265216E-1,6.1374867E-1,8.334189E0,-5.9488287E0,-1.2448266E0,4.412769E0,-1.7624099E0,-5.7147136E0,-1.5168779E0,5.069994E0,-2.3743758E0,-1.4611651E0,7.345941E-1,6.8600516E0,8.868771E-2,3.6167765E0,7.090946E0,-2.5357199E0,2.7951577E0,-7.4684274E-1,1.0200756E-2,-1.0487447E0,1.5837406E0,-1.8239418E-1,2.142983E-2,8.1690735E-1,2.9452395E0,-4.236023E-1,-1.1671213E0,2.2230155E0,2.563534E-2,-1.4528728E0,5.867815E-3,4.2094272E-1,6.782787E0,-2.155355E0,4.2069486E-1,5.005684E0,-8.3858895E-1,-2.4548526E0,5.045734E-1,-8.707565E-1,-1.9623196E-1,2.7280266E0,-7.6906896E-1,-1.9530432E0,5.7456666E-1,3.5407E-1,-9.8290116E-1,2.439452E0,4.3991467E-1,-1.1053518E0,7.04242E-1,-5.823743E-1,7.7988505E-1,3.698473E-1,-6.726953E-1,1.8776222E0,8.70428E-2,-1.6116388E0,-1.5006374E-1,-2.403474E-1,1.0270106E0],"categories":[],"categories_nodes":[],"categories_segments":[],"categories_sizes":[],"default_left":[0,0,0,0,0,0,0,0,0,0,0,0,0,0,0,0,0,0,0,0,0,0,0,0,0,0,0,0,0,0,0,0,0,0,0,0,0,0,0,0,0,0,0,0,0,0,0,0,0,0,0,0,0,0,0,0,0,0,0,0,0,0,0,0,0,0,0,0,0,0,0,0,0,0,0,0,0,0,0,0,0,0,0,0,0,0,0,0,0,0,0,0,0,0,0,0,0,0,0,0,0,0,0,0,0],"id":15,"left_children":[1,3,5,7,9,11,13,15,17,19,21,23,25,27,29,31,33,35,37,39,41,43,45,47,49,51,53,-1,55,57,59,61,-1,63,65,67,-1,69,-1,71,73,75,-1,77,79,81,83,85,-1,87,89,91,93,95,97,-1,-1,99,-1,101,103,-1,-1,-1,-1,-1,-1,-1,-1,-1,-1,-1,-1,-1,-1,-1,-1,-1,-1,-1,-1,-1,-1,-1,-1,-1,-1,-1,-1,-1,-1,-1,-1,-1,-1,-1,-1,-1,-1,-1,-1,-1,-1,-1,-1],"loss_changes":[1.0234584E2,1.6210875E2,5.6781244E2,2.3265916E2,2.1303313E2,1.4625298E2,5.462169E2,9.91253E1,1.9817693E2,5.31037E2,3.1342438E2,2.917281E2,3.7746777E2,2.8616443E2,4.6569318E2,2.73136E2,2.9559882E2,3.5899658E0,3.4198074E2,1.8876802E2,4.5056012E2,2.3357053E2,2.849082E2,3.1950458E2,1.4399472E2,4.3637488E2,2.8451175E2,0E0,3.7197644E2,7.2043E2,1.5387798E2,4.137776E1,0E0,1.160921E2,1.0707972E2,4.5767212E-1,0E0,1.4970398E0,0E0,1.1865725E2,1.17121025E2,5.015719E2,0E0,1.330641E2,5.1137643E2,2.5242313E2,1.7436353E2,4.4781085E2,0E0,9.1366394E1,1.2724873E2,3.190511E2,7.669789E1,1.9999756E2,2.1634332E2,0E0,0E0,2.3548291E2,0E0,9.546284E1,2.0816605E1,0E0,0E0,0E0,0E0,0E0,0E0,0E0,0E0,0E0,0E0,0E0,0E0,0E0,0E0,0E0,0E0,0E0,0E0,0E0,0E0,0E0,0E0,0E0,0E0,0E0,0E0,0E0,0E0,0E0,0E0,0E0,0E0,0E0,0E0,0E0,0E0,0E0,0E0,0E0,0E0,0E0,0E0,0E0,0E0],"parents":[2147483647,0,0,1,1,2,2,3,3,4,4,5,5,6,6,7,7,8,8,9,9,10,10,11,11,12,12,13,13,14,14,15,15,16,16,17,17,18,18,19,19,20,20,21,21,22,22,23,23,24,24,25,25,26,26,28,28,29,29,30,30,31,31,33,33,34,34,35,35,37,37,39,39,40,40,41,41,43,43,44,44,45,45,46,46,47,47,49,49,50,50,51,51,52,52,53,53,54,54,57,57,59,59,60,60],"right_children":[2,4,6,8,10,12,14,16,18,20,22,24,26,28,30,32,34,36,38,40,42,44,46,48,50,52,54,-1,56,58,60,62,-1,64,66,68,-1,70,-1,72,74,76,-1,78,80,82,84,86,-1,88,90,92,94,96,98,-1,-1,100,-1,102,104,-1,-1,-1,-1,-1,-1,-1,-1,-1,-1,-1,-1,-1,-1,-1,-1,-1,-1,-1,-1,-1,-1,-1,-1,-1,-1,-1,-1,-1,-1,-1,-1,-1,-1,-1,-1,-1,-1,-1,-1,-1,-1,-1,-1],"split_conditions":[1.7526915E1,1.5993581E1,2.8000002E0,1.5912335E1,1.1659777E1,1.2245293E1,1.7708166E1,7.7806416E0,2.2708783E2,1.0799999E1,6.840926E1,1.2928316E2,1.3202726E1,8.7E0,6.3E0,1.5500001E1,1.0012365E1,3.6E0,2.806491E2,9.3876505E0,2E0,1.7043585E1,9.969108E1,1.1753877E1,1.8010251E2,2E-1,1.5778518E1,-2.4910127E-1,1.22E1,5.9E0,1.9531084E1,2.2539564E1,3.000312E0,9.585739E0,6.049757E1,1.6366661E2,1.0219141E0,2.4401402E2,2.8143897E0,1.2928316E2,1.20557526E2,1E-1,-7.0265216E-1,1.1928989E1,1.7122747E1,1.803237E1,1.6489416E1,1E-1,-1.7624099E0,2.0681086E1,1.0636766E1,1.9879002E1,2.0681086E1,1.1E0,9.000001E-1,6.8600516E0,8.868771E-2,3.9000003E0,7.090946E0,2.0174783E2,7.2999997E0,-7.4684274E-1,1.0200756E-2,-1.0487447E0,1.5837406E0,-1.8239418E-1,2.142983E-2,8.1690735E-1,2.9452395E0,-4.236023E-1,-1.1671213E0,2.2230155E0,2.563534E-2,-1.4528728E0,5.867815E-3,4.2094272E-1,6.782787E0,-2.155355E0,4.2069486E-1,5.005684E0,-8.3858895E-1,-2.4548526E0,5.045734E-1,-8.707565E-1,-1.9623196E-1,2.7280266E0,-7.6906896E-1,-1.9530432E0,5.7456666E-1,3.5407E-1,-9.8290116E-1,2.439452E0,4.3991467E-1,-1.1053518E0,7.04242E-1,-5.823743E-1,7.7988505E-1,3.698473E-1,-6.726953E-1,1.8776222E0,8.70428E-2,-1.6116388E0,-1.5006374E-1,-2.403474E-1,1.0270106E0],"split_indices":[0,0,1,0,2,2,0,3,3,2,3,3,2,1,1,1,3,1,3,2,1,0,3,2,3,1,2,0,1,1,0,2,0,2,3,3,0,3,0,3,3,1,0,2,0,2,0,1,0,0,2,0,0,1,1,0,0,1,0,3,1,0,0,0,0,0,0,0,0,0,0,0,0,0,0,0,0,0,0,0,0,0,0,0,0,0,0,0,0,0,0,0,0,0,0,0,0,0,0,0,0,0,0,0,0],"split_type":[0,0,0,0,0,0,0,0,0,0,0,0,0,0,0,0,0,0,0,0,0,0,0,0,0,0,0,0,0,0,0,0,0,0,0,0,0,0,0,0,0,0,0,0,0,0,0,0,0,0,0,0,0,0,0,0,0,0,0,0,0,0,0,0,0,0,0,0,0,0,0,0,0,0,0,0,0,0,0,0,0,0,0,0,0,0,0,0,0,0,0,0,0,0,0,0,0,0,0,0,0,0,0,0,0],"sum_hessian":[3.527E3,3.14E3,3.87E2,2.892E3,2.48E2,3.33E2,5.4E1,2.878E3,1.4E1,3.3E1,2.15E2,5.2E1,2.81E2,4E0,5E1,4.2E1,2.836E3,6E0,8E0,2.7E1,6E0,2.3E1,1.92E2,1.5E1,3.7E1,3.9E1,2.42E2,1E0,3E0,2.7E1,2.3E1,4.1E1,1E0,1.4E1,2.822E3,4E0,2E0,6E0,2E0,8E0,1.9E1,4E0,2E0,1.9E1,4E0,1.3E1,1.79E2,1.2E1,3E0,1.2E1,2.5E1,2.9E1,1E1,9.9E1,1.43E2,2E0,1E0,2.6E1,1E0,1.6E1,7E0,3.3E1,8E0,1E0,1.3E1,2.54E2,2.568E3,1E0,3E0,2E0,4E0,3E0,5E0,8E0,1.1E1,2E0,2E0,1E0,1.8E1,2E0,2E0,1E1,3E0,4.6E1,1.33E2,7E0,5E0,1.1E1,1E0,1E1,1.5E1,1.5E1,1.4E1,8E0,2E0,8.9E1,1E1,1.23E2,2E1,1.4E1,1.2E1,6E0,1E1,1E0,6E0],"tree_param":{"num_deleted":"0","num_feature":"4","num_nodes":"105","size_leaf_vector":"1"}},{"base_weights":[2.5836518E-2,1.3735852E-1,-2.1033315E-1,8.689674E-2,2.2074225E0,-1.2196069E0,1.6844433E-2,1.2643762E-1,-2.080506E0,8.190598E-1,6.040234E0,-2.1171966E0,2.4300155E-1,5.9820466E0,-6.8111174E-2,6.4428635E-2,2.6563604E0,-4.804248E0,-5.4705495E-1,3.762381E0,-8.9209014E-1,1.4750866E1,1.5317439E0,-2.8963673E0,-5.4615384E-1,-2.2070084E0,1.1524459E0,2.5509449E1,-2.427119E0,-3.301073E0,-1.04324445E-2,-1.3236296E0,1.0705958E-1,8.557115E0,-4.4555017E-1,-6.1996765E0,-1.6778258E0,3.9106777E0,-1.5329157E0,1.0972449E0,7.0322356E0,-3.2706466E0,1.7200838E0,5.4603896E0,1.4237165E-1,-4.575823E0,4.394059E0,7.246494E-1,-3.128833E0,1.1509671E0,-2.6402473E0,-3.4301825E0,2.6378198E0,6.0491652E0,2.9663086E-2,1.8818533E0,8.949211E0,-7.864616E-1,-1.7979499E0,-4.1497445E0,2.82377E-1,4.9646932E-1,-3.1437454E-1,9.6184075E-2,-8.508294E-1,5.6844586E-1,2.029054E-2,1.2374605E-1,4.3328943E0,-3.582648E-1,2.5312204E0,-2.1249695E0,2.6284763E-1,1.8520867E0,-1.344852E0,-6.746725E-1,4.0436283E-1,1.3546103E0,-3.0381522E-1,1.199635E0,2.9231734E0,-6.213484E-1,-1.8154323E0,-6.666702E-1,1.0557703E0,-2.7924998E0,3.133726E-2,-5.0208235E-1,2.008665E0,-5.113411E-1,1.1165777E0,-1.234834E0,-5.5305725E-1,1.9255311E0,-1.4604664E-1,-1.508152E0,-2.9048228E-1,-1.3870957E0,-4.0811673E-1,9.3723166E-1,1.0390148E-1,3.6856024E0,-3.5856134E-1,-9.1109914E-1,4.0292954E-1,1.0998311E0,-5.8388144E-1,-1.3812E0,1.951973E-1,-5.146971E-2,2.4663077E-1,5.5571448E-2,1.1386714E0,-1.1044014E0,-4.1271612E-2],"categories":[],"categories_nodes":[],