{"learner":{"attributes":{"scikit_learn":"{\"_estimator_type\": \"regressor\"}"},"feature_names":["pm25_lag_mean","temperature_2m_mean","precipitation_sum","wind_speed_10m_max","wind_direction_10m_dominant"],"feature_types":["float","float","float","float","float"],"gradient_booster":{"model":{"gbtree_model_param":{"num_parallel_tree":"1","num_trees":"100"},"iteration_indptr":[0,1,2,3,4,5,6,7,8,9,10,11,12,13,14,15,16,17,18,19,20,21,22,23,24,25,26,27,28,29,30,31,32,33,34,35,36,37,38,39,40,41,42,43,44,45,46,47,48,49,50,51,52,53,54,55,56,57,58,59,60,61,62,63,64,65,66,67,68,69,70,71,72,73,74,75,76,77,78,79,80,81,82,83,84,85,86,87,88,89,90,91,92,93,94,95,96,97,98,99,100],"tree_info":[0,0,0,0,0,0,0,0,0,0,0,0,0,0,0,0,0,0,0,0,0,0,0,0,0,0,0,0,0,0,0,0,0,0,0,0,0,0,0,0,0,0,0,0,0,0,0,0,0,0,0,0,0,0,0,0,0,0,0,0,0,0,0,0,0,0,0,0,0,0,0,0,0,0,0,0,0,0,0,0,0,0,0,0,0,0,0,0,0,0,0,0,0,0,0,0,0,0,0,0],"trees":[{"base_weights":[9.1280646E-7,-5.0971437E0,1.7428738E1,-8.807289E0,5.9328455E-1,1.3938118E1,3.8125546E1,-1.1937566E1,-6.5174623E0,-1.6816097E0,3.3703616E0,9.818849E0,1.9857573E1,3.2081245E1,6.462747E1,-4.2056727E0,-1.0668789E1,-7.770433E0,-5.1333556E0,-5.3866327E-1,-3.6032734E0,5.683156E0,1.081868E0,1.1093647E1,4.3272467E0,2.2306402E1,1.595928E1,3.3691483E1,1.6868397E1,5.1651554E1,2.588881E1,-1.147838E1,-9.957655E0,-6.8158913E0,-8.670984E0,-3.8998146E0,-6.0833216E0,-3.1633961E0,-6.832359E-3,1.5360907E0,-4.368738E0,2.194807E0,7.468898E0,5.4126854E0,-1.31896E-1,1.310635E1,8.6715355E0,9.066356E0,-7.751641E-1,3.6664276E0,2.2625023E1,2.0641356E1,1.3096712E1,3.053055E1,1.2363546E1,7.6664276E0,1.9360832E1,1.6740389E1,-9.667145E-1,-9.667145E-1,-3.451298E0,-2.1528695E0,-3.0669177E0,-2.57768E0,-1.8685443E0,-2.3043203E0,-2.9643152E0,-1.2316519E-1,-1.2364588E0,-1.2450438E0,-2.0188894E0,-1.805521E-1,-1.5765635E0,3.2524607E-1,-4.1055724E-1,1.5888093E0,1.5963058E-1,-8.377285E-1,-1.5277436E0,2.2710187E0,-2.667605E-1,1.9500452E0,3.0699925E0,4.1888094E0,1.2693508E0,2.8833097E-1,-1.0433561E0,1.7276901E0,4.069214E0,1.2398376E-1,2.9171984E0,-1.6889528E0,2.9963984E0,1.6799141E0,-8.840004E-1,2.0332856E0,1.11047365E-1,5.3533955E0,7.237337E0,7.907317E0,4.581068E0,1.1460656E0,4.4756126E0,9.72124E0,6.4975305E0,-6.671448E-2,3.1110475E0,6.6388097E0,2.2110474E0],"categories":[],"categories_nodes":[],"categories_segments":[],"categories_sizes":[],"default_left":[0,0,0,0,0,0,0,0,0,0,0,0,0,0,0,0,0,0,0,0,0,0,0,0,0,0,0,0,0,0,0,0,0,0,0,0,0,0,0,0,0,0,0,0,0,0,0,0,0,0,0,0,0,0,0,0,0,0,0,0,0,0,0,0,0,0,0,0,0,0,0,0,0,0,0,0,0,0,0,0,0,0,0,0,0,0,0,0,0,0,0,0,0,0,0,0,0,0,0,0,0,0,0,0,0,0,0,0,0],"id":0,"left_children":[1,3,5,7,9,11,13,15,17,19,21,23,25,27,29,-1,31,33,35,37,39,41,43,45,47,49,51,53,55,57,-1,59,61,63,65,67,69,71,73,75,77,79,81,83,85,87,89,91,93,95,97,99,101,103,-1,105,107,-1,-1,-1,-1,-1,-1,-1,-1,-1,-1,-1,-1,-1,-1,-1,-1,-1,-1,-1,-1,-1,-1,-1,-1,-1,-1,-1,-1,-1,-1,-1,-1,-1,-1,-1,-1,-1,-1,-1,-1,-1,-1,-1,-1,-1,-1,-1,-1,-1,-1,-1,-1],"loss_changes":[3.089743E5,5.6818477E4,5.6325203E4,1.1598539E4,6.7212305E3,1.6264109E4,1.6027625E4,1.664625E3,1.5955078E3,1.2829288E3,2.5291099E3,2.7522695E3,2.2787656E3,1.7343281E3,1.1660703E3,0E0,1.3384375E2,3.6468945E2,5.0476855E2,5.136748E2,8.64323E2,1.4661787E3,1.2728087E3,1.4658438E3,1.8689559E3,9.08875E2,1.2039707E3,7.385703E2,1.0386011E2,3.595496E3,0E0,4.6992188E0,1.0158984E2,2.0108789E2,2.2356836E2,1.5225854E2,2.8817676E2,3.2905188E2,4.5755872E2,1.0665516E2,2.0253906E2,1.3660726E3,3.539297E2,4.7632617E2,6.9819696E2,5.1038867E2,1.2997031E3,5.980139E2,5.425372E2,3.8512505E1,7.4503125E2,8.256465E2,1.1430293E3,3.4540625E2,0E0,8.762297E1,1.0247583E2,0E0,0E0,0E0,0E0,0E0,0E0,0E0,0E0,0E0,0E0,0E0,0E0,0E0,0E0,0E0,0E0,0E0,0E0,0E0,0E0,0E0,0E0,0E0,0E0,0E0,0E0,0E0,0E0,0E0,0E0,0E0,0E0,0E0,0E0,0E0,0E0,0E0,0E0,0E0,0E0,0E0,0E0,0E0,0E0,0E0,0E0,0E0,0E0,0E0,0E0,0E0,0E0],"parents":[2147483647,0,0,1,1,2,2,3,3,4,4,5,5,6,6,7,7,8,8,9,9,10,10,11,11,12,12,13,13,14,14,16,16,17,17,18,18,19,19,20,20,21,21,22,22,23,23,24,24,25,25,26,26,27,27,28,28,29,29,31,31,32,32,33,33,34,34,35,35,36,36,37,37,38,38,39,39,40,40,41,41,42,42,43,43,44,44,45,45,46,46,47,47,48,48,49,49,50,50,51,51,52,52,53,53,55,55,56,56],"right_children":[2,4,6,8,10,12,14,16,18,20,22,24,26,28,30,-1,32,34,36,38,40,42,44,46,48,50,52,54,56,58,-1,60,62,64,66,68,70,72,74,76,78,80,82,84,86,88,90,92,94,96,98,100,102,104,-1,106,108,-1,-1,-1,-1,-1,-1,-1,-1,-1,-1,-1,-1,-1,-1,-1,-1,-1,-1,-1,-1,-1,-1,-1,-1,-1,-1,-1,-1,-1,-1,-1,-1,-1,-1,-1,-1,-1,-1,-1,-1,-1,-1,-1,-1,-1,-1,-1,-1,-1,-1,-1,-1],"split_conditions":[2.8E1,1.7666666E1,4.9E1,1.2E1,2.2333334E1,3.6666668E1,6.8666664E1,9E0,1.5E1,2.3920512E2,2.0951741E2,2.6753113E2,1.9862555E2,2.1933426E1,9.0666664E1,-4.2056727E0,1.0333333E1,2.2524925E2,2.1771873E2,5.6864456E1,1.2984975E1,1.155536E2,1.3350371E1,1.6394829E1,1.5349684E1,2.116986E1,1.4471821E1,5.8E1,2E-1,8.5666664E1,2.588881E1,8.14587E0,1.2682018E1,7.299494E1,1.8671474E1,-2.046E0,1.51884165E1,1.4799459E1,2.0070912E2,-6.660582E0,1.645007E1,1.3779114E1,2.6333334E1,-7.87725E0,2.3185787E1,2.2619978E1,8.49468E1,2.6914548E2,-9.6000075E-2,-6.660582E0,3.9E1,1.9102502E0,1.5914484E1,2.3734642E2,1.2363546E1,1.8891493E2,5.6E1,1.6740389E1,-9.667145E-1,-9.667145E-1,-3.451298E0,-2.1528695E0,-3.0669177E0,-2.57768E0,-1.8685443E0,-2.3043203E0,-2.9643152E0,-1.2316519E-1,-1.2364588E0,-1.2450438E0,-2.0188894E0,-1.805521E-1,-1.5765635E0,3.2524607E-1,-4.1055724E-1,1.5888093E0,1.5963058E-1,-8.377285E-1,-1.5277436E0,2.2710187E0,-2.667605E-1,1.9500452E0,3.0699925E0,4.1888094E0,1.2693508E0,2.8833097E-1,-1.0433561E0,1.7276901E0,4.069214E0,1.2398376E-1,2.9171984E0,-1.6889528E0,2.9963984E0,1.6799141E0,-8.840004E-1,2.0332856E0,1.11047365E-1,5.3533955E0,7.237337E0,7.907317E0,4.581068E0,1.1460656E0,4.4756126E0,9.72124E0,6.4975305E0,-6.671448E-2,3.1110475E0,6.6388097E0,2.2110474E0],"split_indices":[0,0,0,0,0,0,0,0,0,4,4,4,4,3,0,0,0,4,4,4,3,4,3,3,3,4,3,0,2,0,0,3,3,4,3,1,3,3,4,1,3,3,0,1,3,4,4,4,1,1,0,1,3,4,0,4,0,0,0,0,0,0,0,0,0,0,0,0,0,0,0,0,0,0,0,0,0,0,0,0,0,0,0,0,0,0,0,0,0,0,0,0,0,0,0,0,0,0,0,0,0,0,0,0,0,0,0,0,0],"split_type":[0,0,0,0,0,0,0,0,0,0,0,0,0,0,0,0,0,0,0,0,0,0,0,0,0,0,0,0,0,0,0,0,0,0,0,0,0,0,0,0,0,0,0,0,0,0,0,0,0,0,0,0,0,0,0,0,0,0,0,0,0,0,0,0,0,0,0,0,0,0,0,0,0,0,0,0,0,0,0,0,0,0,0,0,0,0,0,0,0,0,0,0,0,0,0,0,0,0,0,0,0,0,0,0,0,0,0,0,0],"sum_hessian":[3.476E3,2.69E3,7.86E2,1.628E3,1.062E3,6.74E2,1.12E2,6.86E2,9.42E2,5.84E2,4.78E2,3.99E2,2.75E2,9.3E1,1.9E1,2.56E2,4.3E2,4.92E2,4.5E2,3.67E2,2.17E2,2.37E2,2.41E2,3.23E2,7.6E1,1.66E2,1.09E2,8.3E1,1E1,1.4E1,5E0,1.94E2,2.36E2,2.43E2,2.49E2,1.98E2,2.52E2,6.1E1,3.06E2,2.8E1,1.89E2,8.1E1,1.56E2,5.2E1,1.89E2,1.74E2,1.49E2,3.9E1,3.7E1,3E0,1.63E2,3.9E1,7E1,6.2E1,2.1E1,3E0,7E0,1.3E1,1E0,1E0,1.93E2,2.3E1,2.13E2,5.7E1,1.86E2,1.41E2,1.08E2,1.2E1,1.86E2,6.5E1,1.87E2,2.8E1,3.3E1,1.7E2,1.36E2,5E0,2.3E1,6.1E1,1.28E2,2.9E1,5.2E1,1.18E2,3.8E1,5E0,4.7E1,1.43E2,4.6E1,1.1E1,1.63E2,1.7E1,1.32E2,2E0,3.7E1,9E0,2.8E1,1E0,2E0,4.2E1,1.21E2,1.7E1,2.2E1,1.2E1,5.8E1,4.9E1,1.3E1,1E0,2E0,5E0,2E0],"tree_param":{"num_deleted":"0","num_feature":"5","num_nodes":"109","size_leaf_vector":"1"}},{"base_weights":[3.0777715E-2,-3.0217905E0,1.4732059E1,-6.1824026E0,1.0929527E0,1.3094497E1,4.0699284E1,-8.1449375E0,-4.342904E0,-1.1813312E0,3.0830173E0,9.766705E0,1.7745798E1,3.4993847E1,2.0379944E1,-1.0308068E1,-7.467783E0,-3.6329274E0,-5.219267E0,1.0177943E0,-1.8306707E0,4.832802E0,1.0709782E0,1.209698E1,7.138638E0,1.6124886E1,2.1982445E1,1.2263085E1,1.6071049E1,-3.9469452E0,-2.9993777E0,-8.203863E0,-6.8624387E0,-1.8257678E0,-3.9998865E0,-3.6656768E0,-6.0778875E0,3.9639697E0,4.3519557E-1,-1.011199E0,-3.4098356E0,3.0607104E0,6.721036E0,4.8024864E0,2.713506E-1,5.7378354E0,1.2885584E1,9.887225E0,5.489562E0,1.7008677E1,1.0940658E1,2.2992842E1,5.8653517E0,2.4275114E1,-2.528636E0,-2.1329274E0,-2.5647702E0,-1.8600445E0,-2.193878E0,-7.7216727E-1,-2.4573508E-1,-1.3740553E0,-8.1683934E-1,5.425475E-1,-1.1408256E0,-1.1577425E0,-1.9668852E0,1.3405602E-1,1.5764881E0,2.7306256E-1,-1.0916044E0,-1.486879E-1,-1.2462637E0,-7.261353E-1,-1.5912013E0,-4.9897012E-1,1.1620051E0,2.004532E-1,2.2141762E0,3.2444136E0,1.1536762E0,2.5309366E-1,-1.0197269E0,2.1255648E0,-1.4124558E0,3.9357314E0,-9.7239226E-1,2.4659863E0,5.4153795E0,1.0003172E0,2.3125904E0,2.5463214E0,5.2323413E0,1.9238726E0,4.701505E0,7.420739E0,4.9041967E0,1.9661409E-1,2.7360618E0,3.287533E-1,8.386705E0],"categories":[],"categories_nodes":[],"categories_segments":[],"categories_sizes":[],"default_left":[0,0,0,0,0,0,0,0,0,0,0,0,0,0,0,0,0,0,0,0,0,0,0,0,0,0,0,0,0,0,0,0,0,0,0,0,0,0,0,0,0,0,0,0,0,0,0,0,0,0,0,0,0,0,0,0,0,0,0,0,0,0,0,0,0,0,0,0,0,0,0,0,0,0,0,0,0,0,0,0,0,0,0,0,0,0,0,0,0,0,0,0,0,0,0,0,0,0,0,0,0],"id":1,"left_children":[1,3,5,7,9,11,13,15,17,19,21,23,25,27,-1,29,31,33,35,37,39,41,43,45,47,49,51,-1,53,-1,-1,55,57,59,61,63,65,67,69,71,73,75,77,79,81,83,85,87,89,91,93,95,97,99,-1,-1,-1,-1,-1,-1,-1,-1,-1,-1,-1,-1,-1,-1,-1,-1,-1,-1,-1,-1,-1,-1,-1,-1,-1,-1,-1,-1,-1,-1,-1,-1,-1,-1,-1,-1,-1,-1,-1,-1,-1,-1,-1,-1,-1,-1,-1],"loss_changes":[1.5608067E5,3.746147E4,2.4895781E4,5.8454453E3,5.670159E3,8.556594E3,3.0610977E3,1.0758008E3,5.055498E2,8.37231E2,2.3466084E3,1.9407305E3,1.2524688E3,2.7941328E3,0E0,3.1894531E1,2.1238672E2,3.037163E2,4.7794922E2,2.2827757E2,5.8147644E2,1.1739951E3,9.2964777E2,7.986465E2,6.618789E2,6.065586E2,8.7478906E2,0E0,2.0135938E3,0E0,0E0,4.0109375E1,5.52041E1,5.88927E1,2.7581348E2,1.0892786E2,2.2944434E2,9.754416E1,2.2198326E2,4.8245618E2,2.7576746E2,7.2047107E2,6.817212E2,2.748313E2,5.448157E2,3.289286E2,6.2248047E2,6.410962E2,4.5732666E2,3.8997266E2,4.9928418E2,2.6743945E2,7.8811264E1,5.6655566E2,0E0,0E0,0E0,0E0,0E0,0E0,0E0,0E0,0E0,0E0,0E0,0E0,0E0,0E0,0E0,0E0,0E0,0E0,0E0,0E0,0E0,0E0,0E0,0E0,0E0,0E0,0E0,0E0,0E0,0E0,0E0,0E0,0E0,0E0,0E0,0E0,0E0,0E0,0E0,0E0,0E0,0E0,0E0,0E0,0E0,0E0,0E0],"parents":[2147483647,0,0,1,1,2,2,3,3,4,4,5,5,6,6,7,7,8,8,9,9,10,10,11,11,12,12,13,13,15,15,16,16,17,17,18,18,19,19,20,20,21,21,22,22,23,23,24,24,25,25,26,26,28,28,31,31,32,32,33,33,34,34,35,35,36,36,37,37,38,38,39,39,40,40,41,41,42,42,43,43,44,44,45,45,46,46,47,47,48,48,49,49,50,50,51,51,52,52,53,53],"right_children":[2,4,6,8,10,12,14,16,18,20,22,24,26,28,-1,30,32,34,36,38,40,42,44,46,48,50,52,-1,54,-1,-1,56,58,60,62,64,66,68,70,72,74,76,78,80,82,84,86,88,90,92,94,96,98,100,-1,-1,-1,-1,-1,-1,-1,-1,-1,-1,-1,-1,-1,-1,-1,-1,-1,-1,-1,-1,-1,-1,-1,-1,-1,-1,-1,-1,-1,-1,-1,-1,-1,-1,-1,-1,-1,-1,-1,-1,-1,-1,-1,-1,-1,-1,-1],"split_conditions":[3.1666666E1,1.7666666E1,6.3E1,1.2666667E1,2.2333334E1,4.0666668E1,1.08333336E2,8.333333E0,2.3864223E2,1.3755579E1,2.1423593E2,1.9724805E2,5.1E1,2.100171E2,2.0379944E1,5.3333335E0,1.0333333E1,1.2413476E1,2.712333E0,9.3876505E0,2.4920132E2,2.6333334E1,1.27279215E1,5.27217E1,1.4561099E1,2.5956644E2,2.2751316E1,1.2263085E1,5.1164994E0,-3.9469452E0,-2.9993777E0,1.50038395E1,1.6323528E1,2E-1,1.6E1,-9.981416E0,1.457889E1,1.9666666E1,2.8592365E2,5.8999996E0,7.2935834E0,4.620633E1,3.432262E1,-8.420999E0,2.5223133E1,2.063023E1,1.31E1,1.3910169E1,3.5666668E1,4.3941982E1,2.8823413E2,2.3734642E2,2.34E1,1.6810833E0,-2.528636E0,-2.1329274E0,-2.5647702E0,-1.8600445E0,-2.193878E0,-7.7216727E-1,-2.4573508E-1,-1.3740553E0,-8.1683934E-1,5.425475E-1,-1.1408256E0,-1.1577425E0,-1.9668852E0,1.3405602E-1,1.5764881E0,2.7306256E-1,-1.0916044E0,-1.486879E-1,-1.2462637E0,-7.261353E-1,-1.5912013E0,-4.9897012E-1,1.1620051E0,2.004532E-1,2.2141762E0,3.2444136E0,1.1536762E0,2.5309366E-1,-1.0197269E0,2.1255648E0,-1.4124558E0,3.9357314E0,-9.7239226E-1,2.4659863E0,5.4153795E0,1.0003172E0,2.3125904E0,2.5463214E0,5.2323413E0,1.9238726E0,4.701505E0,7.420739E0,4.9041967E0,1.9661409E-1,2.7360618E0,3.287533E-1,8.386705E0],"split_indices":[0,0,0,0,0,0,0,0,4,3,4,4,0,4,0,0,0,3,1,3,4,0,3,4,3,4,3,0,1,0,0,3,3,2,0,1,3,0,4,2,1,4,4,1,3,3,2,3,0,4,4,4,3,1,0,0,0,0,0,0,0,0,0,0,0,0,0,0,0,0,0,0,0,0,0,0,0,0,0,0,0,0,0,0,0,0,0,0,0,0,0,0,0,0,0,0,0,0,0,0,0],"split_type":[0,0,0,0,0,0,0,0,0,0,0,0,0,0,0,0,0,0,0,0,0,0,0,0,0,0,0,0,0,0,0,0,0,0,0,0,0,0,0,0,0,0,0,0,0,0,0,0,0,0,0,0,0,0,0,0,0,0,0,0,0,0,0,0,0,0,0,0,0,0,0,0,0,0,0,0,0,0,0,0,0,0,0,0,0,0,0,0,0,0,0,0,0,0,0,0,0,0,0,0,0],"sum_hessian":[3.476E3,2.879E3,5.97E2,1.628E3,1.251E3,5.63E2,3.4E1,7.86E2,8.42E2,5.84E2,6.67E2,3.3E2,2.33E2,3E1,4E0,1.84E2,6.02E2,4.68E2,3.74E2,1.33E2,4.51E2,3.56E2,3.11E2,1.73E2,1.57E2,1.72E2,6.1E1,2.2E1,8E0,1.4E1,1.7E2,2.66E2,3.36E2,8E1,3.88E2,1.35E2,2.39E2,2.1E1,1.12E2,2.98E2,1.53E2,1.85E2,1.71E2,5.4E1,2.57E2,2E1,1.53E2,5.7E1,1E2,1.45E2,2.7E1,5.7E1,4E0,6E0,2E0,6.9E1,1.97E2,1.42E2,1.94E2,4.5E1,3.5E1,2.65E2,1.23E2,3E0,1.32E2,4.4E1,1.95E2,6E0,1.5E1,1.01E2,1.1E1,2.57E2,4.1E1,1.02E2,5.1E1,2.7E1,1.58E2,1.7E1,1.54E2,6E0,4.8E1,2.23E2,3.4E1,1.8E1,2E0,1.51E2,2E0,4.9E1,8E0,5.2E1,4.8E1,8E0,1.37E2,1.5E1,1.2E1,4.3E1,1.4E1,2E0,2E0,1E0,5E0],"tree_param":{"num_deleted":"0","num_feature":"5","num_nodes":"101","size_leaf_vector":"1"}},{"base_weights":[4.0129848E-2,-2.1985354E0,1.0121145E1,-4.02726E0,1.2339288E0,8.964216E0,2.9598925E1,-5.7214026E0,-2.7785974E0,8.9659296E-2,2.54679E0,7.205326E0,1.4077766E1,2.509085E1,5.162919E1,-6.8333306E0,-5.0149374E0,-3.772652E0,-2.199154E0,8.559281E-1,-1.1196952E0,4.3281913E0,7.3882496E-1,8.849428E0,5.2035303E0,1.4379722E1,-6.8950033E-1,2.9147041E1,1.1937159E1,4.5429726E0,1.708946E1,-8.477071E0,-6.5583954E0,-4.617295E0,-5.6748195E0,-3.25146E0,-4.931268E0,-1.4227293E0,-2.6775494E0,7.320878E-1,6.377233E0,-7.9718704E0,-5.785373E-1,3.8493297E0,1.2099067E1,3.4640841E0,-1.3747984E-1,5.0761485E0,1.0308172E1,8.242597E0,3.519197E0,1.5502609E1,1.056172E1,-1.9266373E0,1.0086247E0,7.61288E0,1.3748037E1,8.560998E0,3.11778E0,-1.3806767E0,-2.6339297E0,-1.6445879E0,-2.0408397E0,-1.1863796E0,-1.5395961E0,-1.5521889E0,-1.9651978E0,-5.986508E-1,-1.050814E0,-1.2481103E0,-1.9277081E0,-9.999732E-1,-2.3554035E-1,-5.1397294E-1,-1.0651115E0,9.048503E-1,1.237425E-1,2.5507405E0,2.1282941E-1,-9.838545E-1,-2.6615E0,2.739407E-1,-4.6911365E-1,1.4326998E0,5.258755E-1,4.021117E0,-5.335219E-1,1.7580094E0,6.226061E-1,9.008482E-2,-1.6847322E0,3.735617E-1,2.0773115E0,2.6671538E0,3.8435473E0,2.7101867E0,-5.904051E-1,5.041036E-2,1.3480897E0,8.6990994E-1,4.7459893E0,-5.871661E-1,3.289151E0,2.523213E0,-2.022909E0],"categories":[],"categories_nodes":[],"categories_segments":[],"categories_sizes":[],"default_left":[0,0,0,0,0,0,0,0,0,0,0,0,0,0,0,0,0,0,0,0,0,0,0,0,0,0,0,0,0,0,0,0,0,0,0,0,0,0,0,0,0,0,0,0,0,0,0,0,0,0,0,0,0,0,0,0,0,0,0,0,0,0,0,0,0,0,0,0,0,0,0,0,0,0,0,0,0,0,0,0,0,0,0,0,0,0,0,0,0,0,0,0,0,0,0,0,0,0,0,0,0,0,0,0,0],"id":2,"left_children":[1,3,5,7,9,11,13,15,17,19,21,23,25,27,29,31,33,35,37,39,41,43,45,47,49,51,53,55,57,-1,-1,59,61,63,65,67,69,71,73,75,77,79,81,83,85,87,89,91,93,95,97,99,101,-1,-1,-1,-1,-1,103,-1,-1,-1,-1,-1,-1,-1,-1,-1,-1,-1,-1,-1,-1,-1,-1,-1,-1,-1,-1,-1,-1,-1,-1,-1,-1,-1,-1,-1,-1,-1,-1,-1,-1,-1,-1,-1,-1,-1,-1,-1,-1,-1,-1,-1,-1],"loss_changes":[7.849125E4,1.78694E4,1.3976418E4,3.9124219E3,1.487016E3,5.277074E3,2.1805703E3,5.839512E2,6.0859766E2,4.9210443E2,1.48155E3,1.4250996E3,6.8769336E2,1.3060352E3,1.1075391E2,8.133594E1,1.0106055E2,2.2128369E2,2.4839722E2,2.1755338E2,7.592584E2,8.1673926E2,5.497525E2,1.2907129E3,1.015228E3,4.7505664E2,1.144965E2,2.836875E2,1.2286044E3,0E0,0E0,6.508789E0,3.216211E1,8.475928E1,4.4190918E1,7.947461E1,1.1151318E2,3.1531598E2,3.4657617E2,2.3163268E2,7.828592E1,3.423767E1,2.8358313E2,4.188645E2,2.5920667E2,1.7416858E2,4.2136996E2,4.870083E2,5.0722852E2,5.995581E2,4.335553E2,4.0608008E2,2.0771875E2,0E0,0E0,0E0,0E0,0E0,4.2206165E2,0E0,0E0,0E0,0E0,0E0,0E0,0E0,0E0,0E0,0E0,0E0,0E0,0E0,0E0,0E0,0E0,0E0,0E0,0E0,0E0,0E0,0E0,0E0,0E0,0E0,0E0,0E0,0E0,0E0,0E0,0E0,0E0,0E0,0E0,0E0,0E0,0E0,0E0,0E0,0E0,0E0,0E0,0E0,0E0,0E0,0E0],"parents":[2147483647,0,0,1,1,2,2,3,3,4,4,5,5,6,6,7,7,8,8,9,9,10,10,11,11,12,12,13,13,14,14,15,15,16,16,17,17,18,18,19,19,20,20,21,21,22,22,23,23,24,24,25,25,26,26,27,27,28,28,31,31,32,32,33,33,34,34,35,35,36,36,37,37,38,38,39,39,40,40,41,41,42,42,43,43,44,44,45,45,46,46,47,47,48,48,49,49,50,50,51,51,52,52,58,58],"right_children":[2,4,6,8,10,12,14,16,18,20,22,24,26,28,30,32,34,36,38,40,42,44,46,48,50,52,54,56,58,-1,-1,60,62,64,66,68,70,72,74,76,78,80,82,84,86,88,90,92,94,96,98,100,102,-1,-1,-1,-1,-1,104,-1,-1,-1,-1,-1,-1,-1,-1,-1,-1,-1,-1,-1,-1,-1,-1,-1,-1,-1,-1,-1,-1,-1,-1,-1,-1,-1,-1,-1,-1,-1,-1,-1,-1,-1,-1,-1,-1,-1,-1,-1,-1,-1,-1,-1,-1],"split_conditions":[3.1E1,1.9333334E1,6.3E1,1.2666667E1,2.4E1,4.4333332E1,1.08333336E2,9.333333E0,1.5E1,1.9083395E1,2.0503342E2,1.9862555E2,2.5812277E1,2.100171E2,3E-1,6.3333335E0,1.9242327E1,2.617137E2,2.0503342E2,1.8792551E1,4.3941982E1,1.9979892E2,1.3350371E1,9.192192E1,1.4081477E1,1.6E0,4.7333332E1,1.4610249E1,6.5333336E1,4.5429726E0,1.708946E1,1.8596217E2,1.4345898E1,8.970668E0,2.6914548E2,1.3089354E1,2.0172853E1,5.4582912E1,2E-1,1.0636766E1,1.8861387E1,-1.6668334E0,2.134248E2,1.784816E1,2.0523155E1,5.1916655E-2,5.1000004E0,3.3666668E1,3.8333332E1,3.39885E2,3.3333332E1,2.116986E1,-3.7022502E0,-1.9266373E0,1.0086247E0,7.61288E0,1.3748037E1,8.560998E0,4.84775E0,-1.3806767E0,-2.6339297E0,-1.6445879E0,-2.0408397E0,-1.1863796E0,-1.5395961E0,-1.5521889E0,-1.9651978E0,-5.986508E-1,-1.050814E0,-1.2481103E0,-1.9277081E0,-9.999732E-1,-2.3554035E-1,-5.1397294E-1,-1.0651115E0,9.048503E-1,1.237425E-1,2.5507405E0,2.1282941E-1,-9.838545E-1,-2.6615E0,2.739407E-1,-4.6911365E-1,1.4326998E0,5.258755E-1,4.021117E0,-5.335219E-1,1.7580094E0,6.226061E-1,9.008482E-2,-1.6847322E0,3.735617E-1,2.0773115E0,2.6671538E0,3.8435473E0,2.7101867E0,-5.904051E-1,5.041036E-2,1.3480897E0,8.6990994E-1,4.7459893E0,-5.871661E-1,3.289151E0,2.523213E0,-2.022909E0],"split_indices":[0,0,0,0,0,0,0,0,0,3,4,4,3,4,2,0,3,4,4,3,4,4,3,4,3,2,0,1,0,0,0,4,3,1,4,3,3,4,2,3,3,1,4,3,3,1,2,0,0,4,0,4,1,0,0,0,0,0,1,0,0,0,0,0,0,0,0,0,0,0,0,0,0,0,0,0,0,0,0,0,0,0,0,0,0,0,0,0,0,0,0,0,0,0,0,0,0,0,0,0,0,0,0,0,0],"split_type":[0,0,0,0,0,0,0,0,0,0,0,0,0,0,0,0,0,0,0,0,0,0,0,0,0,0,0,0,0,0,0,0,0,0,0,0,0,0,0,0,0,0,0,0,0,0,0,0,0,0,0,0,0,0,0,0,0,0,0,0,0,0,0,0,0,0,0,0,0,0,0,0,0,0,0,0,0,0,0,0,0,0,0,0,0,0,0,0,0,0,0,0,0,0,0,0,0,0,0,0,0,0,0,0,0],"sum_hessian":[3.476E3,2.845E3,6.31E2,1.856E3,9.89E2,5.97E2,3.4E1,7.86E2,1.07E3,5.29E2,4.6E2,4.46E2,1.51E2,3E1,4E0,3.02E2,4.84E2,3.92E2,6.78E2,3.24E2,2.05E2,2.31E2,2.29E2,2.43E2,2.03E2,1.48E2,3E0,2.2E1,8E0,1E0,3E0,3.9E1,2.63E2,3.07E2,1.77E2,2.73E2,1.19E2,2.6E2,4.18E2,3.18E2,6E0,1.4E1,1.91E2,2.19E2,1.2E1,5.5E1,1.74E2,6.9E1,1.74E2,7.1E1,1.32E2,1.12E2,3.6E1,1E0,2E0,2E1,2E0,2E0,6E0,4E0,3.5E1,5.3E1,2.1E2,1.38E2,1.69E2,1.17E2,6E1,4.7E1,2.26E2,8.1E1,3.8E1,6.4E1,1.96E2,2E2,2.18E2,3.8E1,2.8E2,4E0,2E0,3E0,1.1E1,7.6E1,1.15E2,1.51E2,6.8E1,1.1E1,1E0,1.9E1,3.6E1,1.62E2,1.2E1,2.3E1,4.6E1,1.14E2,6E1,6.6E1,5E0,3E1,1.02E2,3E0,1.09E2,1E0,3.5E1,4E0,2E0],"tree_param":{"num_deleted":"0","num_feature":"5","num_nodes":"105","size_leaf_vector":"1"}},{"base_weights":[4.4350572E-2,-1.8200234E0,6.22495E0,-3.3150277E0,-1.2431209E-1,5.492333E0,2.2206522E1,-4.4660554E0,-2.7037702E0,-1.1010292E0,7.326947E-1,3.5843577E0,8.219603E0,1.8544958E1,1.2140075E1,-3.7743304E0,-5.0045967E0,-6.879647E-1,-2.7959635E0,2.8332537E-1,-1.512062E0,1.1087357E0,-1.7583565E0,4.0447483E0,-8.184996E-1,6.628554E0,9.903119E0,1.0480521E1,1.5541193E1,-4.6941485E0,-3.3199196E0,-5.108127E0,-2.5410528E0,-4.456117E0,6.384177E-2,-2.513581E0,-3.40435E0,5.923431E-2,5.0914106E0,-1.2425406E0,-3.6541634E0,1.5141281E0,-1.0076497E0,-2.1142085E0,2.708656E0,5.01763E0,2.909766E0,6.9550858E0,-2.2289364E0,6.9394584E0,-1.4247763E0,1.0121629E1,-7.1215343E-1,1.9709656E1,4.5511446E0,-9.7191304E-1,-1.499972E0,-1.0358242E0,-3.3451837E-1,-1.2897813E0,-1.6505003E0,-1.0749837E0,-4.7050554E-2,-1.5008122E0,-1.7648679E-1,-3.197511E-1,5.1493436E-1,-1.205983E0,-6.952607E-1,-8.0860186E-1,-1.3407437E0,1.2330858E0,-5.0979532E-2,1.9502615E0,4.5449793E-1,-1.1275468E-2,-5.4291004E-1,-1.4375929E0,-4.6365696E-1,8.469255E-2,6.05657E-1,1.4105672E0,-6.9877833E-1,-7.541909E-1,1.4594146E0,1.3698839E0,3.4095032E0,9.5827585E-1,-1.9467332E0,2.5519223E0,-3.529272E-1,-9.920174E-1,6.6783285E-1,2.4388843E0,1.4461118E0,-1.8551027E0,5.146555E-1,3.5134351E0,2.5812047E0,-1.6376415E0,8.068997E-1,2.9328775E0,7.2919164E0,2.4490104E0,-1.618327E0],"categories":[],"categories_nodes":[],"categories_segments":[],"categories_sizes":[],"default_left":[0,0,0,0,0,0,0,0,0,0,0,0,0,0,0,0,0,0,0,0,0,0,0,0,0,0,0,0,0,0,0,0,0,0,0,0,0,0,0,0,0,0,0,0,0,0,0,0,0,0,0,0,0,0,0,0,0,0,0,0,0,0,0,0,0,0,0,0,0,0,0,0,0,0,0,0,0,0,0,0,0,0,0,0,0,0,0,0,0,0,0,0,0,0,0,0,0,0,0,0,0,0,0,0,0],"id":3,"left_children":[1,3,5,7,9,11,13,15,17,19,21,23,25,27,-1,29,31,33,35,37,39,41,43,45,47,49,51,-1,53,55,57,59,61,63,65,67,69,71,73,75,77,79,81,83,-1,85,87,89,91,93,95,97,99,101,103,-1,-1,-1,-1,-1,-1,-1,-1,-1,-1,-1,-1,-1,-1,-1,-1,-1,-1,-1,-1,-1,-1,-1,-1,-1,-1,-1,-1,-1,-1,-1,-1,-1,-1,-1,-1,-1,-1,-1,-1,-1,-1,-1,-1,-1,-1,-1,-1,-1,-1],"loss_changes":[4.0076617E4,6.7733643E3,9.314975E3,9.87E2,1.0496343E3,3.9876875E3,1.5896992E3,1.6401953E2,1.7091162E2,3.3387122E2,6.2769006E2,9.276387E2,7.83459E2,9.8326074E2,0E0,7.595239E1,5.6648926E1,1.1926718E2,1.441709E2,1.4515402E2,2.5641833E2,5.000042E2,3.5689008E2,4.4143604E2,4.979251E2,4.25521E2,3.5977832E2,0E0,1.193023E3,1.493103E1,4.0079834E1,5.9428223E1,3.1741638E1,1.1855774E1,6.903835E1,1.7112085E2,1.985852E2,1.2138573E2,2.0396133E1,2.7534302E2,1.1255585E2,3.0283655E2,7.202565E2,2.5216132E2,0E0,5.812456E2,5.3678186E2,9.8309265E1,1.8982173E2,3.6433887E2,1.1521861E2,2.5873242E2,7.927136E1,6.7559766E2,3.6736707E2,0E0,0E0,0E0,0E0,0E0,0E0,0E0,0E0,0E0,0E0,0E0,0E0,0E0,0E0,0E0,0E0,0E0,0E0,0E0,0E0,0E0,0E0,0E0,0E0,0E0,0E0,0E0,0E0,0E0,0E0,0E0,0E0,0E0,0E0,0E0,0E0,0E0,0E0,0E0,0E0,0E0,0E0,0E0,0E0,0E0,0E0,0E0,0E0,0E0,0E0],"parents":[2147483647,0,0,1,1,2,2,3,3,4,4,5,5,6,6,7,7,8,8,9,9,10,10,11,11,12,12,13,13,15,15,16,16,17,17,18,18,19,19,20,20,21,21,22,22,23,23,24,24,25,25,26,26,28,28,29,29,30,30,31,31,32,32,33,33,34,34,35,35,36,36,37,37,38,38,39,39,40,40,41,41,42,42,43,43,45,45,46,46,47,47,48,48,49,49,50,50,51,51,52,52,53,53,54,54],"right_children":[2,4,6,8,10,12,14,16,18,20,22,24,26,28,-1,30,32,34,36,38,40,42,44,46,48,50,52,-1,54,56,58,60,62,64,66,68,70,72,74,76,78,80,82,84,-1,86,88,90,92,94,96,98,100,102,104,-1,-1,-1,-1,-1,-1,-1,-1,-1,-1,-1,-1,-1,-1,-1,-1,-1,-1,-1,-1,-1,-1,-1,-1,-1,-1,-1,-1,-1,-1,-1,-1,-1,-1,-1,-1,-1,-1,-1,-1,-1,-1,-1,-1,-1,-1,-1,-1,-1,-1],"split_conditions":[2.7666666E1,1.6333334E1,6.3E1,1.0666667E1,2.0333334E1,3.7666668E1,1.08333336E2,2.520763E2,1.0495713E1,1.4241629E1,2.4184391E1,3.0254428E2,4.4333332E1,6.4333336E1,1.2140075E1,8.333333E0,1.7047749E1,1.2666667E1,2.648197E2,1.0900001E1,6E0,2.849135E2,3.4651752E1,1.6394829E1,-1.2480834E0,3.2824243E2,2.5812277E1,1.0480521E1,1.9431572E2,1.3513193E1,1.7710249E1,3.4019172E0,1E-1,1.2795667E1,9.885262E0,4.3941982E1,7.6977496E0,-6.023084E0,1.4600002E1,2.0325574E2,1.1156085E1,1.3487674E2,-4.860584E0,2.9488446E2,2.708656E0,4.4999995E0,1.35E1,1E-1,3.4796365E2,8.189418E0,-9.6000075E-2,1E-1,4.7333332E1,6.7E1,1.3168583E1,-9.7191304E-1,-1.499972E0,-1.0358242E0,-3.3451837E-1,-1.2897813E0,-1.6505003E0,-1.0749837E0,-4.7050554E-2,-1.5008122E0,-1.7648679E-1,-3.197511E-1,5.1493436E-1,-1.205983E0,-6.952607E-1,-8.0860186E-1,-1.3407437E0,1.2330858E0,-5.0979532E-2,1.9502615E0,4.5449793E-1,-1.1275468E-2,-5.4291004E-1,-1.4375929E0,-4.6365696E-1,8.469255E-2,6.05657E-1,1.4105672E0,-6.9877833E-1,-7.541909E-1,1.4594146E0,1.3698839E0,3.4095032E0,9.5827585E-1,-1.9467332E0,2.5519223E0,-3.529272E-1,-9.920174E-1,6.6783285E-1,2.4388843E0,1.4461118E0,-1.8551027E0,5.146555E-1,3.5134351E0,2.5812047E0,-1.6376415E0,8.068997E-1,2.9328775E0,7.2919164E0,2.4490104E0,-1.618327E0],"split_indices":[0,0,0,0,0,0,0,4,3,3,3,4,0,0,0,0,1,0,4,2,2,4,3,3,1,4,3,0,4,3,1,1,2,1,3,4,1,1,2,4,1,4,1,4,0,2,2,2,4,1,1,2,0,0,1,0,0,0,0,0,0,0,0,0,0,0,0,0,0,0,0,0,0,0,0,0,0,0,0,0,0,0,0,0,0,0,0,0,0,0,0,0,0,0,0,0,0,0,0,0,0,0,0,0,0],"split_type":[0,0,0,0,0,0,0,0,0,0,0,0,0,0,0,0,0,0,0,0,0,0,0,0,0,0,0,0,0,0,0,0,0,0,0,0,0,0,0,0,0,0,0,0,0,0,0,0,0,0,0,0,0,0,0,0,0,0,0,0,0,0,0,0,0,0,0,0,0,0,0,0,0,0,0,0,0,0,0,0,0,0,0,0,0,0,0,0,0,0,0,0,0,0,0,0,0,0,0,0,0,0,0,0,0],"sum_hessian":[3.476E3,2.671E3,8.05E2,1.419E3,1.252E3,7.71E2,3.4E1,4.9E2,9.29E2,5.85E2,6.67E2,4.55E2,3.16E2,3E1,4E0,2.18E2,2.72E2,4.1E1,8.88E2,1.34E2,4.51E2,5.8E2,8.7E1,4.12E2,4.3E1,1.65E2,1.51E2,3E0,2.7E1,6.9E1,1.49E2,2.6E2,1.2E1,6E0,3.5E1,6.1E2,2.78E2,1.29E2,5E0,4.02E2,4.9E1,4.87E2,9.3E1,8.5E1,2E0,2.2E2,1.92E2,6E0,3.7E1,1.59E2,6E0,1.48E2,3E0,1.9E1,8E0,1.4E1,5.5E1,1.4E2,9E0,8.9E1,1.71E2,8E0,4E0,5E0,1E0,2.1E1,1.4E1,6.8E1,5.42E2,1.69E2,1.09E2,6E0,1.23E2,3E0,2E0,1.29E2,2.73E2,3.1E1,1.8E1,1.42E2,3.45E2,1.7E1,7.6E1,8.1E1,4E0,2.07E2,1.3E1,1.87E2,5E0,5E0,1E0,3E1,7E0,1E2,5.9E1,2E0,4E0,6.9E1,7.9E1,1E0,2E0,7E0,1.2E1,6E0,2E0],"tree_param":{"num_deleted":"0","num_feature":"5","num_nodes":"105","size_leaf_vector":"1"}},{"base_weights":[4.245183E-2,-1.0988349E0,5.181786E0,-2.1687565E0,3.330217E-1,4.5102897E0,1.6506739E1,-2.9726112E0,-1.5808276E0,-4.5882428E-1,1.0631429E0,3.664871E0,6.9668145E0,1.2794977E1,2.7434557E1,-3.711951E0,-2.6947773E0,-1.9359308E0,-1.1891497E0,-5.417904E-1,5.5928345E0,1.7052743E0,-1.3624166E-1,4.7134614E0,2.3927093E0,4.490044E0,7.6159186E0,8.122404E0,9.998426E0,8.948453E0,1.102096E1,-1.6702356E0,-3.5274806E0,-2.1479595E0,-2.9674833E0,-1.7158794E0,-3.0673912E0,5.13436E0,-1.2287519E0,-3.9193606E-1,-3.0864327E0,2.583753E-1,1.8437217E0,-3.2741084E0,1.9011658E0,1.3459682E0,-1.7709806E0,2.7859826E0,6.4672337E0,6.02269E0,1.5254685E0,6.0816693E0,-2.517891E0,1.1680005E1,6.7759824E0,1.0983295E1,-2.0457659E0,1.0377345E-1,3.5101993E0,-1.0922073E0,-6.8633103E-1,-7.4918944E-1,-4.480562E-1,-4.4683012E-1,-9.3753123E-1,-2.5982696E-1,-6.1045486E-1,-6.514344E-1,-1.2395035E0,1.6326943E-1,2.1471927E0,6.0875602E-2,-4.0173087E-1,-7.195039E-2,-6.6451937E-1,-1.0869638E0,1.6104642E-1,-1.2848638E-1,-2.061551E0,7.7955955E-1,1.749189E-1,5.5806684E-1,-2.1002762E0,-7.0050424E-1,9.9374783E-1,9.2180425E-1,-2.7685E0,2.49862E0,1.3514049E0,2.1798673E0,8.871503E-2,-6.795897E-1,6.6409695E-1,2.012588E0,-1.6269253E0,-2.7698731E0,6.0440964E-1,-3.3477327E-1,3.9753149E0,1.1755733E0,2.5756354E0,-2.2343065E-1,3.6250012E0],"categories":[],"categories_nodes":[],"categories_segments":[],"categories_sizes":[],"default_left":[0,0,0,0,0,0,0,0,0,0,0,0,0,0,0,0,0,0,0,0,0,0,0,0,0,0,0,0,0,0,0,0,0,0,0,0,0,0,0,0,0,0,0,0,0,0,0,0,0,0,0,0,0,0,0,0,0,0,0,0,0,0,0,0,0,0,0,0,0,0,0,0,0,0,0,0,0,0,0,0,0,0,0,0,0,0,0,0,0,0,0,0,0,0,0,0,0,0,0,0,0,0,0],"id":4,"left_children":[1,3,5,7,9,11,13,15,17,19,21,23,25,27,29,31,33,35,37,39,41,43,45,47,49,51,53,-1,55,57,-1,-1,59,61,63,65,67,69,71,73,75,-1,-1,77,79,81,83,85,87,89,91,93,95,97,99,101,-1,-1,-1,-1,-1,-1,-1,-1,-1,-1,-1,-1,-1,-1,-1,-1,-1,-1,-1,-1,-1,-1,-1,-1,-1,-1,-1,-1,-1,-1,-1,-1,-1,-1,-1,-1,-1,-1,-1,-1,-1,-1,-1,-1,-1,-1,-1],"loss_changes":[2.0399877E4,4.360721E3,4.731703E3,7.651821E2,7.0466675E2,1.2163887E3,1.068626E3,1.3111621E2,1.288562E2,2.9674866E2,4.8851532E2,5.8500977E2,2.1017236E2,8.474458E2,1.0469229E3,4.3683594E1,6.863379E1,1.1748364E2,1.1925037E2,2.1919661E2,1.563591E1,4.0907275E2,5.4029553E2,8.0679004E2,6.330182E2,3.9454913E2,3.2707178E2,0E0,4.8897705E2,9.065662E1,0E0,0E0,1.5670166E1,3.536438E1,7.2924805E1,1.1072644E2,6.635803E1,2.3961555E1,7.120758E1,1.5115211E2,6.418149E1,0E0,0E0,1.6087273E2,3.6432642E2,5.1523706E2,3.1166315E2,4.3480438E2,4.2644922E2,2.7559705E2,4.380687E2,2.383451E2,2.3165652E2,3.9674292E2,4.885664E2,3.1863184E2,0E0,0E0,0E0,0E0,0E0,0E0,0E0,0E0,0E0,0E0,0E0,0E0,0E0,0E0,0E0,0E0,0E0,0E0,0E0,0E0,0E0,0E0,0E0,0E0,0E0,0E0,0E0,0E0,0E0,0E0,0E0,0E0,0E0,0E0,0E0,0E0,0E0,0E0,0E0,0E0,0E0,0E0,0E0,0E0,0E0,0E0,0E0],"parents":[2147483647,0,0,1,1,2,2,3,3,4,4,5,5,6,6,7,7,8,8,9,9,10,10,11,11,12,12,13,13,14,14,15,15,16,16,17,17,18,18,19,19,20,20,21,21,22,22,23,23,24,24,25,25,26,26,28,28,29,29,32,32,33,33,34,34,35,35,36,36,37,37,38,38,39,39,40,40,43,43,44,44,45,45,46,46,47,47,48,48,49,49,50,50,51,51,52,52,53,53,54,54,55,55],"right_children":[2,4,6,8,10,12,14,16,18,20,22,24,26,28,30,32,34,36,38,40,42,44,46,48,50,52,54,-1,56,58,-1,-1,60,62,64,66,68,70,72,74,76,-1,-1,78,80,82,84,86,88,90,92,94,96,98,100,102,-1,-1,-1,-1,-1,-1,-1,-1,-1,-1,-1,-1,-1,-1,-1,-1,-1,-1,-1,-1,-1,-1,-1,-1,-1,-1,-1,-1,-1,-1,-1,-1,-1,-1,-1,-1,-1,-1,-1,-1,-1,-1,-1,-1,-1,-1,-1],"split_conditions":[3.1E1,1.7666666E1,6.3E1,1.2E1,2.2333334E1,4.4333332E1,8.4333336E1,8.333333E0,1.5E1,2.1389418E1,2.3734642E2,1.9862555E2,8.738503E1,6.4333336E1,3E-1,5.3333335E0,2.2091084E2,2.34E1,-9.981416E0,2.7567635E1,1.9E1,1.3838063E1,4.9081664E0,1.2446892E2,1.915E-1,1.7193533E1,6.873334E-1,8.122404E0,1.4610249E1,9.0666664E1,1.102096E1,-1.6702356E0,1.6637335E1,1.4243583E1,-2.9814167E0,3.0810833E0,1.7000002E0,1.7333334E1,1.1442394E1,3.2040833E2,2.1333334E1,2.583753E-1,1.8437217E0,1.9134262E1,1.0000001E0,1.3000001E0,1.9531084E1,2.3740902E1,4E-1,1.725373E1,2.1208574E2,5.7E1,1.8861387E1,1.1263491E2,1.4773164E1,1.1592895E1,-2.0457659E0,1.0377345E-1,3.5101993E0,-1.0922073E0,-6.8633103E-1,-7.4918944E-1,-4.480562E-1,-4.4683012E-1,-9.3753123E-1,-2.5982696E-1,-6.1045486E-1,-6.514344E-1,-1.2395035E0,1.6326943E-1,2.1471927E0,6.0875602E-2,-4.0173087E-1,-7.195039E-2,-6.6451937E-1,-1.0869638E0,1.6104642E-1,-1.2848638E-1,-2.061551E0,7.7955955E-1,1.749189E-1,5.5806684E-1,-2.1002762E0,-7.0050424E-1,9.9374783E-1,9.2180425E-1,-2.7685E0,2.49862E0,1.3514049E0,2.1798673E0,8.871503E-2,-6.795897E-1,6.6409695E-1,2.012588E0,-1.6269253E0,-2.7698731E0,6.0440964E-1,-3.3477327E-1,3.9753149E0,1.1755733E0,2.5756354E0,-2.2343065E-1,3.6250012E0],"split_indices":[0,0,0,0,0,0,0,0,0,1,4,4,4,0,2,0,4,3,1,3,0,4,1,4,1,3,1,0,1,0,0,0,1,1,1,1,2,0,3,4,0,0,0,3,2,2,1,3,2,3,4,0,3,4,3,3,0,0,0,0,0,0,0,0,0,0,0,0,0,0,0,0,0,0,0,0,0,0,0,0,0,0,0,0,0,0,0,0,0,0,0,0,0,0,0,0,0,0,0,0,0,0,0],"split_type":[0,0,0,0,0,0,0,0,0,0,0,0,0,0,0,0,0,0,0,0,0,0,0,0,0,0,0,0,0,0,0,0,0,0,0,0,0,0,0,0,0,0,0,0,0,0,0,0,0,0,0,0,0,0,0,0,0,0,0,0,0,0,0,0,0,0,0,0,0,0,0,0,0,0,0,0,0,0,0,0,0,0,0,0,0,0,0,0,0,0,0,0,0,0,0,0,0,0,0,0,0,0,0],"sum_hessian":[3.476E3,2.845E3,6.31E2,1.628E3,1.217E3,5.97E2,3.4E1,6.86E2,9.42E2,5.84E2,6.33E2,4.46E2,1.51E2,2.7E1,7E0,1.84E2,5.02E2,4.92E2,4.5E2,5.77E2,7E0,4.12E2,2.21E2,2.43E2,2.03E2,3.3E1,1.18E2,3E0,2.4E1,3E0,4E0,1.4E1,1.7E2,1.7E2,3.32E2,4.14E2,7.8E1,2E0,4.48E2,5.46E2,3.1E1,1E0,6E0,1.5E1,3.97E2,1.16E2,1.05E2,1.17E2,1.26E2,3.8E1,1.65E2,2.7E1,6E0,1.8E1,1E2,2.3E1,1E0,1E0,2E0,1.54E2,1.6E1,1.09E2,6.1E1,3.3E1,2.99E2,1.14E2,3E2,4.4E1,3.4E1,1E0,1E0,3.2E1,4.16E2,5.05E2,4.1E1,2.7E1,4E0,9E0,6E0,2.59E2,1.38E2,1.1E2,6E0,9.5E1,1E1,1.15E2,2E0,6.3E1,6.3E1,3.1E1,7E0,2.5E1,1.4E2,2.6E1,1E0,2E0,4E0,2E0,1.6E1,4E1,6E1,2E0,2.1E1],"tree_param":{"num_deleted":"0","num_feature":"5","num_nodes":"103","size_leaf_vector":"1"}},{"base_weights":[3.693949E-2,-9.873889E-1,2.9798462E0,-1.7866075E0,-3.145886E-1,2.3123338E0,8.53227E0,-2.325216E0,-1.5143448E0,-7.4210143E-1,1.4042076E-1,1.4265308E0,3.4961321E0,7.2364492E0,2.0254492E1,-3.7969189E0,-2.2363632E0,-1.6221715E0,-5.0043243E-1,-2.22129E-1,-1.1145706E0,5.468071E-1,-6.364814E-1,2.3129096E0,2.8860644E-1,3.9894686E0,1.8244205E0,8.779566E0,3.2190342E0,7.16741E0,2.5603464E1,-3.915791E0,-2.1292177E-1,-1.6924994E0,-2.4027548E0,-1.7035261E0,-4.383057E-1,-7.579625E-1,3.3595934E0,-1.8540503E0,1.1837669E-2,-6.4227575E-1,-1.8966675E0,-8.269728E-1,1.0946103E0,4.731697E-2,-2.30645E0,-8.479146E-1,2.5666747E0,4.998263E0,-4.3144628E-1,5.2075634E0,3.1778455E0,-7.584584E0,2.2895062E0,2.0893703E0,1.0826723E1,-1.5725977E0,8.131636E0,8.820748E-2,2.808159E0,2.1032948E0,8.37593E0,-2.611891E-1,-1.2090721E0,-1.7453168E-1,-5.610486E-1,-7.4371237E-1,-1.4010504E-1,-4.2973825E-1,-7.0585424E-1,4.423891E-1,-4.7143713E-1,5.221696E-1,-3.2767546E-1,1.3132063E0,3.6659044E-1,-2.3625098E-1,-1.0310767E0,4.25324E-1,-8.657082E-2,-1.658422E-1,-1.3191851E0,-3.6187163E-1,-9.8426497E-1,2.4827509E-1,-7.9735184E-1,1.3157626E0,2.686431E-1,1.4962305E-1,-1.0485923E0,-1.1786909E0,3.3123544E-3,8.83367E-1,-9.3495566E-1,5.741772E-1,1.1139896E0,1.7154056E0,-7.9973644E-1,5.9651536E-1,-5.987581E-1,8.751325E-1,2.2591927E0,8.153477E-1,2.1530743E0,-3.305687E0,4.077799E-1,1.8008208E-1,2.1221416E0,1.1447363E0,-1.2131485E0,3.514224E0,-1.9164975E0,2.103101E0,-1.0761845E0,3.1847124E0,-3.343592E-2],"categories":[],"categories_nodes":[],"categories_segments":[],"categories_sizes":[],"default_left":[0,0,0,0,0,0,0,0,0,0,0,0,0,0,0,0,0,0,0,0,0,0,0,0,0,0,0,0,0,0,0,0,0,0,0,0,0,0,0,0,0,0,0,0,0,0,0,0,0,0,0,0,0,0,0,0,0,0,0,0,0,0,0,0,0,0,0,0,0,0,0,0,0,0,0,0,0,0,0,0,0,0,0,0,0,0,0,0,0,0,0,0,0,0,0,0,0,0,0,0,0,0,0,0,0,0,0,0,0,0,0,0,0,0,0,0,0],"id":5,"left_children":[1,3,5,7,9,11,13,15,17,19,21,23,25,27,29,31,33,35,37,39,41,43,45,47,49,51,53,55,57,59,61,63,-1,65,67,69,71,73,75,77,79,81,83,85,87,89,91,93,95,97,99,101,103,105,107,109,111,113,115,-1,-1,-1,-1,-1,-1,-1,-1,-1,-1,-1,-1,-1,-1,-1,-1,-1,-1,-1,-1,-1,-1,-1,-1,-1,-1,-1,-1,-1,-1,-1,-1,-1,-1,-1,-1,-1,-1,-1,-1,-1,-1,-1,-1,-1,-1,-1,-1,-1,-1,-1,-1,-1,-1,-1,-1,-1,-1],"loss_changes":[1.048437E4,1.3867412E3,3.3085396E3,1.6937085E2,2.7282455E2,8.3704834E2,1.3116597E3,4.303003E1,8.511902E1,1.3977856E2,2.150393E2,4.643119E2,2.7559912E2,5.172803E2,4.4651123E2,4.927368E0,2.977832E1,6.7635864E1,7.909005E1,1.1571196E2,1.542909E2,3.373E2,2.6731882E2,2.0992175E2,6.905703E2,2.444502E2,3.674444E2,8.402197E2,6.248115E2,5.754442E1,6.2649902E1,3.4614563E0,0E0,1.6869446E1,4.0780518E1,1.13499146E2,1.0419668E2,6.287295E1,5.5289726E0,6.1445282E1,1.1275287E2,8.626117E1,1.4704346E2,3.899464E2,2.0580069E2,2.6881546E2,2.5573526E2,1.8124908E2,1.7252344E2,1.6418158E2,6.7402277E2,5.3140674E2,2.7667834E2,1.3784375E2,6.180519E2,1.8484572E2,8.080757E2,2.6723465E2,2.6737665E2,0E0,0E0,0E0,0E0,0E0,0E0,0E0,0E0,0E0,0E0,0E0,0E0,0E0,0E0,0E0,0E0,0E0,0E0,0E0,0E0,0E0,0E0,0E0,0E0,0E0,0E0,0E0,0E0,0E0,0E0,0E0,0E0,0E0,0E0,0E0,0E0,0E0,0E0,0E0,0E0,0E0,0E0,0E0,0E0,0E0,0E0,0E0,0E0,0E0,0E0,0E0,0E0,0E0,0E0,0E0,0E0,0E0,0E0],"parents":[2147483647,0,0,1,1,2,2,3,3,4,4,5,5,6,6,7,7,8,8,9,9,10,10,11,11,12,12,13,13,14,14,15,15,16,16,17,17,18,18,19,19,20,20,21,21,22,22,23,23,24,24,25,25,26,26,27,27,28,28,29,29,30,30,31,31,33,33,34,34,35,35,36,36,37,37,38,38,39,39,40,40,41,41,42,42,43,43,44,44,45,45,46,46,47,47,48,48,49,49,50,50,51,51,52,52,53,53,54,54,55,55,56,56,57,57,58,58],"right_children":[2,4,6,8,10,12,14,16,18,20,22,24,26,28,30,32,34,36,38,40,42,44,46,48,50,52,54,56,58,60,62,64,-1,66,68,70,72,74,76,78,80,82,84,86,88,90,92,94,96,98,100,102,104,106,108,110,112,114,116,-1,-1,-1,-1,-1,-1,-1,-1,-1,-1,-1,-1,-1,-1,-1,-1,-1,-1,-1,-1,-1,-1,-1,-1,-1,-1,-1,-1,-1,-1,-1,-1,-1,-1,-1,-1,-1,-1,-1,-1,-1,-1,-1,-1,-1,-1,-1,-1,-1,-1,-1,-1,-1,-1,-1,-1,-1,-1],"split_conditions":[2.6333334E1,1.5E1,5.1E1,1E1,1.9666666E1,3.5333332E1,8.3666664E1,5.6666665E0,1.7126917E1,1.6323528E1,2.3920512E2,3E-1,2.4477342E2,2.277856E2,3E-1,1.6220667E1,1.50038395E1,3.39885E2,4.5E0,5.1013073E1,2.4989505E2,1.1875288E2,1.0579001E1,4.034414E1,1.2245294E1,1E-1,2.4920132E2,8.094425E1,2.7102734E2,9.0666664E1,8.4333336E1,3.5437565E1,-2.1292177E-1,4.84775E0,1.7312336E1,2.6914548E2,1.5124284E1,1.7312336E1,4.7999997E0,1.6666666E1,-1.1939167E0,3.1404713E1,6E-1,1.6179987E1,2.873334E-1,1.6000001E0,3E-1,1.2224107E1,1.584E1,3.4333332E1,1.8351367E2,1.511893E2,2.5562534E1,3.6E1,5E-1,5.7E1,2.3185787E1,9.178235E0,3.2743594E2,8.820748E-2,2.808159E0,2.1032948E0,8.37593E0,-2.611891E-1,-1.2090721E0,-1.7453168E-1,-5.610486E-1,-7.4371237E-1,-1.4010504E-1,-4.2973825E-1,-7.0585424E-1,4.423891E-1,-4.7143713E-1,5.221696E-1,-3.2767546E-1,1.3132063E0,3.6659044E-1,-2.3625098E-1,-1.0310767E0,4.25324E-1,-8.657082E-2,-1.658422E-1,-1.3191851E0,-3.6187163E-1,-9.8426497E-1,2.4827509E-1,-7.9735184E-1,1.3157626E0,2.686431E-1,1.4962305E-1,-1.0485923E0,-1.1786909E0,3.3123544E-3,8.83367E-1,-9.3495566E-1,5.741772E-1,1.1139896E0,1.7154056E0,-7.9973644E-1,5.9651536E-1,-5.987581E-1,8.751325E-1,2.2591927E0,8.153477E-1,2.1530743E0,-3.305687E0,4.077799E-1,1.8008208E-1,2.1221416E0,1.1447363E0,-1.2131485E0,3.514224E0,-1.9164975E0,2.103101E0,-1.0761845E0,3.1847124E0,-3.343592E-2],"split_indices":[0,0,0,0,0,0,0,0,1,3,4,2,4,4,2,1,3,4,2,4,4,4,1,4,3,2,4,4,4,0,0,4,0,1,1,4,3,1,2,0,1,3,2,3,1,2,2,3,3,0,4,4,3,0,2,0,3,3,4,0,0,0,0,0,0,0,0,0,0,0,0,0,0,0,0,0,0,0,0,0,0,0,0,0,0,0,0,0,0,0,0,0,0,0,0,0,0,0,0,0,0,0,0,0,0,0,0,0,0,0,0,0,0,0,0,0,0],"split_type":[0,0,0,0,0,0,0,0,0,0,0,0,0,0,0,0,0,0,0,0,0,0,0,0,0,0,0,0,0,0,0,0,0,0,0,0,0,0,0,0,0,0,0,0,0,0,0,0,0,0,0,0,0,0,0,0,0,0,0,0,0,0,0,0,0,0,0,0,0,0,0,0,0,0,0,0,0,0,0,0,0,0,0,0,0,0,0,0,0,0,0,0,0,0,0,0,0,0,0,0,0,0,0,0,0,0,0,0,0,0,0,0,0,0,0,0,0],"sum_hessian":[3.476E3,2.579E3,8.97E2,1.178E3,1.401E3,8.02E2,9.5E1,3.93E2,7.85E2,7.22E2,6.79E2,4.6E2,3.42E2,8.7E1,8E0,2E1,3.73E2,7.09E2,7.6E1,3.02E2,4.2E2,4.46E2,2.33E2,2.58E2,2.02E2,2.63E2,7.9E1,6.2E1,2.5E1,3E0,5E0,1.9E1,1E0,9E1,2.83E2,6.63E2,4.6E1,7.2E1,4E0,3.7E1,2.65E2,2.63E2,1.57E2,1.27E2,3.19E2,1.66E2,6.7E1,1.9E1,2.39E2,2.6E1,1.76E2,1.03E2,1.6E2,3E0,7.6E1,1.5E1,4.7E1,1.3E1,1.2E1,1E0,2E0,1E0,4E0,1E0,1.8E1,1.3E1,7.7E1,2.72E2,1.1E1,4.7E2,1.93E2,1.7E1,2.9E1,8E0,6.4E1,2E0,2E0,2.3E1,1.4E1,4.6E1,2.19E2,2.58E2,5E0,1.06E2,5.1E1,6.7E1,6E1,1.7E1,3.02E2,1.48E2,1.8E1,3.9E1,2.8E1,7E0,1.2E1,1.54E2,8.5E1,2.4E1,2E0,6.9E1,1.07E2,5.3E1,5E1,1.45E2,1.5E1,2E0,1E0,5.7E1,1.9E1,1.2E1,3E0,4.5E1,2E0,2E0,1.1E1,9E0,3E0],"tree_param":{"num_deleted":"0","num_feature":"5","num_nodes":"117","size_leaf_vector":"1"}},{"base_weights":[3.153744E-2,-5.988545E-1,2.458986E0,-1.1636503E0,-7.8527123E-4,2.1906772E0,1.1700009E1,-1.4578187E0,-7.9665625E-1,5.277177E-1,-4.2245463E-1,1.4003036E0,3.2593594E0,1.8472252E0,1.3330075E1,-1.2332121E0,-1.7716545E0,6.099573E-1,-8.773809E-1,-3.036862E-1,1.3827779E0,-1.0002374E-2,-1.3045058E0,3.7730563E0,9.823807E-1,3.7552464E0,-2.0627373E-1,-1.1647328E0,1.5153786E0,1.4060317E1,2.4693204E-1,8.906426E-3,-1.319491E0,-1.5250974E0,-2.2291374E0,-1.977798E-1,2.649078E0,-6.4989966E-1,-1.3881544E0,-7.263909E-1,1.4944007E0,6.295442E-1,3.1388755E0,5.548369E-1,-1.2490561E0,-1.5811033E0,8.264433E-1,1.1368774E0,5.381036E0,6.8026596E-1,4.010821E0,2.754918E0,5.7355003E0,-1.7445433E0,5.780305E0,1.0396566E1,1.8433805E1,-1.11530684E-1,1.1057398E0,-6.138087E-1,-3.6308613E-1,-9.95658E-1,-4.2081398E-1,-9.108098E-1,-5.2160865E-1,-2.9637656E-1,7.802041E-1,9.264312E-1,-1.9532318E-1,-5.465953E-1,-1.466649E-1,-3.2100284E-1,-7.4150527E-1,6.168711E-1,-3.36716E-1,3.221159E-1,2.6546943E0,5.068207E-1,7.892389E-2,1.6633726E0,3.598957E-1,2.0669045E-1,-1.2263803E0,-8.447751E-1,-9.914672E-2,2.3660854E-1,-5.4591674E-1,7.5251776E-1,-6.002905E-1,7.139137E-2,2.2049692E0,1.8302647E0,-1.3384667E-1,5.3515226E-1,-8.682335E-2,3.2102376E-1,3.0238113E0,9.5252913E-1,-9.546264E-1,-1.7680977E-1,2.156881E0,-1.0071179E-1,-3.351081E0,2.9416213E0,-2.0884353E-1,4.8422055E0,1.4425204E0,6.761616E-1,6.365706E0],"categories":[],"categories_nodes":[],"categories_segments":[],"categories_sizes":[],"default_left":[0,0,0,0,0,0,0,0,0,0,0,0,0,0,0,0,0,0,0,0,0,0,0,0,0,0,0,0,0,0,0,0,0,0,0,0,0,0,0,0,0,0,0,0,0,0,0,0,0,0,0,0,0,0,0,0,0,0,0,0,0,0,0,0,0,0,0,0,0,0,0,0,0,0,0,0,0,0,0,0,0,0,0,0,0,0,0,0,0,0,0,0,0,0,0,0,0,0,0,0,0,0,0,0,0,0,0,0,0],"id":6,"left_children":[1,3,5,7,9,11,13,15,17,19,21,23,25,27,29,31,33,35,37,39,41,43,45,47,49,51,53,-1,-1,55,-1,57,59,61,63,65,67,69,71,73,75,77,79,81,83,85,87,89,91,93,95,97,99,101,103,105,107,-1,-1,-1,-1,-1,-1,-1,-1,-1,-1,-1,-1,-1,-1,-1,-1,-1,-1,-1,-1,-1,-1,-1,-1,-1,-1,-1,-1,-1,-1,-1,-1,-1,-1,-1,-1,-1,-1,-1,-1,-1,-1,-1,-1,-1,-1,-1,-1,-1,-1,-1,-1],"loss_changes":[5.322131E3,9.32629E2,1.7521318E3,1.5213904E2,2.992924E2,5.8500757E2,2.965901E2,5.3290527E1,7.252487E1,4.2411652E2,2.7174854E2,3.959193E2,5.09469E2,9.3043495E1,1.436897E2,4.952362E1,3.3371704E1,5.81715E1,6.881265E1,2.313836E2,3.8691302E2,3.5762476E2,1.4158752E2,2.4821771E2,3.1200967E2,4.9725317E2,3.6002493E2,0E0,0E0,6.4725586E1,0E0,4.476104E1,3.179889E1,4.2543213E1,3.904364E1,6.005997E1,1.649913E1,7.780763E1,6.078366E1,2.7337744E2,1.699468E2,7.9954445E1,4.038849E2,2.2139839E2,2.2935202E2,1.2075128E2,1.3817496E2,1.3228905E2,1.5792505E2,3.3653122E2,5.4244135E2,4.4416455E2,7.9517993E2,4.0790878E2,2.153728E2,2.7547913E2,2.2256262E2,0E0,0E0,0E0,0E0,0E0,0E0,0E0,0E0,0E0,0E0,0E0,0E0,0E0,0E0,0E0,0E0,0E0,0E0,0E0,0E0,0E0,0E0,0E0,0E0,0E0,0E0,0E0,0E0,0E0,0E0,0E0,0E0,0E0,0E0,0E0,0E0,0E0,0E0,0E0,0E0,0E0,0E0,0E0,0E0,0E0,0E0,0E0,0E0,0E0,0E0,0E0,0E0],"parents":[2147483647,0,0,1,1,2,2,3,3,4,4,5,5,6,6,7,7,8,8,9,9,10,10,11,11,12,12,13,13,14,14,15,15,16,16,17,17,18,18,19,19,20,20,21,21,22,22,23,23,24,24,25,25,26,26,29,29,31,31,32,32,33,33,34,34,35,35,36,36,37,37,38,38,39,39,40,40,41,41,42,42,43,43,44,44,45,45,46,46,47,47,48,48,49,49,50,50,51,51,52,52,53,53,54,54,55,55,56,56],"right_children":[2,4,6,8,10,12,14,16,18,20,22,24,26,28,30,32,34,36,38,40,42,44,46,48,50,52,54,-1,-1,56,-1,58,60,62,64,66,68,70,72,74,76,78,80,82,84,86,88,90,92,94,96,98,100,102,104,106,108,-1,-1,-1,-1,-1,-1,-1,-1,-1,-1,-1,-1,-1,-1,-1,-1,-1,-1,-1,-1,-1,-1,-1,-1,-1,-1,-1,-1,-1,-1,-1,-1,-1,-1,-1,-1,-1,-1,-1,-1,-1,-1,-1,-1,-1,-1,-1,-1,-1,-1,-1,-1],"split_conditions":[2.9333334E1,1.6333334E1,6.8666664E1,1.2666667E1,2.0503342E2,3.9E1,6.840926E1,1.9242327E1,1.0446206E1,1.4392392E2,8E-1,1.1442394E1,2.1889065E1,7.4E1,2.5586292E2,-2.9814167E0,2.8389243E2,6E-1,2.617137E2,1.57664995E1,2.4333334E1,1.0579001E1,1.753525E1,1.3487674E2,2.5562534E1,1.6992609E1,2.879325E1,-1.1647328E0,1.5153786E0,3E-1,2.4693204E-1,1.6E0,6.840926E1,1.8045296E1,3.0780145E2,1.01376915E1,1.5666667E1,4.268292E1,1.3E0,1.0495713E1,8.7E0,1.6679837E2,9.8810835E0,2.8666666E1,1.5179E1,-1.2480834E0,1.90665E1,1.6876915E1,1.7312336E1,1E-1,7.4060836E0,1.6516901E1,2.5665E0,2.7567635E1,2.5956644E2,2.320667E0,8.3666664E1,-1.11530684E-1,1.1057398E0,-6.138087E-1,-3.6308613E-1,-9.95658E-1,-4.2081398E-1,-9.108098E-1,-5.2160865E-1,-2.9637656E-1,7.802041E-1,9.264312E-1,-1.9532318E-1,-5.465953E-1,-1.466649E-1,-3.2100284E-1,-7.4150527E-1,6.168711E-1,-3.36716E-1,3.221159E-1,2.6546943E0,5.068207E-1,7.892389E-2,1.6633726E0,3.598957E-1,2.0669045E-1,-1.2263803E0,-8.447751E-1,-9.914672E-2,2.3660854E-1,-5.4591674E-1,7.5251776E-1,-6.002905E-1,7.139137E-2,2.2049692E0,1.8302647E0,-1.3384667E-1,5.3515226E-1,-8.682335E-2,3.2102376E-1,3.0238113E0,9.5252913E-1,-9.546264E-1,-1.7680977E-1,2.156881E0,-1.0071179E-1,-3.351081E0,2.9416213E0,-2.0884353E-1,4.8422055E0,1.4425204E0,6.761616E-1,6.365706E0],"split_indices":[0,0,0,0,4,0,4,3,3,4,2,3,3,0,4,1,4,2,4,1,0,1,1,4,3,3,3,0,0,2,0,2,4,4,4,3,0,4,2,3,2,4,1,0,1,1,1,1,1,2,1,3,1,3,4,1,0,0,0,0,0,0,0,0,0,0,0,0,0,0,0,0,0,0,0,0,0,0,0,0,0,0,0,0,0,0,0,0,0,0,0,0,0,0,0,0,0,0,0,0,0,0,0,0,0,0,0,0,0],"split_type":[0,0,0,0,0,0,0,0,0,0,0,0,0,0,0,0,0,0,0,0,0,0,0,0,0,0,0,0,0,0,0,0,0,0,0,0,0,0,0,0,0,0,0,0,0,0,0,0,0,0,0,0,0,0,0,0,0,0,0,0,0,0,0,0,0,0,0,0,0,0,0,0,0,0,0,0,0,0,0,0,0,0,0,0,0,0,0,0,0,0,0,0,0,0,0,0,0,0,0,0,0,0,0,0,0,0,0,0,0],"sum_hessian":[3.476E3,2.76E3,7.16E2,1.419E3,1.341E3,6.97E2,1.9E1,7.86E2,6.33E2,5.95E2,7.46E2,4.02E2,2.95E2,3E0,1.6E1,4.61E2,3.25E2,3.4E1,5.99E2,3.02E2,2.93E2,5.09E2,2.37E2,5.9E1,3.43E2,2.58E2,3.7E1,1E0,2E0,1.5E1,1E0,3E1,4.31E2,2.14E2,1.11E2,2.5E1,9E0,4.16E2,1.83E2,2.45E2,5.7E1,2.06E2,8.7E1,3.5E2,1.59E2,2.1E2,2.7E1,2.3E1,3.6E1,3.13E2,3E1,1.73E2,8.5E1,3E1,7E0,1E1,5E0,2.8E1,2E0,5.4E1,3.77E2,1.2E1,2.02E2,4E1,7.1E1,2E1,5E0,8E0,1E0,4.9E1,3.67E2,1.43E2,4E1,3E1,2.15E2,5.5E1,2E0,5.2E1,1.54E2,3.8E1,4.9E1,3.41E2,9E0,5.8E1,1.01E2,1.9E1,1.91E2,1.7E1,1E1,2.1E1,2E0,3.2E1,4E0,1.46E2,1.67E2,2.1E1,9E0,1.62E2,1.1E1,1.6E1,6.9E1,2.7E1,3E0,4E0,3E0,4E0,6E0,1E0,4E0],"tree_param":{"num_deleted":"0","num_feature":"5","num_nodes":"109","size_leaf_vector":"1"}},{"base_weights":[2.878362E-2,-3.1163517E-1,2.3914418E0,-7.1322817E-1,3.1849143E-1,2.0757215E0,8.886213E0,-1.0052437E0,-4.689377E-1,4.0027058E-1,-2.4593408E0,1.7291641E0,3.8085601E0,5.918367E0,1.3552447E1,-1.0854416E0,-2.5589103E-1,-5.521676E-1,8.6223346E-1,3.6218432E-1,5.7965727E0,-3.6086252E0,1.726912E0,2.4453058E0,8.881828E-1,3.184666E0,4.9418035E0,1.2266917E1,2.152255E0,5.747372E-1,4.551778E0,-8.258012E-1,-1.4164593E0,-7.930981E-1,1.8763891E0,1.2730652E-1,-7.0177996E-1,2.873355E-1,3.397021E0,3.9721888E-1,-4.6623774E0,-1.1310912E-1,6.732377E0,-5.358004E-1,-5.3846517E0,-1.993769E0,5.6254973E0,1.7996236E0,7.027203E0,2.45163E0,-1.9844652E0,5.8638544E0,9.857102E-1,6.998303E-1,4.2501793E0,-3.2839117E0,4.9511714E0,-4.0791807E-1,-1.9538946E-1,-2.6757976E-1,-5.3573364E-1,6.4930785E-1,-2.752184E-1,6.938158E-1,-7.6573396E-1,2.4798189E-1,-2.4582405E-1,-1.7048223E-1,-3.962069E-1,-2.3855941E-2,8.9725834E-1,1.1067511E0,4.1646996E-1,-1.5964496E-1,1.7562707E-1,-1.7442844E0,5.1014274E-1,2.5875316E0,9.469666E-1,3.8371757E-2,-1.0759295E0,-1.7400337E0,1.8940745E-1,3.4081692E-1,2.2758613E0,2.2922967E-1,1.2622409E0,-9.633943E-1,2.617064E0,1.3613205E0,1.9408852E-1,-1.4553587E0,3.1486443E-1,2.3489347E0,3.447067E-1,-1.5632704E-1,2.3199375E0,2.098921E-1,-1.4534929E0,2.3137636E0,2.8560126E-1],"categories":[],"categories_nodes":[],"categories_segments":[],"categories_sizes":[],"default_left":[0,0,0,0,0,0,0,0,0,0,0,0,0,0,0,0,0,0,0,0,0,0,0,0,0,0,0,0,0,0,0,0,0,0,0,0,0,0,0,0,0,0,0,0,0,0,0,0,0,0,0,0,0,0,0,0,0,0,0,0,0,0,0,0,0,0,0,0,0,0,0,0,0,0,0,0,0,0,0,0,0,0,0,0,0,0,0,0,0,0,0,0,0,0,0,0,0,0,0,0,0],"id":7,"left_children":[1,3,5,7,9,11,13,15,17,19,21,23,25,27,29,31,33,35,37,39,41,43,45,47,49,51,-1,53,55,-1,-1,57,59,61,63,65,67,69,71,73,75,-1,77,79,81,-1,83,85,87,89,91,93,95,-1,-1,97,99,-1,-1,-1,-1,-1,-1,-1,-1,-1,-1,-1,-1,-1,-1,-1,-1,-1,-1,-1,-1,-1,-1,-1,-1,-1,-1,-1,-1,-1,-1,-1,-1,-1,-1,-1,-1,-1,-1,-1,-1,-1,-1,-1,-1],"loss_changes":[2.797273E3,7.695126E2,8.79688E2,1.3200067E2,2.699522E2,2.4503577E2,1.967649E2,5.0503845E1,1.12709656E2,2.3445978E2,1.6981241E2,2.0922192E2,4.927138E2,3.083294E2,1.0290381E2,6.440668E1,9.656266E1,9.70708E1,8.645856E1,2.0323415E2,4.8756622E1,1.4446515E2,2.9852338E2,5.4650073E2,7.369362E2,3.8894495E2,0E0,6.134259E1,1.6841295E2,0E0,0E0,3.9178192E1,6.310901E1,2.6614883E1,3.875447E1,1.15210434E2,6.3864624E1,4.9827965E1,1.3340988E0,1.991859E2,6.852222E1,0E0,2.0150787E1,2.2730679E1,4.615204E1,0E0,4.4196503E1,4.1318018E2,4.27479E2,3.9612537E2,5.0955814E2,2.6907385E2,3.9037585E2,0E0,0E0,2.8264065E1,6.996001E1,0E0,0E0,0E0,0E0,0E0,0E0,0E0,0E0,0E0,0E0,0E0,0E0,0E0,0E0,0E0,0E0,0E0,0E0,0E0,0E0,0E0,0E0,0E0,0E0,0E0,0E0,0E0,0E0,0E0,0E0,0E0,0E0,0E0,0E0,0E0,0E0,0E0,0E0,0E0,0E0,0E0,0E0,0E0,0E0],"parents":[2147483647,0,0,1,1,2,2,3,3,4,4,5,5,6,6,7,7,8,8,9,9,10,10,11,11,12,12,13,13,14,14,15,15,16,16,17,17,18,18,19,19,20,20,21,21,22,22,23,23,24,24,25,25,27,27,28,28,31,31,32,32,33,33,34,34,35,35,36,36,37,37,38,38,39,39,40,40,42,42,43,43,44,44,46,46,47,47,48,48,49,49,50,50,51,51,52,52,55,55,56,56],"right_children":[2,4,6,8,10,12,14,16,18,20,22,24,26,28,30,32,34,36,38,40,42,44,46,48,50,52,-1,54,56,-1,-1,58,60,62,64,66,68,70,72,74,76,-1,78,80,82,-1,84,86,88,90,92,94,96,-1,-1,98,100,-1,-1,-1,-1,-1,-1,-1,-1,-1,-1,-1,-1,-1,-1,-1,-1,-1,-1,-1,-1,-1,-1,-1,-1,-1,-1,-1,-1,-1,-1,-1,-1,-1,-1,-1,-1,-1,-1,-1,-1,-1,-1,-1,-1],"split_conditions":[3.5333332E1,1.9333334E1,6.8666664E1,1.3E1,2.9793125E1,5.2E1,5E-1,3.3541373E2,1.8670666E1,2.9460672E1,3.4651752E1,1.8596217E2,2.0274832E1,2.320667E0,8.3666664E1,2.5372432E2,1.1666667E1,5.1916655E-2,1.3E0,2.879325E1,1.6366661E2,4E-1,1E0,1.7175021E2,8.318584E0,5.5E1,4.9418035E0,1.5407877E2,8.733168E0,5.747372E-1,4.551778E0,4.051917E0,4.4206667E0,1.1442394E1,1.7000002E0,2.818325E2,2.8311826E2,1.8333334E1,2.0858265E1,9.192192E1,5.5E0,-1.1310912E-1,3.0666666E1,2.5333334E1,3.1333334E1,-1.993769E0,2.0333334E1,1.3945666E1,3.7E1,2.4204277E2,2.3583086E2,1.6E0,2.7102734E2,6.998303E-1,4.2501793E0,6.9666664E1,1.1062996E2,-4.0791807E-1,-1.9538946E-1,-2.6757976E-1,-5.3573364E-1,6.4930785E-1,-2.752184E-1,6.938158E-1,-7.6573396E-1,2.4798189E-1,-2.4582405E-1,-1.7048223E-1,-3.962069E-1,-2.3855941E-2,8.9725834E-1,1.1067511E0,4.1646996E-1,-1.5964496E-1,1.7562707E-1,-1.7442844E0,5.1014274E-1,2.5875316E0,9.469666E-1,3.8371757E-2,-1.0759295E0,-1.7400337E0,1.8940745E-1,3.4081692E-1,2.2758613E0,2.2922967E-1,1.2622409E0,-9.633943E-1,2.617064E0,1.3613205E0,1.9408852E-1,-1.4553587E0,3.1486443E-1,2.3489347E0,3.447067E-1,-1.5632704E-1,2.3199375E0,2.098921E-1,-1.4534929E0,2.3137636E0,2.8560126E-1],"split_indices":[0,0,0,0,3,0,2,4,1,3,3,4,1,1,0,4,0,1,2,3,4,2,2,4,1,0,0,4,1,0,0,1,1,3,2,4,4,0,3,4,2,0,0,0,0,0,0,1,0,4,4,2,4,0,0,0,4,0,0,0,0,0,0,0,0,0,0,0,0,0,0,0,0,0,0,0,0,0,0,0,0,0,0,0,0,0,0,0,0,0,0,0,0,0,0,0,0,0,0,0,0],"split_type":[0,0,0,0,0,0,0,0,0,0,0,0,0,0,0,0,0,0,0,0,0,0,0,0,0,0,0,0,0,0,0,0,0,0,0,0,0,0,0,0,0,0,0,0,0,0,0,0,0,0,0,0,0,0,0,0,0,0,0,0,0,0,0,0,0,0,0,0,0,0,0,0,0,0,0,0,0,0,0,0,0,0,0,0,0,0,0,0,0,0,0,0,0,0,0,0,0,0,0,0,0],"sum_hessian":[3.476E3,3.039E3,4.37E2,1.856E3,1.183E3,4.18E2,1.9E1,8.44E2,1.012E3,1.15E3,3.3E1,3.5E2,6.8E1,1.3E1,6E0,7.62E2,8.2E1,9.53E2,5.9E1,1.143E3,7E0,2.6E1,7E0,1.88E2,1.62E2,6.6E1,2E0,4E0,9E0,1E0,5E0,4.29E2,3.33E2,6.6E1,1.6E1,1.72E2,7.81E2,4.9E1,1E1,1.136E3,7E0,1E0,6E0,1E1,1.6E1,2E0,5E0,1.66E2,2.2E1,1.05E2,5.7E1,2.9E1,3.7E1,1E0,3E0,3E0,6E0,1.04E2,3.25E2,1.39E2,1.94E2,2E0,6.4E1,1.5E1,1E0,9.9E1,7.3E1,6.44E2,1.37E2,4.4E1,5E0,8E0,2E0,1.91E2,9.45E2,6E0,1E0,3E0,3E0,9E0,1E0,1.5E1,1E0,2E0,3E0,1.17E2,4.9E1,3E0,1.9E1,4.8E1,5.7E1,2.9E1,2.8E1,2E1,9E0,3.1E1,6E0,1E0,2E0,3E0,3E0],"tree_param":{"num_deleted":"0","num_feature":"5","num_nodes":"101","size_leaf_vector":"1"}},{"base_weights":[2.7556475E-2,-3.638672E-1,1.152106E0,-3.890024E-1,2.2205105E0,9.372356E-1,5.4027343E0,4.0824217E-1,-4.59801E-1,3.0271335E0,-2.8611034E-1,1.6890812E0,2.9541183E-1,4.5514703E0,4.57073E0,1.2457842E0,-3.5687095E-1,-2.4189653E-1,-7.284786E-1,1.6640015E0,5.1262164E0,-5.192389E-1,6.3792324E-1,1.1889448E0,6.785081E0,2.7899995E0,-1.7108515E-1,6.81175E0,1.5757915E0,5.2946323E-1,4.0845947E0,-5.2888435E-1,3.3611877E0,-1.1704754E0,-7.6671384E-2,-6.410361E-1,-2.866916E0,1.9893731E-1,3.9683166E0,7.789688E-1,1.912295E0,-1.4105101E-1,4.6001264E-1,-4.159429E-1,1.7097024E0,7.80687E0,-2.0148869E0,5.4898005E0,1.2694823E0,5.432612E0,-3.1733093E-1,4.204454E0,1.2170648E1,3.812304E0,2.5137106E-1,2.0267583E-1,-1.674055E0,1.9743114E0,2.7901435E-1,-3.6135513E-2,-1.2135922E0,1.1644149E0,1.9206105E-1,-1.299114E-1,-5.496338E-1,-5.0053045E-2,3.769184E-1,-2.168115E-1,4.2388034E-1,-9.747658E-1,1.8637831E0,3.5062474E-1,-6.390808E-1,2.4788433E-1,1.3641768E0,8.944438E-1,-4.935201E-1,7.867247E-2,8.1180376E-1,4.9542004E-1,2.820179E0,-1.2474445E-1,2.1846828E0,-4.1334906E-1,7.543676E-1,-9.8481566E-1,2.0297186E0,-6.935871E-2,-2.5197937E0,9.617337E-2,1.8881366E0,5.180934E0,2.0031116E0,-6.6162884E-1,1.0794152E0],"categories":[],"categories_nodes":[],"categories_segments":[],"categories_sizes":[],"default_left":[0,0,0,0,0,0,0,0,0,0,0,0,0,0,0,0,0,0,0,0,0,0,0,0,0,0,0,0,0,0,0,0,0,0,0,0,0,0,0,0,0,0,0,0,0,0,0,0,0,0,0,0,0,0,0,0,0,0,0,0,0,0,0,0,0,0,0,0,0,0,0,0,0,0,0,0,0,0,0,0,0,0,0,0,0,0,0,0,0,0,0,0,0,0,0],"id":8,"left_children":[1,3,5,7,9,11,13,15,17,19,21,23,25,27,-1,29,31,33,35,37,39,-1,41,43,45,47,49,51,53,55,57,59,61,63,65,67,69,71,73,-1,-1,-1,-1,75,77,79,-1,81,83,85,87,89,91,-1,93,-1,-1,-1,-1,-1,-1,-1,-1,-1,-1,-1,-1,-1,-1,-1,-1,-1,-1,-1,-1,-1,-1,-1,-1,-1,-1,-1,-1,-1,-1,-1,-1,-1,-1,-1,-1,-1,-1,-1,-1],"loss_changes":[1.5309088E3,1.6845764E2,8.1511084E2,1.4445801E2,5.1413536E1,4.1256586E2,2.9058667E2,1.3437479E2,1.3728998E2,4.583519E1,1.0448682E1,9.9611865E2,5.3927856E2,2.650265E2,0E0,2.0118732E2,7.212884E1,1.9905533E2,1.9468909E2,4.309816E1,5.549515E0,0E0,5.6821694E0,3.015839E2,5.3527734E2,2.9270264E2,3.2215512E2,2.7019043E2,2.7692834E2,7.6083374E1,1.5138226E2,1.5175226E2,4.5923386E0,9.4838165E1,1.3279611E2,1.7061179E2,1.6250262E2,2.281978E1,5.3379135E0,0E0,0E0,0E0,0E0,3.7655566E2,3.9154694E2,3.082102E2,0E0,2.7825555E2,1.616777E2,1.3839548E2,2.6398486E2,1.3593253E2,8.0777466E1,0E0,1.5593347E2,0E0,0E0,0E0,0E0,0E0,0E0,0E0,0E0,0E0,0E0,0E0,0E0,0E0,0E0,0E0,0E0,0E0,0E0,0E0,0E0,0E0,0E0,0E0,0E0,0E0,0E0,0E0,0E0,0E0,0E0,0E0,0E0,0E0,0E0,0E0,0E0,0E0,0E0,0E0,0E0],"parents":[2147483647,0,0,1,1,2,2,3,3,4,4,5,5,6,6,7,7,8,8,9,9,10,10,11,11,12,12,13,13,15,15,16,16,17,17,18,18,19,19,20,20,22,22,23,23,24,24,25,25,26,26,27,27,28,28,29,29,30,30,31,31,32,32,33,33,34,34,35,35,36,36,37,37,38,38,43,43,44,44,45,45,47,47,48,48,49,49,50,50,51,51,52,52,54,54],"right_children":[2,4,6,8,10,12,14,16,18,20,22,24,26,28,-1,30,32,34,36,38,40,-1,42,44,46,48,50,52,54,56,58,60,62,64,66,68,70,72,74,-1,-1,-1,-1,76,78,80,-1,82,84,86,88,90,92,-1,94,-1,-1,-1,-1,-1,-1,-1,-1,-1,-1,-1,-1,-1,-1,-1,-1,-1,-1,-1,-1,-1,-1,-1,-1,-1,-1,-1,-1,-1,-1,-1,-1,-1,-1,-1,-1,-1,-1,-1,-1],"split_conditions":[2.6333334E1,2.1389418E1,5.8E1,1.1592895E1,2.0881583E2,1.8128822E2,1.7958166E1,8.587334E0,2.4477342E2,1E-1,2.1771873E2,1.7175021E2,-1.8558322E-1,1.6575644E1,4.57073E0,2.2333334E1,2.0678999E1,4.8155895E1,2.4333334E1,1.5141414E1,2.1989418E1,-5.192389E-1,1.7666666E1,1.1519167E0,6.4999995E0,2.4680136E2,9E0,2.127038E2,2.873334E-1,4.6000004E0,1E-1,1.8879002E1,2.4E1,4.139417E0,2.4666666E1,2.3333334E1,3.39885E2,1.457889E1,1.3666667E1,7.789688E-1,1.912295E0,-1.4105101E-1,4.6001264E-1,1.1841756E1,1.4241629E1,1.2605142E1,-2.0148869E0,-3.7022502E0,2.795938E2,1.8351367E2,5.5E1,6.5333336E1,5.1164994E0,3.812304E0,2.1316135E1,2.0267583E-1,-1.674055E0,1.9743114E0,2.7901435E-1,-3.6135513E-2,-1.2135922E0,1.1644149E0,1.9206105E-1,-1.299114E-1,-5.496338E-1,-5.0053045E-2,3.769184E-1,-2.168115E-1,4.2388034E-1,-9.747658E-1,1.8637831E0,3.5062474E-1,-6.390808E-1,2.4788433E-1,1.3641768E0,8.944438E-1,-4.935201E-1,7.867247E-2,8.1180376E-1,4.9542004E-1,2.820179E0,-1.2474445E-1,2.1846828E0,-4.1334906E-1,7.543676E-1,-9.8481566E-1,2.0297186E0,-6.935871E-2,-2.5197937E0,9.617337E-2,1.8881366E0,5.180934E0,2.0031116E0,-6.6162884E-1,1.0794152E0],"split_indices":[0,1,0,3,4,4,1,1,4,2,4,4,1,3,0,0,1,4,0,3,1,0,0,1,2,4,3,4,1,2,2,1,0,1,0,0,4,3,0,0,0,0,0,3,3,3,0,1,4,4,0,0,1,0,3,0,0,0,0,0,0,0,0,0,0,0,0,0,0,0,0,0,0,0,0,0,0,0,0,0,0,0,0,0,0,0,0,0,0,0,0,0,0,0,0],"split_type":[0,0,0,0,0,0,0,0,0,0,0,0,0,0,0,0,0,0,0,0,0,0,0,0,0,0,0,0,0,0,0,0,0,0,0,0,0,0,0,0,0,0,0,0,0,0,0,0,0,0,0,0,0,0,0,0,0,0,0,0,0,0,0,0,0,0,0,0,0,0,0,0,0,0,0,0,0,0,0,0,0,0,0,0,0,0,0,0,0,0,0,0,0,0,0],"sum_hessian":[3.476E3,2.579E3,8.97E2,2.555E3,2.4E1,8.55E2,4.2E1,2.08E2,2.347E3,1.8E1,6E0,3.93E2,4.62E2,4E1,2E0,9.9E1,1.09E2,1.297E3,1.05E3,1.2E1,6E0,2E0,4E0,3.59E2,3.4E1,7.2E1,3.9E2,2.2E1,1.8E1,8E1,1.9E1,1.05E2,4E0,1.95E2,1.102E3,1.01E3,4E1,8E0,4E0,3E0,3E0,2E0,2E0,8.8E1,2.71E2,3.2E1,2E0,2.5E1,4.7E1,9E0,3.81E2,1.6E1,6E0,1E0,1.7E1,7.9E1,1E0,1E1,9E0,9.5E1,1E1,3E0,1E0,9.3E1,1.02E2,1.033E3,6.9E1,9.72E2,3.8E1,3.9E1,1E0,6E0,2E0,1E0,3E0,2.3E1,6.5E1,1.11E2,1.6E2,7E0,2.5E1,6E0,1.9E1,1.5E1,3.2E1,1E0,8E0,3.78E2,3E0,6E0,1E1,2E0,4E0,1E1,7E0],"tree_param":{"num_deleted":"0","num_feature":"5","num_nodes":"95","size_leaf_vector":"1"}},{"base_weights":[2.7015781E-2,-6.3998744E-2,2.7370765E0,-3.131194E-1,4.142042E-1,1.9451474E0,5.751358E0,2.9583025E0,-3.248412E-1,2.6246238E0,3.3446366E-1,2.4413695E0,-3.5083284E0,8.625874E0,3.2873213E0,3.9347682E0,-5.815437E-1,-3.418965E-1,1.7673213E0,1.9185185E-1,4.076613E0,5.9882087E-1,-3.2914376E-1,1.4923955E0,5.0479145E0,-2.4722981E0,-5.572745E-1,1.1342806E1,-1.4945679E0,9.157869E-1,3.5033057E0,4.662395E0,4.2314026E-1,-1.3310611E-1,-4.834965E-1,7.046921E-1,3.3364968E0,-8.187184E-1,3.4282422E0,1.2318527E0,5.3428617E0,1.0138984E0,-2.5748348E-1,-9.495802E-1,2.468495E0,-2.4210729E-1,4.138524E0,9.094085E0,2.0862396E0,6.4424E-1,-1.527716E0,7.682442E-1,1.2231545E1,-9.9916995E-1,3.2661438E-1,-1.9934576E0,2.1697922E0,4.0563586E-1,1.5455803E0,1.3516401E-1,-8.986509E-2,-3.4410053E-1,-1.0366819E-1,5.0405914E-1,-1.6525374E-1,3.8415682E-1,1.1708347E0,4.7403482E-1,-9.30178E-1,1.6325198E-1,1.2624624E0,-4.7715065E-1,1.1423512E0,-2.70298E-1,1.7368244E0,1.3570148E-1,6.9676757E-1,2.2953121E-1,-6.3388956E-1,-1.3737904E-1,-1.0091704E0,2.640845E-1,2.7523417E0,-3.2680064E-1,1.379761E0,2.6002324E-1,2.1275868E0,1.1070548E0,3.8037512E0,1.550862E0,-2.6172826E-1,-6.990341E-1,-6.482392E-2,4.4341483E0,1.987413E0,7.328917E-1,-1.8093587E0],"categories":[],"categories_nodes":[],"categories_segments":[],"categories_sizes":[],"default_left":[0,0,0,0,0,0,0,0,0,0,0,0,0,0,0,0,0,0,0,0,0,0,0,0,0,0,0,0,0,0,0,0,0,0,0,0,0,0,0,0,0,0,0,0,0,0,0,0,0,0,0,0,0,0,0,0,0,0,0,0,0,0,0,0,0,0,0,0,0,0,0,0,0,0,0,0,0,0,0,0,0,0,0,0,0,0,0,0,0,0,0,0,0,0,0,0,0],"id":9,"left_children":[1,3,5,7,9,11,13,15,17,19,21,23,25,27,29,31,-1,33,35,37,39,41,43,45,47,-1,49,51,53,55,-1,57,-1,59,61,63,65,67,69,71,73,75,77,79,81,83,85,87,89,-1,91,-1,93,-1,-1,95,-1,-1,-1,-1,-1,-1,-1,-1,-1,-1,-1,-1,-1,-1,-1,-1,-1,-1,-1,-1,-1,-1,-1,-1,-1,-1,-1,-1,-1,-1,-1,-1,-1,-1,-1,-1,-1,-1,-1,-1,-1],"loss_changes":[8.577942E2,4.0100296E2,2.585548E2,8.582268E1,2.0235004E2,2.5482346E2,1.3455096E2,4.587979E1,7.931979E1,1.4051224E2,1.9562546E2,2.0024417E2,1.07138306E2,2.919181E2,2.6787823E2,6.2810745E0,0E0,6.465282E1,2.7662933E1,5.5136364E1,8.347272E1,2.835409E2,5.5431476E2,2.9015417E2,2.4466321E2,0E0,1.9029478E1,3.1116333E1,1.7854746E1,2.3494522E2,0E0,1.1365204E0,0E0,8.620597E1,1.18947266E2,1.5622934E1,3.1522675E0,7.6059204E1,6.707901E0,7.148944E1,5.2615875E1,3.9358612E2,4.9683606E2,3.082669E2,6.096542E2,1.6497615E2,2.3542755E2,1.2757257E2,1.3222444E2,0E0,4.7587805E0,0E0,2.1243896E0,0E0,0E0,1.7595232E2,0E0,0E0,0E0,0E0,0E0,0E0,0E0,0E0,0E0,0E0,0E0,0E0,0E0,0E0,0E0,0E0,0E0,0E0,0E0,0E0,0E0,0E0,0E0,0E0,0E0,0E0,0E0,0E0,0E0,0E0,0E0,0E0,0E0,0E0,0E0,0E0,0E0,0E0,0E0,0E0,0E0],"parents":[2147483647,0,0,1,1,2,2,3,3,4,4,5,5,6,6,7,7,8,8,9,9,10,10,11,11,12,12,13,13,14,14,15,15,17,17,18,18,19,19,20,20,21,21,22,22,23,23,24,24,26,26,27,27,28,28,29,29,31,31,33,33,34,34,35,35,36,36,37,37,38,38,39,39,40,40,41,41,42,42,43,43,44,44,45,45,46,46,47,47,48,48,50,50,52,52,55,55],"right_children":[2,4,6,8,10,12,14,16,18,20,22,24,26,28,30,32,-1,34,36,38,40,42,44,46,48,-1,50,52,54,56,-1,58,-1,60,62,64,66,68,70,72,74,76,78,80,82,84,86,88,90,-1,92,-1,94,-1,-1,96,-1,-1,-1,-1,-1,-1,-1,-1,-1,-1,-1,-1,-1,-1,-1,-1,-1,-1,-1,-1,-1,-1,-1,-1,-1,-1,-1,-1,-1,-1,-1,-1,-1,-1,-1,-1,-1,-1,-1,-1,-1],"split_conditions":[4.9E1,2.2333334E1,1.3608169E1,-9.981416E0,9E0,1.1362334E1,1.5929002E1,3.2149185E2,2.1389418E1,3.1E1,1.0000001E0,1E0,5.0333332E1,8.000001E-1,2.0497751E1,1.5141414E1,-5.815437E-1,1.6394829E1,1.9E1,3E-1,7.072878E0,1.1891501E1,1.57664995E1,5.8E1,1.6E0,-2.4722981E0,5.3E1,1.1901798E1,6.3E1,2.1000001E0,3.5033057E0,2.3090322E0,4.2314026E-1,1.1519167E0,1.7610588E1,1.9275746E2,1.4118243E1,1.0519165E0,2.4666666E1,-1.8085002E0,2.619371E1,5.5415E0,2.0783731E2,2.4204277E2,1.0900001E1,7.6977496E0,1.6366661E2,4.570667E0,1.6248331E0,6.4424E-1,6.1666668E1,7.682442E-1,1.784816E1,-9.9916995E-1,3.2661438E-1,1.4154915E1,2.1697922E0,4.0563586E-1,1.5455803E0,1.3516401E-1,-8.986509E-2,-3.4410053E-1,-1.0366819E-1,5.0405914E-1,-1.6525374E-1,3.8415682E-1,1.1708347E0,4.7403482E-1,-9.30178E-1,1.6325198E-1,1.2624624E0,-4.7715065E-1,1.1423512E0,-2.70298E-1,1.7368244E0,1.3570148E-1,6.9676757E-1,2.2953121E-1,-6.3388956E-1,-1.3737904E-1,-1.0091704E0,2.640845E-1,2.7523417E0,-3.2680064E-1,1.379761E0,2.6002324E-1,2.1275868E0,1.1070548E0,3.8037512E0,1.550862E0,-2.6172826E-1,-6.990341E-1,-6.482392E-2,4.4341483E0,1.987413E0,7.328917E-1,-1.8093587E0],"split_indices":[0,0,1,1,3,1,1,4,1,0,2,2,0,2,1,3,0,3,0,2,3,1,1,0,2,0,0,3,0,2,0,4,0,1,3,4,3,1,0,1,4,1,4,4,2,1,4,1,1,0,0,0,3,0,0,3,0,0,0,0,0,0,0,0,0,0,0,0,0,0,0,0,0,0,0,0,0,0,0,0,0,0,0,0,0,0,0,0,0,0,0,0,0,0,0,0,0],"split_type":[0,0,0,0,0,0,0,0,0,0,0,0,0,0,0,0,0,0,0,0,0,0,0,0,0,0,0,0,0,0,0,0,0,0,0,0,0,0,0,0,0,0,0,0,0,0,0,0,0,0,0,0,0,0,0,0,0,0,0,0,0,0,0,0,0,0,0,0,0,0,0,0,0,0,0,0,0,0,0,0,0,0,0,0,0,0,0,0,0,0,0,0,0,0,0,0,0],"sum_hessian":[3.476E3,3.364E3,1.12E2,2.212E3,1.152E3,9E1,2.2E1,7E0,2.205E3,3.9E1,1.113E3,8.3E1,7E0,9E0,1.3E1,6E0,1E0,2.188E3,1.7E1,1.5E1,2.4E1,7.96E2,3.17E2,6.2E1,2.1E1,2E0,5E0,7E0,2E0,1.1E1,2E0,4E0,2E0,8.85E2,1.303E3,1.1E1,6E0,1.2E1,3E0,8E0,1.6E1,5.36E2,2.6E2,2.6E2,5.7E1,3.8E1,2.4E1,8E0,1.3E1,1E0,4E0,1E0,6E0,1E0,1E0,8E0,3E0,1E0,3E0,1.96E2,6.89E2,2.23E2,1.08E3,6E0,5E0,2E0,4E0,6E0,6E0,1E0,2E0,4E0,4E0,1E0,1.5E1,3.76E2,1.6E2,1.68E2,9.2E1,2.17E2,4.3E1,4.7E1,1E1,3.3E1,5E0,1.2E1,1.2E1,4E0,4E0,6E0,7E0,2E0,2E0,3E0,3E0,4E0,4E0],"tree_param":{"num_deleted":"0","num_feature":"5","num_nodes":"97","size_leaf_vector":"1"}},{"base_weights":[2.6632052E-2,-1.1800606E-1,1.0304521E0,-3.8259843E-1,3.54501E-2,8.672776E-1,4.397436E0,-2.2346824E-1,-6.2294084E-1,-7.848519E-1,1.12289615E-1,7.277002E-1,3.1341689E0,-2.2732162E-1,5.226942E0,-3.1926093E-1,7.9776895E-1,-2.4594164E0,-5.7495886E-1,3.7833294E-1,-2.0871007E0,5.005148E-1,-1.4553341E-1,1.1865518E0,-6.608402E-1,4.660846E0,-2.731857E0,-7.1175843E-1,1.2785898E0,5.5709114E0,-4.1485406E-2,-4.0459368E-1,4.931957E-1,1.9181477E-1,2.6884954E0,-1.3967133E-1,-2.9593961E0,6.169447E-1,-6.586787E-1,6.4539474E-1,-2.2210648E0,9.9691087E-1,-3.0289195E0,-4.8781023E0,5.6161886E-1,-3.7460357E-2,-1.2169646E0,6.2844765E-1,3.5352304E0,8.647055E-1,-2.001214E0,1.2832782E0,1.3453815E1,1.986351E-2,5.5550194E-1,7.752004E0,3.8747778E0,-1.4971304E-1,2.0080622E-2,-7.6532334E-2,5.57825E-1,1.9127107E-1,-3.261431E-1,1.4848828E0,4.8655906E-1,-1.5964466E-1,9.679256E-2,-9.322286E-1,-2.662707E-1,3.7078527E-1,-2.0482865E-1,-1.7032999E-1,-5.337554E-1,-2.410682E-1,8.040462E-1,-4.349567E-1,8.7245476E-1,-1.1987997E0,4.16157E-2,-2.8253556E-3,-1.9498284E0,6.554573E-2,3.2678896E-1,-6.800648E-2,2.3949884E-1,-1.1521618E0,-2.4041842E-1,2.7878672E-1,-6.428746E-1,1.9689851E0,5.1631767E-1,-3.513466E-1,2.8772073E0,-1.0892782E0,1.3807268E-1,1.705982E0,-7.103138E-1,4.456605E0,9.669222E-1,3.1858802E0,4.033623E-1,-6.754275E-2,2.1986706E0],"categories":[],"categories_nodes":[],"categories_segments":[],"categories_sizes":[],"default_left":[0,0,0,0,0,0,0,0,0,0,0,0,0,0,0,0,0,0,0,0,0,0,0,0,0,0,0,0,0,0,0,0,0,0,0,0,0,0,0,0,0,0,0,0,0,0,0,0,0,0,0,0,0,0,0,0,0,0,0,0,0,0,0,0,0,0,0,0,0,0,0,0,0,0,0,0,0,0,0,0,0,0,0,0,0,0,0,0,0,0,0,0,0,0,0,0,0,0,0,0,0,0,0],"id":10,"left_children":[1,3,5,7,9,11,13,15,17,19,21,23,25,27,29,31,33,35,37,39,41,43,45,47,49,51,-1,-1,53,55,-1,57,59,61,63,65,67,69,71,73,-1,75,77,79,81,83,85,87,89,91,93,95,97,-1,-1,99,101,-1,-1,-1,-1,-1,-1,-1,-1,-1,-1,-1,-1,-1,-1,-1,-1,-1,-1,-1,-1,-1,-1,-1,-1,-1,-1,-1,-1,-1,-1,-1,-1,-1,-1,-1,-1,-1,-1,-1,-1,-1,-1,-1,-1,-1,-1],"loss_changes":[5.0494946E2,1.23447685E2,2.3682605E2,4.2543015E1,1.2142397E2,1.3029376E2,7.791345E1,6.60923E1,3.7710205E1,2.5072443E2,1.7633731E2,2.530892E2,4.909325E2,1.5955455E1,3.2143433E1,4.290631E1,6.5934525E1,1.2344742E1,4.3713455E1,1.8766364E2,2.2957675E2,2.3378433E2,1.2257904E2,3.8839893E2,2.041658E2,6.3610974E2,0E0,0E0,1.9617782E0,2.9153503E1,0E0,2.4884384E1,6.079287E1,2.6347748E1,2.5737282E1,7.16036E-1,2.2125244E-3,2.417513E1,4.034807E1,2.5570529E2,0E0,9.306871E1,1.8435583E2,6.3088547E1,1.2578233E2,1.5248398E2,1.0267923E2,2.0375662E2,3.0182837E2,8.4618207E2,2.1427888E2,2.8676492E2,3.8152466E1,0E0,0E0,9.596561E1,1.5742802E2,0E0,0E0,0E0,0E0,0E0,0E0,0E0,0E0,0E0,0E0,0E0,0E0,0E0,0E0,0E0,0E0,0E0,0E0,0E0,0E0,0E0,0E0,0E0,0E0,0E0,0E0,0E0,0E0,0E0,0E0,0E0,0E0,0E0,0E0,0E0,0E0,0E0,0E0,0E0,0E0,0E0,0E0,0E0,0E0,0E0,0E0],"parents":[2147483647,0,0,1,1,2,2,3,3,4,4,5,5,6,6,7,7,8,8,9,9,10,10,11,11,12,12,13,13,14,14,15,15,16,16,17,17,18,18,19,19,20,20,21,21,22,22,23,23,24,24,25,25,28,28,29,29,31,31,32,32,33,33,34,34,35,35,36,36,37,37,38,38,39,39,41,41,42,42,43,43,44,44,45,45,46,46,47,47,48,48,49,49,50,50,51,51,52,52,55,55,56,56],"right_children":[2,4,6,8,10,12,14,16,18,20,22,24,26,28,30,32,34,36,38,40,42,44,46,48,50,52,-1,-1,54,56,-1,58,60,62,64,66,68,70,72,74,-1,76,78,80,82,84,86,88,90,92,94,96,98,-1,-1,100,102,-1,-1,-1,-1,-1,-1,-1,-1,-1,-1,-1,-1,-1,-1,-1,-1,-1,-1,-1,-1,-1,-1,-1,-1,-1,-1,-1,-1,-1,-1,-1,-1,-1,-1,-1,-1,-1,-1,-1,-1,-1,-1,-1,-1,-1,-1],"split_conditions":[3.5333332E1,1.4666667E1,6.8666664E1,1.9319628E1,4.8155895E1,2.5562534E1,6.840926E1,3.9999998E0,-4.860584E0,1.6039202E1,2.0503342E2,1.8792551E1,1.2462335E1,7.4E1,2.5586292E2,3.381165E2,1.3333333E1,-7.110584E0,-1.1939167E0,3.2333332E1,-1.8085002E0,-4.1709995E0,2.6437336E1,1.6992609E1,1.8720517E2,6.2852497E0,-2.731857E0,-7.1175843E-1,8.3666664E1,7.9E1,-4.1485406E-2,1.1E0,1.1666667E1,1.7418196E1,6.873334E-1,8E0,2.2702845E1,3.2619504E2,1.4E1,2.2E1,-2.2210648E0,1.3838063E1,1.4403998E1,-5.671E0,1.725373E1,2.1889065E1,2.7219902E1,1.6323528E1,1.7581125E1,1.7175021E2,2.553294E2,2.0503342E2,3.9666668E1,1.986351E-2,5.5550194E-1,1.1362334E1,3E-1,-1.4971304E-1,2.0080622E-2,-7.6532334E-2,5.57825E-1,1.9127107E-1,-3.261431E-1,1.4848828E0,4.8655906E-1,-1.5964466E-1,9.679256E-2,-9.322286E-1,-2.662707E-1,3.7078527E-1,-2.0482865E-1,-1.7032999E-1,-5.337554E-1,-2.410682E-1,8.040462E-1,-4.349567E-1,8.7245476E-1,-1.1987997E0,4.16157E-2,-2.8253556E-3,-1.9498284E0,6.554573E-2,3.2678896E-1,-6.800648E-2,2.3949884E-1,-1.1521618E0,-2.4041842E-1,2.7878672E-1,-6.428746E-1,1.9689851E0,5.1631767E-1,-3.513466E-1,2.8772073E0,-1.0892782E0,1.3807268E-1,1.705982E0,-7.103138E-1,4.456605E0,9.669222E-1,3.1858802E0,4.033623E-1,-6.754275E-2,2.1986706E0],"split_indices":[0,0,0,3,4,3,4,2,1,3,4,3,1,0,4,4,0,1,1,0,1,1,3,3,4,1,0,0,0,0,0,2,0,3,1,0,3,4,0,0,0,4,1,1,3,3,3,3,3,4,4,4,0,0,0,1,2,0,0,0,0,0,0,0,0,0,0,0,0,0,0,0,0,0,0,0,0,0,0,0,0,0,0,0,0,0,0,0,0,0,0,0,0,0,0,0,0,0,0,0,0,0,0],"split_type":[0,0,0,0,0,0,0,0,0,0,0,0,0,0,0,0,0,0,0,0,0,0,0,0,0,0,0,0,0,0,0,0,0,0,0,0,0,0,0,0,0,0,0,0,0,0,0,0,0,0,0,0,0,0,0,0,0,0,0,0,0,0,0,0,0,0,0,0,0,0,0,0,0,0,0,0,0,0,0,0,0,0,0,0,0,0,0,0,0,0,0,0,0,0,0,0,0,0,0,0,0,0,0],"sum_hessian":[3.476E3,3.039E3,4.37E2,1.115E3,1.924E3,4.18E2,1.9E1,6.72E2,4.43E2,1.64E2,1.76E3,3.95E2,2.3E1,3E0,1.6E1,6.15E2,5.7E1,1E1,4.33E2,8.7E1,7.7E1,7.02E2,1.058E3,2.97E2,9.8E1,2.1E1,2E0,1E0,2E0,1.5E1,1E0,5.57E2,5.8E1,4.4E1,1.3E1,2E0,8E0,2.8E1,4.05E2,8.5E1,2E0,1.8E1,5.9E1,7E0,6.95E2,9.62E2,9.6E1,2.41E2,5.6E1,4.6E1,5.2E1,1.6E1,5E0,1E0,1E0,5E0,1E1,4.64E2,9.3E1,3.8E1,2E1,3.3E1,1.1E1,3E0,1E1,1E0,1E0,7E0,1E0,1.9E1,9E0,3.76E2,2.9E1,5E1,3.5E1,8E0,1E1,4.5E1,1.4E1,2E0,5E0,4.22E2,2.73E2,7.85E2,1.77E2,1.2E1,8.4E1,2.18E2,2.3E1,2E1,3.6E1,3.8E1,8E0,3.1E1,2.1E1,7E0,9E0,4E0,1E0,3E0,2E0,5E0,5E0],"tree_param":{"num_deleted":"0","num_feature":"5","num_nodes":"103","size_leaf_vector":"1"}},{"base_weights":[2.0987917E-2,-3.3115424E-2,1.6319326E0,1.1465837E0,-6.922589E-2,1.4160095E0,2.723134E0,-1.4096038E-1,1.7828511E0,6.5458894E-2,-3.7803504E-1,8.256902E0,1.2147372E0,1.0961852E0,-1.1753482E0,2.4610217E0,-2.0000331E-1,-4.7520632E-1,2.3688197E-1,-4.7606918E-1,1.1526967E0,3.4211066E0,2.944994E-1,9.531114E-1,5.547127E0,1.8423183E-1,3.0656362E0,-2.8075767E0,9.501919E-1,1.6583261E0,4.618053E0,2.354699E0,-2.479235E0,-7.709041E-1,6.958825E-1,3.8440946E-2,8.70644E-1,-1.5835285E-1,-1.267982E0,-2.212559E-1,3.714859E0,1.1150205E0,-1.4608505E0,6.8956757E-1,1.9790314E0,1.9004965E-1,-4.124206E-1,-1.5432645E-2,1.1573299E0,-1.5746744E0,-3.7078822E-1,4.8282224E-1,-6.485298E-1,1.3751732E-1,1.2659959E0,1.6274954E0,-7.597687E-1,-1.03141025E-1,8.2049614E-1,-2.078811E-2,-1.823047E0,-1.8685536E-1,-1.4713424E0,1.2727681E-1,1.4012604E0,2.3290314E-2,-5.970543E-1,1.9923657E-1,2.1474593E0,1.9718232E-2,-4.1161048E-1,-2.4039894E-1,-9.28148E-1,-3.0694085E-1,9.342471E-1,1.6810458E0,6.3647705E-1,5.232323E-1,-1.8295695E-1],"categories":[],"categories_nodes":[],"categories_segments":[],"categories_sizes":[],"default_left":[0,0,0,0,0,0,0,0,0,0,0,0,0,0,0,0,0,0,0,0,0,0,0,0,0,0,0,0,0,0,0,0,0,0,0,0,0,0,0,0,0,0,0,0,0,0,0,0,0,0,0,0,0,0,0,0,0,0,0,0,0,0,0,0,0,0,0,0,0,0,0,0,0,0,0,0,0,0,0],"id":11,"left_children":[1,3,5,7,9,11,-1,13,15,17,19,21,23,25,27,29,31,33,35,37,39,-1,-1,41,43,45,47,49,51,53,55,57,59,61,63,65,67,69,71,73,75,77,-1,-1,-1,-1,-1,-1,-1,-1,-1,-1,-1,-1,-1,-1,-1,-1,-1,-1,-1,-1,-1,-1,-1,-1,-1,-1,-1,-1,-1,-1,-1,-1,-1,-1,-1,-1,-1],"loss_changes":[3.0310065E2,1.4342665E2,1.6880408E2,8.217354E1,1.3586386E2,1.4280402E2,0E0,4.47978E1,9.058801E1,2.1096524E2,1.4941225E2,5.7486267E1,1.18260605E2,2.8171968E1,6.858571E1,7.891376E1,1.1064749E2,1.9030249E2,2.1728738E2,2.3454538E2,2.1203932E2,0E0,0E0,1.03473946E2,5.2959747E0,9.275601E0,1.2544106E1,3.5717834E1,2.1942223E1,1.1487098E2,8.874985E1,1.0176174E1,8.627868E1,2.6499573E2,1.178663E2,1.048674E2,5.302358E2,1.8148898E2,2.25014E2,1.10170265E2,5.130255E1,1.1174364E2,0E0,0E0,0E0,0E0,0E0,0E0,0E0,0E0,0E0,0E0,0E0,0E0,0E0,0E0,0E0,0E0,0E0,0E0,0E0,0E0,0E0,0E0,0E0,0E0,0E0,0E0,0E0,0E0,0E0,0E0,0E0,0E0,0E0,0E0,0E0,0E0,0E0],"parents":[2147483647,0,0,1,1,2,2,3,3,4,4,5,5,7,7,8,8,9,9,10,10,11,11,12,12,13,13,14,14,15,15,16,16,17,17,18,18,19,19,20,20,23,23,24,24,25,25,26,26,27,27,28,28,29,29,30,30,31,31,32,32,33,33,34,34,35,35,36,36,37,37,38,38,39,39,40,40,41,41],"right_children":[2,4,6,8,10,12,-1,14,16,18,20,22,24,26,28,30,32,34,36,38,40,-1,-1,42,44,46,48,50,52,54,56,58,60,62,64,66,68,70,72,74,76,78,-1,-1,-1,-1,-1,-1,-1,-1,-1,-1,-1,-1,-1,-1,-1,-1,-1,-1,-1,-1,-1,-1,-1,-1,-1,-1,-1,-1,-1,-1,-1,-1,-1,-1,-1,-1,-1],"split_conditions":[4.9E1,9.3876505E0,2.0497751E1,1.9666666E1,2.609098E2,4.9333332E1,2.723134E0,1.4E1,1.3608169E1,1.0295759E2,1.7126917E1,5.5415E0,9.0666664E1,1.3333333E1,1.511893E2,3E-1,9E0,1.5045667E1,2.7666666E1,8.970668E0,4E-1,3.4211066E0,2.944994E-1,1.9531084E1,3E-1,1.9431572E2,8.14587E0,1.5E1,3.381165E2,2.7464493E2,4.7333332E1,1E-1,3.2E1,4.3E1,2.374775E1,2.7E1,2.5586292E2,1.3000001E0,2E1,3.3541373E2,1.3089354E1,2.277856E2,-1.4608505E0,6.8956757E-1,1.9790314E0,1.9004965E-1,-4.124206E-1,-1.5432645E-2,1.1573299E0,-1.5746744E0,-3.7078822E-1,4.8282224E-1,-6.485298E-1,1.3751732E-1,1.2659959E0,1.6274954E0,-7.597687E-1,-1.03141025E-1,8.2049614E-1,-2.078811E-2,-1.823047E0,-1.8685536E-1,-1.4713424E0,1.2727681E-1,1.4012604E0,2.3290314E-2,-5.970543E-1,1.9923657E-1,2.1474593E0,1.9718232E-2,-4.1161048E-1,-2.4039894E-1,-9.28148E-1,-3.0694085E-1,9.342471E-1,1.6810458E0,6.3647705E-1,5.232323E-1,-1.8295695E-1],"split_indices":[0,3,1,0,4,0,0,0,1,4,1,1,0,0,4,2,3,1,0,1,2,0,0,1,2,4,3,0,4,4,0,2,0,0,1,0,4,2,0,4,3,4,0,0,0,0,0,0,0,0,0,0,0,0,0,0,0,0,0,0,0,0,0,0,0,0,0,0,0,0,0,0,0,0,0,0,0,0,0],"split_type":[0,0,0,0,0,0,0,0,0,0,0,0,0,0,0,0,0,0,0,0,0,0,0,0,0,0,0,0,0,0,0,0,0,0,0,0,0,0,0,0,0,0,0,0,0,0,0,0,0,0,0,0,0,0,0,0,0,0,0,0,0,0,0,0,0,0,0,0,0,0,0,0,0,0,0,0,0,0,0],"sum_hessian":[3.476E3,3.364E3,1.12E2,9.9E1,3.265E3,1.1E2,2E0,3.3E1,6.6E1,2.274E3,9.91E2,2E0,1.08E2,1.5E1,1.8E1,4.9E1,1.7E1,5.47E2,1.727E3,9.32E2,5.9E1,1E0,1E0,1.03E2,5E0,1.1E1,4E0,1E1,8E0,3.7E1,1.2E1,8E0,9E0,4.37E2,1.1E2,1.316E3,4.11E2,6.66E2,2.66E2,3.9E1,2E1,1.01E2,2E0,2E0,3E0,9E0,2E0,1E0,3E0,3E0,7E0,7E0,1E0,2.6E1,1.1E1,1.1E1,1E0,1E0,7E0,6E0,3E0,4.23E2,1.4E1,1.04E2,6E0,1.292E3,2.4E1,3.99E2,1.2E1,5.63E2,1.03E2,2.13E2,5.3E1,3.2E1,7E0,8E0,1.2E1,7.4E1,2.7E1],"tree_param":{"num_deleted":"0","num_feature":"5","num_nodes":"79","size_leaf_vector":"1"}},{"base_weights":[1.7845688E-2,-6.814501E-3,1.9873784E0,6.077484E-3,-2.7620504E0,2.3431E0,1.3553984E0,-6.647956E-3,4.829758E0,-4.202007E0,7.824961E-1,8.089568E-1,7.825193E0,1.18393786E-1,-2.3783395E-1,1.2218857E-2,5.4232955E0,9.007861E-1,-7.5038505E0,-8.803299E-1,2.5445766E0,2.7976856E0,7.236512E-1,3.664107E-1,-2.2090113E-1,-1.6806996E-1,-1.5133792E0,6.12666E0,7.496166E-2,-1.5413456E0,1.15701E0,-9.277386E0,-1.4554964E0,-2.2267296E0,5.0619516E0,2.3649538E0,1.8100333E0,5.1166654E-2,3.4360725E-1,-9.511564E-2,7.2592413E-1,-4.193335E-2,-1.4145787E0,-5.7806396E-1,1.7367919E-1,8.5839903E-1,2.3580976E0,4.7262555E-1,-9.3162197E-1,-1.7720662E-1,-3.2689764E0,-9.8430926E-1,3.293358E-1,-1.1846786E0,6.1308004E-2,3.1169302E0,-5.3172685E-2,9.998378E-1,-2.4910865E-2],"categories":[],"categories_nodes":[],"categories_segments":[],"categories_sizes":[],"default_left":[0,0,0,0,0,0,0,0,0,0,0,0,0,0,0,0,0,0,0,0,0,0,0,0,0,0,0,0,0,0,0,0,0,0,0,0,0,0,0,0,0,0,0,0,0,0,0,0,0,0,0,0,0,0,0,0,0,0,0],"id":12,"left_children":[1,3,5,7,9,-1,11,13,15,17,-1,19,21,23,25,-1,27,29,31,33,35,-1,-1,37,39,41,43,45,-1,47,-1,49,51,53,55,-1,57,-1,-1,-1,-1,-1,-1,-1,-1,-1,-1,-1,-1,-1,-1,-1,-1,-1,-1,-1,-1,-1,-1],"loss_changes":[1.6888812E2,1.22029564E2,1.4765349E2,2.0996353E2,1.3468977E2,0E0,1.3508435E2,9.86619E1,2.5361313E1,2.2579149E2,0E0,1.1365453E2,1.8705292E0,1.8647514E2,1.063522E2,0E0,2.7579544E1,4.925689E1,7.231253E1,1.7128532E2,6.023845E1,0E0,0E0,1.9508247E2,2.3841849E2,1.4561572E2,5.4756165E1,1.7135925E1,0E0,2.439155E1,0E0,7.7956604E1,1.7585184E1,7.198293E1,1.1349532E2,0E0,5.216515E1,0E0,0E0,0E0,0E0,0E0,0E0,0E0,0E0,0E0,0E0,0E0,0E0,0E0,0E0,0E0,0E0,0E0,0E0,0E0,0E0,0E0,0E0],"parents":[2147483647,0,0,1,1,2,2,3,3,4,4,6,6,7,7,8,8,9,9,11,11,12,12,13,13,14,14,16,16,17,17,18,18,19,19,20,20,23,23,24,24,25,25,26,26,27,27,29,29,31,31,32,32,33,33,34,34,36,36],"right_children":[2,4,6,8,10,-1,12,14,16,18,-1,20,22,24,26,-1,28,30,32,34,36,-1,-1,38,40,42,44,46,-1,48,-1,50,52,54,56,-1,58,-1,-1,-1,-1,-1,-1,-1,-1,-1,-1,-1,-1,-1,-1,-1,-1,-1,-1,-1,-1,-1,-1],"split_conditions":[5.8E1,5.5E1,6.0333332E1,5.4666668E1,2.5826144E2,2.3431E0,1.7958166E1,1.9171478E1,5.4582912E1,7.299494E1,7.824961E-1,6.8666664E1,6.4333336E1,1.1008167E1,1.0700001E1,1.2218857E-2,2.0892412E1,-9.147498E-1,1E0,2.7102734E2,6.9333336E1,2.7976856E0,7.236512E-1,3.1333334E1,1.0900001E1,5.0333332E1,1.5045667E1,1.6946787E1,7.496166E-2,-5.671E0,1.15701E0,-1.5314165E0,5.6E1,1E-1,1.2348052E1,2.3649538E0,1.6575644E1,5.1166654E-2,3.4360725E-1,-9.511564E-2,7.2592413E-1,-4.193335E-2,-1.4145787E0,-5.7806396E-1,1.7367919E-1,8.5839903E-1,2.3580976E0,4.7262555E-1,-9.3162197E-1,-1.7720662E-1,-3.2689764E0,-9.8430926E-1,3.293358E-1,-1.1846786E0,6.1308004E-2,3.1169302E0,-5.3172685E-2,9.998378E-1,-2.4910865E-2],"split_indices":[0,0,0,0,4,0,1,3,4,4,0,0,0,1,2,0,3,1,2,4,0,0,0,0,2,0,1,3,0,1,0,1,0,2,3,0,3,0,0,0,0,0,0,0,0,0,0,0,0,0,0,0,0,0,0,0,0,0,0],"split_type":[0,0,0,0,0,0,0,0,0,0,0,0,0,0,0,0,0,0,0,0,0,0,0,0,0,0,0,0,0,0,0,0,0,0,0,0,0,0,0,0,0,0,0,0,0,0,0,0,0,0,0,0,0,0,0,0,0,0,0],"sum_hessian":[3.476E3,3.434E3,4.2E1,3.419E3,1.5E1,3E0,3.9E1,3.411E3,8E0,1.2E1,3E0,3.7E1,2E0,2.214E3,1.197E3,1E0,7E0,5E0,7E0,1.9E1,1.8E1,1E0,1E0,1.279E3,9.35E2,1.136E3,6.1E1,6E0,1E0,3E0,2E0,5E0,2E0,1.6E1,3E0,1E0,1.7E1,1.023E3,2.56E2,9.03E2,3.2E1,1.13E3,6E0,5.1E1,1E1,3E0,3E0,1E0,2E0,1E0,4E0,1E0,1E0,9E0,7E0,1E0,2E0,9E0,8E0],"tree_param":{"num_deleted":"0","num_feature":"5","num_nodes":"59","size_leaf_vector":"1"}},{"base_weights":[1.5653362E-2,-2.1007463E-2,1.1072288E0,-1.39627475E-2,-3.9625466E0,6.9178085E0,9.4021106E-1,1.6554683E-1,-1.4528148E-1,-6.114212E-1,-3.1077263E0,2.856399E0,2.566149E-1,4.4500187E-1,2.8155766E0,-2.7028042E-1,4.6767548E-1,-1.5671597E-1,2.1880918E0,-1.0527089E0,7.4699825E-1,7.7378726E-1,-2.9806738E0,9.245541E0,1.7629353E0,-4.9297556E-1,6.383422E-1,-4.6763473E0,5.041221E-1,-1.444283E0,-8.1469715E-2,5.242426E-1,5.508848E0,-2.0270526E0,-5.958106E-1,3.5714488E0,5.890446E-1,1.0584043E0,2.3780332E0,2.6342018E-2,-3.01241E-1,-2.1554881E-1,3.5103515E-1,-1.6018971E0,-2.0396978E-1,3.3069927E-2,3.0372363E-1,-2.196853E-1,-1.9608755E0,-2.9886298E-2,1.2215228E0,-2.05718E-1,4.2215133E-1,2.0410624E0,2.4371567E-1,5.474968E-1,-4.3349054E-1,8.407096E-1,-2.897379E-1],"categories":[],"categories_nodes":[],"categories_segments":[],"categories_sizes":[],"default_left":[0,0,0,0,0,0,0,0,0,0,0,0,0,0,0,0,0,0,0,0,0,0,0,0,0,0,0,0,0,0,0,0,0,0,0,0,0,0,0,0,0,0,0,0,0,0,0,0,0,0,0,0,0,0,0,0,0,0,0],"id":13,"left_children":[1,3,5,7,9,11,13,15,17,19,-1,-1,-1,21,23,25,27,29,-1,-1,-1,31,33,35,37,39,41,43,45,47,49,51,53,-1,55,-1,-1,57,-1,-1,-1,-1,-1,-1,-1,-1,-1,-1,-1,-1,-1,-1,-1,-1,-1,-1,-1,-1,-1],"loss_changes":[1.3916605E2,9.338069E1,1.0315889E2,7.922923E1,1.222799E2,3.920659E1,1.0183258E2,1.8710617E2,1.6624503E2,5.367089E1,0E0,0E0,0E0,1.0254819E2,1.3937495E2,1.1807997E2,1.5965495E2,1.8774155E2,0E0,0E0,0E0,9.4004E1,6.801936E1,3.4720367E1,8.280523E1,1.3902487E2,8.3816956E1,1.2274872E1,1.6686343E2,3.8313937E2,1.3858835E2,8.536191E1,1.87948E1,0E0,1.49709E1,0E0,0E0,7.330892E1,0E0,0E0,0E0,0E0,0E0,0E0,0E0,0E0,0E0,0E0,0E0,0E0,0E0,0E0,0E0,0E0,0E0,0E0,0E0,0E0,0E0],"parents":[2147483647,0,0,1,1,2,2,3,3,4,4,5,5,6,6,7,7,8,8,9,9,13,13,14,14,15,15,16,16,17,17,21,21,22,22,23,23,24,24,25,25,26,26,27,27,28,28,29,29,30,30,31,31,32,32,34,34,37,37],"right_children":[2,4,6,8,10,12,14,16,18,20,-1,-1,-1,22,24,26,28,30,-1,-1,-1,32,34,36,38,40,42,44,46,48,50,52,54,-1,56,-1,-1,58,-1,-1,-1,-1,-1,-1,-1,-1,-1,-1,-1,-1,-1,-1,-1,-1,-1,-1,-1,-1,-1],"split_conditions":[4.9E1,4.8666668E1,4.9333332E1,2.0503342E2,1.3910169E1,5.5415E0,1.3608169E1,1.0295759E2,2.374775E1,1.2849528E1,-3.1077263E0,2.856399E0,2.566149E-1,1.1362334E1,1.3837331E1,1.5045667E1,-4.1709995E0,2.1208574E2,2.1880918E0,-1.0527089E0,7.4699825E-1,1.0868583E1,5.0333332E1,5.2666668E1,2.1389418E1,1.5349684E1,4.034414E1,3.6666668E1,1.725373E1,3.2666668E1,4.7333332E1,1.6366661E2,7.9E1,-2.0270526E0,5.3E1,3.5714488E0,5.890446E-1,1.7593582E1,2.3780332E0,2.6342018E-2,-3.01241E-1,-2.1554881E-1,3.5103515E-1,-1.6018971E0,-2.0396978E-1,3.3069927E-2,3.0372363E-1,-2.196853E-1,-1.9608755E0,-2.9886298E-2,1.2215228E0,-2.05718E-1,4.2215133E-1,2.0410624E0,2.4371567E-1,5.474968E-1,-4.3349054E-1,8.407096E-1,-2.897379E-1],"split_indices":[0,0,0,4,3,1,1,4,1,3,0,0,0,1,1,1,1,4,0,0,0,1,0,0,1,3,4,0,3,0,0,4,0,0,0,0,0,1,0,0,0,0,0,0,0,0,0,0,0,0,0,0,0,0,0,0,0,0,0],"split_type":[0,0,0,0,0,0,0,0,0,0,0,0,0,0,0,0,0,0,0,0,0,0,0,0,0,0,0,0,0,0,0,0,0,0,0,0,0,0,0,0,0,0,0,0,0,0,0,0,0,0,0,0,0,0,0,0,0,0,0],"sum_hessian":[3.476E3,3.364E3,1.12E2,3.359E3,5E0,2E0,1.1E2,1.419E3,1.94E3,4E0,1E0,1E0,1E0,8.8E1,2.2E1,5.81E2,8.38E2,1.938E3,2E0,2E0,2E0,8.1E1,7E0,2E0,2E1,4.67E2,1.14E2,5E0,8.33E2,1.06E2,1.832E3,7.8E1,3E0,2E0,5E0,1E0,1E0,1.9E1,1E0,2.19E2,2.48E2,3.2E1,8.2E1,4E0,1E0,4.7E2,3.63E2,9.4E1,1.2E1,1.825E3,7E0,3.3E1,4.5E1,2E0,1E0,1E0,4E0,1E1,9E0],"tree_param":{"num_deleted":"0","num_feature":"5","num_nodes":"59","size_leaf_vector":"1"}},{"base_weights":[1.2961459E-2,-1.5841186E-2,8.7055385E-1,-9.895672E-3,-3.3426888E0,5.880137E0,7.273169E-1,7.836411E-1,-3.3976067E-2,-4.8913726E-1,-2.6415672E0,2.4279392E0,2.1812268E-1,6.1142415E-1,2.0213277E0,3.1996423E-1,1.7444657E0,5.6785937E-2,-2.4202581E-1,-8.421673E-1,5.975987E-1,6.9561714E-1,-1.2848414E0,-3.456081E-1,2.1879768E0,4.1906033E0,7.5447804E-1,7.731105E-2,-3.2591434E0,-2.126879E-1,-4.3357134E0,4.171463E-1,2.5554445E0,-1.4316731E-2,-2.2859838E0,1.4920448E-1,1.1470033E0,4.460272E-1,1.4252211E0,5.2617496E-1,-4.390916E-1,8.0598515E-1,1.6193748E-2,-6.3219005E-1,-2.0340405E0,-7.488404E-2,1.0237548E0,-2.1231177E0,-1.5313196E-1,2.9451773E-1,-6.792708E-1,1.6031661E0,-6.116195E-2],"categories":[],"categories_nodes":[],"categories_segments":[],"categories_sizes":[],"default_left":[0,0,0,0,0,0,0,0,0,0,0,0,0,0,0,0,0,0,0,0,0,0,0,0,0,0,0,0,0,0,0,0,0,0,0,0,0,0,0,0,0,0,0,0,0,0,0,0,0,0,0,0,0],"id":14,"left_children":[1,3,5,7,9,11,13,15,17,19,-1,-1,-1,21,-1,23,25,27,29,-1,-1,31,-1,33,35,37,39,41,43,45,47,49,51,-1,-1,-1,-1,-1,-1,-1,-1,-1,-1,-1,-1,-1,-1,-1,-1,-1,-1,-1,-1],"loss_changes":[8.589892E1,6.652602E1,7.6807274E1,6.423179E1,8.921878E1,2.832676E1,7.319925E1,4.3547535E1,6.161013E1,3.4349384E1,0E0,0E0,0E0,4.8305756E1,0E0,8.53004E1,7.433096E1,1.5488387E2,1.1809718E2,0E0,0E0,5.5385944E1,0E0,1.10149315E2,4.786486E1,6.567444E0,5.577201E1,1.3738298E2,4.2491043E1,1.3270659E2,6.979236E1,1.4755275E2,1.0880826E2,0E0,0E0,0E0,0E0,0E0,0E0,0E0,0E0,0E0,0E0,0E0,0E0,0E0,0E0,0E0,0E0,0E0,0E0,0E0,0E0],"parents":[2147483647,0,0,1,1,2,2,3,3,4,4,5,5,6,6,7,7,8,8,9,9,13,13,15,15,16,16,17,17,18,18,21,21,23,23,24,24,25,25,26,26,27,27,28,28,29,29,30,30,31,31,32,32],"right_children":[2,4,6,8,10,12,14,16,18,20,-1,-1,-1,22,-1,24,26,28,30,-1,-1,32,-1,34,36,38,40,42,44,46,48,50,52,-1,-1,-1,-1,-1,-1,-1,-1,-1,-1,-1,-1,-1,-1,-1,-1,-1,-1,-1,-1],"split_conditions":[4.9E1,4.8666668E1,4.9333332E1,9.3876505E0,1.3910169E1,5.5415E0,2.1389418E1,3E-1,2.609098E2,1.2849528E1,-2.6415672E0,2.4279392E0,2.1812268E-1,3.5807443E2,2.0213277E0,2.7464493E2,2.983167E0,2.07E1,4.6333332E1,-8.421673E-1,5.975987E-1,2.7102734E2,-1.2848414E0,2.739748E2,2.0666666E1,2.0333334E1,9E0,-6.660582E0,2.1E1,4.2E1,4.7333332E1,2.277856E2,1.2348052E1,-1.4316731E-2,-2.2859838E0,1.4920448E-1,1.1470033E0,4.460272E-1,1.4252211E0,5.2617496E-1,-4.390916E-1,8.0598515E-1,1.6193748E-2,-6.3219005E-1,-2.0340405E0,-7.488404E-2,1.0237548E0,-2.1231177E0,-1.5313196E-1,2.9451773E-1,-6.792708E-1,1.6031661E0,-6.116195E-2],"split_indices":[0,0,0,3,3,1,1,2,4,3,0,0,0,4,0,4,1,2,0,0,0,4,0,4,0,0,3,1,0,0,0,4,3,0,0,0,0,0,0,0,0,0,0,0,0,0,0,0,0,0,0,0,0],"split_type":[0,0,0,0,0,0,0,0,0,0,0,0,0,0,0,0,0,0,0,0,0,0,0,0,0,0,0,0,0,0,0,0,0,0,0,0,0,0,0,0,0,0,0,0,0,0,0,0,0,0,0,0,0],"sum_hessian":[3.476E3,3.364E3,1.12E2,3.359E3,5E0,2E0,1.1E2,9.8E1,3.261E3,4E0,1E0,1E0,1E0,1.09E2,1E0,6.7E1,3.1E1,2.271E3,9.9E2,2E0,2E0,1.08E2,1E0,5E1,1.7E1,8E0,2.3E1,2.258E3,1.3E1,9.84E2,6E0,9.5E1,1.3E1,4.9E1,1E0,9E0,8E0,2E0,6E0,1.6E1,7E0,1.9E1,2.239E3,1.1E1,2E0,9.75E2,9E0,3E0,3E0,7.9E1,1.6E1,6E0,7E0],"tree_param":{"num_deleted":"0","num_feature":"5","num_nodes":"53","size_leaf_vector":"1"}},{"base_weights":[8.911251E-3,2.6768555E-3,3.6150627E0,-2.6012266E-2,5.81516E-1,3.2666245E-1,1.3817815E0,-1.1230266E-2,-3.271391E0,4.2475682E-1,4.638716E0,8.7185614E-2,-1.8746935E-1,-4.5622406E0,2.2275677E-1,-3.765953E-1,1.0277078E0,2.5488005E0,-2.0505688E0,3.2312934E0,6.9212005E-2,-2.2007759E0,-1.4735414E-1,-6.268374E-2,-5.555177E0,1.0772312E0,-4.7927114E-1,1.2388728E0,-2.283195E0,4.7702536E-1,7.56775E0,-1.0846906E0,1.6193448E-1,1.1423819E0,-4.667722E-1,1.43496385E-2,8.073278E-1,-3.3143595E-2,-8.325829E-1,-6.393731E-1,-2.9984081E-2,-7.634697E-2,4.813929E-2,-8.6217976E-1,-2.1376162E0,1.16820246E-1,4.7110835E-1,6.407238E-1,-4.4578412E-1,-1.6187278E0,-3.0625507E-1,-7.0272535E-2,8.401067E-1,2.6632442E0,-4.3594554E-2],"categories":[],"categories_nodes":[],"categories_segments":[],"categories_sizes":[],"default_left":[0,0,0,0,0,0,0,0,0,0,0,0,0,0,0,0,0,0,0,0,0,0,0,0,0,0,0,0,0,0,0,0,0,0,0,0,0,0,0,0,0,0,0,0,0,0,0,0,0,0,0,0,0,0,0],"id":15,"left_children":[1,3,5,7,9,-1,-1,11,13,15,17,19,21,23,25,27,29,-1,31,33,35,37,39,41,43,45,-1,47,49,51,53,-1,-1,-1,-1,-1,-1,-1,-1,-1,-1,-1,-1,-1,-1,-1,-1,-1,-1,-1,-1,-1,-1,-1,-1],"loss_changes":[7.816084E1,5.7672504E1,1.0003532E1,1.5870654E2,1.02334274E2,0E0,0E0,5.716721E1,6.867256E1,7.721202E1,1.7223651E2,1.1929706E2,9.505822E1,4.8797302E1,9.498067E0,2.153521E2,3.2412524E2,0E0,1.4113861E1,3.905105E1,1.17812004E2,2.7313545E1,1.0879172E2,1.6924004E-1,1.7413177E1,7.452593E-1,0E0,9.603868E1,1.2022385E2,1.4111919E2,7.200424E1,0E0,0E0,0E0,0E0,0E0,0E0,0E0,0E0,0E0,0E0,0E0,0E0,0E0,0E0,0E0,0E0,0E0,0E0,0E0,0E0,0E0,0E0,0E0,0E0],"parents":[2147483647,0,0,1,1,2,2,3,3,4,4,7,7,8,8,9,9,10,10,11,11,12,12,13,13,14,14,15,15,16,16,18,18,19,19,20,20,21,21,22,22,23,23,24,24,25,25,27,27,28,28,29,29,30,30],"right_children":[2,4,6,8,10,-1,-1,12,14,16,18,20,22,24,26,28,30,-1,32,34,36,38,40,42,44,46,-1,48,50,52,54,-1,-1,-1,-1,-1,-1,-1,-1,-1,-1,-1,-1,-1,-1,-1,-1,-1,-1,-1,-1,-1,-1,-1,-1],"split_conditions":[9.0666664E1,1.9318586E1,3E-1,1.9189417E1,1.0499999E1,3.2666245E-1,1.3817815E0,1.9171478E1,1.8792551E1,1.7442348E2,3.1333334E1,-9.981416E0,-4.860584E0,1.0966713E1,2E1,1.4175499E2,4.2333332E1,2.5488005E0,1.9531084E1,3.161333E2,1.9134262E1,4.034414E1,1.9319628E1,1.2666667E1,1.8E1,1.5333333E1,-4.7927114E-1,1.7388409E1,1.2849528E1,1.8391737E1,2.3999999E0,-1.0846906E0,1.6193448E-1,1.1423819E0,-4.667722E-1,1.43496385E-2,8.073278E-1,-3.3143595E-2,-8.325829E-1,-6.393731E-1,-2.9984081E-2,-7.634697E-2,4.813929E-2,-8.6217976E-1,-2.1376162E0,1.16820246E-1,4.7110835E-1,6.407238E-1,-4.4578412E-1,-1.6187278E0,-3.0625507E-1,-7.0272535E-2,8.401067E-1,2.6632442E0,-4.3594554E-2],"split_indices":[0,1,2,1,2,0,0,3,3,4,0,1,1,3,0,4,0,0,1,4,3,4,3,0,0,0,0,3,3,3,2,0,0,0,0,0,0,0,0,0,0,0,0,0,0,0,0,0,0,0,0,0,0,0,0],"split_type":[0,0,0,0,0,0,0,0,0,0,0,0,0,0,0,0,0,0,0,0,0,0,0,0,0,0,0,0,0,0,0,0,0,0,0,0,0,0,0,0,0,0,0,0,0,0,0,0,0,0,0,0,0,0,0],"sum_hessian":[3.476E3,3.471E3,5E0,3.308E3,1.63E2,2E0,3E0,3.294E3,1.4E1,1.58E2,5E0,2.114E3,1.18E3,1E1,4E0,6.8E1,9E1,3E0,2E0,1.1E1,2.103E3,2.2E1,1.158E3,2E0,8E0,3E0,1E0,3.7E1,3.1E1,8.4E1,6E0,1E0,1E0,1E1,1E0,2.087E3,1.6E1,5E0,1.7E1,2.6E1,1.132E3,1E0,1E0,4E0,4E0,2E0,1E0,2.8E1,9E0,8E0,2.3E1,6.5E1,1.9E1,5E0,1E0],"tree_param":{"num_deleted":"0","num_feature":"5","num_nodes":"55","size_leaf_vector":"1"}},{"base_weights":[6.8236147E-3,1.9683116E-3,2.8152885E0,-5.6435096E-1,2.1885958E-2,2.6133043E-1,1.0708821E0,-4.2877924E-1,-1.293706E0,1.0417557E-1,-1.1730463E-1,-6.017003E-1,-3.4307593E-1,-3.046978E-1,-1.5545158E0,2.7995914E-1,-2.4185172E-1,-3.0552554E-1,5.9148586E-1,-4.9956155E-1,1.0346412E-1,-1.5317778E-1,7.78322E-2,-5.5957776E-1,-6.22126E-1,2.209141E-1,2.1368E0,1.2526362E-3,-8.4191054E-1,-1.5389495E0,-1.9045009E-1,-1.0497213E-1,1.6013547E0,-1.7260362E-1,2.797801E-1,3.944624E-1,-5.296781E-2,-2.7239957E-1,-3.8663436E-2,-9.643293E-2,1.16781406E-1,1.5550848E0,-3.9058223E-1,1.3793956E-1,-1.2477762E-1,-2.195542E0,-2.2261514E-1,-1.8580435E-1,-1.2307205E0,5.1663387E-1,-8.782994E-2,4.0313423E-2,-1.208787E0,1.3700871E0,3.2045755E-1],"categories":[],"categories_nodes":[],"categories_segments":[],"categories_sizes":[],"default_left":[0,0,0,0,0,0,0,0,0,0,0,0,0,0,0,0,0,0,0,0,0,0,0,0,0,0,0,0,0,0,0,0,0,0,0,0,0,0,0,0,0,0,0,0,0,0,0,0,0,0,0,0,0,0,0],"id":16,"left_children":[1,3,5,7,9,-1,-1,11,13,15,17,-1,19,21,23,25,27,29,31,33,35,-1,-1,-1,37,39,41,43,45,47,49,51,53,-1,-1,-1,-1,-1,-1,-1,-1,-1,-1,-1,-1,-1,-1,-1,-1,-1,-1,-1,-1,-1,-1],"loss_changes":[4.7406654E1,3.9175636E1,5.68972E0,1.1113117E1,3.8440186E1,0E0,0E0,1.2961508E1,4.1693153E0,1.2834956E2,1.6654196E2,0E0,6.8297644E0,7.132343E-1,2.8958473E0,1.5291046E2,1.0371953E2,1.3965662E2,1.8444089E2,8.3510685E0,9.051961E0,0E0,0E0,0E0,5.880089E-1,1.2403246E2,4.572687E2,9.717795E1,1.2715311E2,1.9547702E2,1.7720908E2,1.470701E2,1.6430457E2,0E0,0E0,0E0,0E0,0E0,0E0,0E0,0E0,0E0,0E0,0E0,0E0,0E0,0E0,0E0,0E0,0E0,0E0,0E0,0E0,0E0,0E0],"parents":[2147483647,0,0,1,1,2,2,3,3,4,4,7,7,8,8,9,9,10,10,12,12,13,13,14,14,15,15,16,16,17,17,18,18,19,19,20,20,24,24,25,25,26,26,27,27,28,28,29,29,30,30,31,31,32,32],"right_children":[2,4,6,8,10,-1,-1,12,14,16,18,-1,20,22,24,26,28,30,32,34,36,-1,-1,-1,38,40,42,44,46,48,50,52,54,-1,-1,-1,-1,-1,-1,-1,-1,-1,-1,-1,-1,-1,-1,-1,-1,-1,-1,-1,-1,-1,-1],"split_conditions":[9.0666664E1,7.6666665E0,3E-1,2.5683926E1,1.1256084E1,2.6133043E-1,1.0708821E0,3.3333333E0,2.0665002E0,9E-1,2.7E0,-6.017003E-1,2.167487E1,6E0,7.5748343E0,8E-1,2.2751316E1,1.1090103E1,1.57664995E1,3.6000001E0,2.2288042E1,-1.5317778E-1,7.78322E-2,-5.5957776E-1,6.3333335E0,1.511893E2,1.9724805E2,2.983167E0,2.2870626E1,2.6333334E1,1.1901798E1,1.5599834E1,1.3668755E2,-1.7260362E-1,2.797801E-1,3.944624E-1,-5.296781E-2,-2.7239957E-1,-3.8663436E-2,-9.643293E-2,1.16781406E-1,1.5550848E0,-3.9058223E-1,1.3793956E-1,-1.2477762E-1,-2.195542E0,-2.2261514E-1,-1.8580435E-1,-1.2307205E0,5.1663387E-1,-8.782994E-2,4.0313423E-2,-1.208787E0,1.3700871E0,3.2045755E-1],"split_indices":[0,0,2,3,1,0,0,0,1,2,2,0,3,0,1,2,3,3,1,2,3,0,0,0,0,4,4,1,3,0,3,1,4,0,0,0,0,0,0,0,0,0,0,0,0,0,0,0,0,0,0,0,0,0,0],"split_type":[0,0,0,0,0,0,0,0,0,0,0,0,0,0,0,0,0,0,0,0,0,0,0,0,0,0,0,0,0,0,0,0,0,0,0,0,0,0,0,0,0,0,0,0,0,0,0,0,0,0,0,0,0,0,0],"sum_hessian":[3.476E3,3.471E3,5E0,1.17E2,3.354E3,2E0,3E0,1E2,1.7E1,2.108E3,1.246E3,4E0,9.6E1,4E0,1.3E1,1.398E3,7.1E2,9.85E2,2.61E2,7.1E1,2.5E1,3E0,1E0,9E0,4E0,1.356E3,4.2E1,5.06E2,2.04E2,8.3E1,9.02E2,1.55E2,1.06E2,6.8E1,3E0,4E0,2.1E1,2E0,2E0,3.21E2,1.035E3,2.2E1,2E1,2.41E2,2.65E2,2E0,2.02E2,6.2E1,2.1E1,4.5E1,8.57E2,1.47E2,8E0,1.5E1,9.1E1],"tree_param":{"num_deleted":"0","num_feature":"5","num_nodes":"55","size_leaf_vector":"1"}},{"base_weights":[4.358623E-3,9.401942E-2,-1.4009815E-1,2.3437872E0,7.282085E-2,-2.9079778E0,-1.1061339E-1,4.475249E0,5.498751E-1,8.871318E-2,-2.7355955E0,-4.2237897E0,-4.4959673E-1,-1.5269615E-1,1.0068843E0,1.3385801E0,2.418432E0,-5.428963E-1,1.5374576E0,-1.5239453E-1,2.7112108E-1,-1.7308722E0,-1.5518423E0,5.9946872E-2,-1.6548676E0,-2.3512244E0,6.707317E-1,-1.2377481E-1,-6.2344704E0,-1.9235706E-1,4.2504077E0,7.29868E-1,-5.666974E-1,2.9943154E0,-1.0321937E0,-2.6643675E-2,-2.0381901E0,1.7913185E0,1.1677128E-1,-8.166378E-1,-2.8980644E0,-8.1384856E-1,-1.8996193E-1,-1.5288997E-1,5.138795E0,-3.313057E0,6.7672694E-1,3.5364864E0,-1.5662858E0,8.848221E0,1.2237998E0,1.1956272E-1,-3.7457657E-1,2.397955E-1,9.8203546E-1,-5.6188583E-2,-5.3503335E-1,-1.5774695E-2,1.6534296E0,-4.0145773E-1,-1.8475207E0,9.409069E-2,1.1854851E0,-4.9294832E-1,6.557555E-2,-3.1256652E-1,8.022981E-2,-1.0405624E0,-1.7799512E-1,-3.8125664E-2,-1.6587409E0,-1.323658E0,2.2397976E0,3.301899E-1,1.7256641E0,9.5827717E-1,-9.2356455E-1,3.1295564E0,3.7705308E-1,-5.517254E-2,5.8749163E-1],"categories":[],"categories_nodes":[],"categories_segments":[],"categories_sizes":[],"default_left":[0,0,0,0,0,0,0,0,0,0,0,0,0,0,0,0,0,0,0,0,0,0,0,0,0,0,0,0,0,0,0,0,0,0,0,0,0,0,0,0,0,0,0,0,0,0,0,0,0,0,0,0,0,0,0,0,0,0,0,0,0,0,0,0,0,0,0,0,0,0,0,0,0,0,0,0,0,0,0,0,0],"id":17,"left_children":[1,3,5,7,9,11,13,15,17,19,21,23,25,27,29,31,-1,-1,33,35,37,39,-1,-1,-1,41,-1,43,45,47,49,-1,51,53,55,57,59,61,63,65,67,-1,-1,69,71,-1,-1,73,75,77,79,-1,-1,-1,-1,-1,-1,-1,-1,-1,-1,-1,-1,-1,-1,-1,-1,-1,-1,-1,-1,-1,-1,-1,-1,-1,-1,-1,-1,-1,-1],"loss_changes":[4.504766E1,1.0217608E2,1.0838325E2,7.401227E1,9.517555E1,4.3387756E1,6.2182884E1,9.044739E1,3.0745024E1,9.3102905E1,2.0431213E1,5.2557373E1,3.589624E1,2.2296434E2,1.8752644E2,1.38885355E1,0E0,0E0,3.6783264E1,2.1621776E2,2.8253464E2,8.304203E0,0E0,0E0,0E0,7.67189E-1,0E0,1.949161E2,2.6989117E2,1.899731E2,1.7007666E2,0E0,2.4721808E0,1.0596848E0,2.2048912E0,1.23254326E2,1.5615479E2,3.530989E2,1.9656732E2,1.987947E0,3.2012787E0,0E0,0E0,1.742371E2,1.8853061E2,0E0,0E0,4.7640785E1,2.0421182E2,4.6998596E1,9.665876E0,0E0,0E0,0E0,0E0,0E0,0E0,0E0,0E0,0E0,0E0,0E0,0E0,0E0,0E0,0E0,0E0,0E0,0E0,0E0,0E0,0E0,0E0,0E0,0E0,0E0,0E0,0E0,0E0,0E0,0E0],"parents":[2147483647,0,0,1,1,2,2,3,3,4,4,5,5,6,6,7,7,8,8,9,9,10,10,11,11,12,12,13,13,14,14,15,15,18,18,19,19,20,20,21,21,25,25,27,27,28,28,29,29,30,30,32,32,33,33,34,34,35,35,36,36,37,37,38,38,39,39,40,40,43,43,44,44,47,47,48,48,49,49,50,50],"right_children":[2,4,6,8,10,12,14,16,18,20,22,24,26,28,30,32,-1,-1,34,36,38,40,-1,-1,-1,42,-1,44,46,48,50,-1,52,54,56,58,60,62,64,66,68,-1,-1,70,72,-1,-1,74,76,78,80,-1,-1,-1,-1,-1,-1,-1,-1,-1,-1,-1,-1,-1,-1,-1,-1,-1,-1,-1,-1,-1,-1,-1,-1,-1,-1,-1,-1,-1,-1],"split_conditions":[2.4477342E2,-6.660582E0,2.4585156E2,1.5072783E1,2.07E1,9.291501E0,4.2E1,2.2619978E1,1.6641972E1,1.5696165E1,2.1E1,1.3E1,1.6E1,4.1E1,5E-1,1.1753877E1,2.418432E0,-5.428963E-1,2.0948164E1,1.5379206E1,1.6394829E1,1.1875288E2,-1.5518423E0,5.9946872E-2,-1.6548676E0,1.5666667E1,6.707317E-1,4.0333332E1,4.139417E0,1.2348052E1,2.6221878E2,7.29868E-1,2.1E1,-8.420999E0,1.1333333E1,1.5349684E1,1.5678998E1,2.3666666E1,1.675064E1,1.1593583E1,1.9E1,-8.1384856E-1,-1.8996193E-1,3.9666668E1,1.0966713E1,-3.313057E0,6.7672694E-1,9.748334E-1,4.3666668E1,1.4366667E2,1.2E0,1.1956272E-1,-3.7457657E-1,2.397955E-1,9.8203546E-1,-5.6188583E-2,-5.3503335E-1,-1.5774695E-2,1.6534296E0,-4.0145773E-1,-1.8475207E0,9.409069E-2,1.1854851E0,-4.9294832E-1,6.557555E-2,-3.1256652E-1,8.022981E-2,-1.0405624E0,-1.7799512E-1,-3.8125664E-2,-1.6587409E0,-1.323658E0,2.2397976E0,3.301899E-1,1.7256641E0,9.5827717E-1,-9.2356455E-1,3.1295564E0,3.7705308E-1,-5.517254E-2,5.8749163E-1],"split_indices":[4,1,4,3,2,1,0,4,3,3,0,0,0,0,2,3,0,0,3,3,3,4,0,0,0,0,0,0,1,3,4,0,0,1,0,3,1,0,3,1,0,0,0,0,3,0,0,1,0,0,2,0,0,0,0,0,0,0,0,0,0,0,0,0,0,0,0,0,0,0,0,0,0,0,0,0,0,0,0,0,0],"split_type":[0,0,0,0,0,0,0,0,0,0,0,0,0,0,0,0,0,0,0,0,0,0,0,0,0,0,0,0,0,0,0,0,0,0,0,0,0,0,0,0,0,0,0,0,0,0,0,0,0,0,0,0,0,0,0,0,0,0,0,0,0,0,0,0,0,0,0,0,0,0,0,0,0,0,0,0,0,0,0,0,0],"sum_hessian":[3.476E3,2.145E3,1.331E3,1.9E1,2.126E3,1.3E1,1.318E3,8E0,1.1E1,2.115E3,1.1E1,8E0,5E0,1.271E3,4.7E1,5E0,3E0,3E0,8E0,9.11E2,1.204E3,9E0,2E0,2E0,6E0,3E0,2E0,1.266E3,5E0,3.5E1,1.2E1,3E0,2E0,5E0,3E0,8.55E2,5.6E1,1.1E2,1.094E3,6E0,3E0,2E0,1E0,1.26E3,6E0,3E0,2E0,9E0,2.6E1,4E0,8E0,1E0,1E0,1E0,4E0,2E0,1E0,8.52E2,3E0,4.9E1,7E0,6.6E1,4.4E1,5.9E1,1.035E3,5E0,1E0,2E0,1E0,1.255E3,5E0,1E0,5E0,5E0,4E0,6E0,2E1,3E0,1E0,3E0,5E0],"tree_param":{"num_deleted":"0","num_feature":"5","num_nodes":"81","size_leaf_vector":"1"}},{"base_weights":[3.3397374E-3,5.844973E-1,-1.2981074E-2,-2.0803672E-1,1.1646681E0,-6.609294E-1,5.7383156E-3,4.270746E-1,-3.353874E0,3.0912454E0,5.551292E-1,1.442684E0,-1.2058154E0,2.2836504E0,-1.311224E-2,1.4773582E0,-6.4693534E-1,-1.6127388E0,-4.9348354E-1,1.5706679E0,1.3810425E0,-2.7689683E-1,1.6206828E0,-2.1509726E0,2.7839677E0,-3.134553E-1,-3.5280228E0,3.005294E0,-1.3473793E0,-8.226592E-2,2.240173E-1,-5.296455E-1,4.706885E0,-2.0224056E0,1.8034331E0,4.6836606E-1,-5.096375E-1,-1.1759177E-1,1.9070412E0,-1.6685908E0,1.6460401E0,2.4944487E0,-6.8821794E-1,1.0768846E0,-1.2102368E0,1.2449722E0,3.9749675E0,-3.4397383E0,1.3049342E-1,-9.155711E-1,-5.0652566E0,-1.8317184E-1,3.6213434E0,-1.4271067E-3,-5.9182674E-1,7.9631634E-2,2.3420274E0,-7.729274E-1,2.4473913E-1,1.5732781E0,2.2239533E-1,-2.9658999E-3,-1.2099831E0,9.8219E-1,1.6812791E-1,8.988456E-1,1.02351025E-1,-8.657E-1,1.9139023E-1,5.9829813E-1,-2.7552453E-1,1.1311766E0,2.0389612E-1,2.285308E-1,-3.3917078E-1,8.42391E-2,4.0035897E-1,-1.7979771E-1,7.414248E-1,1.3786747E0,4.2262462E-1,-1.8693419E-1,-1.3325297E0,-1.5934168E-1,9.6108353E-1,-6.9810915E-1,2.0370074E-1,-2.30522E0,-9.14267E-1,7.5171894E-1,-8.433049E-1,3.1994987E-1,1.4467762E0,-1.700845E-1,3.728408E-2,-4.469965E-2,-5.230417E-1,-4.180017E-3,9.658305E-1,1.8392353E0,1.6466846E-1],"categories":[],"categories_nodes":[],"categories_segments":[],"categories_sizes":[],"default_left":[0,0,0,0,0,0,0,0,0,0,0,0,0,0,0,0,0,0,0,0,0,0,0,0,0,0,0,0,0,0,0,0,0,0,0,0,0,0,0,0,0,0,0,0,0,0,0,0,0,0,0,0,0,0,0,0,0,0,0,0,0,0,0,0,0,0,0,0,0,0,0,0,0,0,0,0,0,0,0,0,0,0,0,0,0,0,0,0,0,0,0,0,0,0,0,0,0,0,0,0,0],"id":18,"left_children":[1,3,5,7,9,11,13,15,17,19,21,23,25,27,29,31,33,-1,35,37,-1,39,41,43,45,47,49,51,-1,53,55,57,59,61,63,-1,-1,-1,65,67,69,71,73,75,-1,77,79,81,83,85,87,89,91,93,95,97,99,-1,-1,-1,-1,-1,-1,-1,-1,-1,-1,-1,-1,-1,-1,-1,-1,-1,-1,-1,-1,-1,-1,-1,-1,-1,-1,-1,-1,-1,-1,-1,-1,-1,-1,-1,-1,-1,-1,-1,-1,-1,-1,-1,-1],"loss_changes":[3.29868E1,4.3923786E1,4.103686E1,8.334859E1,6.2871773E1,1.1063144E2,1.412593E2,4.0436283E1,3.7831535E1,2.2662483E1,3.8571205E1,1.0239051E2,1.5638474E2,1.4550261E2,5.352635E1,1.1916307E2,6.431464E1,0E0,1.2558391E1,6.028946E0,0E0,6.965006E1,4.0048058E1,4.0815514E1,2.2545425E1,7.817178E1,7.969733E1,4.9769623E1,0E0,1.0409207E2,2.2519572E2,3.5147728E1,1.1029312E1,4.8523144E1,1.0960363E1,0E0,0E0,0E0,1.0915653E1,4.3949802E1,1.165645E1,2.9860352E1,4.709656E0,2.4059272E-1,0E0,1.9576605E1,6.2670364E0,1.698861E1,1.0336527E2,2.183614E1,4.5273987E1,4.237372E1,5.930548E1,1.5518929E2,1.7619357E2,2.0304391E2,3.159408E2,0E0,0E0,0E0,0E0,0E0,0E0,0E0,0E0,0E0,0E0,0E0,0E0,0E0,0E0,0E0,0E0,0E0,0E0,0E0,0E0,0E0,0E0,0E0,0E0,0E0,0E0,0E0,0E0,0E0,0E0,0E0,0E0,0E0,0E0,0E0,0E0,0E0,0E0,0E0,0E0,0E0,0E0,0E0,0E0],"parents":[2147483647,0,0,1,1,2,2,3,3,4,4,5,5,6,6,7,7,8,8,9,9,10,10,11,11,12,12,13,13,14,14,15,15,16,16,18,18,19,19,21,21,22,22,23,23,24,24,25,25,26,26,27,27,29,29,30,30,31,31,32,32,33,33,34,34,38,38,39,39,40,40,41,41,42,42,43,43,45,45,46,46,47,47,48,48,49,49,50,50,51,51,52,52,53,53,54,54,55,55,56,56],"right_children":[2,4,6,8,10,12,14,16,18,20,22,24,26,28,30,32,34,-1,36,38,-1,40,42,44,46,48,50,52,-1,54,56,58,60,62,64,-1,-1,-1,66,68,70,72,74,76,-1,78,80,82,84,86,88,90,92,94,96,98,100,-1,-1,-1,-1,-1,-1,-1,-1,-1,-1,-1,-1,-1,-1,-1,-1,-1,-1,-1,-1,-1,-1,-1,-1,-1,-1,-1,-1,-1,-1,-1,-1,-1,-1,-1,-1,-1,-1,-1,-1,-1,-1,-1,-1],"split_conditions":[9.178235E0,2.4060833E0,1.0239453E1,1.1519167E0,6.5206666E0,1.3477501E0,1.0495713E1,2.3491217E2,3.2E1,2.2666666E1,1.511893E2,-3.7022502E0,9.9571085E0,1.8879002E1,1.5045667E1,1.2696917E2,2.9603937E2,-1.6127388E0,3.9666668E1,3.9435835E0,1.3810425E0,2E-1,3.2040833E2,9.726665E0,-2.4183333E-1,5.1013073E1,1.6333334E1,-1.5314165E0,-1.3473793E0,1.2462335E1,7.499999E0,1E-1,4.5333332E1,2.739748E2,7.072878E0,4.6836606E-1,-5.096375E-1,-1.1759177E-1,5.1164994E0,1.4720664E1,3.8333332E1,3E-1,7.4060836E0,2.4666666E1,-1.2102368E0,9.726665E0,2.9666666E1,8.333333E0,9.885262E0,9.7307724E1,5.87275E0,2.4333334E1,1.5E1,1.1263491E2,2.1E1,3.381165E2,1.621643E2,-7.729274E-1,2.4473913E-1,1.5732781E0,2.2239533E-1,-2.9658999E-3,-1.2099831E0,9.8219E-1,1.6812791E-1,8.988456E-1,1.02351025E-1,-8.657E-1,1.9139023E-1,5.9829813E-1,-2.7552453E-1,1.1311766E0,2.0389612E-1,2.285308E-1,-3.3917078E-1,8.42391E-2,4.0035897E-1,-1.7979771E-1,7.414248E-1,1.3786747E0,4.2262462E-1,-1.8693419E-1,-1.3325297E0,-1.5934168E-1,9.6108353E-1,-6.9810915E-1,2.0370074E-1,-2.30522E0,-9.14267E-1,7.5171894E-1,-8.433049E-1,3.1994987E-1,1.4467762E0,-1.700845E-1,3.728408E-2,-4.469965E-2,-5.230417E-1,-4.180017E-3,9.658305E-1,1.8392353E0,1.6466846E-1],"split_indices":[3,1,3,1,1,1,3,4,0,0,4,1,3,1,1,4,4,0,0,1,0,2,4,3,1,4,0,1,0,1,2,2,0,4,3,0,0,0,1,1,0,2,1,0,0,3,0,0,3,4,1,0,0,4,0,4,4,0,0,0,0,0,0,0,0,0,0,0,0,0,0,0,0,0,0,0,0,0,0,0,0,0,0,0,0,0,0,0,0,0,0,0,0,0,0,0,0,0,0,0,0],"split_type":[0,0,0,0,0,0,0,0,0,0,0,0,0,0,0,0,0,0,0,0,0,0,0,0,0,0,0,0,0,0,0,0,0,0,0,0,0,0,0,0,0,0,0,0,0,0,0,0,0,0,0,0,0,0,0,0,0,0,0,0,0,0,0,0,0,0,0,0,0,0,0,0,0,0,0,0,0,0,0,0,0,0,0,0,0,0,0,0,0,0,0,0,0,0,0,0,0,0,0,0,0],"sum_hessian":[3.476E3,9.4E1,3.382E3,4E1,5.4E1,9.4E1,3.288E3,3.4E1,6E0,1.2E1,4.2E1,1.9E1,7.5E1,2.6E1,3.262E3,1.7E1,1.7E1,3E0,3E0,7E0,5E0,2.4E1,1.8E1,5E0,1.4E1,5.5E1,2E1,2.4E1,2E0,2.526E3,7.36E2,1.1E1,6E0,1.1E1,6E0,1E0,2E0,1E0,6E0,1.4E1,1E1,1.3E1,5E0,2E0,3E0,7E0,7E0,6E0,4.9E1,8E0,1.2E1,4E0,2E1,2.181E3,3.45E2,6.9E2,4.6E1,4E0,7E0,5E0,1E0,6E0,5E0,2E0,4E0,3E0,3E0,9E0,5E0,9E0,1E0,7E0,6E0,1E0,4E0,1E0,1E0,3E0,4E0,5E0,2E0,2E0,4E0,4.1E1,8E0,4E0,4E0,4E0,8E0,2E0,2E0,7E0,1.3E1,3.96E2,1.785E3,2.5E2,9.5E1,6.71E2,1.9E1,1.4E1,3.2E1],"tree_param":{"num_deleted":"0","num_feature":"5","num_nodes":"101","size_leaf_vector":"1"}},{"base_weights":[3.0529238E-3,1.7804979E-1,-8.554577E-2,-2.1054149E-2,8.776854E-1,-1.2103288E0,-1.5142806E-2,-4.6314934E-1,1.8719238E-1,1.8377331E0,-8.5570884E-1,-1.5039251E0,3.0997443E0,1.1753312E0,-8.649425E-2,1.00370675E-1,-1.196072E0,3.3861545E-1,-9.520821E-1,1.5886312E0,3.477445E0,-3.4771633E0,5.546946E-3,-4.270902E-1,-3.0695477E0,4.49432E0,2.3294449E-1,7.16424E-1,4.431702E0,-1.00316755E-1,2.7460928E0,-2.850491E-1,3.285214E0,2.322336E0,-1.5497342E0,1.877863E-1,2.6132743E0,-2.1943994E0,1.8440162E0,6.980897E-1,3.5481036E0,-4.392095E0,6.950096E-1,7.0517316E0,-5.203705E-1,-8.725997E-1,3.0359373E0,-2.0771537E0,-8.268069E0,1.6984036E0,2.0172307E0,-4.014956E-1,3.2043973E-1,2.295486E-1,4.2941537E0,8.148237E0,1.6120386E-1,3.1965128E-1,-1.6092786E-1,1.7480899E0,5.932947E-1,-1.21586554E-1,6.6359735E-1,-1.4798413E-1,1.2221395E0,4.2006984E-1,1.8698205E0,-3.3092085E-1,-1.1760882E0,-9.300827E-3,3.0670112E-1,1.8561995E-1,1.4455388E0,-5.129803E-1,-2.8127587E0,1.4187896E0,-5.200503E-1,6.435438E-2,9.795719E-1,2.7006545E0,7.862535E-1,-2.5768526E0,-1.017905E0,7.35458E-1,-1.071004E-1,8.7222785E-1,2.6536381E0,3.467575E-1,-5.4900455E-1,-8.4604156E-1,-6.943599E-2,-1.6137695E-2,2.0734642E0,-5.268109E-3,-1.9909284E0,-3.5855043E-1,-3.6818328E0,1.6852714E-2,6.6812634E-1,2.2123147E-2,-2.0279618E-1,-7.96549E-1,2.6272184E-1,3.8478306E-1,3.2248425E0,-6.2242645E-1,2.9715176E0,-9.3555194E-1,8.2581943E-1,4.8203445E-3,1.3867345E0,-2.4893038E-1,-3.132514E-2,4.5842665E-1,-3.487381E-1],"categories":[],"categories_nodes":[],"categories_segments":[],"categories_sizes":[],"default_left":[0,0,0,0,0,0,0,0,0,0,0,0,0,0,0,0,0,0,0,0,0,0,0,0,0,0,0,0,0,0,0,0,0,0,0,0,0,0,0,0,0,0,0,0,0,0,0,0,0,0,0,0,0,0,0,0,0,0,0,0,0,0,0,0,0,0,0,0,0,0,0,0,0,0,0,0,0,0,0,0,0,0,0,0,0,0,0,0,0,0,0,0,0,0,0,0,0,0,0,0,0,0,0,0,0,0,0,0,0,0,0,0,0,0,0],"id":19,"left_children":[1,3,5,7,9,11,13,15,17,19,21,23,25,27,29,31,33,35,37,39,-1,41,43,45,47,49,51,53,55,57,59,61,63,65,67,69,71,73,75,77,79,81,83,85,87,89,91,93,95,97,-1,99,-1,101,103,105,107,109,111,-1,113,-1,-1,-1,-1,-1,-1,-1,-1,-1,-1,-1,-1,-1,-1,-1,-1,-1,-1,-1,-1,-1,-1,-1,-1,-1,-1,-1,-1,-1,-1,-1,-1,-1,-1,-1,-1,-1,-1,-1,-1,-1,-1,-1,-1,-1,-1,-1,-1,-1,-1,-1,-1,-1,-1],"loss_changes":[5.392435E1,1.6286043E2,1.8282689E2,8.3957726E1,4.3258514E2,1.7675912E2,1.8476566E2,1.207209E2,1.072801E2,3.8734174E2,2.0998936E2,2.1448639E2,3.4934807E1,1.8063281E2,8.061835E1,2.0470172E2,1.6162868E2,1.8751979E2,2.576223E2,2.837017E2,0E0,9.0849365E1,2.6677502E2,1.21445656E2,2.5109286E2,2.5985458E1,2.5483575E0,1.888823E2,2.367583E2,5.205545E1,6.286788E1,4.5632637E1,5.5643417E1,3.4542206E1,1.1850171E2,9.406584E1,1.4656213E2,1.6140543E2,2.4560767E2,1.4082025E2,2.3433105E2,5.053302E1,1.0114574E1,1.1451248E1,1.4919792E2,8.550463E1,1.08143074E2,4.2244473E2,2.1193115E2,3.3477697E0,0E0,4.4119757E-1,0E0,1.8314044E2,2.3893887E2,1.6423035E2,7.6580086E1,3.3694025E2,6.741815E1,0E0,1.3265227E1,0E0,0E0,0E0,0E0,0E0,0E0,0E0,0E0,0E0,0E0,0E0,0E0,0E0,0E0,0E0,0E0,0E0,0E0,0E0,0E0,0E0,0E0,0E0,0E0,0E0,0E0,0E0,0E0,0E0,0E0,0E0,0E0,0E0,0E0,0E0,0E0,0E0,0E0,0E0,0E0,0E0,0E0,0E0,0E0,0E0,0E0,0E0,0E0,0E0,0E0,0E0,0E0,0E0,0E0],"parents":[2147483647,0,0,1,1,2,2,3,3,4,4,5,5,6,6,7,7,8,8,9,9,10,10,11,11,12,12,13,13,14,14,15,15,16,16,17,17,18,18,19,19,21,21,22,22,23,23,24,24,25,25,26,26,27,27,28,28,29,29,30,30,31,31,32,32,33,33,34,34,35,35,36,36,37,37,38,38,39,39,40,40,41,41,42,42,43,43,44,44,45,45,46,46,47,47,48,48,49,49,51,51,53,53,54,54,55,55,56,56,57,57,58,58,60,60],"right_children":[2,4,6,8,10,12,14,16,18,20,22,24,26,28,30,32,34,36,38,40,-1,42,44,46,48,50,52,54,56,58,60,62,64,66,68,70,72,74,76,78,80,82,84,86,88,90,92,94,96,98,-1,100,-1,102,104,106,108,110,112,-1,114,-1,-1,-1,-1,-1,-1,-1,-1,-1,-1,-1,-1,-1,