{"learner":{"attributes":{"scikit_learn":"{\"_estimator_type\": \"regressor\"}"},"feature_names":["pm25_lag_mean","temperature_2m_mean","precipitation_sum","wind_speed_10m_max","wind_direction_10m_dominant"],"feature_types":["float","float","float","float","float"],"gradient_booster":{"model":{"gbtree_model_param":{"num_parallel_tree":"1","num_trees":"100"},"iteration_indptr":[0,1,2,3,4,5,6,7,8,9,10,11,12,13,14,15,16,17,18,19,20,21,22,23,24,25,26,27,28,29,30,31,32,33,34,35,36,37,38,39,40,41,42,43,44,45,46,47,48,49,50,51,52,53,54,55,56,57,58,59,60,61,62,63,64,65,66,67,68,69,70,71,72,73,74,75,76,77,78,79,80,81,82,83,84,85,86,87,88,89,90,91,92,93,94,95,96,97,98,99,100],"tree_info":[0,0,0,0,0,0,0,0,0,0,0,0,0,0,0,0,0,0,0,0,0,0,0,0,0,0,0,0,0,0,0,0,0,0,0,0,0,0,0,0,0,0,0,0,0,0,0,0,0,0,0,0,0,0,0,0,0,0,0,0,0,0,0,0,0,0,0,0,0,0,0,0,0,0,0,0,0,0,0,0,0,0,0,0,0,0,0,0,0,0,0,0,0,0,0,0,0,0,0,0],"trees":[{"base_weights":[9.1280646E-7,-4.153916E0,1.07402315E1,-7.018093E0,-4.2141935E-1,7.8503003E0,2.2562841E1,-5.0569863E0,-9.196709E0,2.8448584E0,-3.3518157E0,1.0808405E1,1.4112885E0,2.1227911E1,5.9962696E1,-8.952143E0,-4.131016E0,-6.562817E0,-1.0357597E1,-2.9958262E0,4.2213726E0,5.623147E0,-3.9439394E0,1.2690198E1,5.408414E0,8.927698E0,-1.6117419E0,2.6779501E1,1.309348E1,7.324419E1,-9.667145E-1,-9.427175E0,6.0441895E0,-6.5966525E0,-3.0175138E0,-3.3698242E0,-8.741961E0,-1.1515643E1,-8.379365E0,-1.3306447E0,-7.6199646E0,9.152193E0,3.526554E0,1.3904489E1,3.5033956E0,-5.377065E0,-2.1165423E0,9.788628E0,1.5542332E1,-7.948446E0,6.955592E0,1.1264794E1,-5.4844564E-1,-2.5344917E-1,-5.590435E0,2.1498804E1,3.3288105E1,2.3232033E1,1.1233517E1,6.6832857E0,2.412493E1,-3.546521E0,-2.6233091E0,6.233286E0,-8.500717E-1,-1.1152986E0,-2.3369637E0,-4.0988246E-1,-1.5262601E0,-1.1794935E-1,-1.4176081E0,-3.0771508E0,-1.8220794E0,-3.5509534E0,-1.8948275E0,-1.7239025E0,-2.6920574E0,-8.5873586E-1,8.014963E-1,-9.042504E-1,-2.747459E0,4.060402E0,1.2159082E0,1.265738E0,-3.2050186E-1,4.5388093E0,9.8328555E-1,1.7398377E-1,2.1845272E0,-1.022196E0,-1.8631284E0,-2.614676E-1,-1.5329515E0,2.7600086E0,7.3856325E0,1.6739839E0,4.9341593E0,-1.2111908E0,-2.8500862E0,3.706851E0,1.075855E0,8.6181605E-1,4.103695E0,-1.57231E0,4.0999284E0,9.615414E-1,-7.5400394E-1,-1.8186982E0,9.110474E-1,-4.0674317E-1,6.921375E0,8.821877E0,2.0299929E1,7.709914E0,-2.1671449E-1,4.052108E0,7.354663E-1],"categories":[],"categories_nodes":[],"categories_segments":[],"categories_sizes":[],"default_left":[0,0,0,0,0,0,0,0,0,0,0,0,0,0,0,0,0,0,0,0,0,0,0,0,0,0,0,0,0,0,0,0,0,0,0,0,0,0,0,0,0,0,0,0,0,0,0,0,0,0,0,0,0,0,0,0,0,0,0,0,0,0,0,0,0,0,0,0,0,0,0,0,0,0,0,0,0,0,0,0,0,0,0,0,0,0,0,0,0,0,0,0,0,0,0,0,0,0,0,0,0,0,0,0,0,0,0,0,0,0,0,0,0,0,0,0,0],"id":0,"left_children":[1,3,5,7,9,11,13,15,17,19,21,23,25,27,29,31,33,35,37,39,41,43,45,47,49,51,53,55,57,59,-1,61,63,65,67,69,71,73,75,77,79,81,83,85,87,89,91,93,95,97,99,101,103,105,107,109,111,113,115,-1,-1,-1,-1,-1,-1,-1,-1,-1,-1,-1,-1,-1,-1,-1,-1,-1,-1,-1,-1,-1,-1,-1,-1,-1,-1,-1,-1,-1,-1,-1,-1,-1,-1,-1,-1,-1,-1,-1,-1,-1,-1,-1,-1,-1,-1,-1,-1,-1,-1,-1,-1,-1,-1,-1,-1,-1,-1],"loss_changes":[1.5516758E5,2.6808898E4,3.2964414E4,6.016164E3,1.0442457E4,1.486066E4,8.213094E3,2.6645137E3,1.983707E3,4.1611763E3,3.0778936E3,5.3678594E3,5.626806E3,8.0037734E3,5.271174E3,1.0756748E3,1.6466084E3,1.4178037E3,9.6647656E2,7.521633E2,1.3998022E3,5.83245E2,1.4028203E3,3.1250234E3,2.9484482E3,1.5785903E3,9.5513184E2,3.0306719E3,1.1910381E3,3.6234375E1,0E0,1.23896484E2,7.128742E2,6.1687305E2,1.4286497E3,3.4514972E2,4.3500586E2,4.090703E2,2.2221289E2,4.613232E2,1.566001E2,1.0848398E3,1.1755933E3,4.1527832E1,3.271525E2,4.7457617E2,8.8620496E2,1.5105801E3,1.6931172E3,5.2686584E1,2.24848E3,1.1155269E3,1.0721942E3,1.0475905E3,2.016112E2,2.2953516E3,4.2824062E3,6.687949E2,1.3045986E3,0E0,0E0,0E0,0E0,0E0,0E0,0E0,0E0,0E0,0E0,0E0,0E0,0E0,0E0,0E0,0E0,0E0,0E0,0E0,0E0,0E0,0E0,0E0,0E0,0E0,0E0,0E0,0E0,0E0,0E0,0E0,0E0,0E0,0E0,0E0,0E0,0E0,0E0,0E0,0E0,0E0,0E0,0E0,0E0,0E0,0E0,0E0,0E0,0E0,0E0,0E0,0E0,0E0,0E0,0E0,0E0,0E0,0E0],"parents":[2147483647,0,0,1,1,2,2,3,3,4,4,5,5,6,6,7,7,8,8,9,9,10,10,11,11,12,12,13,13,14,14,15,15,16,16,17,17,18,18,19,19,20,20,21,21,22,22,23,23,24,24,25,25,26,26,27,27,28,28,29,29,31,31,32,32,33,33,34,34,35,35,36,36,37,37,38,38,39,39,40,40,41,41,42,42,43,43,44,44,45,45,46,46,47,47,48,48,49,49,50,50,51,51,52,52,53,53,54,54,55,55,56,56,57,57,58,58],"right_children":[2,4,6,8,10,12,14,16,18,20,22,24,26,28,30,32,34,36,38,40,42,44,46,48,50,52,54,56,58,60,-1,62,64,66,68,70,72,74,76,78,80,82,84,86,88,90,92,94,96,98,100,102,104,106,108,110,112,114,116,-1,-1,-1,-1,-1,-1,-1,-1,-1,-1,-1,-1,-1,-1,-1,-1,-1,-1,-1,-1,-1,-1,-1,-1,-1,-1,-1,-1,-1,-1,-1,-1,-1,-1,-1,-1,-1,-1,-1,-1,-1,-1,-1,-1,-1,-1,-1,-1,-1,-1,-1,-1,-1,-1,-1,-1,-1,-1],"split_conditions":[2.5333334E1,1.6333334E1,4.4E1,2.3864223E2,2.1602725E2,2.4314003E2,9.0666664E1,9.666667E0,1.5646544E1,5.1013073E1,1.1090103E1,1.9602652E1,1.3849476E1,2.0503342E2,1.6720667E1,1.9531084E1,1.0295759E2,4.662334E0,1.2666667E1,1.9319628E1,1.1442394E1,-8.420999E0,2.0333334E1,3.2666668E1,4.8155895E1,1.0285252E1,2.3185787E1,5.2333332E1,1.0495713E1,1.08333336E2,-9.667145E-1,3.5437565E1,9E0,1.3202726E1,2.0427441E2,2.849135E2,1.2333333E1,1.6797749E1,2.5660745E2,2.2333334E1,-1.2480834E0,9.7039995E0,2.0503342E2,2.1E1,4E-1,2.4680136E2,1.2E0,2.1989418E1,4.8155895E1,2.2033648E1,1.8458502E2,2.8333334E1,9.299999E0,2.733051E2,4.3333332E1,3.432262E1,1.4070664E1,8.02275E0,3.0254428E2,6.6832857E0,2.412493E1,-3.546521E0,-2.6233091E0,6.233286E0,-8.500717E-1,-1.1152986E0,-2.3369637E0,-4.0988246E-1,-1.5262601E0,-1.1794935E-1,-1.4176081E0,-3.0771508E0,-1.8220794E0,-3.5509534E0,-1.8948275E0,-1.7239025E0,-2.6920574E0,-8.5873586E-1,8.014963E-1,-9.042504E-1,-2.747459E0,4.060402E0,1.2159082E0,1.265738E0,-3.2050186E-1,4.5388093E0,9.8328555E-1,1.7398377E-1,2.1845272E0,-1.022196E0,-1.8631284E0,-2.614676E-1,-1.5329515E0,2.7600086E0,7.3856325E0,1.6739839E0,4.9341593E0,-1.2111908E0,-2.8500862E0,3.706851E0,1.075855E0,8.6181605E-1,4.103695E0,-1.57231E0,4.0999284E0,9.615414E-1,-7.5400394E-1,-1.8186982E0,9.110474E-1,-4.0674317E-1,6.921375E0,8.821877E0,2.0299929E1,7.709914E0,-2.1671449E-1,4.052108E0,7.354663E-1],"split_indices":[0,0,0,4,4,4,0,0,3,4,3,3,3,4,1,1,4,1,0,3,3,1,0,0,4,1,3,0,3,0,0,4,0,3,4,4,0,1,4,0,1,1,4,0,2,4,2,1,4,3,4,0,2,4,0,4,1,1,4,0,0,0,0,0,0,0,0,0,0,0,0,0,0,0,0,0,0,0,0,0,0,0,0,0,0,0,0,0,0,0,0,0,0,0,0,0,0,0,0,0,0,0,0,0,0,0,0,0,0,0,0,0,0,0,0,0,0],"split_type":[0,0,0,0,0,0,0,0,0,0,0,0,0,0,0,0,0,0,0,0,0,0,0,0,0,0,0,0,0,0,0,0,0,0,0,0,0,0,0,0,0,0,0,0,0,0,0,0,0,0,0,0,0,0,0,0,0,0,0,0,0,0,0,0,0,0,0,0,0,0,0,0,0,0,0,0,0,0,0,0,0,0,0,0,0,0,0,0,0,0,0,0,0,0,0,0,0,0,0,0,0,0,0,0,0,0,0,0,0,0,0,0,0,0,0,0,0],"sum_hessian":[3.476E3,2.507E3,9.69E2,1.418E3,1.089E3,7.8E2,1.89E2,7.48E2,6.7E2,5.15E2,5.74E2,5.34E2,2.46E2,1.84E2,5E0,1.42E2,6.06E2,2.07E2,4.63E2,9.8E1,4.17E2,3.5E1,5.39E2,3.95E2,1.39E2,7E1,1.76E2,1.08E2,7.6E1,4E0,1E0,1.38E2,4E0,1.87E2,4.19E2,8.5E1,1.22E2,2.89E2,1.74E2,7.3E1,2.5E1,5E1,3.67E2,6E0,2.9E1,3.01E2,2.38E2,1.98E2,1.97E2,1.4E1,1.25E2,5.6E1,1.4E1,1.32E2,4.4E1,6.2E1,4.6E1,1E1,6.6E1,1E0,3E0,2.7E1,1.11E2,1E0,3E0,5.6E1,1.31E2,2.34E2,1.85E2,2.7E1,5.8E1,7.6E1,4.6E1,2.71E2,1.8E1,3.4E1,1.4E2,5.3E1,2E1,7E0,1.8E1,2.6E1,2.4E1,3.19E2,4.8E1,5E0,1E0,1.7E1,1.2E1,9.1E1,2.1E2,1.69E2,6.9E1,1.92E2,6E0,1.7E1,1.8E2,5E0,9E0,4.7E1,7.8E1,1.3E1,4.3E1,1.1E1,3E0,5.2E1,8E1,4.2E1,2E0,4E0,5.8E1,4.3E1,3E0,9E0,1E0,5.2E1,1.4E1],"tree_param":{"num_deleted":"0","num_feature":"5","num_nodes":"117","size_leaf_vector":"1"}},{"base_weights":[2.4524275E-2,-2.8113513E0,7.944538E0,-4.7067685E0,2.0118111E-1,6.4171805E0,2.0939781E1,-7.204866E0,-3.7046754E0,2.1501276E0,-2.6668477E0,9.757675E0,3.180959E0,1.8994883E1,4.694747E1,-5.589075E0,-8.169365E0,-1.9296064E0,-5.0784974E0,-2.7598982E0,2.8379302E0,2.9417443E0,-3.510941E0,1.4049195E0,1.1182045E1,1.0078173E1,1.5737424E0,2.3845802E1,1.1601602E1,1.7229773E1,-8.217073E-1,-5.8818545E0,5.307575E0,-3.2257564E0,-8.518222E0,-2.2250407E0,8.316296E0,-3.9294124E0,-6.7226224E0,1.8867085E0,-4.9350715E0,4.098964E0,7.453181E-1,5.514438E0,-6.537014E-1,-2.7963157E0,-5.4480133E0,5.6553006E0,-3.9994462E0,8.513546E0,1.4041537E1,3.315599E0,1.4857506E1,1.24161E0,2.9245493E1,2.1406977E1,1.7451063E1,1.4976991E1,6.528152E-1,-2.1446683E0,-1.2578664E0,5.298293E0,-6.588058E-1,7.2123796E-1,-1.1954584E0,-3.396622E0,-2.4393075E0,2.4377917E-1,-9.495333E-1,1.12703E0,4.7316284E0,-1.2961627E0,-1.3466838E-1,-1.5669104E0,-2.3037763E0,1.7686266E0,3.099903E-1,-1.0702888E0,-2.285373E0,2.935509E-1,1.5067202E0,1.7210088E0,-1.356832E-1,-1.8802044E0,1.9629272E0,-1.213187E0,2.8878043E0,-5.576601E-1,-1.567796E0,-1.7630994E0,1.6698424E0,3.52881E-1,2.6195426E0,-2.0687468E0,4.841928E-1,1.6004835E0,3.1004624E0,4.400274E0,-6.553401E-1,-1.1952882E0,1.8308797E0,5.865387E0,1.4504126E0,7.077119E-1,-7.730033E-1,1.3525441E1,2.681237E0,7.8766184E0,3.8998597E0,5.0329623E0,-1.3929978E-1,1.6293758E0,-2.3617964E0],"categories":[],"categories_nodes":[],"categories_segments":[],"categories_sizes":[],"default_left":[0,0,0,0,0,0,0,0,0,0,0,0,0,0,0,0,0,0,0,0,0,0,0,0,0,0,0,0,0,0,0,0,0,0,0,0,0,0,0,0,0,0,0,0,0,0,0,0,0,0,0,0,0,0,0,0,0,0,0,0,0,0,0,0,0,0,0,0,0,0,0,0,0,0,0,0,0,0,0,0,0,0,0,0,0,0,0,0,0,0,0,0,0,0,0,0,0,0,0,0,0,0,0,0,0,0,0,0,0,0,0,0,0],"id":1,"left_children":[1,3,5,7,9,11,13,15,17,19,21,23,25,27,29,31,33,35,37,39,41,43,45,47,49,51,53,55,57,-1,-1,59,61,63,65,67,69,71,73,75,77,79,81,83,85,87,89,91,93,95,97,99,101,103,105,107,-1,109,111,-1,-1,-1,-1,-1,-1,-1,-1,-1,-1,-1,-1,-1,-1,-1,-1,-1,-1,-1,-1,-1,-1,-1,-1,-1,-1,-1,-1,-1,-1,-1,-1,-1,-1,-1,-1,-1,-1,-1,-1,-1,-1,-1,-1,-1,-1,-1,-1,-1,-1,-1,-1,-1,-1],"loss_changes":[7.811636E4,1.4624271E4,1.8066602E4,3.908539E3,5.539472E3,8.855258E3,3.9641445E3,6.540762E2,2.7312197E3,2.0003384E3,1.9087319E3,4.7908477E3,4.6288867E3,2.986996E3,3.2831182E3,5.767622E2,4.536875E2,1.5077837E3,1.1694717E3,7.471347E2,1.3638721E3,4.9385382E2,4.678794E2,1.4008549E3,2.512996E3,2.5040654E3,3.0977117E3,3.275162E3,1.3945664E3,0E0,0E0,3.2740332E2,5.022584E2,9.505359E1,1.9020703E2,1.3704009E3,4.1667688E2,5.0856152E2,3.3143945E2,7.601383E1,1.5625354E2,9.258252E2,1.1742141E3,4.1670807E2,8.404968E2,5.756526E2,4.7212842E2,4.582412E2,4.5011142E2,9.927217E2,1.7081328E3,7.161218E2,2.069537E3,1.448212E3,8.837178E2,1.7783574E3,0E0,8.136255E2,4.5014255E2,0E0,0E0,0E0,0E0,0E0,0E0,0E0,0E0,0E0,0E0,0E0,0E0,0E0,0E0,0E0,0E0,0E0,0E0,0E0,0E0,0E0,0E0,0E0,0E0,0E0,0E0,0E0,0E0,0E0,0E0,0E0,0E0,0E0,0E0,0E0,0E0,0E0,0E0,0E0,0E0,0E0,0E0,0E0,0E0,0E0,0E0,0E0,0E0,0E0,0E0,0E0,0E0,0E0,0E0],"parents":[2147483647,0,0,1,1,2,2,3,3,4,4,5,5,6,6,7,7,8,8,9,9,10,10,11,11,12,12,13,13,14,14,15,15,16,16,17,17,18,18,19,19,20,20,21,21,22,22,23,23,24,24,25,25,26,26,27,27,28,28,31,31,32,32,33,33,34,34,35,35,36,36,37,37,38,38,39,39,40,40,41,41,42,42,43,43,44,44,45,45,46,46,47,47,48,48,49,49,50,50,51,51,52,52,53,53,54,54,55,55,57,57,58,58],"right_children":[2,4,6,8,10,12,14,16,18,20,22,24,26,28,30,32,34,36,38,40,42,44,46,48,50,52,54,56,58,-1,-1,60,62,64,66,68,70,72,74,76,78,80,82,84,86,88,90,92,94,96,98,100,102,104,106,108,-1,110,112,-1,-1,-1,-1,-1,-1,-1,-1,-1,-1,-1,-1,-1,-1,-1,-1,-1,-1,-1,-1,-1,-1,-1,-1,-1,-1,-1,-1,-1,-1,-1,-1,-1,-1,-1,-1,-1,-1,-1,-1,-1,-1,-1,-1,-1,-1,-1,-1,-1,-1,-1,-1,-1,-1],"split_conditions":[2.6E1,1.7333334E1,5.1E1,1.0333333E1,2.3804732E2,2.0148207E2,9.0666664E1,2.2524925E2,1.6394829E1,4.3941982E1,1.2849528E1,4.8155895E1,1.2964998E1,2.1480249E2,1.6720667E1,1.9531084E1,-3.323083E0,9.299999E0,2.4920132E2,1.3089354E1,1.9862555E2,1.1008167E1,1.2E0,1.7533146E1,3.5333332E1,3.1333334E1,2.1989418E1,1.4610249E1,6.5333336E1,1.7229773E1,-8.217073E-1,1.3245868E2,9E0,2.4989505E2,6.3333335E0,1.1519167E0,1.6022749E1,1.753525E1,3.3165E0,8.557102E0,1.9319628E1,9.192192E1,2.8644168E0,2.4204277E2,1.9531084E1,1.1891501E1,1.6022749E1,2.2619978E1,3.5E1,4.7790008E0,2.4613312E1,2.2708783E2,5.1164994E0,1.169775E1,2.7666666E1,6E-1,1.7451063E1,2.7567635E1,6.629001E0,-2.1446683E0,-1.2578664E0,5.298293E0,-6.588058E-1,7.2123796E-1,-1.1954584E0,-3.396622E0,-2.4393075E0,2.4377917E-1,-9.495333E-1,1.12703E0,4.7316284E0,-1.2961627E0,-1.3466838E-1,-1.5669104E0,-2.3037763E0,1.7686266E0,3.099903E-1,-1.0702888E0,-2.285373E0,2.935509E-1,1.5067202E0,1.7210088E0,-1.356832E-1,-1.8802044E0,1.9629272E0,-1.213187E0,2.8878043E0,-5.576601E-1,-1.567796E0,-1.7630994E0,1.6698424E0,3.52881E-1,2.6195426E0,-2.0687468E0,4.841928E-1,1.6004835E0,3.1004624E0,4.400274E0,-6.553401E-1,-1.1952882E0,1.8308797E0,5.865387E0,1.4504126E0,7.077119E-1,-7.730033E-1,1.3525441E1,2.681237E0,7.8766184E0,3.8998597E0,5.0329623E0,-1.3929978E-1,1.6293758E0,-2.3617964E0],"split_indices":[0,0,0,0,4,4,0,4,3,4,3,4,3,4,1,1,1,2,4,3,4,1,2,3,0,0,1,1,0,0,0,4,0,4,0,1,1,1,1,3,3,4,1,4,1,1,1,4,0,1,3,4,1,1,0,2,0,3,1,0,0,0,0,0,0,0,0,0,0,0,0,0,0,0,0,0,0,0,0,0,0,0,0,0,0,0,0,0,0,0,0,0,0,0,0,0,0,0,0,0,0,0,0,0,0,0,0,0,0,0,0,0,0],"split_type":[0,0,0,0,0,0,0,0,0,0,0,0,0,0,0,0,0,0,0,0,0,0,0,0,0,0,0,0,0,0,0,0,0,0,0,0,0,0,0,0,0,0,0,0,0,0,0,0,0,0,0,0,0,0,0,0,0,0,0,0,0,0,0,0,0,0,0,0,0,0,0,0,0,0,0,0,0,0,0,0,0,0,0,0,0,0,0,0,0,0,0,0,0,0,0,0,0,0,0,0,0,0,0,0,0,0,0,0,0,0,0,0,0],"sum_hessian":[3.476E3,2.56E3,9.16E2,1.571E3,9.89E2,8.21E2,9.5E1,4.48E2,1.123E3,5.89E2,4E2,4.03E2,4.18E2,9E1,5E0,1.7E2,2.78E2,4.91E2,6.32E2,7.2E1,5.17E2,5.2E1,3.48E2,5.9E1,3.44E2,7.8E1,3.4E2,5.3E1,3.7E1,4E0,1E0,1.66E2,4E0,1.9E1,2.59E2,4.78E2,1.3E1,3.74E2,2.58E2,2.3E1,4.9E1,3.22E2,1.95E2,3E1,2.2E1,2.56E2,9.2E1,3.3E1,2.6E1,1.8E2,1.64E2,3.3E1,4.5E1,3.37E2,3E0,5.1E1,2E0,2.8E1,9E0,9.3E1,7.3E1,1E0,3E0,2E0,1.7E1,2.8E1,2.31E2,1.13E2,3.65E2,9E0,4E0,3.36E2,3.8E1,1.03E2,1.55E2,3E0,2E1,3.4E1,1.5E1,7.4E1,2.48E2,3.7E1,1.58E2,2E0,2.8E1,1.7E1,5E0,1.86E2,7E1,8.9E1,3E0,1.4E1,1.9E1,1.7E1,9E0,6.7E1,1.13E2,1.58E2,6E0,9E0,2.4E1,3E1,1.5E1,2.61E2,7.6E1,1E0,2E0,3.1E1,2E1,2.5E1,3E0,6E0,3E0],"tree_param":{"num_deleted":"0","num_feature":"5","num_nodes":"113","size_leaf_vector":"1"}},{"base_weights":[4.0218223E-2,-2.250646E0,5.0657783E0,-4.096735E0,-8.8158363E-1,3.229378E0,1.070732E1,-5.6877403E0,-3.4231095E0,6.144627E-1,-2.385079E0,4.9881744E0,9.767792E-2,9.57672E0,2.4960575E1,-5.83029E0,2.292648E0,-2.928424E0,-5.047467E0,-1.071631E0,1.6579235E0,-4.2946154E-1,-3.1024525E0,5.813033E-1,5.8582115E0,5.0367956E0,-1.3078369E0,1.0916528E1,1.8499877E0,3.107359E1,-1.7194868E0,-4.8806844E0,-6.812171E0,1.0029258E1,-1.2248914E0,-4.9206038E0,-2.6193457E0,-3.8721552E0,-6.9565043E0,-1.7153947E0,6.45932E0,3.5696688E0,-1.793301E-2,-1.2276168E0,3.735261E0,-4.0063305E0,-2.164197E0,1.0607629E1,-4.1612765E-1,7.599547E0,3.671694E0,6.0272775E0,-1.9059557E0,1.4973965E-1,-4.6832247E0,1.2910699E1,5.768487E0,3.7850778E0,9.013544E-1,2.3044294E1,1.482012E1,-1.2511063E0,-2.0817945E0,-9.928528E-1,-2.1410937E0,4.503549E0,9.617043E-3,-5.296103E-1,-1.7118528E0,-3.9231542E-1,-1.0490474E0,-1.2031201E0,1.5758038E0,-2.26576E0,-1.3120536E0,1.5785049E0,-6.9838667E-1,1.3836231E0,4.801627E0,3.1060305E0,8.133515E-1,-1.00067884E-1,2.611048E0,3.005387E0,-4.9989927E-1,2.021796E0,-2.1345966E-1,-7.6047194E-1,-1.3657004E0,-8.024806E-2,-8.770531E-1,1.6238433E0,3.7925873E0,4.1581047E-1,-1.2215363E0,2.8258007E0,1.1038474E0,1.8277351E0,4.2099306E-1,1.3674221E0,9.432999E0,-2.268154E0,6.5442246E-1,-3.718232E-1,2.255149E0,-1.8155361E0,3.669883E-1,2.3237028E0,4.443715E0,4.7216573E0,1.2553715E0,-1.5529072E0,7.6406497E-1,7.6935587E0,-1.2249751E0],"categories":[],"categories_nodes":[],"categories_segments":[],"categories_sizes":[],"default_left":[0,0,0,0,0,0,0,0,0,0,0,0,0,0,0,0,0,0,0,0,0,0,0,0,0,0,0,0,0,0,0,0,0,0,0,0,0,0,0,0,0,0,0,0,0,0,0,0,0,0,0,0,0,0,0,0,0,0,0,0,0,0,0,0,0,0,0,0,0,0,0,0,0,0,0,0,0,0,0,0,0,0,0,0,0,0,0,0,0,0,0,0,0,0,0,0,0,0,0,0,0,0,0,0,0,0,0,0,0,0,0,0,0,0,0],"id":2,"left_children":[1,3,5,7,9,11,13,15,17,19,21,23,25,27,29,31,33,35,37,39,41,43,45,47,49,51,53,55,57,59,-1,61,63,65,-1,67,69,71,73,75,77,79,81,83,85,87,89,91,93,95,97,99,101,103,105,107,109,-1,111,113,-1,-1,-1,-1,-1,-1,-1,-1,-1,-1,-1,-1,-1,-1,-1,-1,-1,-1,-1,-1,-1,-1,-1,-1,-1,-1,-1,-1,-1,-1,-1,-1,-1,-1,-1,-1,-1,-1,-1,-1,-1,-1,-1,-1,-1,-1,-1,-1,-1,-1,-1,-1,-1,-1,-1],"loss_changes":[4.004167E4,6.034374E3,1.1247604E4,1.0704922E3,3.089753E3,4.532615E3,4.0635898E3,3.557832E2,5.613613E2,1.2139844E3,9.5965967E2,2.0171875E3,2.068362E3,2.5575332E3,3.742917E3,2.4274219E2,3.3690323E2,3.269995E2,3.4552002E2,1.2909927E3,1.3648875E3,6.19543E2,4.162119E2,8.8446405E2,1.6473789E3,4.6534802E2,1.1421147E3,2.1019336E3,3.76755E2,1.2160244E3,0E0,1.9625586E2,1.3907031E2,1.4895407E2,0E0,1.7086902E2,5.4787134E2,1.5351904E2,6.242041E1,1.0550767E3,2.9649536E2,1.130875E3,6.305219E2,7.8633344E2,4.0554803E2,1.9252515E2,3.5638562E2,1.6115234E1,5.392792E2,1.705958E3,1.0732173E3,2.022478E3,2.2450266E2,1.6775336E3,5.7324365E2,1.37825E3,8.974656E2,0E0,3.7322134E2,1.02194385E3,0E0,0E0,0E0,0E0,0E0,0E0,0E0,0E0,0E0,0E0,0E0,0E0,0E0,0E0,0E0,0E0,0E0,0E0,0E0,0E0,0E0,0E0,0E0,0E0,0E0,0E0,0E0,0E0,0E0,0E0,0E0,0E0,0E0,0E0,0E0,0E0,0E0,0E0,0E0,0E0,0E0,0E0,0E0,0E0,0E0,0E0,0E0,0E0,0E0,0E0,0E0,0E0,0E0,0E0,0E0],"parents":[2147483647,0,0,1,1,2,2,3,3,4,4,5,5,6,6,7,7,8,8,9,9,10,10,11,11,12,12,13,13,14,14,15,15,16,16,17,17,18,18,19,19,20,20,21,21,22,22,23,23,24,24,25,25,26,26,27,27,28,28,29,29,31,31,32,32,33,33,35,35,36,36,37,37,38,38,39,39,40,40,41,41,42,42,43,43,44,44,45,45,46,46,47,47,48,48,49,49,50,50,51,51,52,52,53,53,54,54,55,55,56,56,58,58,59,59],"right_children":[2,4,6,8,10,12,14,16,18,20,22,24,26,28,30,32,34,36,38,40,42,44,46,48,50,52,54,56,58,60,-1,62,64,66,-1,68,70,72,74,76,78,80,82,84,86,88,90,92,94,96,98,100,102,104,106,108,110,-1,112,114,-1,-1,-1,-1,-1,-1,-1,-1,-1,-1,-1,-1,-1,-1,-1,-1,-1,-1,-1,-1,-1,-1,-1,-1,-1,-1,-1,-1,-1,-1,-1,-1,-1,-1,-1,-1,-1,-1,-1,-1,-1,-1,-1,-1,-1,-1,-1,-1,-1,-1,-1,-1,-1,-1,-1],"split_conditions":[2.4E1,1.4E1,4.0666668E1,9.333333E0,2.219528E2,2.364639E2,6.9333336E1,1.9531084E1,2.849135E2,1.2446892E2,1.52947035E1,6.627162E1,1.3350371E1,2.1933426E1,1.6720667E1,2.5660745E2,2.0070912E2,6.049757E1,1.8391737E1,1.87415E1,9.7039995E0,2.2333334E1,1.8333334E1,9.885262E0,1.8596217E2,3.7E1,9.181083E0,2.4204277E2,4.1E1,1.08333336E2,-1.7194868E0,2.2751316E1,1.2682018E1,9E0,-1.2248914E0,4.0399995E-1,2.0070912E2,1.0299999E1,3.3386517E2,9.605998E0,2.2999997E0,1.1442394E1,2.1989418E1,-9.981416E0,2.785718E2,1.7581125E1,2.4680136E2,1E-1,1.8278645E1,1.6000001E0,3E-1,3.5E1,1.0239453E1,6.8060837E0,1.8576918E1,8.37753E1,9.885262E0,3.7850778E0,4.3333332E1,2.3185787E1,1.482012E1,-1.2511063E0,-2.0817945E0,-9.928528E-1,-2.1410937E0,4.503549E0,9.617043E-3,-5.296103E-1,-1.7118528E0,-3.9231542E-1,-1.0490474E0,-1.2031201E0,1.5758038E0,-2.26576E0,-1.3120536E0,1.5785049E0,-6.9838667E-1,1.3836231E0,4.801627E0,3.1060305E0,8.133515E-1,-1.00067884E-1,2.611048E0,3.005387E0,-4.9989927E-1,2.021796E0,-2.1345966E-1,-7.6047194E-1,-1.3657004E0,-8.024806E-2,-8.770531E-1,1.6238433E0,3.7925873E0,4.1581047E-1,-1.2215363E0,2.8258007E0,1.1038474E0,1.8277351E0,4.2099306E-1,1.3674221E0,9.432999E0,-2.268154E0,6.5442246E-1,-3.718232E-1,2.255149E0,-1.8155361E0,3.669883E-1,2.3237028E0,4.443715E0,4.7216573E0,1.2553715E0,-1.5529072E0,7.6406497E-1,7.6935587E0,-1.2249751E0],"split_indices":[0,0,0,0,4,4,0,1,4,4,3,4,3,3,1,4,4,4,3,1,1,0,0,3,4,0,1,4,0,0,0,3,3,0,0,1,4,2,4,3,2,3,1,1,4,3,4,2,3,2,2,0,3,1,1,4,3,0,0,3,0,0,0,0,0,0,0,0,0,0,0,0,0,0,0,0,0,0,0,0,0,0,0,0,0,0,0,0,0,0,0,0,0,0,0,0,0,0,0,0,0,0,0,0,0,0,0,0,0,0,0,0,0,0,0],"split_type":[0,0,0,0,0,0,0,0,0,0,0,0,0,0,0,0,0,0,0,0,0,0,0,0,0,0,0,0,0,0,0,0,0,0,0,0,0,0,0,0,0,0,0,0,0,0,0,0,0,0,0,0,0,0,0,0,0,0,0,0,0,0,0,0,0,0,0,0,0,0,0,0,0,0,0,0,0,0,0,0,0,0,0,0,0,0,0,0,0,0,0,0,0,0,0,0,0,0,0,0,0,0,0,0,0,0,0,0,0,0,0,0,0,0,0],"sum_hessian":[3.476E3,2.388E3,1.088E3,1.016E3,1.372E3,8.22E2,2.66E2,3E2,7.16E2,6.88E2,6.84E2,5.26E2,2.96E2,2.48E2,1.8E1,2.95E2,5E0,5.51E2,1.65E2,2.63E2,4.25E2,1.84E2,5E2,8.7E1,4.39E2,6.5E1,2.31E2,2.11E2,3.7E1,1.5E1,3E0,1.53E2,1.42E2,2E0,3E0,7.2E1,4.79E2,1.04E2,6.1E1,2.43E2,2E1,1.98E2,2.27E2,1.55E2,2.9E1,2.53E2,2.47E2,7E0,8E1,2.43E2,1.96E2,5.7E1,8E0,1.62E2,6.9E1,1.51E2,6E1,2E0,3.5E1,1.2E1,3E0,1.16E2,3.7E1,1.3E1,1.29E2,1E0,1E0,1.5E1,5.7E1,1.93E2,2.86E2,1.03E2,1E0,4.8E1,1.3E1,1.9E1,2.24E2,1.8E1,2E0,2.1E1,1.77E2,2.2E2,7E0,5E0,1.5E2,1.7E1,1.2E1,7E1,1.83E2,7.1E1,1.76E2,3E0,4E0,5.4E1,2.6E1,1.65E2,7.8E1,9.4E1,1.02E2,5.5E1,2E0,3E0,5E0,1.37E2,2.5E1,5.6E1,1.3E1,4.2E1,1.09E2,7E0,5.3E1,7E0,2.8E1,1.1E1,1E0],"tree_param":{"num_deleted":"0","num_feature":"5","num_nodes":"115","size_leaf_vector":"1"}},{"base_weights":[4.5518212E-2,-1.1012985E0,5.42666E0,-2.311319E0,4.882299E-1,4.3177357E0,1.1968136E1,-4.190293E-1,-2.7454863E0,1.8799969E0,-8.9315087E-1,5.6585007E0,1.2042906E0,9.84443E0,2.2490261E1,4.081084E0,-1.1333692E0,-2.8812165E0,2.335586E0,-2.0560877E-1,2.7510653E0,4.2063937E0,-1.1672932E0,1.5682953E1,5.3037066E0,4.7201905E0,-5.981896E-1,1.1975483E1,1.8693415E0,4.3326764E0,4.0028893E1,7.2162676E0,2.072046E0,-2.8877537E0,4.3348707E-2,-4.3185225E0,-2.5366976E0,4.986632E0,-2.5343864E0,1.7350338E0,-1.7983584E0,5.0511622E0,1.262089E0,9.207326E0,2.4378397E0,-2.4281526E-1,-2.5317197E0,6.661526E0,1.9360975E1,-9.782913E-1,5.8655353E0,6.7079496E0,-2.795961E0,4.429874E-1,-3.9893227E0,1.054365E1,7.5991645E0,-3.644114E0,8.527493E0,6.179344E0,-4.5220046E0,5.573456E0,1.5808913E1,3.3734116E-1,3.5488174E0,1.069585E0,-5.760156E-1,-1.1499884E0,-7.349927E-2,-3.434879E-2,3.747421E0,-1.430283E0,-7.4709916E-1,-5.7095397E-1,-9.654785E-1,5.147556E-1,2.9651585E0,-1.0108948E0,4.1191196E-1,7.1799827E-1,-9.929531E-1,2.086177E0,-6.692902E-1,1.0700705E0,3.0456629E0,3.110649E-1,3.8431408E0,3.2316587E0,-2.620139E-1,-8.277441E-1,1.067739E0,-1.1202316E-1,4.5483913E0,-3.692289E-1,-1.3682544E0,5.925064E-2,2.4684472E0,1.4456798E0,6.2249975E0,-5.073037E-1,2.9535925E0,2.2847676E0,1.3210473E0,3.4646103E0,1.023488E0,-2.424282E0,2.93827E0,-5.6304014E-1,1.1833181E0,-1.7058998E0,6.996792E-1,8.097939E-1,3.6059194E0,-1.7170192E0,2.2604153E0,3.043926E0,-4.2074922E-1,1.8221913E-1,-1.7008092E0,3.549284E0,-1.0412288E0],"categories":[],"categories_nodes":[],"categories_segments":[],"categories_sizes":[],"default_left":[0,0,0,0,0,0,0,0,0,0,0,0,0,0,0,0,0,0,0,0,0,0,0,0,0,0,0,0,0,0,0,0,0,0,0,0,0,0,0,0,0,0,0,0,0,0,0,0,0,0,0,0,0,0,0,0,0,0,0,0,0,0,0,0,0,0,0,0,0,0,0,0,0,0,0,0,0,0,0,0,0,0,0,0,0,0,0,0,0,0,0,0,0,0,0,0,0,0,0,0,0,0,0,0,0,0,0,0,0,0,0,0,0,0,0,0,0,0,0,0,0],"id":3,"left_children":[1,3,5,7,9,11,13,15,17,19,21,23,25,27,29,31,33,35,37,39,41,43,45,47,49,51,53,55,57,59,61,63,65,67,69,71,73,75,77,79,81,83,85,87,89,91,93,95,97,99,101,103,105,107,109,111,-1,113,115,-1,117,119,-1,-1,-1,-1,-1,-1,-1,-1,-1,-1,-1,-1,-1,-1,-1,-1,-1,-1,-1,-1,-1,-1,-1,-1,-1,-1,-1,-1,-1,-1,-1,-1,-1,-1,-1,-1,-1,-1,-1,-1,-1,-1,-1,-1,-1,-1,-1,-1,-1,-1,-1,-1,-1,-1,-1,-1,-1,-1,-1],"loss_changes":[2.146318E4,5.515408E3,4.3805215E3,1.3363652E3,2.3856533E3,2.1805703E3,1.7450361E3,9.850814E2,9.19833E2,1.1232896E3,8.758649E2,1.218544E3,1.0104606E3,1.2522637E3,4.284997E3,2.4959308E2,5.45131E2,6.278262E2,4.645063E2,5.687655E2,1.4868337E3,2.6057544E2,7.461235E2,2.691985E2,1.2586787E3,8.255311E2,3.760288E2,8.611338E2,6.551353E2,1.2453242E3,2.761545E3,4.3633362E2,1.6779651E2,2.639372E2,3.1384277E2,1.9173926E2,4.442246E2,3.5144928E2,4.705513E1,2.835655E2,3.9793173E2,1.2584775E3,6.785205E2,1.356081E2,1.5550339E2,7.178051E2,6.2530066E2,4.9008606E1,6.160034E1,2.480747E2,8.007295E2,6.467374E2,8.776137E2,6.734494E2,2.814569E2,6.0439307E2,0E0,2.7556378E2,1.4283777E2,0E0,3.875518E1,2.1084473E2,0E0,0E0,0E0,0E0,0E0,0E0,0E0,0E0,0E0,0E0,0E0,0E0,0E0,0E0,0E0,0E0,0E0,0E0,0E0,0E0,0E0,0E0,0E0,0E0,0E0,0E0,0E0,0E0,0E0,0E0,0E0,0E0,0E0,0E0,0E0,0E0,0E0,0E0,0E0,0E0,0E0,0E0,0E0,0E0,0E0,0E0,0E0,0E0,0E0,0E0,0E0,0E0,0E0,0E0,0E0,0E0,0E0,0E0,0E0],"parents":[2147483647,0,0,1,1,2,2,3,3,4,4,5,5,6,6,7,7,8,8,9,9,10,10,11,11,12,12,13,13,14,14,15,15,16,16,17,17,18,18,19,19,20,20,21,21,22,22,23,23,24,24,25,25,26,26,27,27,28,28,29,29,30,30,31,31,32,32,33,33,34,34,35,35,36,36,37,37,38,38,39,39,40,40,41,41,42,42,43,43,44,44,45,45,46,46,47,47,48,48,49,49,50,50,51,51,52,52,53,53,54,54,55,55,57,57,58,58,60,60,61,61],"right_children":[2,4,6,8,10,12,14,16,18,20,22,24,26,28,30,32,34,36,38,40,42,44,46,48,50,52,54,56,58,60,62,64,66,68,70,72,74,76,78,80,82,84,86,88,90,92,94,96,98,100,102,104,106,108,110,112,-1,114,116,-1,118,120,-1,-1,-1,-1,-1,-1,-1,-1,-1,-1,-1,-1,-1,-1,-1,-1,-1,-1,-1,-1,-1,-1,-1,-1,-1,-1,-1,-1,-1,-1,-1,-1,-1,-1,-1,-1,-1,-1,-1,-1,-1,-1,-1,-1,-1,-1,-1,-1,-1,-1,-1,-1,-1,-1,-1,-1,-1,-1,-1],"split_conditions":[3.1333334E1,1.7666666E1,5.2E1,1.3350371E1,2.1717287E2,2.4204277E2,1.3608169E1,-7.897499E-1,1.9531084E1,8.905462E1,1.0495713E1,8.669949E0,1.4561099E1,1.9602652E1,3E-1,2.4680136E2,1.2E1,9.333333E0,2.0070912E2,1.4773164E1,1E-1,8.14587E0,2.733051E2,7.6367526E0,4.620633E1,1.0285252E1,2.4184391E1,7.4E1,1.9862555E2,1.6720667E1,1.4610249E1,-2.4918332E0,-2.7480834E0,1.0000001E0,1.7000002E1,2.4999998E0,2.3920512E2,2E-1,1E0,8.094425E1,-7.110584E0,2.7333334E1,3.4651752E1,2.8666666E1,1.9333334E1,2.7218826E2,5.797751E0,-1.9168334E0,2.619371E1,1.8670666E1,1E-1,3.7E1,1.87415E1,1.9453327E1,2.6999998E0,1.01376915E1,7.5991645E0,1.2299999E1,6E-1,6.179344E0,5.4666668E1,6.9666664E1,1.5808913E1,3.3734116E-1,3.5488174E0,1.069585E0,-5.760156E-1,-1.1499884E0,-7.349927E-2,-3.434879E-2,3.747421E0,-1.430283E0,-7.4709916E-1,-5.7095397E-1,-9.654785E-1,5.147556E-1,2.9651585E0,-1.0108948E0,4.1191196E-1,7.1799827E-1,-9.929531E-1,2.086177E0,-6.692902E-1,1.0700705E0,3.0456629E0,3.110649E-1,3.8431408E0,3.2316587E0,-2.620139E-1,-8.277441E-1,1.067739E0,-1.1202316E-1,4.5483913E0,-3.692289E-1,-1.3682544E0,5.925064E-2,2.4684472E0,1.4456798E0,6.2249975E0,-5.073037E-1,2.9535925E0,2.2847676E0,1.3210473E0,3.4646103E0,1.023488E0,-2.424282E0,2.93827E0,-5.6304014E-1,1.1833181E0,-1.7058998E0,6.996792E-1,8.097939E-1,3.6059194E0,-1.7170192E0,2.2604153E0,3.043926E0,-4.2074922E-1,1.8221913E-1,-1.7008092E0,3.549284E0,-1.0412288E0],"split_indices":[0,0,0,3,4,4,1,1,1,4,3,3,3,3,2,4,0,0,4,3,2,3,4,3,4,1,3,0,4,1,1,1,1,2,2,2,4,2,2,4,1,0,3,0,0,4,1,1,4,1,2,0,1,3,2,3,0,2,2,0,0,0,0,0,0,0,0,0,0,0,0,0,0,0,0,0,0,0,0,0,0,0,0,0,0,0,0,0,0,0,0,0,0,0,0,0,0,0,0,0,0,0,0,0,0,0,0,0,0,0,0,0,0,0,0,0,0,0,0,0,0],"split_type":[0,0,0,0,0,0,0,0,0,0,0,0,0,0,0,0,0,0,0,0,0,0,0,0,0,0,0,0,0,0,0,0,0,0,0,0,0,0,0,0,0,0,0,0,0,0,0,0,0,0,0,0,0,0,0,0,0,0,0,0,0,0,0,0,0,0,0,0,0,0,0,0,0,0,0,0,0,0,0,0,0,0,0,0,0,0,0,0,0,0,0,0,0,0,0,0,0,0,0,0,0,0,0,0,0,0,0,0,0,0,0,0,0,0,0,0,0,0,0,0,0],"sum_hessian":[3.476E3,2.866E3,6.1E2,1.627E3,1.239E3,5.23E2,8.7E1,3.04E2,1.323E3,6.17E2,6.22E2,3.65E2,1.58E2,7.4E1,1.3E1,4.1E1,2.63E2,1.289E3,3.4E1,1.82E2,4.35E2,3.1E1,5.91E2,1.1E1,3.54E2,5.3E1,1.05E2,5.8E1,1.6E1,7E0,6E0,1.5E1,2.6E1,1.05E2,1.58E2,2.47E2,1.042E3,2.2E1,1.2E1,8.2E1,1E2,1.7E2,2.65E2,7E0,2.4E1,3.53E2,2.38E2,4E0,7E0,2.9E1,3.25E2,4.2E1,1.1E1,8.1E1,2.4E1,5.4E1,4E0,9E0,7E0,2E0,5E0,2E0,4E0,7E0,8E0,1.9E1,7E0,7.7E1,2.8E1,1.57E2,1E0,1.97E2,5E1,5.42E2,5E2,1.4E1,8E0,1E1,2E0,7.3E1,9E0,4E0,9.6E1,1.33E2,3.7E1,2.61E2,4E0,6E0,1E0,4E0,2E1,3.51E2,2E0,1.46E2,9.2E1,1E0,3E0,1E0,6E0,2.8E1,1E0,1.46E2,1.79E2,1.6E1,2.6E1,8E0,3E0,4.9E1,3.2E1,1.9E1,5E0,9E0,4.5E1,8E0,1E0,6E0,1E0,1E0,4E0,1E0,1E0],"tree_param":{"num_deleted":"0","num_feature":"5","num_nodes":"121","size_leaf_vector":"1"}},{"base_weights":[5.4980956E-2,-7.634599E-1,3.8952672E0,-1.9147334E0,1.15147255E-1,3.3187194E0,1.1627103E1,-1.3873997E0,-2.8648515E0,8.4947795E-1,-1.0186557E0,4.7307596E0,1.6524566E0,6.111327E0,2.0208279E1,-1.9352001E-1,-1.9360569E0,-2.2989507E0,-4.107923E0,-5.8866292E-2,2.0780456E0,-1.9204271E-1,-2.0807579E0,8.665855E-1,5.287771E0,7.110699E0,2.4103971E-1,8.110844E0,-4.308717E0,1.2202912E1,1.2352097E1,2.9707694E0,-6.4876205E-1,-2.1081002E0,5.3063536E0,-4.0438824E0,-1.432266E0,-2.5923228E0,-5.155384E0,1.987433E0,-4.5770687E-1,2.892283E0,-8.160182E-1,5.479735E-1,-2.4264023E0,-1.2444907E0,-4.9414797E0,-3.269863E0,2.9793148E0,4.0423923E0,7.419582E0,1.0439954E1,9.289687E-1,-6.7763095E0,7.7685195E-1,4.861412E0,1.484363E1,-1.5230653E0,-1.8540688E-1,-1.986618E0,1.49634285E1,2.0293334E0,4.2730778E-1,-3.0039772E-1,4.427629E-1,-4.774499E-1,-9.690686E-1,5.81431E-1,4.7663465E0,-5.023754E-1,-1.6162403E0,-1.352078E0,-3.1766662E-1,-9.059568E-1,1.1803011E0,-1.8934382E0,-1.1705291E0,3.9404964E-1,3.0238662E0,-3.356638E-2,-7.943837E-1,1.0838643E0,-9.631114E-2,1.2603217E-1,-1.316215E0,5.813098E-1,-4.9400094E-1,-1.9534724E0,-2.7805266E-1,-4.5099398E-1,2.031575E0,-1.5566009E0,5.223513E-4,-1.2916281E0,5.887045E-1,1.8845832E0,-2.4475442E-2,6.7920065E-1,2.1024153E0,3.7642014E0,1.3114994E0,2.6974401E0,8.953282E0,-2.4246466E0,1.1060654E0,-8.256069E-2,-3.7291136E0,3.6881474E-1,-1.7063859E0,-1.0670981E0,3.332999E0,-8.25882E-3,6.23928E0,-1.0644184E0,1.704403E-1,5.8349605E0,6.749076E-1],"categories":[],"categories_nodes":[],"categories_segments":[],"categories_sizes":[],"default_left":[0,0,0,0,0,0,0,0,0,0,0,0,0,0,0,0,0,0,0,0,0,0,0,0,0,0,0,0,0,0,0,0,0,0,0,0,0,0,0,0,0,0,0,0,0,0,0,0,0,0,0,0,0,0,0,0,0,0,0,0,0,0,0,0,0,0,0,0,0,0,0,0,0,0,0,0,0,0,0,0,0,0,0,0,0,0,0,0,0,0,0,0,0,0,0,0,0,0,0,0,0,0,0,0,0,0,0,0,0,0,0,0,0,0,0,0,0],"id":4,"left_children":[1,3,5,7,9,11,13,15,17,19,21,23,25,27,29,31,33,35,37,39,41,43,45,47,49,51,53,55,57,59,-1,61,63,65,67,69,71,73,75,77,79,81,83,85,87,89,91,93,95,97,99,101,103,105,107,109,111,-1,-1,113,115,-1,-1,-1,-1,-1,-1,-1,-1,-1,-1,-1,-1,-1,-1,-1,-1,-1,-1,-1,-1,-1,-1,-1,-1,-1,-1,-1,-1,-1,-1,-1,-1,-1,-1,-1,-1,-1,-1,-1,-1,-1,-1,-1,-1,-1,-1,-1,-1,-1,-1,-1,-1,-1,-1,-1,-1],"loss_changes":[1.0931349E4,2.9002402E3,2.6851123E3,6.1780225E2,1.355483E3,1.3332954E3,1.864438E3,5.2365E2,3.014834E2,1.102693E3,5.614868E2,6.58354E2,2.0244001E3,5.9749384E2,2.1829302E3,3.663783E2,6.9399927E2,4.5697363E2,2.0412744E2,4.652974E2,9.920714E2,5.982295E2,6.6370215E2,3.5930975E2,6.841782E2,1.1016519E3,7.948602E2,4.3102673E2,1.1037727E1,5.3894226E2,0E0,1.7809549E2,1.6777145E2,3.0557397E2,4.3254114E2,3.1249683E2,2.3171744E2,1.737222E2,9.1316895E1,4.9394135E2,3.6099597E2,7.606477E2,4.1240616E2,8.3277783E2,5.453014E2,4.624924E2,7.6989624E1,8.4304825E1,2.7345596E2,8.912783E2,1.4767871E3,7.153982E2,5.2683636E2,5.479447E2,5.803948E2,9.337711E2,6.203695E2,0E0,0E0,1.3983079E1,5.83677E2,0E0,0E0,0E0,0E0,0E0,0E0,0E0,0E0,0E0,0E0,0E0,0E0,0E0,0E0,0E0,0E0,0E0,0E0,0E0,0E0,0E0,0E0,0E0,0E0,0E0,0E0,0E0,0E0,0E0,0E0,0E0,0E0,0E0,0E0,0E0,0E0,0E0,0E0,0E0,0E0,0E0,0E0,0E0,0E0,0E0,0E0,0E0,0E0,0E0,0E0,0E0,0E0,0E0,0E0,0E0,0E0],"parents":[2147483647,0,0,1,1,2,2,3,3,4,4,5,5,6,6,7,7,8,8,9,9,10,10,11,11,12,12,13,13,14,14,15,15,16,16,17,17,18,18,19,19,20,20,21,21,22,22,23,23,24,24,25,25,26,26,27,27,28,28,29,29,31,31,32,32,33,33,34,34,35,35,36,36,37,37,38,38,39,39,40,40,41,41,42,42,43,43,44,44,45,45,46,46,47,47,48,48,49,49,50,50,51,51,52,52,53,53,54,54,55,55,56,56,59,59,60,60],"right_children":[2,4,6,8,10,12,14,16,18,20,22,24,26,28,30,32,34,36,38,40,42,44,46,48,50,52,54,56,58,60,-1,62,64,66,68,70,72,74,76,78,80,82,84,86,88,90,92,94,96,98,100,102,104,106,108,110,112,-1,-1,114,116,-1,-1,-1,-1,-1,-1,-1,-1,-1,-1,-1,-1,-1,-1,-1,-1,-1,-1,-1,-1,-1,-1,-1,-1,-1,-1,-1,-1,-1,-1,-1,-1,-1,-1,-1,-1,-1,-1,-1,-1,-1,-1,-1,-1,-1,-1,-1,-1,-1,-1,-1,-1,-1,-1,-1,-1],"split_conditions":[3.1333334E1,1.5333333E1,5.8E1,1.9242327E1,1.8359999E1,2.0624757E2,3E-1,4.9081664E0,2.7218826E2,2.2333334E1,1.0000001E0,4.620633E1,1.3089354E1,1.6720667E1,1.4610249E1,1.2224107E1,1.1400001E1,4.139417E0,3.3165E0,1.1442394E1,2.733051E2,1.2218582E1,2.5074368E2,3.5333332E1,4.2E1,5.1164994E0,2.127038E2,6.9666664E1,9.0666664E1,4.7790008E0,1.2352097E1,-2.046E0,1.8218275E1,2.5372432E2,1.64165E1,7.0000005E-1,5.1013073E1,2.983167E0,2E-1,4.2000003E0,2.1E1,1.9000001E0,1.6575644E1,2.6833548E2,1.37456665E1,3.4651752E1,1.3837331E1,1.169775E1,4.0399995E-1,1.7782688E1,1E-1,4.84775E0,6.2852497E0,3.7E1,6.899999E0,4.139417E0,9.7307724E1,-1.5230653E0,-1.8540688E-1,6.4666664E1,1.2716498E1,2.0293334E0,4.2730778E-1,-3.0039772E-1,4.427629E-1,-4.774499E-1,-9.690686E-1,5.81431E-1,4.7663465E0,-5.023754E-1,-1.6162403E0,-1.352078E0,-3.1766662E-1,-9.059568E-1,1.1803011E0,-1.8934382E0,-1.1705291E0,3.9404964E-1,3.0238662E0,-3.356638E-2,-7.943837E-1,1.0838643E0,-9.631114E-2,1.2603217E-1,-1.316215E0,5.813098E-1,-4.9400094E-1,-1.9534724E0,-2.7805266E-1,-4.5099398E-1,2.031575E0,-1.5566009E0,5.223513E-4,-1.2916281E0,5.887045E-1,1.8845832E0,-2.4475442E-2,6.7920065E-1,2.1024153E0,3.7642014E0,1.3114994E0,2.6974401E0,8.953282E0,-2.4246466E0,1.1060654E0,-8.256069E-2,-3.7291136E0,3.6881474E-1,-1.7063859E0,-1.0670981E0,3.332999E0,-8.25882E-3,6.23928E0,-1.0644184E0,1.704403E-1,5.8349605E0,6.749076E-1],"split_indices":[0,0,0,3,3,4,2,1,4,0,2,4,3,1,1,3,2,1,1,3,4,1,4,0,0,1,4,0,0,1,0,1,3,4,1,2,4,1,2,2,0,2,3,4,1,3,1,1,1,3,2,1,1,0,2,1,4,0,0,0,1,0,0,0,0,0,0,0,0,0,0,0,0,0,0,0,0,0,0,0,0,0,0,0,0,0,0,0,0,0,0,0,0,0,0,0,0,0,0,0,0,0,0,0,0,0,0,0,0,0,0,0,0,0,0,0,0],"split_type":[0,0,0,0,0,0,0,0,0,0,0,0,0,0,0,0,0,0,0,0,0,0,0,0,0,0,0,0,0,0,0,0,0,0,0,0,0,0,0,0,0,0,0,0,0,0,0,0,0,0,0,0,0,0,0,0,0,0,0,0,0,0,0,0,0,0,0,0,0,0,0,0,0,0,0,0,0,0,0,0,0,0,0,0,0,0,0,0,0,0,0,0,0,0,0,0,0,0,0,0,0,0,0,0,0,0,0,0,0,0,0,0,0,0,0,0,0],"sum_hessian":[3.476E3,2.866E3,6.1E2,1.24E3,1.626E3,5.69E2,4.1E1,7.99E2,4.41E2,9.87E2,6.39E2,3.07E2,2.62E2,2.6E1,1.5E1,2.52E2,5.47E2,3.05E2,1.36E2,5.68E2,4.19E2,3.6E2,2.79E2,3.9E1,2.68E2,5.3E1,2.09E2,2.2E1,4E0,1.2E1,3E0,3.1E1,2.21E2,5.35E2,1.2E1,1E2,2.05E2,5.7E1,7.9E1,9.2E1,4.76E2,3.27E2,9.2E1,2.71E2,8.9E1,2.17E2,6.2E1,1.3E1,2.6E1,1.71E2,9.7E1,3.4E1,1.9E1,1.4E1,1.95E2,1.6E1,6E0,3E0,1E0,2E0,1E1,8E0,2.3E1,1.9E2,3.1E1,3.68E2,1.67E2,1E1,2E0,3.7E1,6.3E1,2.1E1,1.84E2,5.4E1,3E0,3.9E1,4E1,8.6E1,6E0,4.12E2,6.4E1,2.67E2,6E1,6.9E1,2.3E1,1.66E2,1.05E2,2.3E1,6.6E1,2.11E2,6E0,5.9E1,3E0,1.1E1,2E0,1.2E1,1.4E1,1.08E2,6.3E1,3.5E1,6.2E1,3.3E1,1E0,4E0,1.5E1,7E0,7E0,1.83E2,1.2E1,7E0,9E0,2E0,4E0,1E0,1E0,7E0,3E0],"tree_param":{"num_deleted":"0","num_feature":"5","num_nodes":"117","size_leaf_vector":"1"}},{"base_weights":[4.974449E-2,-4.3277526E-1,3.4162016E0,-1.0860856E0,5.87699E-1,4.0480256E0,-2.0285687E0,-4.587995E-1,-1.5804551E0,3.2976367E0,3.3013797E-1,3.042452E0,7.632297E0,4.3487465E-1,-7.148677E0,-1.5588363E0,7.6716626E-1,-5.870179E-1,-2.077043E0,4.7734056E0,5.3617316E-1,2.0816946E-1,6.50577E0,3.716027E0,-8.6013556E-1,5.9715633E0,1.4984283E1,3.1775248E0,-1.3943843E0,-2.7656498E0,4.2048893E0,-1.7717898E0,2.490378E0,1.5242658E0,-5.848691E-1,2.529061E-1,-1.845702E0,4.7534394E0,-2.1843238E0,7.3011625E-1,6.603383E0,-8.099171E0,1.5363262E0,6.480273E-1,-1.0909967E0,1.7650305E0,2.6212656E1,4.874289E0,1.4098059E0,-1.7321866E0,6.6371202E0,7.802554E0,-1.3843052E0,5.5581455E0,2.4962992E1,-5.540367E0,2.5681589E0,1.3642187E-1,1.7557784E0,-6.1109006E-1,3.9822572E-1,1.8100981E-1,1.5447065E0,3.5762924E-1,3.07489E0,-1.2161803E-2,-1.214777E0,-4.991587E-2,1.5963057E0,-2.5662434E-1,-1.1487628E0,-7.722616E-2,1.999407E0,-7.5465155E-1,-3.449395E-2,-1.2183105E0,7.134488E-1,1.2201715E0,3.818528E0,-3.9671633E-1,-2.9751906E0,1.8791497E0,-2.0833832E-1,-4.7313055E-1,3.4863102E-1,-1.6691715E-1,-1.1046605E0,-3.350857E-1,1.9360276E0,1.0603036E1,3.416372E0,1.7548023E0,5.633461E-2,1.9259526E0,-6.3431E-1,-3.1525087E-2,-2.955807E0,2.8588028E0,4.5975742E-1,1.4188037E0,3.2449846E0,-2.1401317E0,9.7239435E-1,5.818675E0,-3.498614E-1,-9.862805E-1,9.065807E0,1.4316354E0,-2.2970374E0,-1.0558019E0,1.7891526E0],"categories":[],"categories_nodes":[],"categories_segments":[],"categories_sizes":[],"default_left":[0,0,0,0,0,0,0,0,0,0,0,0,0,0,0,0,0,0,0,0,0,0,0,0,0,0,0,0,0,0,0,0,0,0,0,0,0,0,0,0,0,0,0,0,0,0,0,0,0,0,0,0,0,0,0,0,0,0,0,0,0,0,0,0,0,0,0,0,0,0,0,0,0,0,0,0,0,0,0,0,0,0,0,0,0,0,0,0,0,0,0,0,0,0,0,0,0,0,0,0,0,0,0,0,0,0,0,0,0,0,0],"id":5,"left_children":[1,3,5,7,9,11,13,15,17,19,21,23,25,27,29,31,33,35,37,39,41,43,45,47,49,51,53,-1,55,-1,57,59,61,63,65,67,69,71,73,75,77,79,81,83,85,87,89,91,93,95,97,99,101,103,105,107,109,-1,-1,-1,-1,-1,-1,-1,-1,-1,-1,-1,-1,-1,-1,-1,-1,-1,-1,-1,-1,-1,-1,-1,-1,-1,-1,-1,-1,-1,-1,-1,-1,-1,-1,-1,-1,-1,-1,-1,-1,-1,-1,-1,-1,-1,-1,-1,-1,-1,-1,-1,-1,-1,-1],"loss_changes":[5.6494546E3,2.0286984E3,1.5081118E3,5.7453076E2,8.2810486E2,1.3860405E3,5.833112E2,1.1057056E3,5.103628E2,4.171947E2,8.1665625E2,8.102024E2,9.4834424E2,6.093147E2,3.9131885E2,3.7692346E2,3.980581E2,3.673149E2,5.1673413E2,4.909203E2,3.3199954E2,6.098711E2,1.9156633E3,6.929844E2,3.1224426E2,9.6706665E2,1.2721626E3,0E0,4.7423035E2,0E0,1.5876011E1,3.4047974E2,1.0726485E2,7.094559E2,2.638435E2,4.4501468E2,2.6975412E2,1.0706273E2,4.664192E2,1.8337064E2,6.627947E2,3.61698E1,3.6291602E2,9.1350977E2,3.7197528E2,2.5042188E2,1.3895923E2,7.9401025E2,1.5849784E3,5.539062E2,5.9214172E1,4.7682642E2,4.2204553E2,8.600492E2,1.1388174E3,3.4209738E2,3.3105698E2,0E0,0E0,0E0,0E0,0E0,0E0,0E0,0E0,0E0,0E0,0E0,0E0,0E0,0E0,0E0,0E0,0E0,0E0,0E0,0E0,0E0,0E0,0E0,0E0,0E0,0E0,0E0,0E0,0E0,0E0,0E0,0E0,0E0,0E0,0E0,0E0,0E0,0E0,0E0,0E0,0E0,0E0,0E0,0E0,0E0,0E0,0E0,0E0,0E0,0E0,0E0,0E0,0E0,0E0],"parents":[2147483647,0,0,1,1,2,2,3,3,4,4,5,5,6,6,7,7,8,8,9,9,10,10,11,11,12,12,13,13,14,14,15,15,16,16,17,17,18,18,19,19,20,20,21,21,22,22,23,23,24,24,25,25,26,26,28,28,30,30,31,31,32,32,33,33,34,34,35,35,36,36,37,37,38,38,39,39,40,40,41,41,42,42,43,43,44,44,45,45,46,46,47,47,48,48,49,49,50,50,51,51,52,52,53,53,54,54,55,55,56,56],"right_children":[2,4,6,8,10,12,14,16,18,20,22,24,26,28,30,32,34,36,38,40,42,44,46,48,50,52,54,-1,56,-1,58,60,62,64,66,68,70,72,74,76,78,80,82,84,86,88,90,92,94,96,98,100,102,104,106,108,110,-1,-1,-1,-1,-1,-1,-1,-1,-1,-1,-1,-1,-1,-1,-1,-1,-1,-1,-1,-1,-1,-1,-1,-1,-1,-1,-1,-1,-1,-1,-1,-1,-1,-1,-1,-1,-1,-1,-1,-1,-1,-1,-1,-1,-1,-1,-1,-1,-1,-1,-1,-1,-1,-1],"split_conditions":[3.5333332E1,1.9333334E1,3.0254428E2,2.1771873E2,1.0799999E1,5.1E1,4.7790008E0,1.4568015E2,2.983167E0,1.2218582E1,2.1989418E1,2.1461555E1,1.3608169E1,1.1841756E1,1.87415E1,1.8670666E1,2.0070912E2,1.8998314E1,9.9571085E0,7.299494E1,1.2595665E1,2.609098E2,1.787718E1,1.1362334E1,3.00767E1,1.9171478E1,3E-1,3.1775248E0,4.0399995E-1,-2.7656498E0,3.6666668E1,1.8333334E1,1.07975494E2,1.9979892E2,2.5338476E1,1.8165002E0,8.000001E-1,6.8060837E0,1.7126917E1,2.1E1,5.649833E0,2.1E1,9.178235E0,9.192192E1,2.3740902E1,1.4799459E1,2.2697752E1,1.8E0,1.4175499E2,2.6925497E1,4.0666668E1,1.4118243E1,5.5666668E1,5.2666668E1,1.4070664E1,3.7E1,3.9333332E1,1.3642187E-1,1.7557784E0,-6.1109006E-1,3.9822572E-1,1.8100981E-1,1.5447065E0,3.5762924E-1,3.07489E0,-1.2161803E-2,-1.214777E0,-4.991587E-2,1.5963057E0,-2.5662434E-1,-1.1487628E0,-7.722616E-2,1.999407E0,-7.5465155E-1,-3.449395E-2,-1.2183105E0,7.134488E-1,1.2201715E0,3.818528E0,-3.9671633E-1,-2.9751906E0,1.8791497E0,-2.0833832E-1,-4.7313055E-1,3.4863102E-1,-1.6691715E-1,-1.1046605E0,-3.350857E-1,1.9360276E0,1.0603036E1,3.416372E0,1.7548023E0,5.633461E-2,1.9259526E0,-6.3431E-1,-3.1525087E-2,-2.955807E0,2.8588028E0,4.5975742E-1,1.4188037E0,3.2449846E0,-2.1401317E0,9.7239435E-1,5.818675E0,-3.498614E-1,-9.862805E-1,9.065807E0,1.4316354E0,-2.2970374E0,-1.0558019E0,1.7891526E0],"split_indices":[0,0,4,4,3,0,1,4,1,1,1,3,1,3,1,1,4,3,3,4,1,4,3,1,3,3,2,0,1,0,0,0,4,4,3,1,2,1,1,0,1,0,3,4,3,3,1,2,4,3,0,3,0,0,1,0,0,0,0,0,0,0,0,0,0,0,0,0,0,0,0,0,0,0,0,0,0,0,0,0,0,0,0,0,0,0,0,0,0,0,0,0,0,0,0,0,0,0,0,0,0,0,0,0,0,0,0,0,0,0,0],"split_type":[0,0,0,0,0,0,0,0,0,0,0,0,0,0,0,0,0,0,0,0,0,0,0,0,0,0,0,0,0,0,0,0,0,0,0,0,0,0,0,0,0,0,0,0,0,0,0,0,0,0,0,0,0,0,0,0,0,0,0,0,0,0,0,0,0,0,0,0,0,0,0,0,0,0,0,0,0,0,0,0,0,0,0,0,0,0,0,0,0,0,0,0,0,0,0,0,0,0,0,0,0,0,0,0,0,0,0,0,0,0,0],"sum_hessian":[3.476E3,3.041E3,4.35E2,1.854E3,1.187E3,3.9E2,4.5E1,8.18E2,1.036E3,1.02E2,1.085E3,3.06E2,8.4E1,3.1E1,1.4E1,4.31E2,3.87E2,3.46E2,6.9E2,6.6E1,3.6E1,1.065E3,2E1,2.61E2,4.5E1,7E1,1.4E1,4E0,2.7E1,1.2E1,2E0,4.1E2,2.1E1,2.48E2,1.39E2,2.08E2,1.38E2,1E1,6.8E2,2.1E1,4.5E1,3E0,3.3E1,7.96E2,2.69E2,1.7E1,3E0,1.73E2,8.8E1,4.1E1,4E0,5.6E1,1.4E1,8E0,6E0,1.3E1,1.4E1,1E0,1E0,3.78E2,3.2E1,1.3E1,8E0,2.4E2,8E0,1.21E2,1.8E1,1.93E2,1.5E1,9.3E1,4.5E1,3E0,7E0,5.86E2,9.4E1,5E0,1.6E1,3.3E1,1.2E1,1E0,2E0,1E1,2.3E1,1.49E2,6.47E2,2.24E2,4.5E1,1.1E1,6E0,1E0,2E0,1.43E2,3E1,3.6E1,5.2E1,3.5E1,6E0,2E0,2E0,2.9E1,2.7E1,6E0,8E0,2E0,6E0,1E0,5E0,2E0,1.1E1,5E0,9E0],"tree_param":{"num_deleted":"0","num_feature":"5","num_nodes":"111","size_leaf_vector":"1"}},{"base_weights":[4.767699E-2,-3.7749693E-1,2.042646E0,-1.1964751E0,-3.3786246E-3,1.5186131E0,4.8380437E0,-4.809866E0,-1.1380283E0,-7.160472E-2,5.3047466E0,1.2012763E0,5.1657767E0,2.4671984E0,8.72092E0,-1.5777439E0,1.5461655E-1,-7.6424295E-1,-1.5584967E0,5.800703E-1,-5.897526E-1,2.0547194E0,2.185371E1,6.8124304E0,9.912962E-1,6.9649773E0,1.5828305E0,3.9426887E0,-3.284049E0,-2.4878004E0,9.443955E0,-9.13944E-1,4.5801444E0,-2.0081086E0,-3.923252E-1,5.1840878E0,4.9241468E-1,-3.8355622E0,-4.5524246E-1,2.3421555E0,7.35531E-1,9.01258E0,2.7330978E0,7.5615585E-1,1.00471115E1,1.1997417E0,-3.6544924E0,8.273085E0,-4.4531098E-1,-2.0015235E0,9.151843E0,6.2618413E0,-2.3024673E0,-6.9077783E0,3.8954735E0,1.4717494E1,6.413688E0,1.0330046E0,-3.1460124E-1,2.3709996E0,-6.952865E-1,-6.388633E-1,5.179429E-1,-2.567921E-1,1.8095645E0,2.1973305E0,1.1883106E-1,1.2390213E-1,1.6664842E0,-1.3563495E0,1.1938062E0,-8.860291E-2,-1.0669552E0,9.7374874E-1,-4.1556475E-1,-1.671967E0,1.3207657E0,5.685139E-1,3.4944365E0,5.567519E-1,-2.8323382E-1,8.81295E-1,-3.16212E0,-3.9307368E-1,2.630474E0,-9.80983E-1,7.5832754E-1,-1.3978975E0,6.360508E-1,7.623039E-1,3.0507896E0,-4.1656873E-1,2.7773132E0,-2.8408067E0,1.5389672E-1,-3.6653287E0,-6.6494775E-1,-7.0967525E-1,2.657412E0,4.9439564E0,1.1811376E0,-1.7682632E0,2.535791E0],"categories":[],"categories_nodes":[],"categories_segments":[],"categories_sizes":[],"default_left":[0,0,0,0,0,0,0,0,0,0,0,0,0,0,0,0,0,0,0,0,0,0,0,0,0,0,0,0,0,0,0,0,0,0,0,0,0,0,0,0,0,0,0,0,0,0,0,0,0,0,0,0,0,0,0,0,0,0,0,0,0,0,0,0,0,0,0,0,0,0,0,0,0,0,0,0,0,0,0,0,0,0,0,0,0,0,0,0,0,0,0,0,0,0,0,0,0,0,0,0,0,0,0],"id":6,"left_children":[1,3,5,7,9,11,13,15,17,19,21,23,25,27,29,-1,-1,31,33,35,37,39,41,43,45,47,49,51,53,-1,55,57,59,61,63,65,67,69,71,-1,73,-1,-1,75,77,79,81,83,85,87,89,91,93,95,97,99,101,-1,-1,-1,-1,-1,-1,-1,-1,-1,-1,-1,-1,-1,-1,-1,-1,-1,-1,-1,-1,-1,-1,-1,-1,-1,-1,-1,-1,-1,-1,-1,-1,-1,-1,-1,-1,-1,-1,-1,-1,-1,-1,-1,-1,-1,-1],"loss_changes":[2.949993E3,8.7842975E2,8.876946E2,1.8438733E2,7.1345844E2,5.910022E2,8.622307E2,3.6205933E1,1.38057E2,6.570987E2,1.2997114E3,5.5408496E2,2.5327966E2,5.3058844E2,5.21167E2,0E0,0E0,3.810145E2,2.1733124E2,3.4532312E2,4.7152213E2,1.6120647E2,1.4369092E2,3.254347E2,4.4984555E2,2.654071E2,4.252679E2,7.241077E2,3.6512546E2,0E0,4.6491455E2,2.7306415E2,3.1631036E2,1.397301E2,3.536562E2,1.6106595E2,3.382027E2,2.4838214E2,5.156691E2,0E0,1.0564659E2,0E0,0E0,1.8609236E2,1.21493164E2,6.220532E2,9.388216E2,1.20630615E2,5.0254765E1,1.3039542E2,7.7907715E0,8.379608E2,2.8735052E2,1.971153E2,1.76309E2,1.6310376E2,6.5210547E2,0E0,0E0,0E0,0E0,0E0,0E0,0E0,0E0,0E0,0E0,0E0,0E0,0E0,0E0,0E0,0E0,0E0,0E0,0E0,0E0,0E0,0E0,0E0,0E0,0E0,0E0,0E0,0E0,0E0,0E0,0E0,0E0,0E0,0E0,0E0,0E0,0E0,0E0,0E0,0E0,0E0,0E0,0E0,0E0,0E0,0E0],"parents":[2147483647,0,0,1,1,2,2,3,3,4,4,5,5,6,6,7,7,8,8,9,9,10,10,11,11,12,12,13,13,14,14,17,17,18,18,19,19,20,20,21,21,22,22,23,23,24,24,25,25,26,26,27,27,28,28,30,30,31,31,32,32,33,33,34,34,35,35,36,36,37,37,38,38,40,40,43,43,44,44,45,45,46,46,47,47,48,48,49,49,50,50,51,51,52,52,53,53,54,54,55,55,56,56],"right_children":[2,4,6,8,10,12,14,16,18,20,22,24,26,28,30,-1,-1,32,34,36,38,40,42,44,46,48,50,52,54,-1,56,58,60,62,64,66,68,70,72,-1,74,-1,-1,76,78,80,82,84,86,88,90,92,94,96,98,100,102,-1,-1,-1,-1,-1,-1,-1,-1,-1,-1,-1,-1,-1,-1,-1,-1,-1,-1,-1,-1,-1,-1,-1,-1,-1,-1,-1,-1,-1,-1,-1,-1,-1,-1,-1,-1,-1,-1,-1,-1,-1,-1,-1,-1,-1,-1],"split_conditions":[3.1333334E1,1.3333333E1,5.1E1,5.3333335E0,2.1989418E1,1.9318586E1,7.6977496E0,7E-1,8.970668E0,1.6394829E1,1.787718E1,9E0,1.9001399E2,4.962333E0,2.3090322E0,-1.5777439E0,1.5461655E-1,8.733168E0,1.6637335E1,7.6367526E0,1.6700275E1,6.2110134E1,2.2697752E1,7.6367526E0,4.8666668E1,4.6333332E1,4.2666668E1,1.8792551E1,2.1E0,-2.4878004E0,1.5540018E2,1.0636766E1,2.0431387E1,1.35E1,4.5E0,2.7666666E1,1.19E1,3.0780145E2,3.05173E1,2.3421555E0,1.9666666E1,9.01258E0,2.7330978E0,-1.8085002E0,3.3E1,1.8E0,1.6581235E2,4.8155895E1,4.8333332E1,4E-1,2.1389418E1,8.094425E1,1.9839235E1,5.5333332E1,6.2852497E0,7.9E1,1.7071652E2,1.0330046E0,-3.1460124E-1,2.3709996E0,-6.952865E-1,-6.388633E-1,5.179429E-1,-2.567921E-1,1.8095645E0,2.1973305E0,1.1883106E-1,1.2390213E-1,1.6664842E0,-1.3563495E0,1.1938062E0,-8.860291E-2,-1.0669552E0,9.7374874E-1,-4.1556475E-1,-1.671967E0,1.3207657E0,5.685139E-1,3.4944365E0,5.567519E-1,-2.8323382E-1,8.81295E-1,-3.16212E0,-3.9307368E-1,2.630474E0,-9.80983E-1,7.5832754E-1,-1.3978975E0,6.360508E-1,7.623039E-1,3.0507896E0,-4.1656873E-1,2.7773132E0,-2.8408067E0,1.5389672E-1,-3.6653287E0,-6.6494775E-1,-7.0967525E-1,2.657412E0,4.9439564E0,1.1811376E0,-1.7682632E0,2.535791E0],"split_indices":[0,0,0,0,1,1,1,2,1,3,3,3,4,1,4,0,0,1,1,3,3,4,1,3,0,0,0,3,2,0,4,3,3,2,2,0,2,4,3,0,0,0,0,1,0,2,4,4,0,2,1,4,3,0,1,0,4,0,0,0,0,0,0,0,0,0,0,0,0,0,0,0,0,0,0,0,0,0,0,0,0,0,0,0,0,0,0,0,0,0,0,0,0,0,0,0,0,0,0,0,0,0,0],"split_type":[0,0,0,0,0,0,0,0,0,0,0,0,0,0,0,0,0,0,0,0,0,0,0,0,0,0,0,0,0,0,0,0,0,0,0,0,0,0,0,0,0,0,0,0,0,0,0,0,0,0,0,0,0,0,0,0,0,0,0,0,0,0,0,0,0,0,0,0,0,0,0,0,0,0,0,0,0,0,0,0,0,0,0,0,0,0,0,0,0,0,0,0,0,0,0,0,0,0,0,0,0,0,0],"sum_hessian":[3.476E3,2.866E3,6.1E2,8.98E2,1.968E3,5.15E2,9.5E1,1.3E1,8.85E2,1.944E3,2.4E1,4.75E2,4E1,6E1,3.5E1,1.2E1,1E0,4.7E2,4.15E2,8.61E2,1.083E3,2.1E1,3E0,1.6E1,4.59E2,2.6E1,1.4E1,4.8E1,1.2E1,1E0,3.4E1,4.58E2,1.2E1,2.99E2,1.16E2,1.5E1,8.46E2,4.2E1,1.041E3,3E0,1.8E1,1E0,2E0,6E0,1E1,4.4E2,1.9E1,2.2E1,4E0,1E1,4E0,3.5E1,1.3E1,8E0,4E0,1.1E1,2.3E1,1.3E1,4.45E2,8E0,4E0,2.9E2,9E0,1.09E2,7E0,1E1,5E0,8.34E2,1.2E1,3.9E1,3E0,9.91E2,5E1,8E0,1E1,2E0,4E0,2E0,8E0,3.37E2,1.03E2,1E1,9E0,1E0,2.1E1,2E0,2E0,6E0,4E0,1E0,3E0,1E1,2.5E1,3E0,1E1,3E0,5E0,2E0,2E0,9E0,2E0,3E0,2E1],"tree_param":{"num_deleted":"0","num_feature":"5","num_nodes":"103","size_leaf_vector":"1"}},{"base_weights":[4.151428E-2,-4.7784004E-1,9.489158E-1,-3.9364908E-2,-8.633816E-1,1.7565732E0,2.8494838E-1,-1.5746678E0,3.2074705E-1,4.5592337E0,-9.137547E-1,2.8560942E-1,3.1610706E0,2.059959E-1,1.115498E1,-1.9712426E-1,-2.7554164E0,3.814524E-1,-4.7559443E0,6.0730367E0,-1.5019194E0,-4.853627E-1,-1.3247713E0,1.4948016E0,-2.5060058E0,5.555927E0,6.6110814E-1,1.05361916E-1,8.797031E0,5.323561E0,8.4642917E-1,4.3029466E0,-6.76928E-1,-3.7392094E0,-7.386184E-1,2.4580964E-1,2.4952762E0,-2.148153E0,-9.7792184E-1,9.681289E-1,2.5392406E0,-8.813885E-1,2.0552474E-1,2.2501656E-1,-1.2833995E0,3.477309E0,-1.4044573E0,6.2320805E-1,5.223455E0,-3.6074398E0,2.4693933E0,7.9886885E0,7.245669E-1,6.3870254E0,-2.6032743E-1,7.5774086E-1,-1.447369E0,2.7578523E0,7.6606936E0,-4.854853E-1,8.663784E-1,3.476367E-1,3.0614998E0,-7.8851956E-1,3.0588243E-2,-8.237116E-1,-1.6059396E0,-7.9170066E-1,1.1461035E0,2.399898E-1,-1.6958588E-1,1.6970496E-1,1.9680918E0,4.6574035E-1,7.6758005E-2,1.2229991E0,-2.2559956E-2,-1.3217533E-1,-5.1282257E-1,-9.265409E-1,1.365001E0,-5.0535464E-1,-2.7089586E-2,7.921638E-2,2.9392414E0,2.1675174E0,-8.8064677E-1,-1.9006838E0,-3.429914E-1,-2.6814845E-1,3.014174E0,2.032763E0,5.80918E0,-1.6793717E0,1.0543284E0,2.5142318E-1,4.3817067E0,-1.3319324E0,1.4527512E-1,6.1967206E-1,-6.9185264E-2,-7.40933E-1,5.448947E-1,-3.8528118E-1,2.5726318E0],"categories":[],"categories_nodes":[],"categories_segments":[],"categories_sizes":[],"default_left":[0,0,0,0,0,0,0,0,0,0,0,0,0,0,0,0,0,0,0,0,0,0,0,0,0,0,0,0,0,0,0,0,0,0,0,0,0,0,0,0,0,0,0,0,0,0,0,0,0,0,0,0,0,0,0,0,0,0,0,0,0,0,0,0,0,0,0,0,0,0,0,0,0,0,0,0,0,0,0,0,0,0,0,0,0,0,0,0,0,0,0,0,0,0,0,0,0,0,0,0,0,0,0,0,0],"id":7,"left_children":[1,3,5,7,9,11,13,15,17,19,21,23,25,27,29,31,33,35,37,39,41,43,45,47,49,51,53,55,57,-1,59,61,63,65,67,69,71,-1,-1,73,-1,-1,-1,75,77,79,81,83,85,87,89,91,93,95,97,99,101,103,-1,-1,-1,-1,-1,-1,-1,-1,-1,-1,-1,-1,-1,-1,-1,-1,-1,-1,-1,-1,-1,-1,-1,-1,-1,-1,-1,-1,-1,-1,-1,-1,-1,-1,-1,-1,-1,-1,-1,-1,-1,-1,-1,-1,-1,-1,-1],"loss_changes":[1.6390344E3,3.7390552E2,6.7840234E2,5.732897E2,3.256681E2,1.1787632E3,5.9502026E2,3.198838E2,2.606874E2,1.1005049E2,2.0483789E2,9.489138E2,1.7445449E3,5.9734186E2,3.2465826E2,2.0155467E2,2.0755396E2,2.3765503E2,1.26358185E1,1.0166266E2,1.1434626E1,3.2512753E2,2.3256567E2,6.337193E2,4.7471436E2,1.7454907E3,7.6141595E2,6.9498047E2,7.3827637E2,0E0,1.9768618E1,1.5518741E2,1.2794619E2,9.9145996E1,3.21978E2,3.5194086E2,3.884816E2,0E0,0E0,1.267611E0,0E0,0E0,0E0,3.5183014E2,9.618948E1,8.448327E1,2.1551978E2,5.2460785E2,6.2545496E2,4.6333734E2,4.167564E2,1.2345991E3,9.1925323E2,8.998579E2,3.9114044E2,6.2480566E2,6.818596E2,1.75621E2,0E0,0E0,0E0,0E0,0E0,0E0,0E0,0E0,0E0,0E0,0E0,0E0,0E0,0E0,0E0,0E0,0E0,0E0,0E0,0E0,0E0,0E0,0E0,0E0,0E0,0E0,0E0,0E0,0E0,0E0,0E0,0E0,0E0,0E0,0E0,0E0,0E0,0E0,0E0,0E0,0E0,0E0,0E0,0E0,0E0,0E0,0E0],"parents":[2147483647,0,0,1,1,2,2,3,3,4,4,5,5,6,6,7,7,8,8,9,9,10,10,11,11,12,12,13,13,14,14,15,15,16,16,17,17,18,18,19,19,20,20,21,21,22,22,23,23,24,24,25,25,26,26,27,27,28,28,30,30,31,31,32,32,33,33,34,34,35,35,36,36,39,39,43,43,44,44,45,45,46,46,47,47,48,48,49,49,50,50,51,51,52,52,53,53,54,54,55,55,56,56,57,57],"right_children":[2,4,6,8,10,12,14,16,18,20,22,24,26,28,30,32,34,36,38,40,42,44,46,48,50,52,54,56,58,-1,60,62,64,66,68,70,72,-1,-1,74,-1,-1,-1,76,78,80,82,84,86,88,90,92,94,96,98,100,102,104,-1,-1,-1,-1,-1,-1,-1,-1,-1,-1,-1,-1,-1,-1,-1,-1,-1,-1,-1,-1,-1,-1,-1,-1,-1,-1,-1,-1,-1,-1,-1,-1,-1,-1,-1,-1,-1,-1,-1,-1,-1,-1,-1,-1,-1,-1,-1],"split_conditions":[2.2333334E1,2.2091084E2,1.964286E2,5.1013073E1,-9.981416E0,1.2239716E2,9.0666664E1,5.1164994E0,1.86E1,3.161333E2,6.420667E0,1.7654688E1,9.556084E0,2.1989418E1,1.5929002E1,1.0446206E1,1.4610249E1,1.9531084E1,3.3165E0,2.739748E2,1.4E1,1E-1,9.9571085E0,4.4333332E1,1.3168583E1,1.8000002E0,1.3918175E2,1.0579001E1,1.5646544E1,5.323561E0,1.3533333E2,3.5915005E0,1.1691704E1,1.5E1,7E-1,1.2595665E1,1E-1,-2.148153E0,-9.7792184E-1,8E0,2.5392406E0,-8.813885E-1,2.0552474E-1,2.364639E2,5.1916655E-2,7.6666665E0,1.7126917E1,1.7477621E1,5.6E1,1.9839235E1,6.627162E1,1.5E0,4.1E0,1.7047749E1,1.1753877E1,1.6267857E1,2.2E0,4.2666668E1,7.6606936E0,-4.854853E-1,8.663784E-1,3.476367E-1,3.0614998E0,-7.8851956E-1,3.0588243E-2,-8.237116E-1,-1.6059396E0,-7.9170066E-1,1.1461035E0,2.399898E-1,-1.6958588E-1,1.6970496E-1,1.9680918E0,4.6574035E-1,7.6758005E-2,1.2229991E0,-2.2559956E-2,-1.3217533E-1,-5.1282257E-1,-9.265409E-1,1.365001E0,-5.0535464E-1,-2.7089586E-2,7.921638E-2,2.9392414E0,2.1675174E0,-8.8064677E-1,-1.9006838E0,-3.429914E-1,-2.6814845E-1,3.014174E0,2.032763E0,5.80918E0,-1.6793717E0,1.0543284E0,2.5142318E-1,4.3817067E0,-1.3319324E0,1.4527512E-1,6.1967206E-1,-6.9185264E-2,-7.40933E-1,5.448947E-1,-3.8528118E-1,2.5726318E0],"split_indices":[0,4,4,4,1,4,0,1,2,4,1,3,1,1,1,3,1,1,1,4,0,2,3,0,1,2,4,1,3,0,0,1,4,0,2,1,2,0,0,0,0,0,0,4,1,0,1,3,0,3,4,2,2,1,3,3,2,0,0,0,0,0,0,0,0,0,0,0,0,0,0,0,0,0,0,0,0,0,0,0,0,0,0,0,0,0,0,0,0,0,0,0,0,0,0,0,0,0,0,0,0,0,0,0,0],"split_type":[0,0,0,0,0,0,0,0,0,0,0,0,0,0,0,0,0,0,0,0,0,0,0,0,0,0,0,0,0,0,0,0,0,0,0,0,0,0,0,0,0,0,0,0,0,0,0,0,0,0,0,0,0,0,0,0,0,0,0,0,0,0,0,0,0,0,0,0,0,0,0,0,0,0,0,0,0,0,0,0,0,0,0,0,0,0,0,0,0,0,0,0,0,0,0,0,0,0,0,0,0,0,0,0,0],"sum_hessian":[3.476E3,2.211E3,1.265E3,1.035E3,1.176E3,5.7E2,6.95E2,1.96E2,8.39E2,1E1,1.166E3,2.79E2,2.91E2,6.91E2,4E0,9.1E1,1.05E2,8.3E2,9E0,8E0,2E0,5.72E2,5.94E2,1.95E2,8.4E1,1.48E2,1.43E2,6.84E2,7E0,2E0,2E0,8E0,8.3E1,7E1,3.5E1,7.81E2,4.9E1,2E0,7E0,3E0,5E0,1E0,1E0,3.03E2,2.69E2,9E0,5.85E2,1.59E2,3.6E1,6.9E1,1.5E1,9.8E1,5E1,1.9E1,1.24E2,4.82E2,2.02E2,6E0,1E0,1E0,1E0,6E0,2E0,2.3E1,6E1,4.5E1,2.5E1,2.5E1,1E1,4.64E2,3.17E2,3.4E1,1.5E1,1E0,2E0,2.1E1,2.82E2,9.1E1,1.78E2,1E0,8E0,4.82E2,1.03E2,1.54E2,5E0,2.9E1,7E0,3.2E1,3.7E1,1.1E1,4E0,9E1,8E0,1.5E1,3.5E1,1.2E1,7E0,1.8E1,1.06E2,2.07E2,2.75E2,1.54E2,4.8E1,4E0,2E0],"tree_param":{"num_deleted":"0","num_feature":"5","num_nodes":"105","size_leaf_vector":"1"}},{"base_weights":[3.8810723E-2,-1.5418853E-1,1.3852899E0,2.2122808E-2,-7.9800135E-1,1.7546668E0,-1.7845289E0,-1.9668779E0,8.655172E-2,2.0925768E-1,-1.119284E0,1.5133133E0,6.4004655E0,-2.8905976E-1,-4.8558946E0,-1.451716E0,-2.9391334E0,-6.424106E-1,2.647308E-1,-1.3460456E0,9.5616984E-1,-1.4226742E0,-9.018123E-2,1.2749655E0,6.7517624E0,7.841653E0,-1.1699259E0,5.63283E0,-1.3362166E0,-6.5014434E0,1.1680351E0,-3.149528E0,-8.485551E-1,-3.1687846E0,3.858749E-1,-3.5015106E-1,-2.6769567E0,1.2084755E0,-6.879001E-2,1.1638413E-1,-4.363776E0,7.964408E-1,2.7070765E0,-5.0022465E-1,-1.7294858E0,-1.0907305E0,4.6669374E0,1.4842026E0,-3.608535E0,9.38867E0,-1.0518379E0,1.0641487E1,2.3216767E0,1.9616395E0,3.0134356E-1,-4.377212E0,1.591127E0,-7.5408735E0,-3.3301806E0,-2.9899621E-2,-1.216356E0,-6.675073E-1,6.171864E-2,-1.0350395E0,-2.6985514E-1,-1.4596461E-1,1.1211711E0,9.349372E-1,-9.169576E-1,3.6020476E-2,7.7739316E-1,2.27456E-3,-1.4990869E0,-9.136254E-1,6.1076975E-1,9.974499E-2,-1.4034219E0,1.4885339E-1,1.5045084E0,1.2943514E-1,-1.1088004E0,-5.4935837E-1,7.801387E-1,-7.937859E-2,-8.3632946E-1,2.666671E-1,1.9898683E0,4.1391873E-1,3.8698359E0,-2.9726205E0,9.428194E-1,-9.767344E-1,3.2141068E0,1.1462706E0,3.8164783E0,-1.0617285E0,2.280609E0,9.940221E-1,-1.7805299E0,-8.0484444E-1,1.6998534E0,-2.715321E0,-1.0171083E0,-1.1042259E0,-2.891839E-1],"categories":[],"categories_nodes":[],"categories_segments":[],"categories_sizes":[],"default_left":[0,0,0,0,0,0,0,0,0,0,0,0,0,0,0,0,0,0,0,0,0,0,0,0,0,0,0,0,0,0,0,0,0,0,0,0,0,0,0,0,0,0,0,0,0,0,0,0,0,0,0,0,0,0,0,0,0,0,0,0,0,0,0,0,0,0,0,0,0,0,0,0,0,0,0,0,0,0,0,0,0,0,0,0,0,0,0,0,0,0,0,0,0,0,0,0,0,0,0,0,0,0,0,0,0],"id":8,"left_children":[1,3,5,7,9,11,13,15,17,19,21,23,25,27,29,31,33,35,37,39,41,43,45,47,49,51,-1,53,55,57,-1,59,61,63,-1,65,67,69,71,73,75,77,-1,79,81,83,85,87,89,91,-1,93,95,-1,-1,97,99,101,103,-1,-1,-1,-1,-1,-1,-1,-1,-1,-1,-1,-1,-1,-1,-1,-1,-1,-1,-1,-1,-1,-1,-1,-1,-1,-1,-1,-1,-1,-1,-1,-1,-1,-1,-1,-1,-1,-1,-1,-1,-1,-1,-1,-1,-1,-1],"loss_changes":[9.037797E2,3.453196E2,5.136253E2,3.0631857E2,2.1187833E2,4.2873438E2,2.0988042E2,3.32984E1,3.0085574E2,1.8599336E2,1.547326E2,4.5710925E2,3.1262695E2,2.0596338E2,2.4127524E2,4.955419E1,2.8334976E1,2.6961273E2,5.8584875E2,2.299953E2,1.3198212E2,1.0753088E2,5.4769977E2,3.711635E2,4.6570337E2,2.380293E2,0E0,1.4397614E1,2.5622177E2,1.7739502E1,0E0,3.5477234E1,5.705412E1,1.2219406E1,0E0,2.2426491E2,1.3486838E2,7.311615E2,5.179275E2,2.2468874E2,2.6647675E1,1.3304694E2,0E0,2.904049E2,1.311549E2,1.3245044E2,1.426536E2,3.9245374E2,6.6915533E2,2.526853E2,0E0,1.0745508E2,2.435329E2,0E0,0E0,1.8740103E2,2.7644925E2,2.572641E1,5.9962845E-1,0E0,0E0,0E0,0E0,0E0,0E0,0E0,0E0,0E0,0E0,0E0,0E0,0E0,0E0,0E0,0E0,0E0,0E0,0E0,0E0,0E0,0E0,0E0,0E0,0E0,0E0,0E0,0E0,0E0,0E0,0E0,0E0,0E0,0E0,0E0,0E0,0E0,0E0,0E0,0E0,0E0,0E0,0E0,0E0,0E0,0E0],"parents":[2147483647,0,0,1,1,2,2,3,3,4,4,5,5,6,6,7,7,8,8,9,9,10,10,11,11,12,12,13,13,14,14,15,15,16,16,17,17,18,18,19,19,20,20,21,21,22,22,23,23,24,24,25,25,27,27,28,28,29,29,31,31,32,32,33,33,35,35,36,36,37,37,38,38,39,39,40,40,41,41,43,43,44,44,45,45,46,46,47,47,48,48,49,49,51,51,52,52,55,55,56,56,57,57,58,58],"right_children":[2,4,6,8,10,12,14,16,18,20,22,24,26,28,30,32,34,36,38,40,42,44,46,48,50,52,-1,54,56,58,-1,60,62,64,-1,66,68,70,72,74,76,78,-1,80,82,84,86,88,90,92,-1,94,96,-1,-1,98,100,102,104,-1,-1,-1,-1,-1,-1,-1,-1,-1,-1,-1,-1,-1,-1,-1,-1,-1,-1,-1,-1,-1,-1,-1,-1,-1,-1,-1,-1,-1,-1,-1,-1,-1,-1,-1,-1,-1,-1,-1,-1,-1,-1,-1,-1,-1,-1],"split_conditions":[3.5333332E1,2.818325E2,3.0254428E2,7.6666665E0,-1.1939167E0,2.8592365E2,4.7790008E0,1.3460248E1,9.192192E1,3.05177E2,3.39885E2,6.9666664E1,2.1461555E1,1.1841756E1,1.87415E1,2.8644168E0,3.1087412E1,5.8999996E0,1.8128822E2,2.9603937E2,3.2E1,2.8290002E0,1.5045667E1,6.4333336E1,1.6720667E1,5.649833E0,-1.1699259E0,3.4342255E2,4.0399995E-1,1.7418196E1,1.1680351E0,6.6666665E0,6.6666665E0,2.3000002E0,3.858749E-1,2.0274832E1,-1.2480834E0,1.511893E2,3.4333332E1,-4.1709995E0,9.885262E0,-1.3564166E0,2.7070765E0,8.000001E-1,1.1400001E1,6E-1,1.3E1,6.3666668E1,6.5206666E0,1.01376915E1,-1.0518379E0,4.7691664E-1,4.2333332E1,1.9616395E0,3.0134356E-1,3.7E1,3.161333E2,3.4604227E2,3.8333332E1,-2.9899621E-2,-1.216356E0,-6.675073E-1,6.171864E-2,-1.0350395E0,-2.6985514E-1,-1.4596461E-1,1.1211711E0,9.349372E-1,-9.169576E-1,3.6020476E-2,7.7739316E-1,2.27456E-3,-1.4990869E0,-9.136254E-1,6.1076975E-1,9.974499E-2,-1.4034219E0,1.4885339E-1,1.5045084E0,1.2943514E-1,-1.1088004E0,-5.4935837E-1,7.801387E-1,-7.937859E-2,-8.3632946E-1,2.666671E-1,1.9898683E0,4.1391873E-1,3.8698359E0,-2.9726205E0,9.428194E-1,-9.767344E-1,3.2141068E0,1.1462706E0,3.8164783E0,-1.0617285E0,2.280609E0,9.940221E-1,-1.7805299E0,-8.0484444E-1,1.6998534E0,-2.715321E0,-1.0171083E0,-1.1042259E0,-2.891839E-1],"split_indices":[0,4,4,0,1,4,1,1,4,4,4,0,3,3,1,1,3,2,4,4,0,1,1,0,1,1,0,4,1,3,0,0,0,2,0,1,1,4,0,1,3,1,0,2,2,2,0,0,1,3,0,1,0,0,0,0,4,4,0,0,0,0,0,0,0,0,0,0,0,0,0,0,0,0,0,0,0,0,0,0,0,0,0,0,0,0,0,0,0,0,0,0,0,0,0,0,0,0,0,0,0,0,0,0,0],"split_type":[0,0,0,0,0,0,0,0,0,0,0,0,0,0,0,0,0,0,0,0,0,0,0,0,0,0,0,0,0,0,0,0,0,0,0,0,0,0,0,0,0,0,0,0,0,0,0,0,0,0,0,0,0,0,0,0,0,0,0,0,0,0,0,0,0,0,0,0,0,0,0,0,0,0,0,0,0,0,0,0,0,0,0,0,0,0,0,0,0,0,0,0,0,0,0,0,0,0,0,0,0,0,0,0,0],"sum_hessian":[3.476E3,3.041E3,4.35E2,2.388E3,6.53E2,3.9E2,4.5E1,7.4E1,2.314E3,1.58E2,4.95E2,3.72E2,1.8E1,3.1E1,1.4E1,5E1,2.4E1,4.54E2,1.86E3,5.1E1,1.07E2,3.82E2,1.13E2,3.57E2,1.5E1,1.6E1,2E0,4E0,2.7E1,1.2E1,2E0,1.2E1,3.8E1,2.3E1,1E0,3.98E2,5.6E1,4.85E2,1.375E3,3.5E1,1.6E1,1.06E2,1E0,9.6E1,2.86E2,9.4E1,1.9E1,3.43E2,1.4E1,1.2E1,3E0,1E1,6E0,3E0,1E0,1.3E1,1.4E1,8E0,4E0,3E0,9E0,1.6E1,2.2E1,2E1,3E0,3.86E2,1.2E1,3E0,5.3E1,2.72E2,2.13E2,1.355E3,2E1,1.3E1,2.2E1,1E0,1.5E1,1E2,6E0,7.5E1,2.1E1,2.8E2,6E0,6.4E1,3E1,7E0,1.2E1,3.41E2,2E0,7E0,7E0,1E0,1.1E1,3E0,7E0,3E0,3E0,2E0,1.1E1,7E0,7E0,5E0,3E0,3E0,1E0],"tree_param":{"num_deleted":"0","num_feature":"5","num_nodes":"105","size_leaf_vector":"1"}},{"base_weights":[2.9396133E-2,-2.8544673E-1,5.4034066E-1,4.550433E-1,-4.3995366E-1,8.223694E-1,-3.4520844E-1,1.18954E0,-2.938239E-1,-3.4402823E-1,-1.5706407E0,6.2595993E-1,4.81664E0,-1.615424E0,6.225886E-2,7.927959E-1,3.3374546E0,-1.1159275E0,2.0758452E0,-3.9755574E-1,2.7575595E0,-1.9877938E0,2.2959259E0,7.9831237E-1,-2.0195966E0,6.4462414E0,-2.7801485E0,-2.7188852E0,1.5091556E0,6.620882E0,-3.0551854E-1,5.871394E-1,5.203981E0,1.0975511E0,1.7062464E1,-3.1046393E0,-4.1000947E-1,9.883081E-1,7.3899927E0,-5.633526E-1,3.16946E-1,6.700249E0,-1.6637194E0,-3.0117793E0,-1.2513266E0,5.508078E0,-1.0061201E-1,1.555377E0,2.6156285E-1,8.857022E-1,-6.0062313E0,1.8348379E0,1.0735333E1,6.1033773E-1,-3.6362817E0,-7.3935956E-1,-5.1267877E0,-4.1453815E0,4.0473294E0,1.6813791E1,3.2390993E0,-4.6056876E-1,6.825875E0,1.0437268E0,8.192815E-2,-3.218175E-1,4.179149E0,1.749489E0,-2.8605333E-1,1.524291E0,5.8087916E0,-1.2632074E0,-2.471637E-1,2.2240354E-1,-4.660438E-1,-1.595658E-1,1.4119303E0,2.645665E0,-3.9183572E-1,-7.768831E-2,-3.3797273E-1,4.0534247E-2,1.4236243E0,5.7133675E-1,4.7732835E0,4.812261E-1,-9.393752E-1,9.500293E-1,-9.585062E-1,4.2564705E-1,-5.347343E-1,6.116682E-1,2.019884E0,7.333354E-1,-1.167916E0,4.2365976E-2,8.3549625E-1,1.3388383E0,2.8888745E-2,-6.013086E-1,1.9776067E0,4.130884E-1,-2.0124347E0,2.3259406E0,-8.2703644E-1,2.1072876E0,4.9871397E0,-1.9738197E-2,-1.2410858E0,4.5940083E-1,-1.3051598E0,-2.5380716E0,-1.5982254E-1,-2.251471E0,7.51457E-2,3.8863647E0,5.041452E-1,4.576876E-1,7.1085186E0,-3.292708E-1,2.598785E0,4.6392334E-1,-2.3527132E-1,2.6510615E0,7.6187617E-1],"categories":[],"categories_nodes":[],"categories_segments":[],"categories_sizes":[],"default_left":[0,0,0,0,0,0,0,0,0,0,0,0,0,0,0,0,0,0,0,0,0,0,0,0,0,0,0,0,0,0,0,0,0,0,0,0,0,0,0,0,0,0,0,0,0,0,0,0,0,0,0,0,0,0,0,0,0,0,0,0,0,0,0,0,0,0,0,0,0,0,0,0,0,0,0,0,0,0,0,0,0,0,0,0,0,0,0,0,0,0,0,0,0,0,0,0,0,0,0,0,0,0,0,0,0,0,0,0,0,0,0,0,0,0,0,0,0,0,0,0,0,0,0,0,0],"id":9,"left_children":[1,3,5,7,9,11,13,15,17,19,21,23,25,27,29,31,33,35,37,39,41,43,45,47,49,51,53,55,57,59,61,63,65,67,69,71,73,75,77,79,81,83,85,87,89,91,93,95,97,99,101,103,105,-1,107,109,111,113,115,117,119,121,123,-1,-1,-1,-1,-1,-1,-1,-1,-1,-1,-1,-1,-1,-1,-1,-1,-1,-1,-1,-1,-1,-1,-1,-1,-1,-1,-1,-1,-1,-1,-1,-1,-1,-1,-1,-1,-1,-1,-1,-1,-1,-1,-1,-1,-1,-1,-1,-1,-1,-1,-1,-1,-1,-1,-1,-1,-1,-1,-1,-1,-1,-1],"loss_changes":[5.594896E2,2.4641234E2,3.3145282E2,2.0496457E2,1.9262979E2,7.8620465E2,1.6624097E2,1.5756253E2,3.6271753E2,2.738675E2,2.2876389E2,4.3934158E2,5.9976917E2,2.730357E2,5.905785E2,1.4209473E2,8.728113E2,1.9246077E2,2.7010443E2,1.9161339E2,4.9923578E2,9.125192E1,1.0832681E2,3.661245E2,6.8867926E2,7.516731E2,4.4495377E1,2.7266678E2,3.1817383E2,3.9365106E2,2.5967175E2,1.3891333E2,3.9836005E2,2.5801764E2,1.1857178E1,8.734592E1,1.367552E2,2.3424649E2,1.10924774E2,2.24638E2,2.44956E2,6.322872E2,7.21613E1,6.899039E1,1.0889194E2,1.1768005E1,9.638441E1,6.499412E2,3.668682E2,5.904198E2,1.3879059E2,5.6486584E2,3.2027612E2,0E0,1.4028915E1,2.77258E2,3.9365753E2,1.0525594E2,2.9446024E2,2.7945624E2,2.6822775E2,1.4932088E2,2.0656555E1,0E0,0E0,0E0,0E0,0E0,0E0,0E0,0E0,0E0,0E0,0E0,0E0,0E0,0E0,0E0,0E0,0E0,0E0,0E0,0E0,0E0,0E0,0E0,0E0,0E0,0E0,0E0,0E0,0E0,0E0,0E0,0E0,0E0,0E0,0E0,0E0,0E0,0E0,0E0,0E0,0E0,0E0,0E0,0E0,0E0,0E0,0E0,0E0,0E0,0E0,0E0,0E0,0E0,0E0,0E0,0E0,0E0,0E0,0E0,0E0,0E0,0E0],"parents":[2147483647,0,0,1,1,2,2,3,3,4,4,5,5,6,6,7,7,8,8,9,9,10,10,11,11,12,12,13,13,14,14,15,15,16,16,17,17,18,18,19,19,20,20,21,21,22,22,23,23,24,24,25,25,26,26,27,27,28,28,29,29,30,30,31,31,32,32,33,33,34,34,35,35,36,36,37,37,38,38,39,39,40,40,41,41,42,42,43,43,44,44,45,45,46,46,47,47,48,48,49,49,50,50,51,51,52,52,54,54,55,55,56,56,57,57,58,58,59,59,60,60,61,61,62,62],"right_children":[2,4,6,8,10,12,14,16,18,20,22,24,26,28,30,32,34,36,38,40,42,44,46,48,50,52,54,56,58,60,62,64,66,68,70,72,74,76,78,80,82,84,86,88,90,92,94,96,98,100,102,104,106,-1,108,110,112,114,116,118,120,122,124,-1,-1,-1,-1,-1,-1,-1,-1,-1,-1,-1,-1,-1,-1,-1,-1,-1,-1,-1,-1,-1,-1,-1,-1,-1,-1,-1,-1,-1,-1,-1,-1,-1,-1,-1,-1,-1,-1,-1,-1,-1,-1,-1,-1,-1,-1,-1,-1,-1,-1,-1,-1,-1,-1,-1,-1,-1,-1,-1,-1,-1,-1],"split_conditions":[2.1666666E1,1.3202726E1,2.609098E2,1.0579001E1,2.7416782E1,2.5372432E2,2.7464493E2,7.8477497E0,1.753525E1,2.6437336E1,1.54665E1,2.4477342E2,1.5929002E1,5E-1,2.759037E2,4.2000003E0,1.7333334E1,1.3168583E1,1.2904882E1,2.7E0,9E-1,2.9164999E1,1.9724805E2,1E-1,1.8733839E1,4.84775E0,2.2666666E1,3.2666668E1,2.5666666E1,1.2348052E1,5.6E1,-6.660582E0,1.7999998E2,8.733168E0,1.7666666E1,1.9001399E2,1.7175021E2,1.7E1,1.8879002E1,1.2462335E1,1.8185251E1,1.8333334E1,1.7791405E2,-4.4459996E0,2.9793125E1,1.57664995E1,3E-1,1.511893E2,9.3876505E0,1.6039202E1,6.873334E-1,1.6854767E1,4E-1,6.1033773E-1,2.5765036E2,1.9914215E1,1.6981165E1,2.6656018E2,2.6666666E1,3.2666668E1,1.6981165E1,-3.5189164E0,1.8448023E1,1.0437268E0,8.192815E-2,-3.218175E-1,4.179149E0,1.749489E0,-2.8605333E-1,1.524291E0,5.8087916E0,-1.2632074E0,-2.471637E-1,2.2240354E-1,-4.660438E-1,-1.595658E-1,1.4119303E0,2.645665E0,-3.9183572E-1,-7.768831E-2,-3.3797273E-1,4.0534247E-2,1.4236243E0,5.7133675E-1,4.7732835E0,4.812261E-1,-9.393752E-1,9.500293E-1,-9.585062E-1,4.2564705E-1,-5.347343E-1,6.116682E-1,2.019884E0,7.333354E-1,-1.167916E0,4.2365976E-2,8.3549625E-1,1.3388383E0,2.8888745E-2,-6.013086E-1,1.9776067E0,4.130884E-1,-2.0124347E0,2.3259406E0,-8.2703644E-1,2.1072876E0,4.9871397E0,-1.9738197E-2,-1.2410858E0,4.5940083E-1,-1.3051598E0,-2.5380716E0,-1.5982254E-1,-2.251471E0,7.51457E-2,3.8863647E0,5.041452E-1,4.576876E-1,7.1085186E0,-3.292708E-1,2.598785E0,4.6392334E-1,-2.3527132E-1,2.6510615E0,7.6187617E-1],"split_indices":[0,3,4,1,3,4,4,1,1,3,1,4,1,2,4,2,0,1,3,2,2,3,4,2,3,1,0,0,0,3,0,1,4,1,0,4,4,0,1,1,1,0,4,1,3,1,2,4,3,3,1,3,2,0,4,3,3,4,0,0,3,1,3,0,0,0,0,0,0,0,0,0,0,0,0,0,0,0,0,0,0,0,0,0,0,0,0,0,0,0,0,0,0,0,0,0,0,0,0,0,0,0,0,0,0,0,0,0,0,0,0,0,0,0,0,0,0,0,0,0,0,0,0,0,0],"split_type":[0,0,0,0,0,0,0,0,0,0,0,0,0,0,0,0,0,0,0,0,0,0,0,0,0,0,0,0,0,0,0,0,0,0,0,0,0,0,0,0,0,0,0,0,0,0,0,0,0,0,0,0,0,0,0,0,0,0,0,0,0,0,0,0,0,0,0,0,0,0,0,0,0,0,0,0,0,0,0,0,0,0,0,0,0,0,0,0,0,0,0,0,0,0,0,0,0,0,0,0,0,0,0,0,0,0,0,0,0,0,0,0,0,0,0,0,0,0,0,0,0,0,0,0,0],"sum_hessian":[3.476E3,2.151E3,1.325E3,3.71E2,1.78E3,1.005E3,3.2E2,1.87E2,1.84E2,1.642E3,1.38E2,9.59E2,4.6E1,7.7E1,2.43E2,1.59E2,2.8E1,1.37E2,4.7E1,1.615E3,2.7E1,1.25E2,1.3E1,9.01E2,5.8E1,3.8E1,8E0,5.7E1,2E1,1.2E1,2.31E2,1.53E2,6E0,2.5E1,3E0,3.5E1,1.02E2,4E1,7E0,1.311E3,3.04E2,1.4E1,1.3E1,5.1E1,7.4E1,5E0,8E0,3.73E2,5.28E2,3.4E1,2.4E1,1.9E1,1.9E1,1E0,7E0,3.2E1,2.5E1,6E0,1.4E1,2E0,1E1,2.27E2,4E0,1.4E1,1.39E2,4E0,2E0,7E0,1.8E1,1E0,2E0,2.3E1,1.2E1,5.1E1,5.1E1,2.9E1,1.1E1,6E0,1E0,8.52E2,4.59E2,2.93E2,1.1E1,1E1,4E0,4E0,9E0,1E0,5E1,1.2E1,6.2E1,2E0,3E0,5E0,3E0,1.74E2,1.99E2,1.9E1,5.09E2,2.3E1,1.1E1,2E0,2.2E1,8E0,1.1E1,1.3E1,6E0,1E0,6E0,2E1,1.2E1,1.4E1,1.1E1,3E0,3E0,2E0,1.2E1,1E0,1E0,6E0,4E0,3.1E1,1.96E2,2E0,2E0],"tree_param":{"num_deleted":"0","num_feature":"5","num_nodes":"125","size_leaf_vector":"1"}},{"base_weights":[3.3709075E-2,-1.0579309E-1,8.148043E-1,-8.646782E-2,-5.2630496E0,5.9739757E-1,3.5198576E0,1.1532127E-1,-3.90712E-1,1.0890326E0,-7.6426525E0,7.939451E-1,-2.933196E0,2.6873722E0,5.2731457E0,-6.253691E-2,1.3486454E0,-9.338356E-3,-9.882048E-1,-9.254437E0,7.8774464E-1,6.4588505E-1,5.880805E0,2.2499843E0,-4.6201253E0,3.208707E0,-1.395179E0,-1.4478095E-1,2.4027452E0,3.3442745E0,-4.879439E-1,-9.602705E-1,5.6719846E-1,-1.1935568E0,1.0166625E0,-3.0044062E0,-5.899046E-1,1.5735737E0,-1.16742946E-1,4.208577E0,3.124063E0,-5.664095E0,2.7098387E-1,9.902686E0,2.4808745E0,-1.1866353E0,4.890457E-1,-2.7305963E-2,-1.5356139E0,1.3741525E-1,1.7503598E0,1.3836129E0,-1.6220292E0,-2.3906885E-3,-8.446272E-1,1.8802E-2,-4.332857E-1,7.74216E-1,4.2358015E-2,-2.7396894E-1,-1.0434523E0,-1.4866378E0,7.569911E-1,5.620229E-1,-1.3291757E0,1.1265728E0,-1.4139183E-1,-1.8753892E-1,1.9057736E0,-8.991439E-1,-2.686952E0,2.3354425E0,-1.0661023E0,4.205738E0,2.5047055E-1,-1.6710229E0,8.760787E-1],"categories":[],"categories_nodes":[],"categories_segments":[],"categories_sizes":[],"default_left":[0,0,0,0,0,0,0,0,0,0,0,0,0,0,0,0,0,0,0,0,0,0,0,0,0,0,0,0,0,0,0,0,0,0,0,0,0,0,0,0,0,0,0,0,0,0,0,0,0,0,0,0,0,0,0,0,0,0,0,0,0,0,0,0,0,0,0,0,0,0,0,0,0,0,0,0,0],"id":10,"left_children":[1,3,5,7,9,11,13,15,17,-1,19,21,23,25,-1,27,29,31,33,35,-1,37,39,-1,41,43,45,47,49,51,53,55,57,59,61,-1,-1,63,65,-1,67,69,71,73,75,-1,-1,-1,-1,-1,-1,-1,-1,-1,-1,-1,-1,-1,-1,-1,-1,-1,-1,-1,-1,-1,-1,-1,-1,-1,-1,-1,-1,-1,-1,-1,-1],"loss_changes":[3.7895566E2,2.936574E2,3.0782428E2,1.8060234E2,2.6052765E2,3.416602E2,4.0916086E2,3.8812653E2,2.6727994E2,0E0,1.7325555E2,3.456682E2,4.9225012E2,8.535504E1,0E0,3.1400946E2,8.1896045E2,3.9363803E2,1.8936203E2,2.4633728E1,0E0,3.1996527E2,2.481712E2,0E0,1.18976776E2,1.4108392E2,4.517634E1,4.0010522E2,3.310164E2,1.2120256E3,1.30682E2,1.3426813E2,3.8305896E2,2.626062E2,3.9941135E2,0E0,0E0,3.755539E2,3.4361288E2,0E0,1.3711877E2,1.3998926E2,1.7135371E2,1.0027643E2,1.294658E2,0E0,0E0,0E0,0E0,0E0,0E0,0E0,0E0,0E0,0E0,0E0,0E0,0E0,0E0,0E0,0E0,0E0,0E0,0E0,0E0,0E0,0E0,0E0,0E0,0E0,0E0,0E0,0E0,0E0,0E0,0E0,0E0],"parents":[2147483647,0,0,1,1,2,2,3,3,4,4,5,5,6,6,7,7,8,8,10,10,11,11,12,12,13,13,15,15,16,16,17,17,18,18,19,19,21,21,22,22,24,24,25,25,26,26,27,27,28,28,29,29,30,30,31,31,32,32,33,33,34,34,37,37,38,38,40,40,41,41,42,42,43,43,44,44],"right_children":[2,4,6,8,10,12,14,16,18,-1,20,22,24,26,-1,28,30,32,34,36,-1,38,40,-1,42,44,46,48,50,52,54,56,58,60,62,-1,-1,64,66,-1,68,70,72,74,76,-1,-1,-1,-1,-1,-1,-1,-1,-1,-1,-1,-1,-1,-1,-1,-1,-1,-1,-1,-1,-1,-1,-1,-1,-1,-1,-1,-1,-1,-1,-1,-1],"split_conditions":[3.3333332E1,3.3E1,1.9318586E1,1.8448023E1,8.37753E1,1.7593582E1,4.9666668E1,1.7477621E1,1.4E0,1.0890326E0,1.9839235E1,6.9666664E1,6.406369E1,4.6666668E1,5.2731457E0,8.7E0,2.2708783E2,2.0948164E1,2.6666666E1,1.4303998E1,7.8774464E-1,1E-1,1.8165002E0,2.2499843E0,7E-1,1.2287555E1,4.8333332E1,7.499999E0,1.5678998E1,2.9E1,2E0,1.9171478E1,1.9917561E2,2.3666666E1,1.3668755E2,-3.0044062E0,-5.899046E-1,1.6126917E1,1.1841756E1,4.208577E0,4E-1,1.8576918E1,7.0000005E-1,3.9333332E1,1.2475961E1,-1.1866353E0,4.890457E-1,-2.7305963E-2,-1.5356139E0,1.3741525E-1,1.7503598E0,1.3836129E0,-1.6220292E0,-2.3906885E-3,-8.446272E-1,1.8802E-2,-4.332857E-1,7.74216E-1,4.2358015E-2,-2.7396894E-1,-1.0434523E0,-1.4866378E0,7.569911E-1,5.620229E-1,-1.3291757E0,1.1265728E0,-1.4139183E-1,-1.8753892E-1,1.9057736E0,-8.991439E-1,-2.686952E0,2.3354425E0,-1.0661023E0,4.205738E0,2.5047055E-1,-1.6710229E0,8.760787E-1],"split_indices":[0,0,1,3,4,1,0,3,2,0,3,0,4,0,0,2,4,3,0,1,0,2,1,0,2,3,0,2,1,0,2,3,4,0,4,0,0,1,3,0,2,1,2,0,3,0,0,0,0,0,0,0,0,0,0,0,0,0,0,0,0,0,0,0,0,0,0,0,0,0,0,0,0,0,0,0,0],"split_type":[0,0,0,0,0,0,0,0,0,0,0,0,0,0,0,0,0,0,0,0,0,0,0,0,0,0,0,0,0,0,0,0,0,0,0,0,0,0,0,0,0,0,0,0,0,0,0,0,0,0,0,0,0,0,0,0,0,0,0,0,0,0,0,0,0,0,0,0,0,0,0,0,0,0,0,0,0],"sum_hessian":[3.476E3,2.95E3,5.26E2,2.94E3,1E1,4.88E2,3.8E1,1.768E3,1.172E3,2E0,8E0,4.63E2,2.5E1,3.7E1,1E0,1.546E3,2.22E2,7.16E2,4.56E2,7E0,1E0,4.51E2,1.2E1,3E0,2.2E1,3.3E1,4E0,1.497E3,4.9E1,1.06E2,1.16E2,2.7E2,4.46E2,4.14E2,4.2E1,6E0,1E0,2.03E2,2.48E2,2E0,1E1,1.8E1,4E0,2E0,3.1E1,2E0,2E0,1.482E3,1.5E1,3.2E1,1.7E1,9.3E1,1.3E1,9.7E1,1.9E1,8.7E1,1.83E2,7.7E1,3.69E2,3.7E2,4.4E1,8E0,3.4E1,1.94E2,9E0,2E1,2.28E2,5E0,5E0,1.1E1,7E0,1E0,3E0,1E0,1E0,1E0,3E1],"tree_param":{"num_deleted":"0","num_feature":"5","num_nodes":"77","size_leaf_vector":"1"}},{"base_weights":[2.6527354E-2,-2.2224076E-1,3.1083933E-1,3.318431E-1,-3.2892644E-1,2.5269513E0,2.4604085E-1,9.4211507E-1,-2.8470963E-1,-9.01787E-1,-1.7280594E-1,9.902714E0,7.135615E-1,5.7954574E-1,-2.2235727E-1,1.5101917E0,-1.2176133E0,-3.7683555E-1,2.0163078E0,-1.9246727E0,-2.935031E-1,8.642265E-1,-3.408892E-1,1.2145347E1,1.368997E0,-3.2443955E0,2.2429888E0,4.1424593E-1,8.013856E0,-1.3590366E0,7.9703635E-1,1.2619995E0,8.392266E0,-2.2566323E0,2.1815228E0,-5.426549E-1,3.6656342E0,-1.1620932E0,-3.0300488E0,-1.8137345E0,6.559757E-1,-8.2113996E-2,3.6831498E0,-2.81367E-1,-2.5119026E0,1.0840334E0,4.450626E0,1.1330243E0,-5.169757E-1,-1.271942E0,-1.2019405E0,5.638255E0,4.3493323E-2,5.635091E-1,-2.737666E0,3.5688255E0,1.0679808E1,-8.9781296E-1,-5.3522725E0,2.9740388E0,-2.9490033E-1,9.348723E-1,1.6721243E-1,3.9568025E-1,4.4418397E0,1.0819826E0,-8.769866E-1,8.479928E-1,-3.501473E-1,-9.031991E-1,-9.476919E-2,-2.8547212E-1,1.8636395E0,-6.112006E-1,5.8316106E-1,-1.024842E0,6.792104E-1,-4.0283713E-1,-2.611058E0,1.1211964E-1,1.9280164E0,1.4849694E0,-1.7794444E-1,4.173013E0,6.8327105E-1,8.366308E-1,-9.520546E-2,-1.1316073E0,3.3297136E-1,3.6026937E-1,-9.6123964E-1,1.9482526E0,-4.3814123E-1,1.1452236E0,-6.484751E-1,2.8190812E-2,7.109754E-1,-2.8389459E0,1.3135386E-2,2.846561E0,-1.8608841E0,4.221305E0,1.13891035E-1,-4.055073E-1,1.861037E0,-2.0205297E0,-8.439403E-1,6.511986E-1,3.1335907E0,-1.4380339E-1,2.0197175E0],"categories":[],"categories_nodes":[],"categories_segments":[],"categories_sizes":[],"default_left":[0,0,0,0,0,0,0,0,0,0,0,0,0,0,0,0,0,0,0,0,0,0,0,0,0,0,0,0,0,0,0,0,0,0,0,0,0,0,0,0,0,0,0,0,0,0,0,0,0,0,0,0,0,0,0,0,0,0,0,0,0,0,0,0,0,0,0,0,0,0,0,0,0,0,0,0,0,0,0,0,0,0,0,0,0,0,0,0,0,0,0,0,0,0,0,0,0,0,0,0,0,0,0,0,0,0,0,0,0,0,0],"id":11,"left_children":[1,3,5,7,9,11,13,15,17,19,21,23,25,27,29,31,33,35,-1,37,39,41,43,45,47,49,51,53,55,57,59,61,63,65,67,69,71,73,75,77,79,81,83,85,87,-1,-1,-1,-1,-1,89,91,93,95,97,99,101,103,105,107,109,-1,-1,-1,-1,-1,-1,-1,-1,-1,-1,-1,-1,-1,-1,-1,-1,-1,-1,-1,-1,-1,-1,-1,-1,-1,-1,-1,-1,-1,-1,-1,-1,-1,-1,-1,-1,-1,-1,-1,-1,-1,-1,-1,-1,-1,-1,-1,-1,-1,-1],"loss_changes":[2.4598946E2,1.0976342E2,2.3244214E2,1.1314769E2,1.390055E2,6.081898E2,2.4663309E2,1.8709941E2,9.9344185E1,2.066293E2,2.1364735E2,1.5561505E2,2.3730664E2,1.129717E3,7.623646E2,1.943782E2,1.1793945E2,1.0186679E2,0E0,1.0100302E2,3.0430957E2,4.5647253E2,1.3549469E2,1.070531E2,2.8844385E1,1.7267921E1,2.0885521E2,4.26372E2,1.988905E2,5.6798645E2,8.257477E2,1.511288E2,1.6194128E2,1.08262276E2,2.0581535E1,7.9637054E1,7.645754E1,2.0784552E2,1.09934204E2,2.5113428E2,2.093364E2,3.3466336E2,5.864317E2,1.14345276E2,1.3197629E2,0E0,0E0,0E0,0E0,0E0,2.790255E1,7.6319916E1,1.580437E2,7.317573E2,7.673854E2,5.7947144E2,4.1381848E2,9.108556E2,9.3411255E1,6.7358655E2,3.0393246E2,0E0,0E0,0E0,0E0,0E0,0E0,0E0,0E0,0E0,0E0,0E0,0E0,0E0,0E0,0E0,0E0,0E0,0E0,0E0,0E0,0E0,0E0,0E0,0E0,0E0,0E0,0E0,0E0,0E0,0E0,0E0,0E0,0E0,0E0,0E0,0E0,0E0,0E0,0E0,0E0,0E0,0E0,0E0,0E0,0E0,0E0,0E0,0E0,0E0,0E0],"parents":[2147483647,0,0,1,1,2,2,3,3,4,4,5,5,6,6,7,7,8,8,9,9,10,10,11,11,12,12,13,13,14,14,15,15,16,16,17,17,19,19,20,20,21,21,22,22,23,23,24,24,25,25,26,26,27,27,28,28,29,29,30,30,31,31,32,32,33,33,34,34,35,35,36,36,37,37,38,38,39,39,40,40,41,41,42,42,43,43,44,44,50,50,51,51,52,52,53,53,54,54,55,55,56,56,57,57,58,58,59,59,60,60],"right_children":[2,4,6,8,10,12,14,16,18,20,22,24,26,28,30,32,34,36,-1,38,40,42,44,46,48,50,52,54,56,58,60,62,64,66,68,70,72,74,76,78,80,82,84,86,88,-1,-1,-1,-1,-1,90,92,94,96,98,100,102,104,106,108,110,-1,-1,-1,-1,-1,-1,-1,-1,-1,-1,-1,-1,-1,-1,-1,-1,-1,-1,-1,-1,-1,-1,-1,-1,-1,-1,-1,-1,-1,-1,-1,-1,-1,-1,-1,-1,-1,-1,-1,-1,-1,-1,-1,-1,-1,-1,-1,-1,-1,-1],"split_conditions":[1.9333334E1,1.2984975E1,1.9666666E1,1.0579001E1,1.567567E2,9.9694374E1,8.318584E0,2.849135E2,1.7000002E1,1E-1,2.0070912E2,1.584E1,2.4810832E0,7.926916E0,1.4720664E1,1.9E1,1.2605142E1,1.2964998E1,2.0163078E0,8.094425E1,3.5915005E0,1.9175606E2,1.9E1,3.1717312E1,-1.6668334E0,2.0881583E2,1.2318582E1,7.2935834E0,1.7610509E2,1.4070664E1,1.621643E2,-3.3141664E-1,4.962333E0,7E0,8.02275E0,1.1479E1,9.7307724E1,6.049757E1,1.8666666E1,3.1915004E0,1.8333334E1,1.1858351E-1,1.4118243E1,-8.420999E0,2.938274E2,1.0840334E0,4.450626E0,1.1330243E0,-5.169757E-1,-1.271942E0,-2.2835E0,2.1461555E1,1.5472672E1,4.84775E0,1.4471821E1,1.511893E2,2.0892412E1,1.37456665E1,1.4403998E1,6.899999E0,3.4796365E2,9.348723E-1,1.6721243E-1,3.9568025E-1,4.4418397E0,1.0819826E0,-8.769866E-1,8.479928E-1,-3.501473E-1,-9.031991E-1,-9.476919E-2,-2.8547212E-1,1.8636395E0,-6.112006E-1,5.8316106E-1,-1.024842E0,6.792104E-1,-4.0283713E-1,-2.611058E0,1.1211964E-1,1.9280164E0,1.4849694E0,-1.7794444E-1,4.173013E0,6.8327105E-1,8.366308E-1,-9.520546E-2,-1.1316073E0,3.3297136E-1,3.6026937E-1,-9.6123964E-1,1.9482526E0,-4.3814123E-1,1.1452236E0,-6.484751E-1,2.8190812E-2,7.109754E-1,-2.8389459E0,1.3135386E-2,2.846561E0,-1.8608841E0,4.221305E0,1.13891035E-1,-4.055073E-1,1.861037E0,-2.0205297E0,-8.439403E-1,6.511986E-1,3.1335907E0,-1.4380339E-1,2.0197175E0],"split_indices":[0,3,0,1,4,4,1,4,2,2,4,3,1,1,1,0,3,3,0,4,1,4,0,4,1,4,1,1,4,1,4,1,1,0,1,1,4,4,0,1,0,1,3,1,4,0,0,0,0,0,1,3,3,1,3,4,3,1,1,2,4,0,0,0,0,0,0,0,0,0,0,0,0,0,0,0,0,0,0,0,0,0,0,0,0,0,0,0,0,0,0,0,0,0,0,0,0,0,0,0,0,0,0,0,0,0,0,0,0,0,0],"split_type":[0,0,0,0,0,0,0,0,0,0,0,0,0,0,0,0,0,0,0,0,0,0,0,0,0,0,0,0,0,0,0,0,0,0,0,0,0,0,0,0,0,0,0,0,0,0,0,0,0,0,0,0,0,0,0,0,0,0,0,0,0,0,0,0,0,0,0,0,0,0,0,0,0,0,0,0,0,0,0,0,0,0,0,0,0,0,0,0,0,0,0,0,0,0,0,0,0,0,0,0,0,0,0,0,0,0,0,0,0,0,0],"sum_hessian":[3.476E3,1.854E3,1.622E3,2.99E2,1.555E3,4.5E1,1.577E3,1.5E2,1.49E2,3.32E2,1.223E3,8E0,3.7E1,9.21E2,6.56E2,1.19E2,3.1E1,1.48E2,1E0,1.23E2,2.09E2,1.7E2,1.053E3,6E0,2E0,1E1,2.7E1,9.02E2,1.9E1,3.1E2,3.46E2,1.16E2,3E0,2.4E1,7E0,1.43E2,5E0,7.4E1,4.9E1,8E1,1.29E2,1.28E2,4.2E1,1.026E3,2.7E1,2E0,4E0,1E0,1E0,6E0,4E0,1E1,1.7E1,8.62E2,4E1,8E0,1.1E1,2.79E2,3.1E1,1.15E2,2.31E2,3.1E1,8.5E1,2E0,1E0,2E0,2.2E1,6E0,1E0,1.1E1,1.32E2,2E0,3E0,5.8E1,1.6E1,4.6E1,3E0,7.6E1,4E0,1.24E2,5E0,1.1E1,1.17E2,4E0,3.8E1,1.1E1,1.015E3,2E1,7E0,2E0,2E0,9E0,1E0,6E0,1.1E1,6.85E2,1.77E2,1.1E1,2.9E1,5E0,3E0,8E0,3E0,2.63E2,1.6E1,1.9E1,1.2E1,1.05E2,1E1,2.26E2,5E0],"tree_param":{"num_deleted":"0","num_feature":"5","num_nodes":"111","size_leaf_vector":"1"}},{"base_weights":[2.6555343E-2,-1.382E-2,1.4486685E0,1.6385473E0,-4.669381E-2,1.1478653E0,4.5037446E0,9.8455316E-1,6.256936E0,-2.8223522E-2,-2.8117561E0,2.7679236E0,7.841474E-1,1.9363148E0,1.760041E-1,2.8801918E-1,9.780682E0,-3.556811E-2,6.0252643E0,-6.4736333E0,3.1969142E0,-4.5548478E-1,2.5577164E0,-2.2526884E0,2.5538023E0,-5.0329366E0,8.646627E-1,3.2778284E-1,-3.443807E-1,3.7295375E0,-1.2356301E-1,-6.7413956E-1,3.125612E-2,5.12542E-1,2.8463457E0,1.5583359E0,-8.851185E0,6.9203506E0,-1.165905E0,1.5329388E0,-2.9029107E0,6.2375517E0,-1.1337421E-1,3.7321472E-1,-1.1498852E0,2.9460487E0,5.4327303E-1,-1.8991069E0,-1.7110176E-1,8.966526E-1,-5.640767E-2,-1.2635651E-1,-2.8614808E-2,-2.2384368E-1,2.0973573E0,8.852049E-1,-1.9273547E-3,-2.9050694E0,4.5747757E-2,-4.7730735E-1,2.8337853E0,7.089424E-1,-1.2918949E0,-1.968081E-1,3.91403E0,-1.8115134E0,-2.4050167E-3,-1.3906265E0,2.4365807E0,-8.909931E-1,1.169162E0],"categories":[],"categories_nodes":[],"categories_segments":[],"categories_sizes":[],"default_left":[0,0,0,0,0,0,0,0,0,0,0,0,0,0,0,0,0,0,0,0,0,0,0,0,0,0,0,0,0,0,0,0,0,0,0,0,0,0,0,0,0,0,0,0,0,0,0,0,0,0,0,0,0,0,0,0,0,0,0,0,0,0,0,0,0,0,0,0,0,0,0],"id":12,"left_children":[1,3,5,7,9,11,-1,13,15,17,19,-1,21,23,25,27,29,31,33,35,37,39,41,43,45,47,49,-1,51,-1,-1,53,55,-1,-1,-1,57,59,61,63,65,67,69,-1,-1,-1,-1,-1,-1,-1,-1,-1,-1,-1,-1,-1,-1,-1,-1,-1,-1,-1,-1,-1,-1,-1,-1,-1,-1,-1,-1],"loss_changes":[1.9966347E2,1.8378543E2,3.7445123E2,1.9318605E2,1.693248E2,2.7190482E2,0E0,4.5062412E1,1.6544653E2,1.4675569E2,5.047619E2,0E0,2.0343375E2,7.559265E1,1.227288E2,2.4115646E0,1.402283E2,1.4054012E2,4.357881E1,4.3435785E2,1.542706E2,2.7210858E2,3.7421576E2,2.6871426E1,1.117715E2,1.9548988E1,6.764493E1,0E0,1.7200798E-2,0E0,0E0,1.7742473E2,3.2805646E2,0E0,0E0,0E0,9.141034E1,1.22510376E2,6.558973E1,7.898638E2,2.2687268E2,3.654702E2,2.7507727E2,0E0,0E0,0E0,0E0,0E0,0E0,0E0,0E0,0E0,0E0,0E0,0E0,0E0,0E0,0E0,0E0,0E0,0E0,0E0,0E0,0E0,0E0,0E0,0E0,0E0,0E0,0E0,0E0],"parents":[2147483647,0,0,1,1,2,2,3,3,4,4,5,5,7,7,8,8,9,9,10,10,12,12,13,13,14,14,15,15,16,16,17,17,18,18,19,19,20,20,21,21,22,22,23,23,24,24,25,25,26,26,28,28,31,31,32,32,36,36,37,37,38,38,39,39,40,40,41,41,42,42],"right_children":[2,4,6,8,10,12,-1,14,16,18,20,-1,22,24,26,28,30,32,34,36,38,40,42,44,46,48,50,-1,52,-1,-1,54,56,-1,-1,-1,58,60,62,64,66,68,70,-1,-1,-1,-1,-1,-1,-1,-1,-1,-1,-1,-1,-1,-1,-1,-1,-1,-1,-1,-1,-1,-1,-1,-1,-1,-1,-1,-1],"split_conditions":[5.1E1,8.669949E0,1.90665E1,1.2E0,4.8666668E1,5.1333332E1,4.5037446E0,1.1519167E0,1.4175499E2,4.8333332E1,1.4000001E0,2.7679236E0,7.1873336E0,1.7E1,2.1269166E0,1.4333333E1,1.7312336E1,5.6864456E1,2.712333E0,4.620633E1,4.9081664E0,2.320667E0,1.5540018E2,-8.420999E0,1.7333334E1,3.4666668E1,5.9498343E0,3.2778284E-1,1.9E1,3.7295375E0,-1.2356301E-1,4.8E1,6.406369E1,5.12542E-1,2.8463457E0,1.5583359E0,1.6797749E1,4.9333332E1,2.3185787E1,1.6810833E0,1.5472672E1,9.994046E0,2.5146318E2,3.7321472E-1,-1.1498852E0,2.9460487E0,5.4327303E-1,-1.8991069E0,-1.7110176E-1,8.966526E-1,-5.640767E-2,-1.2635651E-1,-2.8614808E-2,-2.2384368E-1,2.0973573E0,8.852049E-1,-1.9273547E-3,-2.9050694E0,4.5747757E-2,-4.7730735E-1,2.8337853E0,7.089424E-1,-1.2918949E0,-1.968081E-1,3.91403E0,-1.8115134E0,-2.4050167E-3,-1.3906265E0,2.4365807E0,-8.909931E-1,1.169162E0],"split_indices":[0,3,1,2,0,0,0,1,4,0,2,0,1,0,1,0,1,4,1,4,1,1,4,1,0,0,1,0,0,0,0,0,4,0,0,0,1,0,3,1,3,4,4,0,0,0,0,0,0,0,0,0,0,0,0,0,0,0,0,0,0,0,0,0,0,0,0,0,0,0,0],"split_type":[0,0,0,0,0,0,0,0,0,0,0,0,0,0,0,0,0,0,0,0,0,0,0,0,0,0,0,0,0,0,0,0,0,0,0,0,0,0,0,0,0,0,0,0,0,0,0,0,0,0,0,0,0,0,0,0,0,0,0,0,0,0,0,0,0,0,0,0,0,0,0],"sum_hessian":[3.476E3,3.381E3,9.5E1,6.5E1,3.316E3,9.4E1,1E0,5.8E1,7E0,3.295E3,2.1E1,3E0,9.1E1,2.6E1,3.2E1,3E0,4E0,3.292E3,3E0,1.3E1,8E0,5.4E1,3.7E1,3E0,2.3E1,3E0,2.9E1,1E0,2E0,3E0,1E0,3.11E2,2.981E3,2E0,1E0,2E0,1.1E1,4E0,4E0,3E1,2.4E1,1.5E1,2.2E1,1E0,2E0,1E0,2.2E1,2E0,1E0,9E0,2E1,1E0,1E0,3.09E2,2E0,3.7E1,2.944E3,1E1,1E0,1E0,3E0,2E0,2E0,2.6E1,4E0,1.1E1,1.3E1,2E0,1.3E1,1.3E1,9E0],"tree_param":{"num_deleted":"0","num_feature":"5","num_nodes":"71","size_leaf_vector":"1"}},{"base_weights":[2.5015853E-2,-1.9196741E-2,9.1259956E-1,4.6146824E-4,-4.3414125E0,2.7046284E-1,6.4870567E0,1.6668598E-1,-3.5773215E-1,-6.6147633E0,1.5282414E0,-3.4190777E-1,2.2748103E0,-1.0995474E0,8.191297E0,2.3819625E-1,-2.324063E0,4.2303094E-1,-7.1499306E-1,-7.496362E0,3.301841E-1,1.273653E0,-2.1245337E-1,-3.0966144E0,1.0226436E-1,1.512291E1,1.0378675E0,-5.9632534E-1,2.3475952E-1,1.1547352E1,3.1856194E0,-6.507321E-1,4.424713E-1,-2.6521318E0,3.1779838E0,-2.694529E0,8.033341E-1,-3.9238431E0,-5.790921E-1,-3.7385933E0,-1.05064125E1,-1.2081299E0,4.1618645E-1,2.2545383E0,-4.3050723E0,-3.6550083E0,6.077139E-1,6.050662E-1,6.2002435E0,-2.870949E0,2.2006624E0,9.3013173E-1,3.69334E0,-4.4893286E-1,1.2646111E0,1.5576599E0,-2.2510809E-1,5.018286E-1,9.244969E-3,-4.4707766E-1,-1.7262424E0,2.1203907E0,-1.2737956E0,-1.4999661E0,5.306364E-1,1.4928651E-1,1.3681296E0,-4.252752E-1,-2.563193E0,2.2730749E0,-2.203865E-1,-2.7380526E-1,-1.8780824E0,-3.4950302E0,-8.897498E-1,-4.3409732E-1,-1.0956116E-1,-2.4600656E0,-7.943803E-1,5.186567E-1,-1.9689143E0,1.260125E0,4.530888E-2,-1.2117969E0,7.9615E-1,1.4291642E0,1.0131645E-3],"categories":[],"categories_nodes":[],"categories_segments":[],"categories_sizes":[],"default_left":[0,0,0,0,0,0,0,0,0,0,0,0,0,0,0,0,0,0,0,0,0,0,0,0,0,0,0,0,0,0,0,0,0,0,0,0,0,0,0,0,0,0,0,0,0,0,0,0,0,0,0,0,0,0,0,0,0,0,0,0,0,0,0,0,0,0,0,0,0,0,0,0,0,0,0,0,0,0,0,0,0,0,0,0,0,0,0],"id":13,"left_children":[1,3,5,7,9,11,13,15,17,19,21,23,25,27,29,31,33,35,37,39,-1,-1,41,43,45,47,49,-1,-1,51,53,55,57,59,61,63,65,67,69,71,73,75,-1,-1,77,79,81,-1,-1,83,85,-1,-1,-1,-1,-1,-1,-1,-1,-1,-1,-1,-1,-1,-1,-1,-1,-1,-1,-1,-1,-1,-1,-1,-1,-1,-1,-1,-1,-1,-1,-1,-1,-1,-1,-1,-1],"loss_changes":[1.3646326E2,2.8149777E2,5.888734E2,1.9648395E2,2.1026569E2,1.8366089E2,2.288064E2,4.0202283E2,2.9206964E2,8.307117E1,2.4551651E1,1.4102652E2,5.405371E2,8.242157E0,1.9840521E2,3.983242E2,1.22146576E2,3.922329E2,3.108373E2,7.383154E1,0E0,0E0,8.047324E0,2.3753467E2,1.9213237E2,1.7631769E2,1.5630801E2,0E0,0E0,1.3442871E1,4.005757E1,2.4256546E2,9.0295764E2,2.0767328E2,1.4552698E2,3.792673E2,3.3541656E2,3.2368655E2,8.808312E2,3.7042587E1,8.568115E0,7.558012E-2,0E0,0E0,7.5108246E1,1.9922438E2,1.4539067E2,0E0,0E0,6.2359764E1,1.4641908E2,0E0,0E0,0E0,0E0,0E0,0E0,0E0,0E0,0E0,0E0,0E0,0E0,0E0,0E0,0E0,0E0,0E0,0E0,0E0,0E0,0E0,0E0,0E0,0E0,0E0,0E0,0E0,0E0,0E0,0E0,0E0,0E0,0E0,0E0,0E0,0E0],"parents":[2147483647,0,0,1,1,2,2,3,3,4,4,5,5,6,6,7,7,8,8,9,9,10,10,11,11,12,12,13,13,14,14,15,15,16,16,17,17,18,18,19,19,22,22,23,23,24,24,25,25,26,26,29,29,30,30,31,31,32,32,33,33,34,34,35,35,36,36,37,37,38,38,39,39,40,40,41,41,44,44,45,45,46,46,49,49,50,50],"right_children":[2,4,6,8,10,12,14,16,18,20,22,24,26,28,30,32,34,36,38,40,-1,-1,42,44,46,48,50,-1,-1,52,54,56,58,60,62,64,66,68,70,72,74,76,-1,-1,78,80,82,-1,-1,84,86,-1,-1,-1,-1,-1,-1,-1,-1,-1,-1,-1,-1,-1,-1,-1,-1,-1,-1,-1,-1,-1,-1,-1,-1,-1,-1,-1,-1,-1,-1,-1,-1,-1,-1,-1,-1],"split_conditions":[1.9318586E1,1.9189417E1,4.4999995E0,1.1891501E1,1.8792551E1,1.80036E1,1.0446206E1,1.0299999E1,1.6930354E2,2.9333334E1,1.8861387E1,1.9654001E1,1.8171976E1,2.5666666E1,2.0497751E1,1.07975494E2,4.0666668E1,1.01376915E1,1.7791405E2,2.2E1,3.301841E-1,1.273653E0,1.8666666E1,1.0799999E1,1.1177405E1,1.5E1,1.4175499E2,-5.9632534E-1,2.3475952E-1,1.4333333E1,2.0678999E1,-7.87725E0,2.0503342E2,2.3333334E1,5.5E1,4E-1,1.0000001E1,2.1333334E1,1.8128822E2,2E-1,2.2627174E2,1.3E1,4.1618645E-1,2.2545383E0,1.3202726E1,9.9571085E0,1.9874834E1,6.050662E-1,6.2002435E0,2.374775E1,2.0070912E2,9.3013173E-1,3.69334E0,-4.4893286E-1,1.2646111E0,1.5576599E0,-2.2510809E-1,5.018286E-1,9.244969E-3,-4.4707766E-1,-1.7262424E0,2.1203907E0,-1.2737956E0,-1.4999661E0,5.306364E-1,1.4928651E-1,1.3681296E0,-4.252752E-1,-2.563193E0,2.2730749E0,-2.203865E-1,-2.7380526E-1,-1.8780824E0,-3.4950302E0,-8.897498E-1,-4.3409732E-1,-1.0956116E-1,-2.4600656E0,-7.943803E-1,5.186567E-1,-1.9689143E0,1.260125E0,4.530888E-2,-1.2117969E0,7.9615E-1,1.4291642E0,1.0131645E-3],"split_indices":[1,1,2,1,3,3,3,2,4,0,3,1,3,0,1,4,0,3,4,0,0,0,0,3,3,0,4,0,0,0,1,1,4,0,0,2,2,0,4,2,4,0,0,0,3,3,1,0,0,1,4,0,0,0,0,0,0,0,0,0,0,0,0,0,0,0,0,0,0,0,0,0,0,0,0,0,0,0,0,0,0,0,0,0,0,0,0],"split_type":[0,0,0,0,0,0,0,0,0,0,0,0,0,0,0,0,0,0,0,0,0,0,0,0,0,0,0,0,0,0,0,0,0,0,0,0,0,0,0,0,0,0,0,0,0,0,0,0,0,0,0,0,0,0,0,0,0,0,0,0,0,0,0,0,0,0,0,0,0,0,0,0,0,0,0,0,0,0,0,0,0,0,0,0,0,0,0],"sum_hessian":[3.476E3,3.312E3,1.64E2,3.298E3,1.4E1,1.48E2,1.6E1,2.253E3,1.045E3,1E1,4E0,1.14E2,3.4E1,3E0,1.3E1,2.191E3,6.2E1,3.28E2,7.17E2,9E0,1E0,1E0,3E0,1.5E1,9.9E1,2E0,3.2E1,2E0,1E0,7E0,6E0,4.09E2,1.782E3,5.9E1,3E0,3.5E1,2.93E2,2.8E1,6.89E2,5E0,4E0,2E0,1E0,1E0,1.4E1,1.1E1,8.8E1,1E0,1E0,7E0,2.5E1,1E0,6E0,1E0,5E0,6E0,4.03E2,4.46E2,1.336E3,4.4E1,1.5E1,2E0,1E0,2.3E1,1.2E1,2.72E2,2.1E1,1.9E1,9E0,1.2E1,6.77E2,3E0,2E0,3E0,1E0,1E0,1E0,3E0,1.1E1,4E0,7E0,9E0,7.9E1,6E0,1E0,1.1E1,1.4E1],"tree_param":{"num_deleted":"0","num_feature":"5","num_nodes":"87","size_leaf_vector":"1"}},{"base_weights":[1.9472962E-2,-2.1999812E-2,7.882408E-1,-1.8268218E-3,-2.6645882E0,3.6021433E0,5.2730453E-1,-1.8050123E-2,2.9355936E0,3.296564E-1,-9.068565E0,-3.3632633E-1,2.3210723E0,1.5899158E-3,-2.5587492E0,1.3432516E1,-1.0229924E0,-3.229203E0,4.2473164E0,-3.0271044E0,-2.874138E-1,-1.6511688E0,1.8625518E0,4.8900557E0,1.6123998E-1,-1.6274184E-2,5.238875E0,-4.8739E0,1.4013668E0,2.0295763E0,8.856642E0,3.6537185E0,-4.9872403E0,-5.317236E0,1.024586E0,-6.2943935E-1,5.3027635E0,-3.4382644E0,-3.139366E-1,3.9209394E0,-1.7583771E0,9.873669E0,2.901288E0,8.4256554E-1,-2.0117288E0,2.6914407E-3,-4.044396E-1,-8.524188E-1,2.5872455E0,-1.8276231E0,7.3066753E-1,4.2064214E0,-1.8030837E0,-5.647562E-1,1.1883347E0,1.5205067E0,2.3425102E-2,-2.3317616E0,6.737307E-1,-2.57242E0,-8.4068465E-1,1.9023933E0,-2.9506016E-1,-1.4564801E0,6.944494E-1,1.7068254E0,-5.418164E-1,3.701314E-1,2.9266016E0,-2.337496E0,2.0921205E-1,3.5532444E0,9.894943E-1,-5.5653816E-1,2.3529649E0,1.0272262E0,-3.9988685E-1],"categories":[],"categories_nodes":[],"categories_segments":[],"categories_sizes":[],"default_left":[0,0,0,0,0,0,0,0,0,0,0,0,0,0,0,0,0,0,0,0,0,0,0,0,0,0,0,0,0,0,0,0,0,0,0,0,0,0,0,0,0,0,0,0,0,0,0,0,0,0,0,0,0,0,0,0,0,0,0,0,0,0,0,0,0,0,0,0,0,0,0,0,0,0,0,0,0],"id":14,"left_children":[1,3,5,7,9,-1,11,13,15,17,19,21,23,25,27,29,31,33,35,-1,-1,37,39,41,43,45,47,49,51,53,-1,55,57,59,-1,-1,61,63,65,67,69,71,73,75,-1,-1,-1,-1,-1,-1,-1,-1,-1,-1,-1,-1,-1,-1,-1,-1,-1,-1,-1,-1,-1,-1,-1,-1,-1,-1,-1,-1,-1,-1,-1,-1,-1],"loss_changes":[1.10874306E2,1.7591455E2,5.147492E2,1.5616965E2,4.8236633E2,0E0,2.7188242E2,1.6262633E2,7.616948E2,2.6467865E2,5.6630432E1,3.4712564E2,3.1548022E2,3.0274985E2,2.3603673E2,8.574274E2,2.7777695E2,1.5689902E2,7.1401474E1,0E0,0E0,1.7815274E2,3.4229187E2,2.2904608E2,1.5536731E2,1.08448265E2,3.2539804E2,1.5730502E2,1.019625E3,3.7682358E1,0E0,3.5011818E1,1.78624E2,4.151082E1,0E0,0E0,5.846585E1,2.7204584E2,4.044148E2,4.4262643E2,2.5730945E2,5.1630432E1,4.8466733E2,1.7304884E2,0E0,0E0,0E0,0E0,0E0,0E0,0E0,0E0,0E0,0E0,0E0,0E0,0E0,0E0,0E0,0E0,0E0,0E0,0E0,0E0,0E0,0E0,0E0,0E0,0E0,0E0,0E0,0E0,0E0,0E0,0E0,0E0,0E0],"parents":[2147483647,0,0,1,1,2,2,3,3,4,4,6,6,7,7,8,8,9,9,10,10,11,11,12,12,13,13,14,14,15,15,16,16,17,17,18,18,21,21,22,22,23,23,24,24,25,25,26,26,27,27,28,28,29,29,31,31,32,32,33,33,36,36,37,37,38,38,39,39,40,40,41,41,42,42,43,43],"right_children":[2,4,6,8,10,-1,12,14,16,18,20,22,24,26,28,30,32,34,36,-1,-1,38,40,42,44,46,48,50,52,54,-1,56,58,60,-1,-1,62,64,66,68,70,72,74,76,-1,-1,-1,-1,-1,-1,-1,-1,-1,-1,-1,-1,-1,-1,-1,-1,-1,-1,-1,-1,-1,-1,-1,-1,-1,-1,-1,-1,-1,-1,-1,-1,-1],"split_conditions":[4.4666668E1,4.3333332E1,4.5E1,4.2666668E1,7E-1,3.6021433E0,1.0000001E0,4.1666668E1,6.873334E-1,4.4E1,1.8861387E1,7.6977496E0,1.6575644E1,4.1333332E1,1.6981165E1,1.7442348E2,1.5546833E1,2.5074368E2,-4.860584E0,-3.0271044E0,-2.874138E-1,5.2E1,1.6720667E1,9.748334E-1,3.0254428E2,1.35E1,2.873334E-1,2.938274E2,1.9242327E1,4.3E1,8.856642E0,1.3755579E1,2.631942E2,7.959716E1,1.024586E0,-6.2943935E-1,2.0503342E2,1.9702394E1,5.3E1,1.3608169E1,1.2849528E1,5E1,1.405845E1,5.2123337E0,-2.0117288E0,2.6914407E-3,-4.044396E-1,-8.524188E-1,2.5872455E0,-1.8276231E0,7.3066753E-1,4.2064214E0,-1.8030837E0,-5.647562E-1,1.1883347E0,1.5205067E0,2.3425102E-2,-2.3317616E0,6.737307E-1,-2.57242E0,-8.4068465E-1,1.9023933E0,-2.9506016E-1,-1.4564801E0,6.944494E-1,1.7068254E0,-5.418164E-1,3.701314E-1,2.9266016E0,-2.337496E0,2.0921205E-1,3.5532444E0,9.894943E-1,-5.5653816E-1,2.3529649E0,1.0272262E0,-3.9988685E-1],"split_indices":[0,0,0,0,2,0,2,0,1,0,3,1,3,0,3,4,3,4,1,0,0,0,1,1,4,2,1,4,3,0,0,3,4,4,0,0,4,3,0,1,3,0,3,1,0,0,0,0,0,0,0,0,0,0,0,0,0,0,0,0,0,0,0,0,0,0,0,0,0,0,0,0,0,0,0,0,0],"split_type":[0,0,0,0,0,0,0,0,0,0,0,0,0,0,0,0,0,0,0,0,0,0,0,0,0,0,0,0,0,0,0,0,0,0,0,0,0,0,0,0,0,0,0,0,0,0,0,0,0,0,0,0,0,0,0,0,0,0,0,0,0,0,0,0,0,0,0,0,0,0,0,0,0,0,0,0,0],"sum_hessian":[3.476E3,3.299E3,1.77E2,3.275E3,2.4E1,3E0,1.74E2,3.258E3,1.7E1,1.7E1,7E0,1.18E2,5.6E1,3.234E3,2.4E1,4E0,1.3E1,9E0,8E0,6E0,1E0,7.4E1,4.4E1,2.5E1,3.1E1,3.224E3,1E1,1.5E1,9E0,3E0,1E0,6E0,7E0,7E0,2E0,1E0,7E0,3.1E1,4.3E1,2.8E1,1.6E1,6E0,1.9E1,2.9E1,2E0,3.165E3,5.9E1,3E0,7E0,1.3E1,2E0,3E0,6E0,1E0,2E0,4E0,2E0,5E0,2E0,2E0,5E0,6E0,1E0,2.5E1,6E0,8E0,3.5E1,2E1,8E0,4E0,1.2E1,4E0,2E0,1E1,9E0,1.3E1,1.6E1],"tree_param":{"num_deleted":"0","num_feature":"5","num_nodes":"77","size_leaf_vector":"1"}},{"base_weights":[1.8637892E-2,-1.0645189E0,4.674974E-2,-1.392326E0,4.764257E-2,1.185752E-1,-3.4810466E-1,6.852499E-1,-1.481291E0,2.7612827E0,-7.532894E-1,2.8071377E-1,-1.5267196E-1,1.2372636E0,-5.298995E-1,-1.9469426E0,-5.6587607E-1,1.5829253E-1,9.5633477E-1,1.5536007E0,-1.1644481E0,-4.310623E-1,5.050877E-1,-8.860862E-1,1.8099496E-1,-2.9819646E0,1.9291053E0,-1.0165682E0,-2.836048E-2,-2.569769E0,-1.3208468E0,1.4157236E0,-1.0329822E0,2.5738837E-2,6.7338145E-1,-1.9432218E0,-2.4011838E-1,1.4629463E0,-7.775487E-1,8.240567E-1,-4.8686126E-1,-5.10632E-1,-4.000687E0,-3.1990469E-1,8.637526E-1,-3.4208744E0,1.3560677E-2,8.005406E-1,3.8735993E0,-6.1327314E0,-8.8045853E-1,-1.418831E-1,5.1539435E0,-1.4317308E-1,-9.1021645E-1,-2.7648175E-1,-7.9609233E-1,7.64823E-1,-5.696116E-2,-5.702828E-1,-1.2581775E-1,-6.6325253E-1,-1.048236E-2,-1.6681404E-1,-1.2640334E-2,-1.5428707E-1,7.524571E-1,-1.9775108E-1,-1.7933373E0,5.9587383E-1,1.3935421E-1,2.6628345E-1,-3.9197546E-1,-2.716487E-1,2.9945183E0,-2.1473765E0,-1.3373703E-1,-7.765297E-1,-2.1672394E-2,2.9076263E-1,-3.1069362E0,-1.309085E0,-4.8687416E-1,1.3540789E0,-6.3955975E-1,1.5579689E-1,2.0392427E0,-5.144234E-1,-2.0020142E0,-2.0213412E-1,-1.1517788E0,-8.439645E-3,-1.3037941E0,1.8726907E0,7.042812E-1],"categories":[],"categories_nodes":[],"categories_segments":[],"categories_sizes":[],"default_left":[0,0,0,0,0,0,0,0,0,0,0,0,0,0,0,0,0,0,0,0,0,0,0,0,0,0,0,0,0,0,0,0,0,0,0,0,0,0,0,0,0,0,0,0,0,0,0,0,0,0,0,0,0,0,0,0,0,0,0,0,0,0,0,0,0,0,0,0,0,0,0,0,0,0,0,0,0,0,0,0,0,0,0,0,0,0,0,0,0,0,0,0,0,0,0],"id":15,"left_children":[1,3,5,7,9,11,13,-1,15,17,19,21,23,25,27,29,31,-1,-1,33,35,37,39,41,43,45,47,49,51,53,55,57,59,-1,-1,61,63,65,67,69,71,73,75,77,79,81,-1,83,85,87,89,91,93,-1,-1,-1,-1,-1,-1,-1,-1,-1,-1,-1,-1,-1,-1,-1,-1,-1,-1,-1,-1,-1,-1,-1,-1,-1,-1,-1,-1,-1,-1,-1,-1,-1,-1,-1,-1,-1,-1,-1,-1,-1,-1],"loss_changes":[1.0592282E2,3.2148888E1,9.618371E1,2.5624893E1,4.7722313E1,1.2622041E2,1.5110216E2,0E0,2.7457993E1,3.0812302E0,1.7933552E1,2.8704608E2,2.6298547E2,1.6338058E2,1.1444626E2,1.37634735E1,2.3677235E1,0E0,0E0,2.8501992E0,1.0331051E1,2.8398044E2,4.3260495E2,3.9087213E2,2.530092E2,1.0783867E1,1.0003992E2,1.6033385E2,1.372189E2,1.8954147E1,1.0324936E1,9.585258E0,9.854193E0,0E0,0E0,4.0083027E0,4.769613E-1,1.3975845E2,2.2075238E2,4.3114117E2,3.763467E2,1.2560969E3,4.0086023E2,2.3971497E2,3.8039166E2,4.7833176E0,0E0,3.471562E2,1.6319724E2,2.888321E0,1.3989737E2,1.0891191E2,6.170502E-1,0E0,0E0,0E0,0E0,0E0,0E0,0E0,0E0,0E0,0E0,0E0,0E0,0E0,0E0,0E0,0E0,0E0,0E0,0E0,0E0,0E0,0E0,0E0,0E0,0E0,0E0,0E0,0E0,0E0,0E0,0E0,0E0,0E0,0E0,0E0,0E0,0E0,0E0,0E0,0E0,0E0,0E0],"parents":[2147483647,0,0,1,1,2,2,3,3,4,4,5,5,6,6,8,8,9,9,10,10,11,11,12,12,13,13,14,14,15,15,16,16,19,19,20,20,21,21,22,22,23,23,24,24,25,25,26,26,27,27,28,28,29,29,30,30,31,31,32,32,35,35,36,36,37,37,38,38,39,39,40,40,41,41,42,42,43,43,44,44,45,45,47,47,48,48,49,49,50,50,51,51,52,52],"right_children":[2,4,6,8,10,12,14,-1,16,18,20,22,24,26,28,30,32,-1,-1,34,36,38,40,42,44,46,48,50,52,54,56,58,60,-1,-1,62,64,66,68,70,72,74,76,78,80,82,-1,84,86,88,90,92,94,-1,-1,-1,-1,-1,-1,-1,-1,-1,-1,-1,-1,-1,-1,-1,-1,-1,-1,-1,-1,-1,-1,-1,-1,-1,-1,-1,-1,-1,-1,-1,-1,-1,-1,-1,-1,-1,-1,-1,-1,-1,-1],"split_conditions":[7.3333335E0,3.014784E2,2.9770987E2,7.6367526E0,4.487334E0,1.1891501E1,-4.860584E0,6.852499E-1,1.0000001E0,6E0,3.0978772E2,1.1263491E2,1.4885247E1,3.0780145E2,1.7654688E1,1.6394829E1,1.5000001E0,1.5829253E-1,9.5633477E-1,5.6666665E0,9.083167E0,1.0853866E1,2E0,3.5666668E1,4E-1,2.2666666E1,-6.023084E0,-4.1709995E0,5.2666668E1,1.1062996E2,2.8823413E2,6.6666665E0,2.4999998E0,2.5738837E-2,6.7338145E-1,7E0,6.3333335E0,9E0,1.1062996E2,1.9862555E2,2.983167E0,3.4E1,4.4666668E1,1.1090103E1,3.05173E1,1.457889E1,1.3560677E-2,1.3779114E1,1.3849476E1,1.1333333E1,1.7388409E1,4.3666668E1,2.7567635E1,-1.4317308E-1,-9.1021645E-1,-2.7648175E-1,-7.9609233E-1,7.64823E-1,-5.696116E-2,-5.702828E-1,-1.2581775E-1,-6.6325253E-1,-1.048236E-2,-1.6681404E-1,-1.2640334E-2,-1.5428707E-1,7.524571E-1,-1.9775108E-1,-1.7933373E0,5.9587383E-1,1.3935421E-1,2.6628345E-1,-3.9197546E-1,-2.716487E-1,2.9945183E0,-2.1473765E0,-1.3373703E-1,-7.765297E-1,-2.1672394E-2,2.9076263E-1,-3.1069362E0,-1.309085E0,-4.8687416E-1,1.3540789E0,-6.3955975E-1,1.5579689E-1,2.0392427E0,-5.144234E-1,-2.0020142E0,-2.0213412E-1,-1.1517788E0,-8.439645E-3,-1.3037941E0,1.8726907E0,7.042812E-1],"split_indices":[0,4,4,3,1,1,1,0,2,0,4,4,1,4,3,3,2,0,0,0,1,3,2,0,2,0,1,1,0,4,4,0,2,0,0,0,0,3,4,4,1,0,0,3,3,3,0,3,3,0,3,0,3,0,0,0,0,0,0,0,0,0,0,0,0,0,0,0,0,0,0,0,0,0,0,0,0,0,0,0,0,0,0,0,0,0,0,0,0,0,0,0,0,0,0],"split_type":[0,0,0,0,0,0,0,0,0,0,0,0,0,0,0,0,0,0,0,0,0,0,0,0,0,0,0,0,0,0,0,0,0,0,0,0,0,0,0,0,0,0,0,0,0,0,0,0,0,0,0,0,0,0,0,0,0,0,0,0,0,0,0,0,0,0,0,0,0,0,0,0,0,0,0,0,0,0,0,0,0,0,0,0,0,0,0,0,0,0,0,0,0,0,0],"sum_hessian":[3.476E3,8.7E1,3.389E3,6.7E1,2E1,2.868E3,5.21E2,1E0,6.6E1,4E0,1.6E1,1.795E3,1.073E3,5.3E1,4.68E2,4.3E1,2.3E1,1E0,3E0,2E0,1.4E1,4.3E2,1.365E3,3.35E2,7.38E2,7E0,4.6E1,2.37E2,2.31E2,2E1,2.3E1,4E0,1.9E1,1E0,1E0,7E0,7E0,6.6E1,3.64E2,1.033E3,3.32E2,3E2,3.5E1,4.26E2,3.12E2,6E0,1E0,3E1,1.6E1,5E0,2.32E2,2.27E2,4E0,4E0,1.6E1,1.9E1,4E0,2E0,2E0,7E0,1.2E1,6E0,1E0,2E0,5E0,2.3E1,4.3E1,3.57E2,7E0,2.43E2,7.9E2,1.24E2,2.08E2,2.9E2,1E1,1.8E1,1.7E1,4.1E1,3.85E2,3.1E2,2E0,3E0,3E0,1.3E1,1.7E1,8E0,8E0,1E0,4E0,2.18E2,1.4E1,2.22E2,5E0,2E0,2E0],"tree_param":{"num_deleted":"0","num_feature":"5","num_nodes":"95","size_leaf_vector":"1"}},{"base_weights":[1.1348819E-2,8.391383E-1,-1.9258587E-2,1.1027861E0,-2.2767243E0,-5.7084236E-2,7.361927E-1,1.2716597E0,-1.6877159E0,-3.8515115E0,1.0483341E0,-4.1636333E-2,-3.3292642E0,2.3557015E-1,5.5598392E0,7.4346167E-1,3.1011784E0,-1.1949879E0,-1.402537E0,4.32798E-1,-2.0196535E-2,2.4402302E-3,-6.1795795E-1,-5.0804586E0,1.1892163E0,-8.271708E-1,1.0079745E0,7.573164E0,2.177016E0,1.256706E0,-2.095826E0,7.680861E0,1.250707E0,-4.465675E-1,-9.117708E-2,-6.930585E-2,8.9501566E-1,-2.4853837E0,5.667385E-2,-5.7955527E0,3.1057262E-1,1.0854524E0,-3.22567E-1,5.2373344E-1,-3.6902564E0,-1.3028908E-2,3.325368E0,3.0764084E0,1.3569851E0,-4.2561153E-1,3.0127537E0,1.8535665E-1,2.2397046E0,-1.4815131E0,4.356622E-1,-8.182068E-2,2.715575E0,5.795324E-1,-5.3587204E-1,1.8220898E-2,-1.5685429E-1,6.8970877E-1,6.316781E-2,-1.1573013E0,-1.22962415E-1,5.090181E-1,-2.0370328E-1,2.0379896E-1,-1.9771396E0,-3.3552036E-1,3.0974036E-1,-1.90063E-2,1.0656279E0,-1.8646277E0,-5.5573213E-1,1.3454928E0,-3.0069882E-1,1.9711229E0,1.5229306E-1,2.4608345E-1,9.86158E-1],"categories":[],"categories_nodes":[],"categories_segments":[],"categories_sizes":[],"default_left":[0,0,0,0,0,0,0,0,0,0,0,0,0,0,0,0,0,0,0,0,0,0,0,0,0,0,0,0,0,0,0,0,0,0,0,0,0,0,0,0,0,0,0,0,0,0,0,0,0,0,0,0,0,0,0,0,0,0,0,0,0,0,0,0,0,0,0,0,0,0,0,0,0,0,0,0,0,0,0,0,0],"id":16,"left_children":[1,3,5,7,9,11,13,15,-1,17,19,21,23,25,27,29,31,33,-1,-1,-1,35,37,39,41,43,45,47,49,51,53,55,57,-1,-1,59,61,63,65,67,-1,-1,69,71,73,75,77,-1,-1,-1,79,-1,-1,-1,-1,-1,-1,-1,-1,-1,-1,-1,-1,-1,-1,-1,-1,-1,-1,-1,-1,-1,-1,-1,-1,-1,-1,-1,-1,-1,-1],"loss_changes":[8.811113E1,1.0437551E2,9.588403E1,1.3782478E2,5.6400265E1,1.6136327E2,3.8506244E2,1.0689174E2,0E0,9.728897E0,1.8568506E0,8.080614E1,1.247328E2,1.20680145E2,8.567389E1,1.3232892E2,2.022578E2,3.3236217E-1,0E0,0E0,0E0,1.8936069E2,2.8486124E2,5.410617E1,1.9527397E1,2.4173349E2,2.01159E2,2.7220215E1,2.5309769E1,2.968494E2,1.4836806E2,7.880252E1,4.274958E1,0E0,0E0,1.6145879E2,2.109328E2,1.6931055E2,2.0264798E2,5.5946716E1,0E0,0E0,5.4682455E0,7.667528E1,8.1302216E1,2.714881E2,2.3439902E2,0E0,0E0,0E0,9.137955E-1,0E0,0E0,0E0,0E0,0E0,0E0,0E0,0E0,0E0,0E0,0E0,0E0,0E0,0E0,0E0,0E0,0E0,0E0,0E0,0E0,0E0,0E0,0E0,0E0,0E0,0E0,0E0,0E0,0E0,0E0],"parents":[2147483647,0,0,1,1,2,2,3,3,4,4,5,5,6,6,7,7,9,9,10,10,11,11,12,12,13,13,14,14,15,15,16,16,17,17,21,21,22,22,23,23,24,24,25,25,26,26,27,27,28,28,29,29,30,30,31,31,32,32,35,35,36,36,37,37,38,38,39,39,42,42,43,43,44,44,45,45,46,46,50,50],"right_children":[2,4,6,8,10,12,14,16,-1,18,20,22,24,26,28,30,32,34,-1,-1,-1,36,38,40,42,44,46,48,50,52,54,56,58,-1,-1,60,62,64,66,68,-1,-1,70,72,74,76,78,-1,-1,-1,80,-1,-1,-1,-1,-1,-1,-1,-1,-1,-1,-1,-1,-1,-1,-1,-1,-1,-1,-1,-1,-1,-1,-1,-1,-1,-1,-1,-1,-1,-1],"split_conditions":[9.605998E0,3.3386517E2,1.9318586E1,5.2333332E1,3.1666666E1,1.9189417E1,4.4999995E0,8E-1,-1.6877159E0,1.7666666E1,3.8748333E0,7.2999997E0,1.8792551E1,1.7280525E2,2.0497751E1,3.4333332E1,2.983167E0,7.6666665E0,-1.402537E0,4.32798E-1,-2.0196535E-2,4.2000003E0,8.7E0,2.9333334E1,1.8861387E1,1.5540018E2,1.7477621E1,6.2999997E0,2.0678999E1,2.9E1,4.0333332E1,-5.0647497E0,1.8879002E1,-4.465675E-1,-9.117708E-2,1E0,2.983167E0,2.2380884E1,1.0299999E1,9.9571085E0,3.1057262E-1,1.0854524E0,1.8666666E1,2.374775E1,1.3350371E1,1.9073111E2,2.100171E2,3.0764084E0,1.3569851E0,-4.2561153E-1,2.4E1,1.8535665E-1,2.2397046E0,-1.4815131E0,4.356622E-1,-8.182068E-2,2.715575E0,5.795324E-1,-5.3587204E-1,1.8220898E-2,-1.5685429E-1,6.8970877E-1,6.316781E-2,-1.1573013E0,-1.22962415E-1,5.090181E-1,-2.0370328E-1,2.0379896E-1,-1.9771396E0,-3.3552036E-1,3.0974036E-1,-1.90063E-2,1.0656279E0,-1.8646277E0,-5.5573213E-1,1.3454928E0,-3.0069882E-1,1.9711229E0,1.5229306E-1,2.4608345E-1,9.86158E-1],"split_indices":[3,4,1,0,0,1,2,2,0,0,1,2,3,4,1,0,1,0,0,0,0,2,2,0,3,4,3,2,1,0,0,1,1,0,0,2,1,3,2,3,0,0,0,1,3,4,4,0,0,0,0,0,0,0,0,0,0,0,0,0,0,0,0,0,0,0,0,0,0,0,0,0,0,0,0,0,0,0,0,0,0],"split_type":[0,0,0,0,0,0,0,0,0,0,0,0,0,0,0,0,0,0,0,0,0,0,0,0,0,0,0,0,0,0,0,0,0,0,0,0,0,0,0,0,0,0,0,0,0,0,0,0,0,0,0,0,0,0,0,0,0,0,0,0,0,0,0,0,0,0,0,0,0,0,0,0,0,0,0,0,0,0,0,0,0],"sum_hessian":[3.476E3,1.23E2,3.353E3,1.14E2,9E0,3.194E3,1.59E2,1.12E2,2E0,6E0,3E0,3.18E3,1.4E1,1.45E2,1.4E1,8.8E1,2.4E1,2E0,4E0,2E0,1E0,2.955E3,2.25E2,1E1,4E0,6.1E1,8.4E1,8E0,6E0,7.5E1,1.3E1,6E0,1.8E1,1E0,1E0,2.736E3,2.19E2,5.9E1,1.66E2,9E0,1E0,1E0,3E0,4.2E1,1.9E1,5.9E1,2.5E1,3E0,5E0,1E0,5E0,6.9E1,6E0,7E0,6E0,1E0,5E0,1.5E1,3E0,2.127E3,6.09E2,7.1E1,1.48E2,3.5E1,2.4E1,5.1E1,1.15E2,1E0,8E0,2E0,1E0,3.6E1,6E0,7E0,1.2E1,1E1,4.9E1,1.1E1,1.4E1,1E0,4E0],"tree_param":{"num_deleted":"0","num_feature":"5","num_nodes":"81","size_leaf_vector":"1"}},{"base_weights":[9.989806E-3,-3.7203748E-2,4.6626005E-1,-1.4882183E-2,-1.3175246E0,1.4825349E0,-3.8706136E-1,-2.28372E-1,6.841423E-2,2.8416939E0,-2.102643E0,2.7005606E0,-4.2124265E-1,-1.5379095E0,8.074187E-1,1.974345E-1,-6.7880446E-1,1.7471173E0,1.4005337E-2,-4.0607756E-1,5.5211267E0,-7.212637E-1,-5.553739E0,1.5306844E-1,6.7721744E0,-2.2768066E0,1.2155397E0,-2.3769708E0,1.0461398E0,7.7919025E0,2.927883E-1,8.397328E-1,-8.6789674E-1,-7.828914E-1,8.17944E0,-1.223125E-2,5.3428397E0,3.691548E-1,-1.655577E-1,1.0293236E0,-9.2215234E-1,1.9384204E-1,1.9735016E0,-3.3926117E0,3.7612602E-1,-2.7664E0,-1.0927534E0,-1.9457679E0,3.3402946E0,1.9359125E1,4.523564E0,3.9395542E0,-3.1803522E0,-4.538881E0,2.7180552E0,-3.4984593E0,-3.876452E-1,5.479358E0,-4.897186E-1,3.1320932E0,-8.1752074E-1,-4.829005E-1,3.8414376E0,1.471592E-1,1.0886375E0,-8.589094E-1,1.4121059E-1,-3.3521402E-1,9.287121E-2,3.681303E0,4.0841717E-1,-6.0432637E-1,4.8589078E-1,-2.2763664E-1,2.594288E0,-9.6321054E-2,3.3718708E-1,-1.7019069E-2,-8.1135565E-1,7.048322E-1,-5.8158685E-2,-1.1884806E0,2.592449E-1,1.0005751E0,-1.5912525E-1,8.0336505E-1,-9.409755E-1,-1.6970369E0,7.090941E-2,2.1258829E0,-6.714326E-1,7.4110465E0,-3.027489E-1,6.6100035E0,7.6686674E-1,1.1913929E-1,1.4963956E0,7.5579417E-1,-1.3157911E0,-1.8929276E0,9.129576E-1,2.0517023E0,-2.2797298E-1,8.0451953E-1,-1.2550566E0,-1.0453658E0,5.2971196E-1,-4.5572168E-1,2.8075025E0,-3.7973252E-1,1.1437465E0,3.1090048E-1,-1.1326938E0,7.6455516E-1,2.4490848E0],"categories":[],"categories_nodes":[],"categories_segments":[],"categories_sizes":[],"default_left":[0,0,0,0,0,0,0,0,0,0,0,0,0,0,0,0,0,0,0,0,0,0,0,0,0,0,0,0,0,0,0,0,0,0,0,0,0,0,0,0,0,0,0,0,0,0,0,0,0,0,0,0,0,0,0,0,0,0,0,0,0,0,0,0,0,0,0,0,0,0,0,0,0,0,0,0,0,0,0,0,0,0,0,0,0,0,0,0,0,0,0,0,0,0,0,0,0,0,0,0,0,0,0,0,0,0,0,0,0,0,0,0,0,0,0],"id":17,"left_children":[1,3,5,7,9,11,13,15,17,19,21,23,25,27,29,31,33,35,37,39,41,43,45,47,49,51,53,55,57,59,61,63,65,67,69,71,73,75,77,79,-1,-1,-1,81,83,-1,85,87,89,91,93,95,97,99,101,103,105,107,109,-1,-1,111,113,-1,-1,-1,-1,-1,-1,-1,-1,-1,-1,-1,-1,-1,-1,-1,-1,-1,-1,-1,-1,-1,-1,-1,-1,-1,-1,-1,-1,-1,-1,-1,